<?xml version="1.0" encoding="UTF-8"?>
<BIF VERSION="0.3"  xmlns="http://www.cs.ubc.ca/labs/lci/fopi/ve/XMLBIFv0_3"
xmlns:xsi="http://www.w3.org/2001/XMLSchema-instance"
xsi:schemaLocation="http://www.cs.ubc.ca/labs/lci/fopi/ve/XMLBIFv0_3 http://www.cs.ubc.ca/labs/lci/fopi/ve/XMLBIFv0_3/XMLBIFv0_3.xsd">
<NETWORK>
<NAME>unielwin</NAME>
<VARIABLE TYPE="nature">
	<NAME>capability(prof0,student0)</NAME>
	<OUTCOME>1</OUTCOME>
	<OUTCOME>2</OUTCOME>
	<OUTCOME>3</OUTCOME>
	<OUTCOME>4</OUTCOME>
	<OUTCOME>5</OUTCOME>
	<OUTCOME>N/A</OUTCOME>
	<PROPERTY> position=(6000.0,4000.0)</PROPERTY>
</VARIABLE>
<VARIABLE TYPE="nature">
	<NAME>diff(course0)</NAME>
	<OUTCOME>1</OUTCOME>
	<OUTCOME>2</OUTCOME>
	<PROPERTY> position=(6200.0,4000.0)</PROPERTY>
</VARIABLE>
<VARIABLE TYPE="nature">
	<NAME>grade(course0,student0)</NAME>
	<OUTCOME>1</OUTCOME>
	<OUTCOME>2</OUTCOME>
	<OUTCOME>3</OUTCOME>
	<OUTCOME>4</OUTCOME>
	<OUTCOME>N/A</OUTCOME>
	<PROPERTY> position=(6400.0,4000.0)</PROPERTY>
</VARIABLE>
<VARIABLE TYPE="nature">
	<NAME>intelligence(student0)</NAME>
	<OUTCOME>1</OUTCOME>
	<OUTCOME>2</OUTCOME>
	<OUTCOME>3</OUTCOME>
	<PROPERTY> position=(6000.0,4200.0)</PROPERTY>
</VARIABLE>
<VARIABLE TYPE="nature">
	<NAME>popularity(prof0)</NAME>
	<OUTCOME>1</OUTCOME>
	<OUTCOME>2</OUTCOME>
	<PROPERTY> position=(6200.0,4200.0)</PROPERTY>
</VARIABLE>
<VARIABLE TYPE="nature">
	<NAME>RA(prof0,student0)</NAME>
	<OUTCOME>F</OUTCOME>
	<OUTCOME>T</OUTCOME>
	<PROPERTY> position=(6400.0,4200.0)</PROPERTY>
</VARIABLE>
<VARIABLE TYPE="nature">
	<NAME>ranking(student0)</NAME>
	<OUTCOME>1</OUTCOME>
	<OUTCOME>2</OUTCOME>
	<OUTCOME>3</OUTCOME>
	<OUTCOME>4</OUTCOME>
	<OUTCOME>5</OUTCOME>
	<PROPERTY> position=(6000.0,4400.0)</PROPERTY>
</VARIABLE>
<VARIABLE TYPE="nature">
	<NAME>rating(course0)</NAME>
	<OUTCOME>1</OUTCOME>
	<OUTCOME>2</OUTCOME>
	<PROPERTY> position=(6200.0,4400.0)</PROPERTY>
</VARIABLE>
<VARIABLE TYPE="nature">
	<NAME>registration(course0,student0)</NAME>
	<OUTCOME>F</OUTCOME>
	<OUTCOME>T</OUTCOME>
	<PROPERTY> position=(6400.0,4400.0)</PROPERTY>
</VARIABLE>
<VARIABLE TYPE="nature">
	<NAME>salary(prof0,student0)</NAME>
	<OUTCOME>high</OUTCOME>
	<OUTCOME>low</OUTCOME>
	<OUTCOME>med</OUTCOME>
	<OUTCOME>N/A</OUTCOME>
	<PROPERTY> position=(6000.0,4600.0)</PROPERTY>
</VARIABLE>
<VARIABLE TYPE="nature">
	<NAME>sat(course0,student0)</NAME>
	<OUTCOME>1</OUTCOME>
	<OUTCOME>2</OUTCOME>
	<OUTCOME>3</OUTCOME>
	<OUTCOME>N/A</OUTCOME>
	<PROPERTY> position=(6200.0,4600.0)</PROPERTY>
</VARIABLE>
<VARIABLE TYPE="nature">
	<NAME>teachingability(prof0)</NAME>
	<OUTCOME>2</OUTCOME>
	<OUTCOME>3</OUTCOME>
	<PROPERTY> position=(6400.0,4600.0)</PROPERTY>
</VARIABLE>
<DEFINITION>
	<FOR>capability(prof0,student0)</FOR>
	<GIVEN>intelligence(student0)</GIVEN>
	<GIVEN>popularity(prof0)</GIVEN>
	<GIVEN>RA(prof0,student0)</GIVEN>
	<GIVEN>teachingability(prof0)</GIVEN>
	<TABLE> 0.003497 0.003497 0.003497 0.003497 0.003497 0.982515 0.166667 0.166667 0.166665 0.166667 0.166667 0.166667 0.166667 0.166667 0.166665 0.166667 0.166667 0.166667 0.166667 0.166667 0.166665 0.166667 0.166667 0.166667 0.006849 0.006849 0.006849 0.006849 0.006849 0.965755 0.002591 0.002591 0.002591 0.002591 0.002591 0.987045 0.166667 0.166667 0.166665 0.166667 0.166667 0.166667 0.021739 0.021739 0.456523 0.239130 0.239130 0.021739 0.004237 0.004237 0.004237 0.004237 0.004237 0.978815 0.166667 0.166667 0.166665 0.166667 0.166667 0.166667 0.305556 0.305556 0.305554 0.027778 0.027778 0.027778 0.166667 0.166667 0.166665 0.166667 0.166667 0.166667 0.009434 0.009434 0.009434 0.009434 0.009434 0.952830 0.003067 0.003067 0.003067 0.003067 0.003067 0.984665 0.305556 0.027778 0.305556 0.027778 0.305554 0.027778 0.144737 0.276316 0.276315 0.013158 0.276316 0.013158 0.004630 0.004630 0.004630 0.004630 0.004630 0.976850 0.166667 0.166667 0.166665 0.166667 0.166667 0.166667 0.062500 0.062500 0.687500 0.062500 0.062500 0.062500 0.166667 0.166667 0.166665 0.166667 0.166667 0.166667 0.011628 0.011628 0.011628 0.011628 0.011628 0.941860 0.003378 0.003378 0.003378 0.003378 0.003378 0.983110 0.305556 0.027778 0.027778 0.583332 0.027778 0.027778 0.239130 0.239130 0.021739 0.456523 0.021739 0.021739</TABLE>
</DEFINITION>
<DEFINITION>
	<FOR>diff(course0)</FOR>
	<GIVEN>grade(course0,student0)</GIVEN>
	<GIVEN>ranking(student0)</GIVEN>
	<GIVEN>sat(course0,student0)</GIVEN>
	<TABLE> 0.683673 0.316327 0.500000 0.500000 0.500000 0.500000 0.500000 0.500000 0.897059 0.102941 0.950000 0.050000 0.500000 0.500000 0.500000 0.500000 0.928571 0.071429 0.500000 0.500000 0.500000 0.500000 0.500000 0.500000 0.500000 0.500000 0.500000 0.500000 0.500000 0.500000 0.500000 0.500000 0.500000 0.500000 0.500000 0.500000 0.500000 0.500000 0.500000 0.500000 0.050000 0.950000 0.031250 0.968750 0.500000 0.500000 0.500000 0.500000 0.071429 0.928571 0.342105 0.657895 0.500000 0.500000 0.500000 0.500000 0.184211 0.815789 0.500000 0.500000 0.875000 0.125000 0.500000 0.500000 0.875000 0.125000 0.500000 0.500000 0.875000 0.125000 0.500000 0.500000 0.500000 0.500000 0.500000 0.500000 0.500000 0.500000 0.500000 0.500000 0.500000 0.500000 0.500000 0.500000 0.500000 0.500000 0.500000 0.500000 0.500000 0.500000 0.500000 0.500000 0.500000 0.500000 0.500000 0.500000 0.500000 0.500000 0.071429 0.928571 0.650000 0.350000 0.500000 0.500000 0.500000 0.500000 0.342105 0.657895 0.500000 0.500000 0.500000 0.500000 0.500000 0.500000 0.500000 0.500000 0.125000 0.875000 0.500000 0.500000 0.500000 0.500000 0.500000 0.500000 0.500000 0.500000 0.500000 0.500000 0.500000 0.500000 0.500000 0.500000 0.500000 0.500000 0.500000 0.500000 0.500000 0.500000 0.500000 0.500000 0.500000 0.500000 0.500000 0.500000 0.500000 0.500000 0.500000 0.500000 0.125000 0.875000 0.500000 0.500000 0.500000 0.500000 0.500000 0.500000 0.500000 0.500000 0.500000 0.500000 0.500000 0.500000 0.500000 0.500000 0.500000 0.500000 0.517751 0.482249 0.500000 0.500000 0.500000 0.500000 0.500000 0.500000 0.431429 0.568571 0.500000 0.500000 0.500000 0.500000 0.500000 0.500000 0.519108 0.480892 0.500000 0.500000 0.500000 0.500000 0.500000 0.500000 0.508427 0.491573 0.500000 0.500000 0.500000 0.500000 0.500000 0.500000 0.507895 0.492105</TABLE>
</DEFINITION>
<DEFINITION>
	<FOR>grade(course0,student0)</FOR>
	<GIVEN>intelligence(student0)</GIVEN>
	<GIVEN>ranking(student0)</GIVEN>
	<GIVEN>registration(course0,student0)</GIVEN>
	<TABLE> 0.200000 0.200000 0.200000 0.200000 0.200000 0.200000 0.200000 0.200000 0.200000 0.200000 0.200000 0.200000 0.200000 0.200000 0.200000 0.200000 0.200000 0.200000 0.200000 0.200000 0.200000 0.200000 0.200000 0.200000 0.200000 0.200000 0.200000 0.200000 0.200000 0.200000 0.003215 0.003215 0.003215 0.003215 0.987140 0.016949 0.118644 0.728814 0.118644 0.016949 0.002611 0.002611 0.002611 0.002611 0.989556 0.009346 0.009346 0.289720 0.682242 0.009346 0.200000 0.200000 0.200000 0.200000 0.200000 0.200000 0.200000 0.200000 0.200000 0.200000 0.004082 0.004082 0.004082 0.004082 0.983672 0.476922 0.476923 0.015385 0.015385 0.015385 0.003155 0.003155 0.003155 0.003155 0.987380 0.115044 0.592920 0.274336 0.008850 0.008850 0.018868 0.018868 0.018868 0.018868 0.924528 0.058824 0.411763 0.411765 0.058824 0.058824 0.200000 0.200000 0.200000 0.200000 0.200000 0.200000 0.200000 0.200000 0.200000 0.200000 0.002933 0.002933 0.002933 0.002933 0.988268 0.651008 0.328859 0.006711 0.006711 0.006711 0.008850 0.008850 0.008850 0.008850 0.964600 0.714286 0.246753 0.012987 0.012987 0.012987 0.200000 0.200000 0.200000 0.200000 0.200000 0.200000 0.200000 0.200000 0.200000 0.200000 0.200000 0.200000 0.200000 0.200000 0.200000 0.200000 0.200000 0.200000 0.200000 0.200000 0.200000 0.200000 0.200000 0.200000 0.200000 0.200000 0.200000 0.200000 0.200000 0.200000</TABLE>
</DEFINITION>
<DEFINITION>
	<FOR>intelligence(student0)</FOR>
	<GIVEN>RA(prof0,student0)</GIVEN>
	<TABLE> 0.393999 0.320216 0.285785 0.162055 0.517787 0.320158</TABLE>
</DEFINITION>
<DEFINITION>
	<FOR>popularity(prof0)</FOR>
	<GIVEN>RA(prof0,student0)</GIVEN>
	<GIVEN>teachingability(prof0)</GIVEN>
	<TABLE> 0.691939 0.308061 0.001008 0.998992 0.401961 0.598039 0.006579 0.993421</TABLE>
</DEFINITION>
<DEFINITION>
	<FOR>RA(prof0,student0)</FOR>
	<GIVEN>teachingability(prof0)</GIVEN>
	<TABLE> 0.911559 0.088441 0.867776 0.132224</TABLE>
</DEFINITION>
<DEFINITION>
	<FOR>ranking(student0)</FOR>
	<GIVEN>capability(prof0,student0)</GIVEN>
	<GIVEN>intelligence(student0)</GIVEN>
	<GIVEN>popularity(prof0)</GIVEN>
	<GIVEN>teachingability(prof0)</GIVEN>
	<TABLE> 0.200000 0.200000 0.200000 0.200000 0.200000 0.200000 0.200000 0.200000 0.200000 0.200000 0.200000 0.200000 0.200000 0.200000 0.200000 0.200000 0.200000 0.200000 0.200000 0.200000 0.066667 0.733332 0.066667 0.066667 0.066667 0.200000 0.200000 0.200000 0.200000 0.200000 0.066667 0.066667 0.733332 0.066667 0.066667 0.066667 0.066667 0.733332 0.066667 0.066667 0.200000 0.200000 0.200000 0.200000 0.200000 0.200000 0.200000 0.200000 0.200000 0.200000 0.066667 0.733332 0.066667 0.066667 0.066667 0.733332 0.066667 0.066667 0.066667 0.066667 0.200000 0.200000 0.200000 0.200000 0.200000 0.200000 0.200000 0.200000 0.200000 0.200000 0.200000 0.200000 0.200000 0.200000 0.200000 0.200000 0.200000 0.200000 0.200000 0.200000 0.066667 0.733332 0.066667 0.066667 0.066667 0.200000 0.200000 0.200000 0.200000 0.200000 0.200000 0.200000 0.200000 0.200000 0.200000 0.040000 0.440000 0.440000 0.040000 0.040000 0.200000 0.200000 0.200000 0.200000 0.200000 0.200000 0.200000 0.200000 0.200000 0.200000 0.200000 0.200000 0.200000 0.200000 0.200000 0.733332 0.066667 0.066667 0.066667 0.066667 0.200000 0.200000 0.200000 0.200000 0.200000 0.200000 0.200000 0.200000 0.200000 0.200000 0.200000 0.200000 0.200000 0.200000 0.200000 0.040000 0.040000 0.040000 0.840000 0.040000 0.066667 0.733332 0.066667 0.066667 0.066667 0.200000 0.200000 0.200000 0.200000 0.200000 0.066667 0.066667 0.066667 0.733332 0.066667 0.040000 0.040000 0.840000 0.040000 0.040000 0.733332 0.066667 0.066667 0.066667 0.066667 0.200000 0.200000 0.200000 0.200000 0.200000 0.200000 0.200000 0.200000 0.200000 0.200000 0.200000 0.200000 0.200000 0.200000 0.200000 0.200000 0.200000 0.200000 0.200000 0.200000 0.200000 0.200000 0.200000 0.200000 0.200000 0.200000 0.200000 0.200000 0.200000 0.200000 0.066667 0.066667 0.066667 0.733332 0.066667 0.200000 0.200000 0.200000 0.200000 0.200000 0.200000 0.200000 0.200000 0.200000 0.200000 0.200000 0.200000 0.200000 0.200000 0.200000 0.200000 0.200000 0.200000 0.200000 0.200000 0.200000 0.200000 0.200000 0.200000 0.200000 0.200000 0.200000 0.200000 0.200000 0.200000 0.840000 0.040000 0.040000 0.040000 0.040000 0.440000 0.440000 0.040000 0.040000 0.040000 0.200000 0.200000 0.200000 0.200000 0.200000 0.200000 0.200000 0.200000 0.200000 0.200000 0.200000 0.200000 0.200000 0.200000 0.200000 0.066667 0.066667 0.066667 0.733332 0.066667 0.200000 0.200000 0.200000 0.200000 0.200000 0.200000 0.200000 0.200000 0.200000 0.200000 0.066667 0.066667 0.733332 0.066667 0.066667 0.040000 0.440000 0.440000 0.040000 0.040000 0.200000 0.200000 0.200000 0.200000 0.200000 0.200000 0.200000 0.200000 0.200000 0.200000 0.200000 0.200000 0.200000 0.200000 0.200000 0.200000 0.200000 0.200000 0.200000 0.200000 0.003509 0.003509 0.003509 0.424561 0.564912 0.200000 0.200000 0.200000 0.200000 0.200000 0.006897 0.006897 0.006897 0.420690 0.558619 0.002597 0.002597 0.002597 0.366234 0.625975 0.004255 0.302128 0.600000 0.089362 0.004255 0.200000 0.200000 0.200000 0.200000 0.200000 0.009524 0.485714 0.485714 0.009524 0.009524 0.003077 0.403077 0.495384 0.095385 0.003077 0.702326 0.283721 0.004651 0.004651 0.004651 0.200000 0.200000 0.200000 0.200000 0.200000 0.717646 0.247059 0.011765 0.011765 0.011765 0.715254 0.274576 0.003390 0.003390 0.003390</TABLE>
</DEFINITION>
<DEFINITION>
	<FOR>rating(course0)</FOR>
	<GIVEN>diff(course0)</GIVEN>
	<GIVEN>sat(course0,student0)</GIVEN>
	<TABLE> 0.243421 0.756579 0.279412 0.720588 0.279412 0.720588 0.182558 0.817442 0.377551 0.622449 0.318966 0.681034 0.693548 0.306452 0.393349 0.606651</TABLE>
</DEFINITION>
<DEFINITION>
	<FOR>registration(course0,student0)</FOR>
	<GIVEN>intelligence(student0)</GIVEN>
	<TABLE> 0.813539 0.186461 0.768542 0.231458 0.672205 0.327795</TABLE>
</DEFINITION>
<DEFINITION>
	<FOR>salary(prof0,student0)</FOR>
	<GIVEN>capability(prof0,student0)</GIVEN>
	<GIVEN>RA(prof0,student0)</GIVEN>
	<GIVEN>ranking(student0)</GIVEN>
	<GIVEN>teachingability(prof0)</GIVEN>
	<TABLE> 0.250000 0.250000 0.250000 0.250000 0.250000 0.250000 0.250000 0.250000 0.250000 0.250000 0.250000 0.250000 0.250000 0.250000 0.250000 0.250000 0.250000 0.250000 0.250000 0.250000 0.250000 0.250000 0.250000 0.250000 0.250000 0.250000 0.250000 0.250000 0.250000 0.250000 0.250000 0.250000 0.250000 0.250000 0.250000 0.250000 0.250000 0.250000 0.250000 0.250000 0.250000 0.250000 0.250000 0.250000 0.071429 0.785713 0.071429 0.071429 0.041667 0.041667 0.874999 0.041667 0.250000 0.250000 0.250000 0.250000 0.071429 0.785713 0.071429 0.071429 0.071429 0.071429 0.785713 0.071429 0.250000 0.250000 0.250000 0.250000 0.250000 0.250000 0.250000 0.250000 0.250000 0.250000 0.250000 0.250000 0.250000 0.250000 0.250000 0.250000 0.250000 0.250000 0.250000 0.250000 0.250000 0.250000 0.250000 0.250000 0.250000 0.250000 0.250000 0.250000 0.250000 0.250000 0.250000 0.250000 0.250000 0.250000 0.250000 0.250000 0.250000 0.250000 0.250000 0.250000 0.250000 0.250000 0.250000 0.250000 0.250000 0.250000 0.250000 0.250000 0.250000 0.250000 0.250000 0.250000 0.250000 0.250000 0.250000 0.250000 0.250000 0.250000 0.250000 0.250000 0.071429 0.785713 0.071429 0.071429 0.071429 0.071429 0.785713 0.071429 0.071429 0.785713 0.071429 0.071429 0.250000 0.250000 0.250000 0.250000 0.071429 0.071429 0.785713 0.071429 0.250000 0.250000 0.250000 0.250000 0.250000 0.250000 0.250000 0.250000 0.250000 0.250000 0.250000 0.250000 0.250000 0.250000 0.250000 0.250000 0.250000 0.250000 0.250000 0.250000 0.250000 0.250000 0.250000 0.250000 0.250000 0.250000 0.250000 0.250000 0.250000 0.250000 0.250000 0.250000 0.250000 0.250000 0.250000 0.250000 0.250000 0.250000 0.250000 0.250000 0.250000 0.250000 0.250000 0.250000 0.250000 0.250000 0.250000 0.250000 0.250000 0.250000 0.250000 0.250000 0.250000 0.250000 0.250000 0.250000 0.785713 0.071429 0.071429 0.071429 0.250000 0.250000 0.250000 0.250000 0.071429 0.785713 0.071429 0.071429 0.250000 0.250000 0.250000 0.250000 0.250000 0.250000 0.250000 0.250000 0.458333 0.041667 0.458333 0.041667 0.071429 0.071429 0.785713 0.071429 0.041667 0.041667 0.874999 0.041667 0.250000 0.250000 0.250000 0.250000 0.250000 0.250000 0.250000 0.250000 0.250000 0.250000 0.250000 0.250000 0.250000 0.250000 0.250000 0.250000 0.250000 0.250000 0.250000 0.250000 0.250000 0.250000 0.250000 0.250000 0.250000 0.250000 0.250000 0.250000 0.250000 0.250000 0.250000 0.250000 0.250000 0.250000 0.250000 0.250000 0.250000 0.250000 0.250000 0.250000 0.250000 0.250000 0.250000 0.250000 0.250000 0.250000 0.250000 0.250000 0.874999 0.041667 0.041667 0.041667 0.785713 0.071429 0.071429 0.071429 0.250000 0.250000 0.250000 0.250000 0.785713 0.071429 0.071429 0.071429 0.250000 0.250000 0.250000 0.250000 0.250000 0.250000 0.250000 0.250000 0.250000 0.250000 0.250000 0.250000 0.785713 0.071429 0.071429 0.071429 0.250000 0.250000 0.250000 0.250000 0.250000 0.250000 0.250000 0.250000 0.250000 0.250000 0.250000 0.250000 0.250000 0.250000 0.250000 0.250000 0.250000 0.250000 0.250000 0.250000 0.250000 0.250000 0.250000 0.250000 0.250000 0.250000 0.250000 0.250000 0.250000 0.250000 0.250000 0.250000 0.250000 0.250000 0.250000 0.250000 0.250000 0.250000 0.250000 0.250000 0.250000 0.250000 0.250000 0.250000 0.250000 0.250000 0.250000 0.250000 0.250000 0.250000 0.250000 0.250000 0.250000 0.250000 0.250000 0.250000 0.250000 0.250000 0.250000 0.250000 0.785713 0.071429 0.071429 0.071429 0.785713 0.071429 0.071429 0.071429 0.785713 0.071429 0.071429 0.071429 0.250000 0.250000 0.250000 0.250000 0.785713 0.071429 0.071429 0.071429 0.250000 0.250000 0.250000 0.250000 0.250000 0.250000 0.250000 0.250000 0.004673 0.004673 0.004673 0.985981 0.004673 0.004673 0.004673 0.985981 0.004902 0.004902 0.004902 0.985294 0.004673 0.004673 0.004673 0.985981 0.005155 0.005155 0.005155 0.984535 0.006098 0.006098 0.006098 0.981706 0.004902 0.004902 0.004902 0.985294 0.005747 0.005747 0.005747 0.982759 0.004098 0.004098 0.004098 0.987706 0.004098 0.004098 0.004098 0.987706 0.250000 0.250000 0.250000 0.250000 0.250000 0.250000 0.250000 0.250000 0.250000 0.250000 0.250000 0.250000 0.250000 0.250000 0.250000 0.250000 0.250000 0.250000 0.250000 0.250000 0.250000 0.250000 0.250000 0.250000 0.250000 0.250000 0.250000 0.250000 0.250000 0.250000 0.250000 0.250000 0.250000 0.250000 0.250000 0.250000 0.250000 0.250000 0.250000 0.250000</TABLE>
</DEFINITION>
<DEFINITION>
	<FOR>sat(course0,student0)</FOR>
	<GIVEN>grade(course0,student0)</GIVEN>
	<GIVEN>intelligence(student0)</GIVEN>
	<GIVEN>ranking(student0)</GIVEN>
	<TABLE> 0.250000 0.250000 0.250000 0.250000 0.250000 0.250000 0.250000 0.250000 0.250000 0.250000 0.250000 0.250000 0.250000 0.250000 0.250000 0.250000 0.250000 0.250000 0.250000 0.250000 0.250000 0.250000 0.250000 0.250000 0.911764 0.029412 0.029412 0.029412 0.812500 0.062500 0.062500 0.062500 0.250000 0.250000 0.250000 0.250000 0.250000 0.250000 0.250000 0.250000 0.970000 0.010000 0.010000 0.010000 0.637932 0.327586 0.017241 0.017241 0.250000 0.250000 0.250000 0.250000 0.250000 0.250000 0.250000 0.250000 0.250000 0.250000 0.250000 0.250000 0.250000 0.250000 0.250000 0.250000 0.250000 0.250000 0.250000 0.250000 0.250000 0.250000 0.250000 0.250000 0.100000 0.100000 0.700000 0.100000 0.250000 0.250000 0.250000 0.250000 0.250000 0.250000 0.250000 0.250000 0.382353 0.558823 0.029412 0.029412 0.528571 0.357143 0.100000 0.014286 0.700000 0.100000 0.100000 0.100000 0.250000 0.250000 0.250000 0.250000 0.365385 0.596153 0.019231 0.019231 0.045455 0.863635 0.045455 0.045455 0.250000 0.250000 0.250000 0.250000 0.250000 0.250000 0.250000 0.250000 0.250000 0.250000 0.250000 0.250000 0.250000 0.250000 0.250000 0.250000 0.250000 0.250000 0.250000 0.250000 0.250000 0.250000 0.250000 0.250000 0.021739 0.673913 0.282609 0.021739 0.029412 0.735294 0.205882 0.029412 0.250000 0.250000 0.250000 0.250000 0.250000 0.250000 0.250000 0.250000 0.029412 0.382353 0.558823 0.029412 0.100000 0.700000 0.100000 0.100000 0.250000 0.250000 0.250000 0.250000 0.250000 0.250000 0.250000 0.250000 0.250000 0.250000 0.250000 0.250000 0.250000 0.250000 0.250000 0.250000 0.250000 0.250000 0.250000 0.250000 0.250000 0.250000 0.250000 0.250000 0.250000 0.250000 0.250000 0.250000 0.250000 0.250000 0.250000 0.250000 0.250000 0.250000 0.250000 0.250000 0.100000 0.100000 0.700000 0.100000 0.013158 0.013158 0.960526 0.013158 0.250000 0.250000 0.250000 0.250000 0.250000 0.250000 0.250000 0.250000 0.250000 0.250000 0.250000 0.250000 0.250000 0.250000 0.250000 0.250000 0.250000 0.250000 0.250000 0.250000 0.250000 0.250000 0.250000 0.250000 0.250000 0.250000 0.250000 0.250000 0.250000 0.250000 0.250000 0.250000 0.250000 0.250000 0.250000 0.250000 0.250000 0.250000 0.250000 0.250000 0.250000 0.250000 0.250000 0.250000 0.250000 0.250000 0.250000 0.250000 0.250000 0.250000 0.250000 0.250000 0.003226 0.003226 0.003226 0.990322 0.002618 0.002618 0.002618 0.992146 0.250000 0.250000 0.250000 0.250000 0.004098 0.004098 0.004098 0.987706 0.003165 0.003165 0.003165 0.990505 0.019231 0.019231 0.019231 0.942307 0.250000 0.250000 0.250000 0.250000 0.002941 0.002941 0.002941 0.991177 0.008929 0.008929 0.008929 0.973213 0.250000 0.250000 0.250000 0.250000 0.250000 0.250000 0.250000 0.250000 0.250000 0.250000 0.250000 0.250000</TABLE>
</DEFINITION>
<DEFINITION>
	<FOR>teachingability(prof0)</FOR>
	<TABLE> 0.500000 0.500000</TABLE>
</DEFINITION>
</NETWORK>
</BIF>
