<?xml version="1.0" encoding="UTF-8"?>
<BIF VERSION="0.3"  xmlns="http://www.cs.ubc.ca/labs/lci/fopi/ve/XMLBIFv0_3"
xmlns:xsi="http://www.w3.org/2001/XMLSchema-instance"
xsi:schemaLocation="http://www.cs.ubc.ca/labs/lci/fopi/ve/XMLBIFv0_3 http://www.cs.ubc.ca/labs/lci/fopi/ve/XMLBIFv0_3/XMLBIFv0_3.xsd">
<NETWORK>
<NAME>unielwin</NAME>
<VARIABLE TYPE="nature">
	<NAME>capability(prof0,student0)</NAME>
	<OUTCOME>1</OUTCOME>
	<OUTCOME>2</OUTCOME>
	<OUTCOME>3</OUTCOME>
	<OUTCOME>4</OUTCOME>
	<OUTCOME>5</OUTCOME>
	<PROPERTY> position=(6000.0,4000.0)</PROPERTY>
</VARIABLE>
<VARIABLE TYPE="nature">
	<NAME>diff(course0)</NAME>
	<OUTCOME>1</OUTCOME>
	<OUTCOME>2</OUTCOME>
	<PROPERTY> position=(6200.0,4000.0)</PROPERTY>
</VARIABLE>
<VARIABLE TYPE="nature">
	<NAME>grade(course0,student0)</NAME>
	<OUTCOME>1</OUTCOME>
	<OUTCOME>2</OUTCOME>
	<OUTCOME>3</OUTCOME>
	<OUTCOME>4</OUTCOME>
	<PROPERTY> position=(6400.0,4000.0)</PROPERTY>
</VARIABLE>
<VARIABLE TYPE="nature">
	<NAME>intelligence(student0)</NAME>
	<OUTCOME>1</OUTCOME>
	<OUTCOME>2</OUTCOME>
	<OUTCOME>3</OUTCOME>
	<PROPERTY> position=(6000.0,4200.0)</PROPERTY>
</VARIABLE>
<VARIABLE TYPE="nature">
	<NAME>popularity(prof0)</NAME>
	<OUTCOME>1</OUTCOME>
	<OUTCOME>2</OUTCOME>
	<PROPERTY> position=(6200.0,4200.0)</PROPERTY>
</VARIABLE>
<VARIABLE TYPE="nature">
	<NAME>RA(prof0,student0)</NAME>
	<OUTCOME>T</OUTCOME>
	<PROPERTY> position=(6400.0,4200.0)</PROPERTY>
</VARIABLE>
<VARIABLE TYPE="nature">
	<NAME>ranking(student0)</NAME>
	<OUTCOME>1</OUTCOME>
	<OUTCOME>2</OUTCOME>
	<OUTCOME>3</OUTCOME>
	<OUTCOME>4</OUTCOME>
	<PROPERTY> position=(6000.0,4400.0)</PROPERTY>
</VARIABLE>
<VARIABLE TYPE="nature">
	<NAME>rating(course0)</NAME>
	<OUTCOME>1</OUTCOME>
	<OUTCOME>2</OUTCOME>
	<PROPERTY> position=(6200.0,4400.0)</PROPERTY>
</VARIABLE>
<VARIABLE TYPE="nature">
	<NAME>registration(course0,student0)</NAME>
	<OUTCOME>T</OUTCOME>
	<PROPERTY> position=(6400.0,4400.0)</PROPERTY>
</VARIABLE>
<VARIABLE TYPE="nature">
	<NAME>salary(prof0,student0)</NAME>
	<OUTCOME>high</OUTCOME>
	<OUTCOME>low</OUTCOME>
	<OUTCOME>med</OUTCOME>
	<PROPERTY> position=(6000.0,4600.0)</PROPERTY>
</VARIABLE>
<VARIABLE TYPE="nature">
	<NAME>sat(course0,student0)</NAME>
	<OUTCOME>1</OUTCOME>
	<OUTCOME>2</OUTCOME>
	<OUTCOME>3</OUTCOME>
	<PROPERTY> position=(6200.0,4600.0)</PROPERTY>
</VARIABLE>
<VARIABLE TYPE="nature">
	<NAME>teachingability(prof0)</NAME>
	<OUTCOME>2</OUTCOME>
	<OUTCOME>3</OUTCOME>
	<PROPERTY> position=(6400.0,4600.0)</PROPERTY>
</VARIABLE>
<DEFINITION>
	<FOR>capability(prof0,student0)</FOR>
	<GIVEN>intelligence(student0)</GIVEN>
	<GIVEN>RA(prof0,student0)</GIVEN>
	<TABLE> 0.083333 0.083333 0.333334 0.250000 0.250000 0.228571 0.228571 0.314287 0.028571 0.200000 0.250000 0.142857 0.142857 0.428572 0.035714</TABLE>
</DEFINITION>
<DEFINITION>
	<FOR>diff(course0)</FOR>
	<GIVEN>grade(course0,student0)</GIVEN>
	<GIVEN>registration(course0,student0)</GIVEN>
	<TABLE> 0.869565 0.130435 0.310345 0.689655 0.461538 0.538462 0.333333 0.666667</TABLE>
</DEFINITION>
<DEFINITION>
	<FOR>grade(course0,student0)</FOR>
	<GIVEN>ranking(student0)</GIVEN>
	<GIVEN>registration(course0,student0)</GIVEN>
	<TABLE> 0.523810 0.380952 0.047619 0.047619 0.500000 0.400000 0.050000 0.050000 0.136364 0.545454 0.272727 0.045455 0.076923 0.230769 0.538462 0.153846</TABLE>
</DEFINITION>
<DEFINITION>
	<FOR>intelligence(student0)</FOR>
	<TABLE> 0.126984 0.492063 0.380953</TABLE>
</DEFINITION>
<DEFINITION>
	<FOR>popularity(prof0)</FOR>
	<GIVEN>teachingability(prof0)</GIVEN>
	<TABLE> 0.375000 0.625000 0.025000 0.975000</TABLE>
</DEFINITION>
<DEFINITION>
	<FOR>RA(prof0,student0)</FOR>
	<TABLE> 1.000000</TABLE>
</DEFINITION>
<DEFINITION>
	<FOR>ranking(student0)</FOR>
	<GIVEN>intelligence(student0)</GIVEN>
	<GIVEN>popularity(prof0)</GIVEN>
	<GIVEN>RA(prof0,student0)</GIVEN>
	<TABLE> 0.250000 0.250000 0.250000 0.250000 0.090909 0.090909 0.090909 0.727273 0.111111 0.666667 0.111111 0.111111 0.034483 0.206897 0.655172 0.103448 0.571429 0.142857 0.142857 0.142857 0.624999 0.291667 0.041667 0.041667</TABLE>
</DEFINITION>
<DEFINITION>
	<FOR>rating(course0)</FOR>
	<GIVEN>capability(prof0,student0)</GIVEN>
	<GIVEN>RA(prof0,student0)</GIVEN>
	<GIVEN>registration(course0,student0)</GIVEN>
	<TABLE> 0.133333 0.866667 0.416667 0.583333 0.555556 0.444444 0.600000 0.400000 0.400000 0.600000</TABLE>
</DEFINITION>
<DEFINITION>
	<FOR>registration(course0,student0)</FOR>
	<TABLE> 1.000000</TABLE>
</DEFINITION>
<DEFINITION>
	<FOR>salary(prof0,student0)</FOR>
	<GIVEN>capability(prof0,student0)</GIVEN>
	<GIVEN>popularity(prof0)</GIVEN>
	<GIVEN>RA(prof0,student0)</GIVEN>
	<GIVEN>rating(course0)</GIVEN>
	<GIVEN>registration(course0,student0)</GIVEN>
	<TABLE> 0.333334 0.333333 0.333333 0.200000 0.200000 0.600000 0.250000 0.250000 0.500000 0.076923 0.461539 0.461538 0.333334 0.333333 0.333333 0.250000 0.250000 0.500000 0.142857 0.428572 0.428571 0.125000 0.750000 0.125000 0.333333 0.500000 0.166667 0.600000 0.200000 0.200000 0.111111 0.111111 0.777778 0.500000 0.125000 0.375000 0.333334 0.333333 0.333333 0.333334 0.333333 0.333333 0.818182 0.090909 0.090909 0.750000 0.125000 0.125000 0.333334 0.333333 0.333333 0.333334 0.333333 0.333333 0.666666 0.166667 0.166667 0.750000 0.125000 0.125000</TABLE>
</DEFINITION>
<DEFINITION>
	<FOR>sat(course0,student0)</FOR>
	<GIVEN>grade(course0,student0)</GIVEN>
	<GIVEN>intelligence(student0)</GIVEN>
	<GIVEN>registration(course0,student0)</GIVEN>
	<TABLE> 0.333334 0.333333 0.333333 0.800000 0.100000 0.100000 0.705882 0.235294 0.058824 0.250000 0.250000 0.500000 0.500000 0.400000 0.100000 0.250000 0.666667 0.083333 0.125000 0.500000 0.375000 0.111111 0.444445 0.444444 0.333334 0.333333 0.333333 0.250000 0.250000 0.500000 0.333334 0.333333 0.333333 0.333334 0.333333 0.333333</TABLE>
</DEFINITION>
<DEFINITION>
	<FOR>teachingability(prof0)</FOR>
	<TABLE> 0.370968 0.629032</TABLE>
</DEFINITION>
</NETWORK>
</BIF>
