<?xml version="1.0" encoding="UTF-8"?>
<BIF VERSION="0.3"  xmlns="http://www.cs.ubc.ca/labs/lci/fopi/ve/XMLBIFv0_3"
xmlns:xsi="http://www.w3.org/2001/XMLSchema-instance"
xsi:schemaLocation="http://www.cs.ubc.ca/labs/lci/fopi/ve/XMLBIFv0_3 http://www.cs.ubc.ca/labs/lci/fopi/ve/XMLBIFv0_3/XMLBIFv0_3.xsd">
<NETWORK>
<NAME>Hepatitis_std</NAME>
<VARIABLE TYPE="nature">
	<NAME>activity(Bio0)</NAME>
	<OUTCOME>0</OUTCOME>
	<OUTCOME>1</OUTCOME>
	<OUTCOME>2</OUTCOME>
	<OUTCOME>3</OUTCOME>
	<OUTCOME>4</OUTCOME>
	<PROPERTY> position=(6000.0,4000.0)</PROPERTY>
</VARIABLE>
<VARIABLE TYPE="nature">
	<NAME>age(dispat0)</NAME>
	<OUTCOME>0</OUTCOME>
	<OUTCOME>1</OUTCOME>
	<OUTCOME>2</OUTCOME>
	<OUTCOME>3</OUTCOME>
	<OUTCOME>4</OUTCOME>
	<OUTCOME>5</OUTCOME>
	<OUTCOME>6</OUTCOME>
	<PROPERTY> position=(6200.0,4000.0)</PROPERTY>
</VARIABLE>
<VARIABLE TYPE="nature">
	<NAME>alb(indis0)</NAME>
	<OUTCOME>0</OUTCOME>
	<OUTCOME>1</OUTCOME>
	<PROPERTY> position=(6400.0,4000.0)</PROPERTY>
</VARIABLE>
<VARIABLE TYPE="nature">
	<NAME>che(indis0)</NAME>
	<OUTCOME>0</OUTCOME>
	<OUTCOME>1</OUTCOME>
	<OUTCOME>3</OUTCOME>
	<OUTCOME>4</OUTCOME>
	<OUTCOME>5</OUTCOME>
	<OUTCOME>6</OUTCOME>
	<OUTCOME>7</OUTCOME>
	<OUTCOME>8</OUTCOME>
	<OUTCOME>9</OUTCOME>
	<PROPERTY> position=(6000.0,4200.0)</PROPERTY>
</VARIABLE>
<VARIABLE TYPE="nature">
	<NAME>dbil(indis0)</NAME>
	<OUTCOME>0</OUTCOME>
	<OUTCOME>1</OUTCOME>
	<PROPERTY> position=(6200.0,4200.0)</PROPERTY>
</VARIABLE>
<VARIABLE TYPE="nature">
	<NAME>dur(inf0)</NAME>
	<OUTCOME>0</OUTCOME>
	<OUTCOME>1</OUTCOME>
	<OUTCOME>2</OUTCOME>
	<OUTCOME>3</OUTCOME>
	<OUTCOME>4</OUTCOME>
	<PROPERTY> position=(6400.0,4200.0)</PROPERTY>
</VARIABLE>
<VARIABLE TYPE="nature">
	<NAME>fibros(Bio0)</NAME>
	<OUTCOME>0</OUTCOME>
	<OUTCOME>1</OUTCOME>
	<OUTCOME>2</OUTCOME>
	<OUTCOME>3</OUTCOME>
	<OUTCOME>4</OUTCOME>
	<PROPERTY> position=(6000.0,4400.0)</PROPERTY>
</VARIABLE>
<VARIABLE TYPE="nature">
	<NAME>got(indis0)</NAME>
	<OUTCOME>0</OUTCOME>
	<OUTCOME>1</OUTCOME>
	<OUTCOME>2</OUTCOME>
	<OUTCOME>3</OUTCOME>
	<OUTCOME>4</OUTCOME>
	<PROPERTY> position=(6200.0,4400.0)</PROPERTY>
</VARIABLE>
<VARIABLE TYPE="nature">
	<NAME>gpt(indis0)</NAME>
	<OUTCOME>0</OUTCOME>
	<OUTCOME>1</OUTCOME>
	<OUTCOME>2</OUTCOME>
	<OUTCOME>3</OUTCOME>
	<PROPERTY> position=(6400.0,4400.0)</PROPERTY>
</VARIABLE>
<VARIABLE TYPE="nature">
	<NAME>rel11(Bio0,dispat0)</NAME>
	<OUTCOME>T</OUTCOME>
	<PROPERTY> position=(6000.0,4600.0)</PROPERTY>
</VARIABLE>
<VARIABLE TYPE="nature">
	<NAME>rel12(indis0,dispat0)</NAME>
	<OUTCOME>T</OUTCOME>
	<PROPERTY> position=(6200.0,4600.0)</PROPERTY>
</VARIABLE>
<VARIABLE TYPE="nature">
	<NAME>rel13(inf0,dispat0)</NAME>
	<OUTCOME>T</OUTCOME>
	<PROPERTY> position=(6400.0,4600.0)</PROPERTY>
</VARIABLE>
<VARIABLE TYPE="nature">
	<NAME>sex(dispat0)</NAME>
	<OUTCOME>0</OUTCOME>
	<OUTCOME>1</OUTCOME>
	<PROPERTY> position=(6000.0,4800.0)</PROPERTY>
</VARIABLE>
<VARIABLE TYPE="nature">
	<NAME>tbil(indis0)</NAME>
	<OUTCOME>0</OUTCOME>
	<OUTCOME>1</OUTCOME>
	<PROPERTY> position=(6200.0,4800.0)</PROPERTY>
</VARIABLE>
<VARIABLE TYPE="nature">
	<NAME>tcho(indis0)</NAME>
	<OUTCOME>0</OUTCOME>
	<OUTCOME>1</OUTCOME>
	<OUTCOME>2</OUTCOME>
	<OUTCOME>3</OUTCOME>
	<PROPERTY> position=(6400.0,4800.0)</PROPERTY>
</VARIABLE>
<VARIABLE TYPE="nature">
	<NAME>tp(indis0)</NAME>
	<OUTCOME>0</OUTCOME>
	<OUTCOME>1</OUTCOME>
	<OUTCOME>2</OUTCOME>
	<OUTCOME>3</OUTCOME>
	<PROPERTY> position=(6000.0,5000.0)</PROPERTY>
</VARIABLE>
<VARIABLE TYPE="nature">
	<NAME>ttt(indis0)</NAME>
	<OUTCOME>0</OUTCOME>
	<OUTCOME>1</OUTCOME>
	<OUTCOME>2</OUTCOME>
	<OUTCOME>3</OUTCOME>
	<OUTCOME>4</OUTCOME>
	<OUTCOME>5</OUTCOME>
	<PROPERTY> position=(6200.0,5000.0)</PROPERTY>
</VARIABLE>
<VARIABLE TYPE="nature">
	<NAME>Type(dispat0)</NAME>
	<OUTCOME>1</OUTCOME>
	<PROPERTY> position=(6400.0,5000.0)</PROPERTY>
</VARIABLE>
<VARIABLE TYPE="nature">
	<NAME>ztt(indis0)</NAME>
	<OUTCOME>0</OUTCOME>
	<OUTCOME>1</OUTCOME>
	<OUTCOME>2</OUTCOME>
	<OUTCOME>3</OUTCOME>
	<OUTCOME>4</OUTCOME>
	<OUTCOME>5</OUTCOME>
	<PROPERTY> position=(6000.0,5200.0)</PROPERTY>
</VARIABLE>
<DEFINITION>
	<FOR>activity(Bio0)</FOR>
	<GIVEN>rel11(Bio0,dispat0)</GIVEN>
	<GIVEN>rel12(indis0,dispat0)</GIVEN>
	<GIVEN>tbil(indis0)</GIVEN>
	<GIVEN>tcho(indis0)</GIVEN>
	<GIVEN>Type(dispat0)</GIVEN>
	<TABLE> 0.011142 0.228412 0.540390 0.183844 0.036212 0.045000 0.360000 0.373333 0.046667 0.175000 0.018634 0.279503 0.478260 0.093168 0.130435 0.037037 0.111111 0.555556 0.222222 0.074074 0.027642 0.351220 0.333333 0.082927 0.204878 0.021509 0.413585 0.344151 0.074340 0.146415 0.047040 0.374695 0.326845 0.069749 0.181671 0.036932 0.355114 0.468749 0.036932 0.102273</TABLE>
</DEFINITION>
<DEFINITION>
	<FOR>age(dispat0)</FOR>
	<GIVEN>rel12(indis0,dispat0)</GIVEN>
	<GIVEN>ztt(indis0)</GIVEN>
	<TABLE> 0.036036 0.108108 0.009009 0.090090 0.018018 0.477478 0.261261 0.010490 0.055944 0.090909 0.100233 0.261072 0.213287 0.268065 0.011788 0.017682 0.096267 0.045187 0.129666 0.422396 0.277014 0.003771 0.011312 0.103318 0.021870 0.073152 0.609352 0.177225 0.002083 0.006250 0.090625 0.022917 0.019792 0.742708 0.115625 0.000447 0.000895 0.057718 0.027293 0.021924 0.784788 0.106935</TABLE>
</DEFINITION>
<DEFINITION>
	<FOR>alb(indis0)</FOR>
	<GIVEN>tp(indis0)</GIVEN>
	<GIVEN>ztt(indis0)</GIVEN>
	<TABLE> 0.714286 0.285714 0.911243 0.088757 0.977273 0.022727 0.993939 0.006061 0.980000 0.020000 0.990291 0.009709 0.333333 0.666667 0.435789 0.564211 0.576642 0.423358 0.817121 0.182879 0.905292 0.094708 0.985975 0.014025 0.666667 0.333333 0.228723 0.771277 0.275591 0.724409 0.309474 0.690526 0.875796 0.124204 0.961165 0.038835 0.112360 0.887640 0.185185 0.814815 0.030769 0.969231 0.057803 0.942197 0.247899 0.752101 0.817955 0.182045</TABLE>
</DEFINITION>
<DEFINITION>
	<FOR>che(indis0)</FOR>
	<GIVEN>alb(indis0)</GIVEN>
	<GIVEN>got(indis0)</GIVEN>
	<GIVEN>rel12(indis0,dispat0)</GIVEN>
	<GIVEN>Type(dispat0)</GIVEN>
	<TABLE> 0.002268 0.004535 0.002268 0.002268 0.004535 0.934239 0.043084 0.004535 0.002268 0.001002 0.013026 0.001002 0.001002 0.005010 0.822645 0.144289 0.011022 0.001002 0.000829 0.009121 0.000829 0.000829 0.003317 0.853235 0.124378 0.006633 0.000829 0.001298 0.002596 0.003245 0.000649 0.153147 0.811161 0.023361 0.003894 0.000649 0.100000 0.100000 0.100000 0.100000 0.100000 0.200000 0.100000 0.100000 0.100000 0.003448 0.006897 0.003448 0.003448 0.003448 0.917243 0.055172 0.003448 0.003448 0.001805 0.030686 0.001805 0.001805 0.025271 0.711191 0.189531 0.036101 0.001805 0.021195 0.028902 0.001927 0.003854 0.252408 0.445085 0.213873 0.030829 0.001927 0.002105 0.061053 0.002105 0.021053 0.334737 0.450526 0.113684 0.010526 0.004211 0.076923 0.076923 0.076923 0.076923 0.384616 0.076923 0.076923 0.076923 0.076923</TABLE>
</DEFINITION>
<DEFINITION>
	<FOR>dbil(indis0)</FOR>
	<GIVEN>che(indis0)</GIVEN>
	<GIVEN>gpt(indis0)</GIVEN>
	<TABLE> 0.500000 0.500000 0.666667 0.333333 0.916667 0.083333 0.500000 0.500000 0.333333 0.666667 0.458333 0.541667 0.285714 0.714286 0.142857 0.857143 0.500000 0.500000 0.500000 0.500000 0.833333 0.166667 0.500000 0.500000 0.500000 0.500000 0.333333 0.666667 0.909091 0.090909 0.500000 0.500000 0.500000 0.500000 0.222222 0.777778 0.141256 0.858744 0.018519 0.981481 0.899329 0.100671 0.717200 0.282800 0.631170 0.368830 0.500000 0.500000 0.228571 0.771429 0.871060 0.128940 0.677419 0.322581 0.666667 0.333333 0.500000 0.500000 0.921053 0.078947 0.481481 0.518519 0.500000 0.500000 0.500000 0.500000 0.500000 0.500000 0.500000 0.500000 0.333333 0.666667</TABLE>
</DEFINITION>
<DEFINITION>
	<FOR>dur(inf0)</FOR>
	<GIVEN>rel12(indis0,dispat0)</GIVEN>
	<GIVEN>rel13(inf0,dispat0)</GIVEN>
	<GIVEN>ttt(indis0)</GIVEN>
	<TABLE> 0.584541 0.135266 0.123188 0.101449 0.055556 0.529569 0.301075 0.086022 0.056452 0.026882 0.416667 0.290816 0.198980 0.052721 0.040816 0.311010 0.138479 0.237230 0.104427 0.208854 0.152222 0.138889 0.328889 0.118889 0.261111 0.174788 0.248234 0.171257 0.152189 0.253532</TABLE>
</DEFINITION>
<DEFINITION>
	<FOR>fibros(Bio0)</FOR>
	<GIVEN>rel11(Bio0,dispat0)</GIVEN>
	<GIVEN>rel12(indis0,dispat0)</GIVEN>
	<GIVEN>tbil(indis0)</GIVEN>
	<GIVEN>tcho(indis0)</GIVEN>
	<GIVEN>Type(dispat0)</GIVEN>
	<TABLE> 0.025070 0.239554 0.206128 0.356546 0.172702 0.116667 0.563333 0.111667 0.130000 0.078333 0.062112 0.354037 0.130435 0.186335 0.267081 0.074074 0.259259 0.222222 0.037037 0.407408 0.056911 0.310569 0.141463 0.186992 0.304065 0.086792 0.451698 0.199623 0.152830 0.109057 0.064071 0.459044 0.218978 0.116788 0.141119 0.019886 0.482955 0.201705 0.088068 0.207386</TABLE>
</DEFINITION>
<DEFINITION>
	<FOR>got(indis0)</FOR>
	<GIVEN>tcho(indis0)</GIVEN>
	<GIVEN>ttt(indis0)</GIVEN>
	<TABLE> 0.042017 0.193277 0.369748 0.386555 0.008403 0.081967 0.065574 0.754099 0.081967 0.016393 0.017241 0.224138 0.431035 0.310345 0.017241 0.033333 0.166667 0.666666 0.116667 0.016667 0.386364 0.060606 0.310606 0.234848 0.007576 0.356383 0.069149 0.141844 0.430851 0.001773 0.689498 0.173516 0.068493 0.063927 0.004566 0.322034 0.457627 0.127119 0.088983 0.004237 0.073604 0.375635 0.296954 0.251269 0.002538 0.029795 0.407821 0.357542 0.202980 0.001862 0.006329 0.295359 0.327004 0.369198 0.002110 0.004965 0.130496 0.341844 0.521986 0.000709 0.555556 0.319444 0.041667 0.069444 0.013889 0.525640 0.294872 0.102564 0.064103 0.012821 0.122449 0.459183 0.204082 0.204082 0.010204 0.175439 0.364034 0.267544 0.171053 0.021930 0.094828 0.340516 0.336207 0.219828 0.008621 0.019830 0.290368 0.294618 0.393768 0.001416 0.052632 0.736841 0.105263 0.052632 0.052632 0.083333 0.583334 0.166667 0.083333 0.083333 0.169811 0.547170 0.075472 0.188679 0.018868 0.014085 0.380282 0.169014 0.422534 0.014085 0.051948 0.428572 0.324675 0.181818 0.012987 0.029940 0.335329 0.245509 0.383234 0.005988</TABLE>
</DEFINITION>
<DEFINITION>
	<FOR>gpt(indis0)</FOR>
	<GIVEN>got(indis0)</GIVEN>
	<GIVEN>rel12(indis0,dispat0)</GIVEN>
	<GIVEN>Type(dispat0)</GIVEN>
	<TABLE> 0.700140 0.295676 0.002789 0.001395 0.080624 0.871912 0.046814 0.000650 0.002922 0.402688 0.593806 0.000584 0.000500 0.028472 0.934564 0.036464 0.111111 0.111111 0.111111 0.666667</TABLE>
</DEFINITION>
<DEFINITION>
	<FOR>rel11(Bio0,dispat0)</FOR>
	<TABLE> 1.000000</TABLE>
</DEFINITION>
<DEFINITION>
	<FOR>rel12(indis0,dispat0)</FOR>
	<TABLE> 1.000000</TABLE>
</DEFINITION>
<DEFINITION>
	<FOR>rel13(inf0,dispat0)</FOR>
	<TABLE> 1.000000</TABLE>
</DEFINITION>
<DEFINITION>
	<FOR>sex(dispat0)</FOR>
	<GIVEN>alb(indis0)</GIVEN>
	<GIVEN>rel12(indis0,dispat0)</GIVEN>
	<GIVEN>tbil(indis0)</GIVEN>
	<GIVEN>tcho(indis0)</GIVEN>
	<GIVEN>Type(dispat0)</GIVEN>
	<TABLE> 0.899543 0.100457 0.508163 0.491837 0.412162 0.587838 0.142857 0.857143 0.679406 0.320594 0.642417 0.357583 0.550062 0.449938 0.641921 0.358079 0.992806 0.007194 0.706422 0.293578 0.416667 0.583333 0.166667 0.833333 0.853147 0.146853 0.836427 0.163573 0.602837 0.397163 0.540984 0.459016</TABLE>
</DEFINITION>
<DEFINITION>
	<FOR>tbil(indis0)</FOR>
	<GIVEN>dbil(indis0)</GIVEN>
	<GIVEN>got(indis0)</GIVEN>
	<GIVEN>tcho(indis0)</GIVEN>
	<TABLE> 0.980469 0.019531 0.070093 0.929907 0.160584 0.839416 0.294118 0.705882 0.679245 0.320755 0.295886 0.704114 0.197044 0.802956 0.186813 0.813187 0.190789 0.809211 0.268366 0.731634 0.199288 0.800712 0.066667 0.933333 0.243902 0.756098 0.402597 0.597403 0.011236 0.988764 0.013333 0.986667 0.500000 0.500000 0.500000 0.500000 0.500000 0.500000 0.500000 0.500000 0.142857 0.857143 0.015152 0.984848 0.033333 0.966667 0.500000 0.500000 0.071429 0.928571 0.004926 0.995074 0.020000 0.980000 0.013699 0.986301 0.008197 0.991803 0.006211 0.993789 0.010526 0.989474 0.025641 0.974359 0.005435 0.994565 0.001631 0.998369 0.004587 0.995413 0.023256 0.976744 0.500000 0.500000 0.500000 0.500000 0.142857 0.857143 0.500000 0.500000</TABLE>
</DEFINITION>
<DEFINITION>
	<FOR>tcho(indis0)</FOR>
	<GIVEN>dur(inf0)</GIVEN>
	<GIVEN>rel12(indis0,dispat0)</GIVEN>
	<GIVEN>rel13(inf0,dispat0)</GIVEN>
	<GIVEN>Type(dispat0)</GIVEN>
	<GIVEN>ztt(indis0)</GIVEN>
	<TABLE> 0.906250 0.031250 0.031250 0.031250 0.024038 0.639424 0.312500 0.024038 0.011696 0.771929 0.175439 0.040936 0.044743 0.807606 0.098434 0.049217 0.057292 0.468750 0.390625 0.083333 0.062857 0.551428 0.251429 0.134286 0.176471 0.647058 0.117647 0.058824 0.202532 0.531646 0.132911 0.132911 0.453489 0.348837 0.104651 0.093023 0.260223 0.438662 0.223048 0.078067 0.125581 0.306977 0.483721 0.083721 0.058719 0.663701 0.231317 0.046263 0.857143 0.047619 0.047619 0.047619 0.009091 0.722727 0.218182 0.050000 0.070796 0.486726 0.283186 0.159292 0.043478 0.365217 0.491305 0.100000 0.126638 0.458515 0.401747 0.013100 0.321519 0.498734 0.172152 0.007595 0.766667 0.066667 0.133333 0.033333 0.084746 0.355932 0.474576 0.084746 0.020408 0.591837 0.163265 0.224490 0.034188 0.452992 0.435897 0.076923 0.091954 0.574712 0.298851 0.034483 0.122500 0.655000 0.197500 0.025000 0.874999 0.041667 0.041667 0.041667 0.111111 0.111111 0.055556 0.722222 0.495145 0.233010 0.048544 0.223301 0.467391 0.250000 0.184783 0.097826 0.316000 0.508000 0.080000 0.096000 0.240296 0.561923 0.170055 0.027726</TABLE>
</DEFINITION>
<DEFINITION>
	<FOR>tp(indis0)</FOR>
	<GIVEN>gpt(indis0)</GIVEN>
	<GIVEN>ztt(indis0)</GIVEN>
	<TABLE> 0.333333 0.083333 0.041667 0.541667 0.225225 0.576576 0.193694 0.004505 0.140625 0.843751 0.007812 0.007812 0.337931 0.600000 0.027586 0.034483 0.026316 0.736842 0.223684 0.013158 0.017544 0.508772 0.368421 0.105263 0.192308 0.115385 0.076923 0.615384 0.218143 0.544276 0.207343 0.030238 0.104396 0.527472 0.203297 0.164835 0.169550 0.435986 0.309689 0.084775 0.105556 0.394444 0.380556 0.119444 0.076056 0.488733 0.305634 0.129577 0.031250 0.031250 0.015625 0.921875 0.110429 0.552147 0.282209 0.055215 0.039216 0.348039 0.441176 0.171569 0.032423 0.295222 0.484642 0.187713 0.020913 0.306084 0.306084 0.366919 0.034075 0.233658 0.260779 0.471488 0.166667 0.166667 0.166667 0.499999 0.105263 0.368421 0.263158 0.263158 0.250000 0.250000 0.250000 0.250000 0.038462 0.153846 0.384615 0.423077 0.142857 0.285714 0.142857 0.428572 0.025641 0.076923 0.179487 0.717949</TABLE>
</DEFINITION>
<DEFINITION>
	<FOR>ttt(indis0)</FOR>
	<TABLE> 0.068757 0.061714 0.097937 0.147074 0.150260 0.474258</TABLE>
</DEFINITION>
<DEFINITION>
	<FOR>Type(dispat0)</FOR>
	<GIVEN>age(dispat0)</GIVEN>
	<GIVEN>rel12(indis0,dispat0)</GIVEN>
	<GIVEN>ztt(indis0)</GIVEN>
	<TABLE> 1.000000 1.000000 1.000000 1.000000 1.000000 1.000000 1.000000 1.000000 1.000000 1.000000 1.000000 1.000000 1.000000 1.000000 1.000000 1.000000 1.000000 1.000000 1.000000 1.000000 1.000000 1.000000 1.000000 1.000000 1.000000 1.000000 1.000000 1.000000 1.000000 1.000000 1.000000 1.000000 1.000000 1.000000 1.000000 1.000000 1.000000 1.000000 1.000000 1.000000 1.000000 1.000000</TABLE>
</DEFINITION>
<DEFINITION>
	<FOR>ztt(indis0)</FOR>
	<GIVEN>ttt(indis0)</GIVEN>
	<TABLE> 0.240964 0.462649 0.156627 0.134940 0.002410 0.002410 0.013405 0.554960 0.142091 0.214477 0.064343 0.010724 0.003396 0.365025 0.203735 0.307301 0.095076 0.025467 0.001134 0.172336 0.116780 0.430838 0.138322 0.140590 0.001110 0.077691 0.075472 0.300777 0.228635 0.316315 0.000353 0.007413 0.034945 0.126015 0.194140 0.637134</TABLE>
</DEFINITION>
</NETWORK>
</BIF>
