<?xml version="1.0" encoding="UTF-8"?>
<BIF VERSION="0.3"  xmlns="http://www.cs.ubc.ca/labs/lci/fopi/ve/XMLBIFv0_3"
xmlns:xsi="http://www.w3.org/2001/XMLSchema-instance"
xsi:schemaLocation="http://www.cs.ubc.ca/labs/lci/fopi/ve/XMLBIFv0_3 http://www.cs.ubc.ca/labs/lci/fopi/ve/XMLBIFv0_3/XMLBIFv0_3.xsd">
<NETWORK>
<NAME>imdb_MovieLens</NAME>
<VARIABLE TYPE="nature">
	<NAME>age(users0)</NAME>
	<OUTCOME>1</OUTCOME>
	<OUTCOME>18</OUTCOME>
	<OUTCOME>25</OUTCOME>
	<OUTCOME>35</OUTCOME>
	<OUTCOME>45</OUTCOME>
	<OUTCOME>50</OUTCOME>
	<OUTCOME>56</OUTCOME>
	<PROPERTY> position=(6000.0,4000.0)</PROPERTY>
</VARIABLE>
<VARIABLE TYPE="nature">
	<NAME>avg_revenue(directors0)</NAME>
	<OUTCOME>0</OUTCOME>
	<OUTCOME>1</OUTCOME>
	<OUTCOME>2</OUTCOME>
	<OUTCOME>3</OUTCOME>
	<OUTCOME>4</OUTCOME>
	<PROPERTY> position=(6200.0,4000.0)</PROPERTY>
</VARIABLE>
<VARIABLE TYPE="nature">
	<NAME>a_gender(actors0)</NAME>
	<OUTCOME>F</OUTCOME>
	<OUTCOME>M</OUTCOME>
	<PROPERTY> position=(6400.0,4000.0)</PROPERTY>
</VARIABLE>
<VARIABLE TYPE="nature">
	<NAME>a_quality(actors0)</NAME>
	<OUTCOME>0</OUTCOME>
	<OUTCOME>1</OUTCOME>
	<OUTCOME>2</OUTCOME>
	<OUTCOME>3</OUTCOME>
	<OUTCOME>4</OUTCOME>
	<OUTCOME>5</OUTCOME>
	<PROPERTY> position=(6000.0,4200.0)</PROPERTY>
</VARIABLE>
<VARIABLE TYPE="nature">
	<NAME>cast_num(movies0,actors0)</NAME>
	<OUTCOME>0</OUTCOME>
	<OUTCOME>1</OUTCOME>
	<OUTCOME>2</OUTCOME>
	<OUTCOME>3</OUTCOME>
	<PROPERTY> position=(6200.0,4200.0)</PROPERTY>
</VARIABLE>
<VARIABLE TYPE="nature">
	<NAME>country(movies0)</NAME>
	<OUTCOME>France</OUTCOME>
	<OUTCOME>other</OUTCOME>
	<OUTCOME>UK</OUTCOME>
	<OUTCOME>USA</OUTCOME>
	<PROPERTY> position=(6400.0,4200.0)</PROPERTY>
</VARIABLE>
<VARIABLE TYPE="nature">
	<NAME>d_quality(directors0)</NAME>
	<OUTCOME>0</OUTCOME>
	<OUTCOME>1</OUTCOME>
	<OUTCOME>2</OUTCOME>
	<OUTCOME>3</OUTCOME>
	<OUTCOME>4</OUTCOME>
	<OUTCOME>5</OUTCOME>
	<PROPERTY> position=(6000.0,4400.0)</PROPERTY>
</VARIABLE>
<VARIABLE TYPE="nature">
	<NAME>genre(movies0,directors0)</NAME>
	<OUTCOME>Action</OUTCOME>
	<OUTCOME>Adventure</OUTCOME>
	<OUTCOME>Animation</OUTCOME>
	<OUTCOME>Comedy</OUTCOME>
	<OUTCOME>Crime</OUTCOME>
	<OUTCOME>Documentary</OUTCOME>
	<OUTCOME>Drama</OUTCOME>
	<OUTCOME>Horror</OUTCOME>
	<OUTCOME>Other</OUTCOME>
	<PROPERTY> position=(6200.0,4400.0)</PROPERTY>
</VARIABLE>
<VARIABLE TYPE="nature">
	<NAME>isEnglish(movies0)</NAME>
	<OUTCOME>T</OUTCOME>
	<OUTCOME>F</OUTCOME>
	<PROPERTY> position=(6400.0,4400.0)</PROPERTY>
</VARIABLE>
<VARIABLE TYPE="nature">
	<NAME>movies2actors(movies0,actors0)</NAME>
	<OUTCOME>T</OUTCOME>
	<PROPERTY> position=(6000.0,4600.0)</PROPERTY>
</VARIABLE>
<VARIABLE TYPE="nature">
	<NAME>movies2directors(movies0,directors0)</NAME>
	<OUTCOME>T</OUTCOME>
	<PROPERTY> position=(6200.0,4600.0)</PROPERTY>
</VARIABLE>
<VARIABLE TYPE="nature">
	<NAME>occupation(users0)</NAME>
	<OUTCOME>1</OUTCOME>
	<OUTCOME>2</OUTCOME>
	<OUTCOME>3</OUTCOME>
	<OUTCOME>4</OUTCOME>
	<OUTCOME>5</OUTCOME>
	<PROPERTY> position=(6400.0,4600.0)</PROPERTY>
</VARIABLE>
<VARIABLE TYPE="nature">
	<NAME>rating(users0,movies0)</NAME>
	<OUTCOME>1</OUTCOME>
	<OUTCOME>2</OUTCOME>
	<OUTCOME>3</OUTCOME>
	<OUTCOME>4</OUTCOME>
	<OUTCOME>5</OUTCOME>
	<PROPERTY> position=(6000.0,4800.0)</PROPERTY>
</VARIABLE>
<VARIABLE TYPE="nature">
	<NAME>runningtime(movies0)</NAME>
	<OUTCOME>0</OUTCOME>
	<OUTCOME>1</OUTCOME>
	<OUTCOME>2</OUTCOME>
	<OUTCOME>3</OUTCOME>
	<PROPERTY> position=(6200.0,4800.0)</PROPERTY>
</VARIABLE>
<VARIABLE TYPE="nature">
	<NAME>u2base(users0,movies0)</NAME>
	<OUTCOME>T</OUTCOME>
	<PROPERTY> position=(6400.0,4800.0)</PROPERTY>
</VARIABLE>
<VARIABLE TYPE="nature">
	<NAME>u_gender(users0)</NAME>
	<OUTCOME>F</OUTCOME>
	<OUTCOME>M</OUTCOME>
	<PROPERTY> position=(6000.0,5000.0)</PROPERTY>
</VARIABLE>
<VARIABLE TYPE="nature">
	<NAME>year(movies0)</NAME>
	<OUTCOME>1</OUTCOME>
	<OUTCOME>2</OUTCOME>
	<OUTCOME>3</OUTCOME>
	<OUTCOME>4</OUTCOME>
	<PROPERTY> position=(6200.0,5000.0)</PROPERTY>
</VARIABLE>
<DEFINITION>
	<FOR>age(users0)</FOR>
	<GIVEN>a_gender(actors0)</GIVEN>
	<GIVEN>a_quality(actors0)</GIVEN>
	<GIVEN>country(movies0)</GIVEN>
	<GIVEN>movies2actors(movies0,actors0)</GIVEN>
	<GIVEN>movies2directors(movies0,directors0)</GIVEN>
	<GIVEN>u2base(users0,movies0)</GIVEN>
	<GIVEN>year(movies0)</GIVEN>
	<TABLE> 0.142858 0.142857 0.142857 0.142857 0.142857 0.142857 0.142857 0.142858 0.142857 0.142857 0.142857 0.142857 0.142857 0.142857 0.111111 0.333334 0.111111 0.111111 0.111111 0.111111 0.111111 0.142858 0.142857 0.142857 0.142857 0.142857 0.142857 0.142857 0.076923 0.439561 0.340659 0.109890 0.010989 0.010989 0.010989 0.037762 0.202797 0.404196 0.197203 0.076923 0.043357 0.037762 0.142858 0.142857 0.142857 0.142857 0.142857 0.142857 0.142857 0.057009 0.263581 0.378270 0.152247 0.084507 0.043595 0.020791 0.125000 0.125000 0.125000 0.125000 0.250000 0.125000 0.125000 0.029151 0.211660 0.409380 0.160963 0.095057 0.054499 0.039290 0.142858 0.142857 0.142857 0.142857 0.142857 0.142857 0.142857 0.142858 0.142857 0.142857 0.142857 0.142857 0.142857 0.142857 0.019041 0.172073 0.382229 0.225670 0.099436 0.071227 0.030324 0.004329 0.034632 0.489178 0.246753 0.064935 0.125541 0.034632 0.142858 0.142857 0.142857 0.142857 0.142857 0.142857 0.142857 0.011822 0.124338 0.487974 0.215450 0.078272 0.059519 0.022625 0.142858 0.142857 0.142857 0.142857 0.142857 0.142857 0.142857 0.142858 0.142857 0.142857 0.142857 0.142857 0.142857 0.142857 0.142858 0.142857 0.142857 0.142857 0.142857 0.142857 0.142857 0.142858 0.142857 0.142857 0.142857 0.142857 0.142857 0.142857 0.142858 0.142857 0.142857 0.142857 0.142857 0.142857 0.142857 0.142858 0.142857 0.142857 0.142857 0.142857 0.142857 0.142857 0.142858 0.142857 0.142857 0.142857 0.142857 0.142857 0.142857 0.024110 0.175660 0.405282 0.322618 0.024110 0.047072 0.001148 0.142858 0.142857 0.142857 0.142857 0.142857 0.142857 0.142857 0.142858 0.142857 0.142857 0.142857 0.142857 0.142857 0.142857 0.142858 0.142857 0.142857 0.142857 0.142857 0.142857 0.142857 0.142858 0.142857 0.142857 0.142857 0.142857 0.142857 0.142857 0.142858 0.142857 0.142857 0.142857 0.142857 0.142857 0.142857 0.055556 0.055556 0.055556 0.055556 0.666664 0.055556 0.055556 0.062500 0.062500 0.625000 0.062500 0.062500 0.062500 0.062500 0.072378 0.279953 0.342191 0.188228 0.062354 0.031469 0.023427 0.142858 0.142857 0.142857 0.142857 0.142857 0.142857 0.142857 0.142858 0.142857 0.142857 0.142857 0.142857 0.142857 0.142857 0.142858 0.142857 0.142857 0.142857 0.142857 0.142857 0.142857 0.010383 0.235129 0.504433 0.144279 0.057106 0.034177 0.014493 0.142858 0.142857 0.142857 0.142857 0.142857 0.142857 0.142857 0.142858 0.142857 0.142857 0.142857 0.142857 0.142857 0.142857 0.013924 0.082532 0.515443 0.254177 0.072152 0.052405 0.009367 0.019148 0.222098 0.453584 0.163239 0.069885 0.051036 0.021010 0.142858 0.142857 0.142857 0.142857 0.142857 0.142857 0.142857 0.028858 0.210790 0.405270 0.161857 0.096612 0.056462 0.040151 0.028416 0.189720 0.460928 0.178437 0.066026 0.061847 0.014626 0.057116 0.281366 0.389229 0.141761 0.069903 0.046334 0.014291 0.041096 0.205479 0.287672 0.232877 0.095890 0.095890 0.041096 0.024869 0.103403 0.263090 0.244764 0.168848 0.117801 0.077225 0.012968 0.150926 0.404310 0.226843 0.096711 0.080756 0.027486 0.048520 0.254083 0.394314 0.176621 0.062381 0.045904 0.018177 0.066667 0.183334 0.183333 0.166667 0.133333 0.183333 0.083333 0.142858 0.142857 0.142857 0.142857 0.142857 0.142857 0.142857 0.009580 0.082070 0.312124 0.270232 0.129683 0.133543 0.062768 0.031565 0.213302 0.415190 0.170310 0.078385 0.058364 0.032884 0.041667 0.125000 0.354167 0.145833 0.145833 0.104167 0.083333 0.020772 0.089021 0.376854 0.228487 0.112760 0.118694 0.053412 0.014342 0.116232 0.439157 0.243834 0.083312 0.070371 0.032752 0.032949 0.208717 0.411190 0.182608 0.073319 0.056724 0.034493 0.142858 0.142857 0.142857 0.142857 0.142857 0.142857 0.142857 0.012195 0.129791 0.207317 0.195993 0.128920 0.205575 0.120209 0.017607 0.128965 0.403209 0.232047 0.096409 0.084725 0.037038 0.027438 0.197554 0.416629 0.185296 0.079021 0.062636 0.031426 0.016979 0.155049 0.413763 0.176944 0.113047 0.081769 0.042449 0.030132 0.149131 0.276961 0.221480 0.123589 0.117702 0.081005 0.017389 0.130794 0.398475 0.242042 0.093720 0.079603 0.037977 0.033711 0.224904 0.412396 0.176809 0.068315 0.055897 0.027968 0.142858 0.142857 0.142857 0.142857 0.142857 0.142857 0.142857 0.023159 0.092896 0.245381 0.282332 0.150664 0.141816 0.063752 0.014090 0.067382 0.284671 0.282916 0.137570 0.136635 0.076736 0.023160 0.183168 0.429426 0.186841 0.078771 0.062129 0.036505 0.020381 0.160182 0.335355 0.229240 0.119757 0.095334 0.039751 0.020031 0.109812 0.342992 0.233454 0.112666 0.123532 0.057513 0.013377 0.090676 0.345469 0.259046 0.115381 0.116197 0.059854 0.022620 0.172345 0.418387 0.188745 0.082464 0.073126 0.042313 0.142858 0.142857 0.142857 0.142857 0.142857 0.142857 0.142857 0.016075 0.087524 0.285136 0.237737 0.132030 0.145874 0.095624 0.018126 0.126135 0.375042 0.231817 0.105875 0.096594 0.046411 0.022113 0.185779 0.420244 0.189417 0.075941 0.068424 0.038082 0.021390 0.163593 0.293553 0.205930 0.110931 0.114619 0.089984 0.031716 0.154120 0.306802 0.222749 0.111542 0.099809 0.073262 0.021129 0.129906 0.360398 0.236608 0.105342 0.096404 0.050213 0.028474 0.207070 0.416687 0.182088 0.071467 0.061392 0.032822 0.142858 0.142857 0.142857 0.142857 0.142857 0.142857 0.142857 0.142858 0.142857 0.142857 0.142857 0.142857 0.142857 0.142857 0.142858 0.142857 0.142857 0.142857 0.142857 0.142857 0.142857 0.019525 0.228586 0.479893 0.146262 0.056354 0.050938 0.018442 0.142858 0.142857 0.142857 0.142857 0.142857 0.142857 0.142857 0.142858 0.142857 0.142857 0.142857 0.142857 0.142857 0.142857 0.012048 0.098317 0.364941 0.249977 0.103007 0.115332 0.056378 0.142858 0.142857 0.142857 0.142857 0.142857 0.142857 0.142857 0.142858 0.142857 0.142857 0.142857 0.142857 0.142857 0.142857 0.142858 0.142857 0.142857 0.142857 0.142857 0.142857 0.142857 0.018608 0.184466 0.370550 0.211974 0.100324 0.080906 0.033172 0.142858 0.142857 0.142857 0.142857 0.142857 0.142857 0.142857 0.142858 0.142857 0.142857 0.142857 0.142857 0.142857 0.142857 0.028369 0.138249 0.338749 0.234043 0.112195 0.094612 0.053783 0.025762 0.169606 0.379517 0.209462 0.088623 0.080359 0.046671 0.028260 0.204574 0.393874 0.183330 0.079860 0.066984 0.043118 0.142858 0.142857 0.142857 0.142857 0.142857 0.142857 0.142857 0.142858 0.142857 0.142857 0.142857 0.142857 0.142857 0.142857 0.030303 0.151515 0.242424 0.303031 0.151515 0.090909 0.030303 0.142858 0.142857 0.142857 0.142857 0.142857 0.142857 0.142857 0.079365 0.428572 0.333333 0.111111 0.015873 0.015873 0.015873 0.142858 0.142857 0.142857 0.142857 0.142857 0.142857 0.142857 0.142858 0.142857 0.142857 0.142857 0.142857 0.142857 0.142857 0.070423 0.380282 0.422533 0.042254 0.056338 0.014085 0.014085 0.125000 0.125000 0.125000 0.125000 0.250000 0.125000 0.125000 0.028644 0.211967 0.410566 0.161044 0.094844 0.054106 0.038829 0.142858 0.142857 0.142857 0.142857 0.142857 0.142857 0.142857 0.142858 0.142857 0.142857 0.142857 0.142857 0.142857 0.142857 0.013805 0.226057 0.452113 0.184642 0.070751 0.038827 0.013805 0.025641 0.051282 0.435898 0.230769 0.076923 0.128205 0.051282 0.142858 0.142857 0.142857 0.142857 0.142857 0.142857 0.142857 0.005464 0.060109 0.349726 0.325137 0.109290 0.098361 0.051913 0.142858 0.142857 0.142857 0.142857 0.142857 0.142857 0.142857 0.142858 0.142857 0.142857 0.142857 0.142857 0.142857 0.142857 0.142858 0.142857 0.142857 0.142857 0.142857 0.142857 0.142857 0.142858 0.142857 0.142857 0.142857 0.142857 0.142857 0.142857 0.142858 0.142857 0.142857 0.142857 0.142857 0.142857 0.142857 0.142858 0.142857 0.142857 0.142857 0.142857 0.142857 0.142857 0.142858 0.142857 0.142857 0.142857 0.142857 0.142857 0.142857 0.026667 0.157333 0.397332 0.338667 0.026667 0.050667 0.002667 0.142858 0.142857 0.142857 0.142857 0.142857 0.142857 0.142857 0.142858 0.142857 0.142857 0.142857 0.142857 0.142857 0.142857 0.142858 0.142857 0.142857 0.142857 0.142857 0.142857 0.142857 0.142858 0.142857 0.142857 0.142857 0.142857 0.142857 0.142857 0.142858 0.142857 0.142857 0.142857 0.142857 0.142857 0.142857 0.125000 0.125000 0.125000 0.125000 0.250000 0.125000 0.125000 0.090909 0.090909 0.454546 0.090909 0.090909 0.090909 0.090909 0.069511 0.289077 0.346819 0.183156 0.058845 0.029790 0.022802 0.142858 0.142857 0.142857 0.142857 0.142857 0.142857 0.142857 0.142858 0.142857 0.142857 0.142857 0.142857 0.142857 0.142857 0.125000 0.250000 0.125000 0.125000 0.125000 0.125000 0.125000 0.004817 0.221053 0.522034 0.144692 0.056735 0.034255 0.016414 0.142858 0.142857 0.142857 0.142857 0.142857 0.142857 0.142857 0.142858 0.142857 0.142857 0.142857 0.142857 0.142857 0.142857 0.014407 0.080163 0.522349 0.255634 0.070558 0.049501 0.007388 0.031170 0.225403 0.429601 0.167515 0.069975 0.055556 0.020780 0.142858 0.142857 0.142857 0.142857 0.142857 0.142857 0.142857 0.142858 0.142857 0.142857 0.142857 0.142857 0.142857 0.142857 0.027675 0.213118 0.471562 0.165396 0.060798 0.050120 0.011331 0.064150 0.290223 0.376443 0.144360 0.067813 0.045177 0.011834 0.142858 0.142857 0.142857 0.142857 0.142857 0.142857 0.142857 0.045802 0.080153 0.187023 0.183206 0.194655 0.175573 0.133588 0.013616 0.149661 0.415332 0.208806 0.101314 0.077620 0.033651 0.046988 0.248676 0.400885 0.176428 0.066169 0.043741 0.017113 0.142858 0.142857 0.142857 0.142857 0.142857 0.142857 0.142857 0.142858 0.142857 0.142857 0.142857 0.142857 0.142857 0.142857 0.008632 0.088535 0.321160 0.260956 0.127711 0.130146 0.062860 0.029557 0.205192 0.415094 0.175736 0.080013 0.060877 0.033531 0.033708 0.123596 0.370786 0.146067 0.146067 0.101124 0.078652 0.058824 0.058824 0.647056 0.058824 0.058824 0.058824 0.058824 0.015912 0.118160 0.449544 0.239914 0.083102 0.062519 0.030849 0.032985 0.197244 0.408168 0.190016 0.075843 0.059330 0.036414 0.142858 0.142857 0.142857 0.142857 0.142857 0.142857 0.142857 0.010169 0.179661 0.138983 0.237288 0.094915 0.257628 0.081356 0.017635 0.142825 0.412744 0.226738 0.090713 0.077362 0.031983 0.029669 0.201316 0.414574 0.182488 0.077729 0.061742 0.032482 0.017070 0.166430 0.416073 0.158606 0.123755 0.080370 0.037696 0.039037 0.179239 0.286177 0.203981 0.110732 0.103145 0.077689 0.016508 0.125817 0.399143 0.246644 0.095464 0.079373 0.037051 0.035705 0.227824 0.412143 0.174369 0.068301 0.054197 0.027461 0.142858 0.142857 0.142857 0.142857 0.142857 0.142857 0.142857 0.018315 0.084249 0.239316 0.284494 0.163614 0.140415 0.069597 0.012663 0.059773 0.276753 0.287252 0.141723 0.144676 0.077160 0.021373 0.175163 0.427483 0.188368 0.079788 0.068395 0.039430 0.022643 0.151659 0.321222 0.226435 0.123223 0.105845 0.048973 0.020301 0.113076 0.347740 0.231827 0.106309 0.121153 0.059594 0.014404 0.085762 0.338947 0.260911 0.121881 0.116792 0.061303 0.022923 0.165477 0.413330 0.194964 0.083795 0.074313 0.045198 0.142858 0.142857 0.142857 0.142857 0.142857 0.142857 0.142857 0.016791 0.079850 0.285698 0.229282 0.141097 0.157284 0.089998 0.021349 0.145947 0.380682 0.225532 0.099171 0.086293 0.041026 0.024427 0.184728 0.407247 0.189048 0.080095 0.071587 0.042868 0.021689 0.143836 0.241249 0.214992 0.133181 0.136606 0.108447 0.034501 0.168346 0.312728 0.217576 0.105522 0.092413 0.068914 0.021392 0.132048 0.363744 0.235741 0.103925 0.093250 0.049900 0.029476 0.205665 0.415834 0.183539 0.072002 0.060683 0.032801 0.142858 0.142857 0.142857 0.142857 0.142857 0.142857 0.142857 0.142858 0.142857 0.142857 0.142857 0.142857 0.142857 0.142857 0.142858 0.142857 0.142857 0.142857 0.142857 0.142857 0.142857 0.019813 0.228386 0.479106 0.146254 0.056556 0.051153 0.018732 0.142858 0.142857 0.142857 0.142857 0.142857 0.142857 0.142857 0.142858 0.142857 0.142857 0.142857 0.142857 0.142857 0.142857 0.013269 0.103739 0.375151 0.248492 0.098914 0.108565 0.051870 0.142858 0.142857 0.142857 0.142857 0.142857 0.142857 0.142857 0.142858 0.142857 0.142857 0.142857 0.142857 0.142857 0.142857 0.142858 0.142857 0.142857 0.142857 0.142857 0.142857 0.142857 0.142858 0.142857 0.142857 0.142857 0.142857 0.142857 0.142857 0.142858 0.142857 0.142857 0.142857 0.142857 0.142857 0.142857 0.142858 0.142857 0.142857 0.142857 0.142857 0.142857 0.142857 0.026781 0.135181 0.340929 0.235504 0.110440 0.094457 0.056708 0.021934 0.157042 0.375196 0.213444 0.093492 0.087202 0.051690 0.028196 0.204096 0.396521 0.182964 0.079540 0.066573 0.042110</TABLE>
</DEFINITION>
<DEFINITION>
	<FOR>avg_revenue(directors0)</FOR>
	<GIVEN>age(users0)</GIVEN>
	<GIVEN>d_quality(directors0)</GIVEN>
	<GIVEN>movies2actors(movies0,actors0)</GIVEN>
	<GIVEN>movies2directors(movies0,directors0)</GIVEN>
	<GIVEN>u2base(users0,movies0)</GIVEN>
	<GIVEN>year(movies0)</GIVEN>
	<TABLE> 0.933332 0.016667 0.016667 0.016667 0.016667 0.966388 0.008403 0.008403 0.008403 0.008403 0.200000 0.200000 0.200000 0.200000 0.200000 0.973508 0.006623 0.006623 0.006623 0.006623 0.200000 0.200000 0.200000 0.200000 0.200000 0.200000 0.200000 0.200000 0.200000 0.200000 0.200000 0.200000 0.200000 0.200000 0.200000 0.001024 0.368475 0.099284 0.042989 0.488228 0.200000 0.200000 0.200000 0.200000 0.200000 0.924528 0.018868 0.018868 0.018868 0.018868 0.398058 0.001214 0.001214 0.467232 0.132282 0.019398 0.004161 0.118133 0.386505 0.471803 0.945204 0.013699 0.013699 0.013699 0.013699 0.154013 0.000542 0.108460 0.736443 0.000542 0.053935 0.025496 0.102757 0.266758 0.551054 0.003665 0.009820 0.034296 0.215004 0.737215 0.460055 0.531680 0.002755 0.002755 0.002755 0.078169 0.080006 0.139476 0.380930 0.321419 0.033327 0.010429 0.064243 0.211130 0.680871 0.001110 0.009873 0.037110 0.141654 0.810253 0.200000 0.200000 0.200000 0.200000 0.200000 0.200000 0.200000 0.200000 0.200000 0.200000 0.200000 0.200000 0.200000 0.200000 0.200000 0.000223 0.000223 0.000223 0.121962 0.877369 0.993620 0.001595 0.001595 0.001595 0.001595 0.995132 0.001217 0.001217 0.001217 0.001217 0.666668 0.083333 0.083333 0.083333 0.083333 0.996204 0.000949 0.000949 0.000949 0.000949 0.200000 0.200000 0.200000 0.200000 0.200000 0.200000 0.200000 0.200000 0.200000 0.200000 0.200000 0.200000 0.200000 0.200000 0.200000 0.015658 0.251407 0.135292 0.065095 0.532548 0.200000 0.200000 0.200000 0.200000 0.200000 0.980200 0.004950 0.004950 0.004950 0.004950 0.415382 0.008344 0.027493 0.334938 0.213843 0.041302 0.012669 0.166911 0.385180 0.393938 0.992248 0.001938 0.001938 0.001938 0.001938 0.182766 0.000103 0.094427 0.722601 0.000103 0.048172 0.029934 0.081843 0.216187 0.623864 0.005952 0.012906 0.039734 0.222217 0.719191 0.651923 0.340165 0.000360 0.007192 0.000360 0.068050 0.078545 0.132071 0.360080 0.361254 0.027158 0.008051 0.053963 0.172250 0.738578 0.001571 0.012818 0.045963 0.161996 0.777652 0.200000 0.200000 0.200000 0.200000 0.200000 0.200000 0.200000 0.200000 0.200000 0.200000 0.200000 0.200000 0.200000 0.200000 0.200000 0.000023 0.000023 0.000023 0.191941 0.807990 0.996700 0.000825 0.000825 0.000825 0.000825 0.997680 0.000580 0.000580 0.000580 0.000580 0.666668 0.083333 0.083333 0.083333 0.083333 0.998716 0.000321 0.000321 0.000321 0.000321 0.200000 0.200000 0.200000 0.200000 0.200000 0.200000 0.200000 0.200000 0.200000 0.200000 0.846152 0.038462 0.038462 0.038462 0.038462 0.017963 0.141815 0.190303 0.066586 0.583333 0.200000 0.200000 0.200000 0.200000 0.200000 0.991248 0.002188 0.002188 0.002188 0.002188 0.287383 0.013507 0.101422 0.365962 0.231726 0.044985 0.014228 0.207382 0.375012 0.358393 0.997268 0.000683 0.000683 0.000683 0.000683 0.163253 0.000050 0.153588 0.683059 0.000050 0.042606 0.023649 0.101628 0.255460 0.576657 0.005280 0.013975 0.048059 0.238156 0.694530 0.583841 0.415589 0.000190 0.000190 0.000190 0.080745 0.108732 0.188296 0.299077 0.323150 0.024634 0.010449 0.064651 0.202909 0.697357 0.002060 0.014400 0.057685 0.172644 0.753211 0.200000 0.200000 0.200000 0.200000 0.200000 0.200000 0.200000 0.200000 0.200000 0.200000 0.200000 0.200000 0.200000 0.200000 0.200000 0.000013 0.000013 0.000013 0.148248 0.851713 0.993152 0.001712 0.001712 0.001712 0.001712 0.994452 0.001387 0.001387 0.001387 0.001387 0.714284 0.071429 0.071429 0.071429 0.071429 0.997156 0.000711 0.000711 0.000711 0.000711 0.200000 0.200000 0.200000 0.200000 0.200000 0.200000 0.200000 0.200000 0.200000 0.200000 0.200000 0.200000 0.200000 0.200000 0.200000 0.012821 0.177493 0.146154 0.082051 0.581481 0.200000 0.200000 0.200000 0.200000 0.200000 0.991720 0.002070 0.002070 0.002070 0.002070 0.440641 0.010542 0.107073 0.292975 0.148769 0.046782 0.008644 0.209634 0.343438 0.391502 0.993968 0.001508 0.001508 0.001508 0.001508 0.220072 0.000067 0.164287 0.615507 0.000067 0.046205 0.031603 0.132161 0.273307 0.516724 0.004729 0.013701 0.047910 0.223247 0.710413 0.530485 0.463605 0.000269 0.005372 0.000269 0.105022 0.121805 0.218028 0.259772 0.295373 0.030275 0.014247 0.070921 0.246797 0.637760 0.002761 0.012627 0.060662 0.165065 0.758885 0.200000 0.200000 0.200000 0.200000 0.200000 0.200000 0.200000 0.200000 0.200000 0.200000 0.200000 0.200000 0.200000 0.200000 0.200000 0.000030 0.000030 0.000030 0.083985 0.915925 0.983672 0.004082 0.004082 0.004082 0.004082 0.989276 0.002681 0.002681 0.002681 0.002681 0.555556 0.111111 0.111111 0.111111 0.111111 0.992792 0.001802 0.001802 0.001802 0.001802 0.200000 0.200000 0.200000 0.200000 0.200000 0.800000 0.050000 0.050000 0.050000 0.050000 0.200000 0.200000 0.200000 0.200000 0.200000 0.034911 0.062839 0.124903 0.064391 0.712956 0.200000 0.200000 0.200000 0.200000 0.200000 0.989132 0.002717 0.002717 0.002717 0.002717 0.527783 0.030829 0.037105 0.264538 0.139745 0.043121 0.017273 0.246995 0.318918 0.373693 0.991768 0.002058 0.002058 0.002058 0.002058 0.320235 0.000140 0.175080 0.504405 0.000140 0.053875 0.034716 0.142023 0.280381 0.489005 0.004655 0.017134 0.054390 0.221984 0.701837 0.484546 0.513957 0.000499 0.000499 0.000499 0.120086 0.130503 0.222856 0.258183 0.268372 0.040463 0.016202 0.068627 0.269312 0.605396 0.003129 0.011569 0.064888 0.173089 0.747325 0.200000 0.200000 0.200000 0.200000 0.200000 0.200000 0.200000 0.200000 0.200000 0.200000 0.200000 0.200000 0.200000 0.200000 0.200000 0.000070 0.000070 0.000070 0.065589 0.934201 0.974524 0.006369 0.006369 0.006369 0.006369 0.983264 0.004184 0.004184 0.004184 0.004184 0.428572 0.142857 0.142857 0.142857 0.142857 0.989872 0.002532 0.002532 0.002532 0.002532 0.200000 0.200000 0.200000 0.200000 0.200000 0.200000 0.200000 0.200000 0.200000 0.200000 0.200000 0.200000 0.200000 0.200000 0.200000 0.081311 0.060680 0.195388 0.001214 0.661407 0.200000 0.200000 0.200000 0.200000 0.200000 0.981132 0.004717 0.004717 0.004717 0.004717 0.478154 0.032514 0.070108 0.309287 0.109937 0.033458 0.015320 0.237944 0.377412 0.335866 0.988440 0.002890 0.002890 0.002890 0.002890 0.344753 0.000155 0.210665 0.444272 0.000155 0.052990 0.031625 0.146716 0.300741 0.467928 0.005244 0.015953 0.052421 0.213778 0.712604 0.515716 0.472563 0.000533 0.010655 0.000533 0.143478 0.136714 0.228862 0.238693 0.252253 0.043145 0.020105 0.069222 0.277229 0.590299 0.002681 0.011359 0.067972 0.174043 0.743945 0.200000 0.200000 0.200000 0.200000 0.200000 0.200000 0.200000 0.200000 0.200000 0.200000 0.200000 0.200000 0.200000 0.200000 0.200000 0.000079 0.000079 0.000079 0.061720 0.938043 0.939392 0.015152 0.015152 0.015152 0.015152 0.975000 0.006250 0.006250 0.006250 0.006250 0.200000 0.200000 0.200000 0.200000 0.200000 0.975460 0.006135 0.006135 0.006135 0.006135 0.200000 0.200000 0.200000 0.200000 0.200000 0.200000 0.200000 0.200000 0.200000 0.200000 0.200000 0.200000 0.200000 0.200000 0.200000 0.002247 0.211236 0.002247 0.094382 0.689888 0.200000 0.200000 0.200000 0.200000 0.200000 0.966668 0.008333 0.008333 0.008333 0.008333 0.483937 0.011219 0.016828 0.377358 0.110658 0.039068 0.002626 0.291202 0.407419 0.259685 0.977652 0.005587 0.005587 0.005587 0.005587 0.306537 0.000264 0.183711 0.509224 0.000264 0.046866 0.029213 0.160764 0.283873 0.479284 0.004898 0.013210 0.053552 0.226678 0.701662 0.629139 0.368377 0.000828 0.000828 0.000828 0.135615 0.116884 0.232203 0.249164 0.266134 0.043123 0.019243 0.067311 0.280299 0.590024 0.002836 0.010335 0.070178 0.181125 0.735526 0.200000 0.200000 0.200000 0.200000 0.200000 0.200000 0.200000 0.200000 0.200000 0.200000 0.200000 0.200000 0.200000 0.200000 0.200000 0.000127 0.000127 0.000127 0.049758 0.949861</TABLE>
</DEFINITION>
<DEFINITION>
	<FOR>a_gender(actors0)</FOR>
	<TABLE> 0.286214 0.713786</TABLE>
</DEFINITION>
<DEFINITION>
	<FOR>a_quality(actors0)</FOR>
	<GIVEN>avg_revenue(directors0)</GIVEN>
	<GIVEN>a_gender(actors0)</GIVEN>
	<GIVEN>d_quality(directors0)</GIVEN>
	<GIVEN>isEnglish(movies0)</GIVEN>
	<GIVEN>movies2actors(movies0,actors0)</GIVEN>
	<GIVEN>movies2directors(movies0,directors0)</GIVEN>
	<GIVEN>u2base(users0,movies0)</GIVEN>
	<GIVEN>year(movies0)</GIVEN>
	<TABLE> 0.937003 0.000663 0.040451 0.020557 0.000663 0.000663 0.676794 0.000395 0.321626 0.000395 0.000395 0.000395 0.166665 0.166667 0.166667 0.166667 0.166667 0.166667 0.998593 0.000201 0.000402 0.000402 0.000201 0.000201 0.944445 0.011111 0.011111 0.011111 0.011111 0.011111 0.166665 0.166667 0.166667 0.166667 0.166667 0.166667 0.375000 0.125000 0.125000 0.125000 0.125000 0.125000 0.996480 0.000704 0.000704 0.000704 0.000704 0.000704 0.166665 0.166667 0.166667 0.166667 0.166667 0.166667 0.055556 0.666665 0.111111 0.055556 0.055556 0.055556 0.045455 0.454544 0.136364 0.272727 0.045455 0.045455 0.003040 0.364741 0.364742 0.209726 0.054711 0.003040 0.166665 0.166667 0.166667 0.166667 0.166667 0.166667 0.166665 0.166667 0.166667 0.166667 0.166667 0.166667 0.166665 0.166667 0.166667 0.166667 0.166667 0.166667 0.166665 0.166667 0.166667 0.166667 0.166667 0.166667 0.166665 0.166667 0.166667 0.166667 0.166667 0.166667 0.000675 0.000675 0.620527 0.328832 0.048616 0.000675 0.000060 0.000060 0.685503 0.300144 0.014173 0.000060 0.000094 0.000094 0.640298 0.347351 0.012069 0.000094 0.166665 0.166667 0.166667 0.166667 0.166667 0.166667 0.166665 0.166667 0.166667 0.166667 0.166667 0.166667 0.027778 0.027778 0.694444 0.194444 0.027778 0.027778 0.028571 0.028571 0.600002 0.228571 0.085714 0.028571 0.000454 0.000454 0.000454 0.927436 0.070748 0.000454 0.000085 0.000085 0.000085 0.624013 0.375647 0.000085 0.000012 0.000012 0.013338 0.772866 0.213760 0.000012 0.000024 0.000024 0.009060 0.965742 0.025126 0.000024 0.021277 0.021277 0.021277 0.893615 0.021277 0.021277 0.025641 0.025641 0.025641 0.769231 0.128205 0.025641 0.012346 0.012346 0.012346 0.765431 0.185185 0.012346 0.000299 0.000299 0.000299 0.950586 0.048218 0.000299 0.000204 0.000204 0.000204 0.043017 0.956167 0.000204 0.000009 0.000009 0.000458 0.068358 0.931157 0.000009 0.000007 0.000007 0.000007 0.136089 0.863883 0.000007 0.000036 0.000036 0.000997 0.024649 0.974175 0.000107 0.000419 0.000419 0.000419 0.000419 0.997905 0.000419 0.003704 0.003704 0.003704 0.003704 0.981480 0.003704 0.000094 0.000094 0.000094 0.017962 0.981662 0.000094 0.000093 0.000093 0.000093 0.059114 0.940514 0.000093 0.166665 0.166667 0.166667 0.166667 0.166667 0.166667 0.166665 0.166667 0.166667 0.166667 0.166667 0.166667 0.166665 0.166667 0.166667 0.166667 0.166667 0.166667 0.166665 0.166667 0.166667 0.166667 0.166667 0.166667 0.166665 0.166667 0.166667 0.166667 0.166667 0.166667 0.166665 0.166667 0.166667 0.166667 0.166667 0.166667 0.166665 0.166667 0.166667 0.166667 0.166667 0.166667 0.166665 0.166667 0.166667 0.166667 0.166667 0.166667 0.901564 0.000781 0.000781 0.095312 0.000781 0.000781 0.996880 0.000624 0.000624 0.000624 0.000624 0.000624 0.166665 0.166667 0.166667 0.166667 0.166667 0.166667 0.980926 0.002725 0.008174 0.002725 0.002725 0.002725 0.919355 0.016129 0.016129 0.016129 0.016129 0.016129 0.166665 0.166667 0.166667 0.166667 0.166667 0.166667 0.818182 0.030303 0.060606 0.030303 0.030303 0.030303 0.928570 0.014286 0.014286 0.014286 0.014286 0.014286 0.166665 0.166667 0.166667 0.166667 0.166667 0.166667 0.111111 0.222223 0.222222 0.222222 0.111111 0.111111 0.090909 0.454546 0.090909 0.181818 0.090909 0.090909 0.017544 0.017544 0.315789 0.614035 0.017544 0.017544 0.166665 0.166667 0.166667 0.166667 0.166667 0.166667 0.166665 0.166667 0.166667 0.166667 0.166667 0.166667 0.166665 0.166667 0.166667 0.166667 0.166667 0.166667 0.166665 0.166667 0.166667 0.166667 0.166667 0.166667 0.166665 0.166667 0.166667 0.166667 0.166667 0.166667 0.002558 0.002558 0.396419 0.593349 0.002558 0.002558 0.000155 0.000155 0.702595 0.290728 0.006212 0.000155 0.000154 0.000154 0.552664 0.446720 0.000154 0.000154 0.166665 0.166667 0.166667 0.166667 0.166667 0.166667 0.166665 0.166667 0.166667 0.166667 0.166667 0.166667 0.037037 0.037037 0.814815 0.037037 0.037037 0.037037 0.066667 0.066667 0.533332 0.200000 0.066667 0.066667 0.000726 0.000726 0.000726 0.775600 0.221496 0.000726 0.000404 0.000404 0.020614 0.659661 0.318513 0.000404 0.000031 0.000031 0.036977 0.856135 0.106795 0.000031 0.000062 0.000062 0.033521 0.940575 0.025718 0.000062 0.011364 0.011364 0.011364 0.943180 0.011364 0.011364 0.058824 0.058824 0.058824 0.647057 0.117647 0.058824 0.015873 0.015873 0.015873 0.793651 0.142857 0.015873 0.000369 0.000369 0.000369 0.990400 0.008124 0.000369 0.000508 0.000508 0.000508 0.107614 0.890354 0.000508 0.000026 0.000026 0.001318 0.026172 0.972432 0.000026 0.000024 0.000024 0.000024 0.142365 0.857539 0.000024 0.000096 0.000096 0.000096 0.077257 0.922359 0.000096 0.002075 0.002075 0.002075 0.002075 0.989625 0.002075 0.013514 0.013514 0.013514 0.013514 0.932430 0.013514 0.000221 0.000221 0.000221 0.053851 0.945265 0.000221 0.000260 0.000260 0.000260 0.017398 0.981562 0.000260 0.166665 0.166667 0.166667 0.166667 0.166667 0.166667 0.166665 0.166667 0.166667 0.166667 0.166667 0.166667 0.166665 0.166667 0.166667 0.166667 0.166667 0.166667 0.166665 0.166667 0.166667 0.166667 0.166667 0.166667 0.166665 0.166667 0.166667 0.166667 0.166667 0.166667 0.166665 0.166667 0.166667 0.166667 0.166667 0.166667 0.166665 0.166667 0.166667 0.166667 0.166667 0.166667 0.166665 0.166667 0.166667 0.166667 0.166667 0.166667 0.166665 0.166667 0.166667 0.166667 0.166667 0.166667 0.166665 0.166667 0.166667 0.166667 0.166667 0.166667 0.166665 0.166667 0.166667 0.166667 0.166667 0.166667 0.166665 0.166667 0.166667 0.166667 0.166667 0.166667 0.166665 0.166667 0.166667 0.166667 0.166667 0.166667 0.166665 0.166667 0.166667 0.166667 0.166667 0.166667 0.166665 0.166667 0.166667 0.166667 0.166667 0.166667 0.166665 0.166667 0.166667 0.166667 0.166667 0.166667 0.166665 0.166667 0.166667 0.166667 0.166667 0.166667 0.166665 0.166667 0.166667 0.166667 0.166667 0.166667 0.166665 0.166667 0.166667 0.166667 0.166667 0.166667 0.000357 0.594856 0.148267 0.255806 0.000357 0.000357 0.166665 0.166667 0.166667 0.166667 0.166667 0.166667 0.166665 0.166667 0.166667 0.166667 0.166667 0.166667 0.166665 0.166667 0.166667 0.166667 0.166667 0.166667 0.166665 0.166667 0.166667 0.166667 0.166667 0.166667 0.166665 0.166667 0.166667 0.166667 0.166667 0.166667 0.166665 0.166667 0.166667 0.166667 0.166667 0.166667 0.001603 0.001603 0.839742 0.115385 0.040064 0.001603 0.000377 0.000377 0.533131 0.442018 0.023720 0.000377 0.166665 0.166667 0.166667 0.166667 0.166667 0.166667 0.166665 0.166667 0.166667 0.166667 0.166667 0.166667 0.166665 0.166667 0.166667 0.166667 0.166667 0.166667 0.166665 0.166667 0.166667 0.166667 0.166667 0.166667 0.166665 0.166667 0.166667 0.166667 0.166667 0.166667 0.166665 0.166667 0.166667 0.166667 0.166667 0.166667 0.000022 0.000022 0.000772 0.642673 0.356489 0.000022 0.000010 0.000010 0.047999 0.807693 0.144278 0.000010 0.166665 0.166667 0.166667 0.166667 0.166667 0.166667 0.166665 0.166667 0.166667 0.166667 0.166667 0.166667 0.007937 0.007937 0.007937 0.912696 0.055556 0.007937 0.000184 0.000184 0.000184 0.541353 0.457911 0.000184 0.000532 0.000532 0.000532 0.000532 0.997340 0.000532 0.000009 0.000009 0.000009 0.048016 0.816361 0.135596 0.000042 0.000042 0.000042 0.158044 0.841788 0.000042 0.000009 0.000009 0.001664 0.205833 0.792476 0.000009 0.000279 0.000279 0.000279 0.000279 0.998605 0.000279 0.000078 0.000078 0.000078 0.000078 0.999610 0.000078 0.000025 0.000025 0.000305 0.018272 0.981348 0.000025 0.000009 0.000009 0.000009 0.060466 0.939498 0.000009 0.166665 0.166667 0.166667 0.166667 0.166667 0.166667 0.166665 0.166667 0.166667 0.166667 0.166667 0.166667 0.166665 0.166667 0.166667 0.166667 0.166667 0.166667 0.166665 0.166667 0.166667 0.166667 0.166667 0.166667 0.166665 0.166667 0.166667 0.166667 0.166667 0.166667 0.166665 0.166667 0.166667 0.166667 0.166667 0.166667 0.166665 0.166667 0.166667 0.166667 0.166667 0.166667 0.166665 0.166667 0.166667 0.166667 0.166667 0.166667 0.166665 0.166667 0.166667 0.166667 0.166667 0.166667 0.166665 0.166667 0.166667 0.166667 0.166667 0.166667 0.166665 0.166667 0.166667 0.166667 0.166667 0.166667 0.166665 0.166667 0.166667 0.166667 0.166667 0.166667 0.166665 0.166667 0.166667 0.166667 0.166667 0.166667 0.166665 0.166667 0.166667 0.166667 0.166667 0.166667 0.166665 0.166667 0.166667 0.166667 0.166667 0.166667 0.166665 0.166667 0.166667 0.166667 0.166667 0.166667 0.166665 0.166667 0.166667 0.166667 0.166667 0.166667 0.166665 0.166667 0.166667 0.166667 0.166667 0.166667 0.166665 0.166667 0.166667 0.166667 0.166667 0.166667 0.001120 0.676372 0.135498 0.184770 0.001120 0.001120 0.166665 0.166667 0.166667 0.166667 0.166667 0.166667 0.166665 0.166667 0.166667 0.166667 0.166667 0.166667 0.166665 0.166667 0.166667 0.166667 0.166667 0.166667 0.166665 0.166667 0.166667 0.166667 0.166667 0.166667 0.166665 0.166667 0.166667 0.166667 0.166667 0.166667 0.166665 0.166667 0.166667 0.166667 0.166667 0.166667 0.003534 0.003534 0.968196 0.017668 0.003534 0.003534 0.000419 0.000419 0.677569 0.312369 0.008805 0.000419 0.166665 0.166667 0.166667 0.166667 0.166667 0.166667 0.166665 0.166667 0.166667 0.166667 0.166667 0.166667 0.166665 0.166667 0.166667 0.166667 0.166667 0.166667 0.166665 0.166667 0.166667 0.166667 0.166667 0.166667 0.166665 0.166667 0.166667 0.166667 0.166667 0.166667 0.166665 0.166667 0.166667 0.166667 0.166667 0.166667 0.000041 0.000041 0.001433 0.774702 0.223742 0.000041 0.000018 0.000018 0.049264 0.858199 0.092483 0.000018 0.166665 0.166667 0.166667 0.166667 0.166667 0.166667 0.166665 0.166667 0.166667 0.166667 0.166667 0.166667 0.020000 0.020000 0.020000 0.900000 0.020000 0.020000 0.000352 0.000352 0.000352 0.528501 0.470091 0.000352 0.001988 0.001988 0.001988 0.001988 0.990060 0.001988 0.000025 0.000025 0.000025 0.030352 0.769297 0.200276 0.000097 0.000097 0.000097 0.086935 0.912677 0.000097 0.000018 0.000018 0.000018 0.192737 0.807191 0.000018 0.000684 0.000684 0.000684 0.000684 0.996580 0.000684 0.000307 0.000307 0.000307 0.000307 0.998465 0.000307 0.000075 0.000075 0.000075 0.018310 0.981390 0.000075 0.000026 0.000026 0.000026 0.036418 0.963478 0.000026 0.166665 0.166667 0.166667 0.166667 0.166667 0.166667 0.166665 0.166667 0.166667 0.166667 0.166667 0.166667 0.166665 0.166667 0.166667 0.166667 0.166667 0.166667 0.166665 0.166667 0.166667 0.166667 0.166667 0.166667 0.166665 0.166667 0.166667 0.166667 0.166667 0.166667 0.166665 0.166667 0.166667 0.166667 0.166667 0.166667 0.166665 0.166667 0.166667 0.166667 0.166667 0.166667 0.166665 0.166667 0.166667 0.166667 0.166667 0.166667 0.166665 0.166667 0.166667 0.166667 0.166667 0.166667 0.166665 0.166667 0.166667 0.166667 0.166667 0.166667 0.166665 0.166667 0.166667 0.166667 0.166667 0.166667 0.166665 0.166667 0.166667 0.166667 0.166667 0.166667 0.166665 0.166667 0.166667 0.166667 0.166667 0.166667 0.166665 0.166667 0.166667 0.166667 0.166667 0.166667 0.166665 0.166667 0.166667 0.166667 0.166667 0.166667 0.166665 0.166667 0.166667 0.166667 0.166667 0.166667 0.166665 0.166667 0.166667 0.166667 0.166667 0.166667 0.166665 0.166667 0.166667 0.166667 0.166667 0.166667 0.166665 0.166667 0.166667 0.166667 0.166667 0.166667 0.000447 0.260617 0.173894 0.520786 0.043809 0.000447 0.166665 0.166667 0.166667 0.166667 0.166667 0.166667 0.166665 0.166667 0.166667 0.166667 0.166667 0.166667 0.166665 0.166667 0.166667 0.166667 0.166667 0.166667 0.166665 0.166667 0.166667 0.166667 0.166667 0.166667 0.166665 0.166667 0.166667 0.166667 0.166667 0.166667 0.166665 0.166667 0.166667 0.166667 0.166667 0.166667 0.000267 0.000267 0.493197 0.459856 0.046146 0.000267 0.000018 0.000018 0.408764 0.573782 0.017400 0.000018 0.166665 0.166667 0.166667 0.166667 0.166667 0.166667 0.166665 0.166667 0.166667 0.166667 0.166667 0.166667 0.166665 0.166667 0.166667 0.166667 0.166667 0.166667 0.166665 0.166667 0.166667 0.166667 0.166667 0.166667 0.166665 0.166667 0.166667 0.166667 0.166667 0.166667 0.001667 0.001667 0.001667 0.801665 0.191667 0.001667 0.000005 0.000005 0.006191 0.492345 0.501449 0.000005 0.000003 0.000003 0.017226 0.755617 0.227148 0.000003 0.166665 0.166667 0.166667 0.166667 0.166667 0.166667 0.000133 0.000133 0.000133 0.040101 0.959367 0.000133 0.000084 0.000084 0.020299 0.620999 0.358450 0.000084 0.000070 0.000070 0.000070 0.278181 0.721539 0.000070 0.166665 0.166667 0.166667 0.166667 0.166667 0.166667 0.000005 0.000005 0.002384 0.038084 0.945297 0.014225 0.000004 0.000004 0.000004 0.157038 0.829087 0.013863 0.000001 0.000001 0.000001 0.262071 0.737925 0.000001 0.166665 0.166667 0.166667 0.166667 0.166667 0.166667 0.166665 0.166667 0.166667 0.166667 0.166667 0.166667 0.000047 0.000047 0.000047 0.029294 0.970518 0.000047 0.000004 0.000004 0.000004 0.043615 0.956369 0.000004 0.166665 0.166667 0.166667 0.166667 0.166667 0.166667 0.166665 0.166667 0.166667 0.166667 0.166667 0.166667 0.166665 0.166667 0.166667 0.166667 0.166667 0.166667 0.166665 0.166667 0.166667 0.166667 0.166667 0.166667 0.166665 0.166667 0.166667 0.166667 0.166667 0.166667 0.166665 0.166667 0.166667 0.166667 0.166667 0.166667 0.166665 0.166667 0.166667 0.166667 0.166667 0.166667 0.166665 0.166667 0.166667 0.166667 0.166667 0.166667 0.166665 0.166667 0.166667 0.166667 0.166667 0.166667 0.166665 0.166667 0.166667 0.166667 0.166667 0.166667 0.166665 0.166667 0.166667 0.166667 0.166667 0.166667 0.166665 0.166667 0.166667 0.166667 0.166667 0.166667 0.166665 0.166667 0.166667 0.166667 0.166667 0.166667 0.166665 0.166667 0.166667 0.166667 0.166667 0.166667 0.166665 0.166667 0.166667 0.166667 0.166667 0.166667 0.166665 0.166667 0.166667 0.166667 0.166667 0.166667 0.166665 0.166667 0.166667 0.166667 0.166667 0.166667 0.166665 0.166667 0.166667 0.166667 0.166667 0.166667 0.166665 0.166667 0.166667 0.166667 0.166667 0.166667 0.001138 0.332196 0.221843 0.442547 0.001138 0.001138 0.166665 0.166667 0.166667 0.166667 0.166667 0.166667 0.166665 0.166667 0.166667 0.166667 0.166667 0.166667 0.166665 0.166667 0.166667 0.166667 0.166667 0.166667 0.166665 0.166667 0.166667 0.166667 0.166667 0.166667 0.166665 0.166667 0.166667 0.166667 0.166667 0.166667 0.166665 0.166667 0.166667 0.166667 0.166667 0.166667 0.000993 0.000993 0.666336 0.329692 0.000993 0.000993 0.000043 0.000043 0.617569 0.351804 0.030498 0.000043 0.166665 0.166667 0.166667 0.166667 0.166667 0.166667 0.166665 0.166667 0.166667 0.166667 0.166667 0.166667 0.166665 0.166667 0.166667 0.166667 0.166667 0.166667 0.166665 0.166667 0.166667 0.166667 0.166667 0.166667 0.166665 0.166667 0.166667 0.166667 0.166667 0.166667 0.003058 0.003058 0.003058 0.782875 0.204893 0.003058 0.000015 0.000015 0.008389 0.507378 0.484188 0.000015 0.000005 0.000005 0.016148 0.787383 0.196454 0.000005 0.166665 0.166667 0.166667 0.166667 0.166667 0.166667 0.000662 0.000662 0.000662 0.000662 0.996690 0.000662 0.001094 0.001094 0.001094 0.754924 0.240700 0.001094 0.000122 0.000122 0.000122 0.281380 0.718132 0.000122 0.166665 0.166667 0.166667 0.166667 0.166667 0.166667 0.000012 0.000012 0.000012 0.036804 0.924166 0.038994 0.000008 0.000008 0.000008 0.111334 0.888634 0.000008 0.000003 0.000003 0.000003 0.253625 0.746363 0.000003 0.166665 0.166667 0.166667 0.166667 0.166667 0.166667 0.166665 0.166667 0.166667 0.166667 0.166667 0.166667 0.000099 0.000099 0.000099 0.054091 0.945513 0.000099 0.000009 0.000009 0.001172 0.024476 0.974325 0.000009 0.166665 0.166667 0.166667 0.166667 0.166667 0.166667 0.166665 0.166667 0.166667 0.166667 0.166667 0.166667 0.166665 0.166667 0.166667 0.166667 0.166667 0.166667 0.166665 0.166667 0.166667 0.166667 0.166667 0.166667 0.166665 0.166667 0.166667 0.166667 0.166667 0.166667 0.166665 0.166667 0.166667 0.166667 0.166667 0.166667 0.166665 0.166667 0.166667 0.166667 0.166667 0.166667 0.166665 0.166667 0.166667 0.166667 0.166667 0.166667 0.166665 0.166667 0.166667 0.166667 0.166667 0.166667 0.166665 0.166667 0.166667 0.166667 0.166667 0.166667 0.166665 0.166667 0.166667 0.166667 0.166667 0.166667 0.166665 0.166667 0.166667 0.166667 0.166667 0.166667 0.166665 0.166667 0.166667 0.166667 0.166667 0.166667 0.166665 0.166667 0.166667 0.166667 0.166667 0.166667 0.166665 0.166667 0.166667 0.166667 0.166667 0.166667 0.166665 0.166667 0.166667 0.166667 0.166667 0.166667 0.166665 0.166667 0.166667 0.166667 0.166667 0.166667 0.166665 0.166667 0.166667 0.166667 0.166667 0.166667 0.166665 0.166667 0.166667 0.166667 0.166667 0.166667 0.000888 0.171403 0.114565 0.711368 0.000888 0.000888 0.166665 0.166667 0.166667 0.166667 0.166667 0.166667 0.166665 0.166667 0.166667 0.166667 0.166667 0.166667 0.166665 0.166667 0.166667 0.166667 0.166667 0.166667 0.166665 0.166667 0.166667 0.166667 0.166667 0.166667 0.166665 0.166667 0.166667 0.166667 0.166667 0.166667 0.166665 0.166667 0.166667 0.166667 0.166667 0.166667 0.000078 0.000078 0.261050 0.593445 0.145271 0.000078 0.000009 0.007224 0.415231 0.535544 0.041983 0.000009 0.166665 0.166667 0.166667 0.166667 0.166667 0.166667 0.166665 0.166667 0.166667 0.166667 0.166667 0.166667 0.166665 0.166667 0.166667 0.166667 0.166667 0.166667 0.166665 0.166667 0.166667 0.166667 0.166667 0.166667 0.166665 0.166667 0.166667 0.166667 0.166667 0.166667 0.000036 0.000036 0.000036 0.001777 0.998079 0.000036 0.000002 0.000002 0.003170 0.487545 0.509279 0.000002 0.000001 0.000001 0.016818 0.687925 0.295254 0.000001 0.166665 0.166667 0.166667 0.166667 0.166667 0.166667 0.166665 0.166667 0.166667 0.166667 0.166667 0.166667 0.166665 0.166667 0.166667 0.166667 0.166667 0.166667 0.000030 0.000030 0.002403 0.449135 0.548372 0.000030 0.027778 0.027778 0.194444 0.027778 0.694444 0.027778 0.000003 0.000003 0.000003 0.066511 0.928899 0.004581 0.000001 0.000001 0.000427 0.201897 0.796929 0.000745 0.000000 0.000000 0.000657 0.304138 0.695205 0.000000 0.166665 0.166667 0.166667 0.166667 0.166667 0.166667 0.000499 0.000499 0.000499 0.000499 0.997505 0.000499 0.000034 0.000034 0.000034 0.017895 0.650346 0.331657 0.000024 0.000024 0.000024 0.116188 0.883716 0.000024 0.166665 0.166667 0.166667 0.166667 0.166667 0.166667 0.166665 0.166667 0.166667 0.166667 0.166667 0.166667 0.166665 0.166667 0.166667 0.166667 0.166667 0.166667 0.000050 0.000050 0.000050 0.129044 0.645017 0.225789 0.166665 0.166667 0.166667 0.166667 0.166667 0.166667 0.166665 0.166667 0.166667 0.166667 0.166667 0.166667 0.166665 0.166667 0.166667 0.166667 0.166667 0.166667 0.166665 0.166667 0.166667 0.166667 0.166667 0.166667 0.166665 0.166667 0.166667 0.166667 0.166667 0.166667 0.166665 0.166667 0.166667 0.166667 0.166667 0.166667 0.166665 0.166667 0.166667 0.166667 0.166667 0.166667 0.166665 0.166667 0.166667 0.166667 0.166667 0.166667 0.166665 0.166667 0.166667 0.166667 0.166667 0.166667 0.166665 0.166667 0.166667 0.166667 0.166667 0.166667 0.166665 0.166667 0.166667 0.166667 0.166667 0.166667 0.166665 0.166667 0.166667 0.166667 0.166667 0.166667 0.166665 0.166667 0.166667 0.166667 0.166667 0.166667 0.166665 0.166667 0.166667 0.166667 0.166667 0.166667 0.166665 0.166667 0.166667 0.166667 0.166667 0.166667 0.005051 0.489897 0.166667 0.328283 0.005051 0.005051 0.166665 0.166667 0.166667 0.166667 0.166667 0.166667 0.166665 0.166667 0.166667 0.166667 0.166667 0.166667 0.166665 0.166667 0.166667 0.166667 0.166667 0.166667 0.166665 0.166667 0.166667 0.166667 0.166667 0.166667 0.166665 0.166667 0.166667 0.166667 0.166667 0.166667 0.166665 0.166667 0.166667 0.166667 0.166667 0.166667 0.000136 0.000136 0.520015 0.438730 0.040847 0.000136 0.000026 0.009435 0.529272 0.442031 0.019210 0.000026 0.166665 0.166667 0.166667 0.166667 0.166667 0.166667 0.166665 0.166667 0.166667 0.166667 0.166667 0.166667 0.166665 0.166667 0.166667 0.166667 0.166667 0.166667 0.166665 0.166667 0.166667 0.166667 0.166667 0.166667 0.166665 0.166667 0.166667 0.166667 0.166667 0.166667 0.000083 0.000083 0.000083 0.000083 0.999585 0.000083 0.000006 0.000006 0.004132 0.521635 0.474215 0.000006 0.000001 0.000001 0.019275 0.739478 0.241244 0.000001 0.166665 0.166667 0.166667 0.166667 0.166667 0.166667 0.166665 0.166667 0.166667 0.166667 0.166667 0.166667 0.166665 0.166667 0.166667 0.166667 0.166667 0.166667 0.000139 0.000139 0.003187 0.472007 0.524389 0.000139 0.030303 0.030303 0.030303 0.030303 0.848485 0.030303 0.000007 0.000007 0.000007 0.080626 0.915864 0.003489 0.000002 0.000002 0.000807 0.180873 0.818314 0.000002 0.000001 0.000001 0.000951 0.315354 0.683692 0.000001 0.166665 0.166667 0.166667 0.166667 0.166667 0.166667 0.001650 0.001650 0.001650 0.001650 0.991750 0.001650 0.000393 0.000393 0.000393 0.000393 0.674922 0.323506 0.000068 0.000068 0.000068 0.026015 0.973713 0.000068 0.166665 0.166667 0.166667 0.166667 0.166667 0.166667 0.166665 0.166667 0.166667 0.166667 0.166667 0.166667 0.166665 0.166667 0.166667 0.166667 0.166667 0.166667 0.000195 0.000195 0.000195 0.249902 0.499611 0.249902 0.166665 0.166667 0.166667 0.166667 0.166667 0.166667 0.166665 0.166667 0.166667 0.166667 0.166667 0.166667 0.166665 0.166667 0.166667 0.166667 0.166667 0.166667 0.166665 0.166667 0.166667 0.166667 0.166667 0.166667 0.166665 0.166667 0.166667 0.166667 0.166667 0.166667 0.166665 0.166667 0.166667 0.166667 0.166667 0.166667 0.166665 0.166667 0.166667 0.166667 0.166667 0.166667 0.166665 0.166667 0.166667 0.166667 0.166667 0.166667 0.166665 0.166667 0.166667 0.166667 0.166667 0.166667 0.166665 0.166667 0.166667 0.166667 0.166667 0.166667 0.166665 0.166667 0.166667 0.166667 0.166667 0.166667 0.166665 0.166667 0.166667 0.166667 0.166667 0.166667 0.166665 0.166667 0.166667 0.166667 0.166667 0.166667 0.166665 0.166667 0.166667 0.166667 0.166667 0.166667 0.166665 0.166667 0.166667 0.166667 0.166667 0.166667 0.000097 0.333236 0.100039 0.566434 0.000097 0.000097 0.166665 0.166667 0.166667 0.166667 0.166667 0.166667 0.166665 0.166667 0.166667 0.166667 0.166667 0.166667 0.166665 0.166667 0.166667 0.166667 0.166667 0.166667 0.166665 0.166667 0.166667 0.166667 0.166667 0.166667 0.166665 0.166667 0.166667 0.166667 0.166667 0.166667 0.166665 0.166667 0.166667 0.166667 0.166667 0.166667 0.000153 0.000153 0.773636 0.225752 0.000153 0.000153 0.000009 0.000336 0.322360 0.643838 0.033448 0.000009 0.166665 0.166667 0.166667 0.166667 0.166667 0.166667 0.166665 0.166667 0.166667 0.166667 0.166667 0.166667 0.166665 0.166667 0.166667 0.166667 0.166667 0.166667 0.166665 0.166667 0.166667 0.166667 0.166667 0.166667 0.166665 0.166667 0.166667 0.166667 0.166667 0.166667 0.166665 0.166667 0.166667 0.166667 0.166667 0.166667 0.000001 0.000001 0.005975 0.445627 0.548395 0.000001 0.000000 0.000431 0.013919 0.670247 0.315403 0.000000 0.166665 0.166667 0.166667 0.166667 0.166667 0.166667 0.166665 0.166667 0.166667 0.166667 0.166667 0.166667 0.166665 0.166667 0.166667 0.166667 0.166667 0.166667 0.000074 0.000074 0.000074 0.776630 0.223074 0.000074 0.166665 0.166667 0.166667 0.166667 0.166667 0.166667 0.000003 0.000003 0.000003 0.007287 0.992701 0.000003 0.000000 0.000000 0.000000 0.180616 0.765707 0.053677 0.000000 0.000000 0.000935 0.324133 0.630502 0.044430 0.166665 0.166667 0.166667 0.166667 0.166667 0.166667 0.166665 0.166667 0.166667 0.166667 0.166667 0.166667 0.000023 0.000023 0.000023 0.067356 0.909084 0.023491 0.000006 0.000006 0.000006 0.029179 0.970797 0.000006 0.166665 0.166667 0.166667 0.166667 0.166667 0.166667 0.166665 0.166667 0.166667 0.166667 0.166667 0.166667 0.166665 0.166667 0.166667 0.166667 0.166667 0.166667 0.000007 0.000007 0.000007 0.195959 0.512899 0.291121 0.166665 0.166667 0.166667 0.166667 0.166667 0.166667 0.166665 0.166667 0.166667 0.166667 0.166667 0.166667 0.166665 0.166667 0.166667 0.166667 0.166667 0.166667 0.166665 0.166667 0.166667 0.166667 0.166667 0.166667 0.166665 0.166667 0.166667 0.166667 0.166667 0.166667 0.166665 0.166667 0.166667 0.166667 0.166667 0.166667 0.166665 0.166667 0.166667 0.166667 0.166667 0.166667 0.166665 0.166667 0.166667 0.166667 0.166667 0.166667 0.166665 0.166667 0.166667 0.166667 0.166667 0.166667 0.166665 0.166667 0.166667 0.166667 0.166667 0.166667 0.166665 0.166667 0.166667 0.166667 0.166667 0.166667 0.166665 0.166667 0.166667 0.166667 0.166667 0.166667 0.166665 0.166667 0.166667 0.166667 0.166667 0.166667 0.166665 0.166667 0.166667 0.166667 0.166667 0.166667 0.166665 0.166667 0.166667 0.166667 0.166667 0.166667 0.000728 0.747452 0.000728 0.249636 0.000728 0.000728 0.166665 0.166667 0.166667 0.166667 0.166667 0.166667 0.166665 0.166667 0.166667 0.166667 0.166667 0.166667 0.166665 0.166667 0.166667 0.166667 0.166667 0.166667 0.166665 0.166667 0.166667 0.166667 0.166667 0.166667 0.166665 0.166667 0.166667 0.166667 0.166667 0.166667 0.166665 0.166667 0.166667 0.166667 0.166667 0.166667 0.000207 0.000207 0.912117 0.087055 0.000207 0.000207 0.000024 0.001174 0.391814 0.592777 0.014187 0.000024 0.166665 0.166667 0.166667 0.166667 0.166667 0.166667 0.166665 0.166667 0.166667 0.166667 0.166667 0.166667 0.166665 0.166667 0.166667 0.166667 0.166667 0.166667 0.166665 0.166667 0.166667 0.166667 0.166667 0.166667 0.166665 0.166667 0.166667 0.166667 0.166667 0.166667 0.166665 0.166667 0.166667 0.166667 0.166667 0.166667 0.000003 0.000003 0.020390 0.425985 0.553616 0.000003 0.000000 0.000265 0.016189 0.705344 0.278202 0.000000 0.166665 0.166667 0.166667 0.166667 0.166667 0.166667 0.166665 0.166667 0.166667 0.166667 0.166667 0.166667 0.166665 0.166667 0.166667 0.166667 0.166667 0.166667 0.000292 0.000292 0.000292 0.702254 0.296578 0.000292 0.166665 0.166667 0.166667 0.166667 0.166667 0.166667 0.000006 0.000006 0.000006 0.001447 0.998529 0.000006 0.000001 0.000001 0.000001 0.166235 0.795025 0.038737 0.000000 0.000000 0.001056 0.350271 0.603052 0.045621 0.166665 0.166667 0.166667 0.166667 0.166667 0.166667 0.166665 0.166667 0.166667 0.166667 0.166667 0.166667 0.000364 0.000364 0.000364 0.063706 0.934838 0.000364 0.000012 0.000012 0.000012 0.048936 0.951016 0.000012 0.166665 0.166667 0.166667 0.166667 0.166667 0.166667 0.166665 0.166667 0.166667 0.166667 0.166667 0.166667 0.166665 0.166667 0.166667 0.166667 0.166667 0.166667 0.000041 0.000041 0.000041 0.099442 0.628566 0.271869 0.166665 0.166667 0.166667 0.166667 0.166667 0.166667 0.166665 0.166667 0.166667 0.166667 0.166667 0.166667 0.166665 0.166667 0.166667 0.166667 0.166667 0.166667 0.166665 0.166667 0.166667 0.166667 0.166667 0.166667</TABLE>
</DEFINITION>
<DEFINITION>
	<FOR>cast_num(movies0,actors0)</FOR>
	<GIVEN>age(users0)</GIVEN>
	<GIVEN>avg_revenue(directors0)</GIVEN>
	<GIVEN>a_quality(actors0)</GIVEN>
	<GIVEN>isEnglish(movies0)</GIVEN>
	<GIVEN>movies2actors(movies0,actors0)</GIVEN>
	<GIVEN>movies2directors(movies0,directors0)</GIVEN>
	<GIVEN>runningtime(movies0)</GIVEN>
	<GIVEN>u2base(users0,movies0)</GIVEN>
	<GIVEN>year(movies0)</GIVEN>
	<TABLE> 0.289474 0.552631 0.131579 0.026316 0.957142 0.014286 0.014286 0.014286 0.250000 0.250000 0.250000 0.250000 0.200000 0.600000 0.100000 0.100000 0.090909 0.363636 0.454546 0.090909 0.900001 0.033333 0.033333 0.033333 0.250000 0.250000 0.250000 0.250000 0.948277 0.017241 0.017241 0.017241 0.250000 0.250000 0.250000 0.250000 0.250000 0.250000 0.250000 0.250000 0.250000 0.250000 0.250000 0.250000 0.250000 0.250000 0.250000 0.250000 0.250000 0.250000 0.250000 0.250000 0.250000 0.250000 0.250000 0.250000 0.250000 0.250000 0.250000 0.250000 0.250000 0.250000 0.250000 0.250000 0.785713 0.071429 0.071429 0.071429 0.250000 0.250000 0.250000 0.250000 0.250000 0.250000 0.250000 0.250000 0.027778 0.583333 0.361111 0.027778 0.250000 0.250000 0.250000 0.250000 0.250000 0.250000 0.250000 0.250000 0.250000 0.250000 0.250000 0.250000 0.948277 0.017241 0.017241 0.017241 0.250000 0.250000 0.250000 0.250000 0.250000 0.250000 0.250000 0.250000 0.250000 0.250000 0.250000 0.250000 0.250000 0.250000 0.250000 0.250000 0.250000 0.250000 0.250000 0.250000 0.250000 0.250000 0.250000 0.250000 0.250000 0.250000 0.250000 0.250000 0.250000 0.250000 0.250000 0.250000 0.250000 0.250000 0.250000 0.250000 0.250000 0.250000 0.250000 0.250000 0.250000 0.250000 0.250000 0.250000 0.250000 0.250000 0.250000 0.250000 0.250000 0.250000 0.250000 0.250000 0.250000 0.250000 0.250000 0.250000 0.250000 0.250000 0.250000 0.250000 0.250000 0.250000 0.250000 0.250000 0.250000 0.250000 0.250000 0.250000 0.250000 0.250000 0.250000 0.250000 0.250000 0.250000 0.250000 0.250000 0.250000 0.250000 0.250000 0.250000 0.250000 0.250000 0.250000 0.250000 0.250000 0.250000 0.250000 0.250000 0.250000 0.250000 0.250000 0.250000 0.250000 0.250000 0.250000 0.250000 0.250000 0.250000 0.250000 0.250000 0.250000 0.250000 0.250000 0.250000 0.250000 0.250000 0.250000 0.250000 0.250000 0.250000 0.250000 0.250000 0.250000 0.250000 0.250000 0.250000 0.250000 0.250000 0.250000 0.250000 0.250000 0.250000 0.250000 0.250000 0.250000 0.250000 0.250000 0.250000 0.250000 0.250000 0.250000 0.250000 0.250000 0.250000 0.250000 0.250000 0.250000 0.250000 0.250000 0.250000 0.250000 0.250000 0.250000 0.250000 0.250000 0.250000 0.250000 0.250000 0.250000 0.250000 0.250000 0.250000 0.250000 0.250000 0.250000 0.250000 0.250000 0.250000 0.250000 0.250000 0.250000 0.250000 0.250000 0.250000 0.884614 0.038462 0.038462 0.038462 0.250000 0.250000 0.250000 0.250000 0.250000 0.250000 0.250000 0.250000 0.166667 0.499999 0.166667 0.166667 0.125000 0.300000 0.550000 0.025000 0.018100 0.117647 0.316742 0.547511 0.093923 0.265193 0.607735 0.033149 0.250000 0.250000 0.250000 0.250000 0.166667 0.166667 0.499999 0.166667 0.031250 0.062500 0.250000 0.656250 0.022222 0.177778 0.644444 0.155556 0.250000 0.250000 0.250000 0.250000 0.250000 0.250000 0.250000 0.250000 0.250000 0.250000 0.250000 0.250000 0.250000 0.250000 0.250000 0.250000 0.250000 0.250000 0.250000 0.250000 0.250000 0.250000 0.250000 0.250000 0.250000 0.250000 0.250000 0.250000 0.250000 0.250000 0.250000 0.250000 0.250000 0.250000 0.250000 0.250000 0.250000 0.250000 0.250000 0.250000 0.250000 0.250000 0.250000 0.250000 0.250000 0.250000 0.250000 0.250000 0.250000 0.250000 0.250000 0.250000 0.250000 0.250000 0.250000 0.250000 0.250000 0.250000 0.250000 0.250000 0.250000 0.250000 0.250000 0.250000 0.250000 0.250000 0.250000 0.250000 0.250000 0.250000 0.250000 0.250000 0.250000 0.250000 0.250000 0.250000 0.250000 0.250000 0.250000 0.250000 0.333334 0.333333 0.250000 0.083333 0.250000 0.250000 0.250000 0.250000 0.250000 0.250000 0.250000 0.250000 0.021739 0.086957 0.304348 0.586956 0.016949 0.559322 0.406780 0.016949 0.177258 0.377926 0.434783 0.010033 0.011350 0.224014 0.578853 0.185783 0.007605 0.170342 0.417490 0.404563 0.250000 0.250000 0.250000 0.250000 0.012048 0.626506 0.349398 0.012048 0.019769 0.202636 0.490939 0.286656 0.005525 0.154696 0.436464 0.403315 0.250000 0.250000 0.250000 0.250000 0.031250 0.718750 0.218750 0.031250 0.010582 0.417990 0.402116 0.169312 0.250000 0.250000 0.250000 0.250000 0.571429 0.142857 0.142857 0.142857 0.250000 0.250000 0.250000 0.250000 0.250000 0.250000 0.250000 0.250000 0.625000 0.125000 0.125000 0.125000 0.250000 0.250000 0.250000 0.250000 0.250000 0.250000 0.250000 0.250000 0.392857 0.071429 0.464285 0.071429 0.100000 0.366667 0.500000 0.033333 0.250000 0.250000 0.250000 0.250000 0.250000 0.250000 0.250000 0.250000 0.250000 0.250000 0.250000 0.250000 0.103448 0.310345 0.568966 0.017241 0.250000 0.250000 0.250000 0.250000 0.250000 0.250000 0.250000 0.250000 0.250000 0.250000 0.250000 0.250000 0.125000 0.625000 0.125000 0.125000 0.045455 0.409091 0.499999 0.045455 0.250000 0.250000 0.250000 0.250000 0.250000 0.250000 0.250000 0.250000 0.400000 0.300000 0.200000 0.100000 0.083333 0.750001 0.083333 0.083333 0.335721 0.262655 0.364375 0.037249 0.004211 0.217075 0.511869 0.266845 0.504451 0.121662 0.296736 0.077151 0.008929 0.544642 0.437500 0.008929 0.084180 0.406386 0.500726 0.008708 0.023392 0.286550 0.578947 0.111111 0.007519 0.127820 0.270677 0.593984 0.250000 0.250000 0.250000 0.250000 0.034694 0.274490 0.640816 0.050000 0.010807 0.164265 0.534582 0.290346 0.091667 0.091667 0.258333 0.558333 0.250000 0.250000 0.250000 0.250000 0.250000 0.250000 0.250000 0.250000 0.250000 0.250000 0.250000 0.250000 0.400000 0.200000 0.200000 0.200000 0.025000 0.400000 0.550000 0.025000 0.250000 0.250000 0.250000 0.250000 0.236842 0.263158 0.447368 0.052632 0.250000 0.250000 0.250000 0.250000 0.250000 0.250000 0.250000 0.250000 0.071429 0.428571 0.428571 0.071429 0.250000 0.250000 0.250000 0.250000 0.029412 0.411764 0.411765 0.147059 0.250000 0.250000 0.250000 0.250000 0.250000 0.250000 0.250000 0.250000 0.079365 0.253968 0.476191 0.190476 0.465609 0.116402 0.089947 0.328042 0.250000 0.250000 0.250000 0.250000 0.250000 0.250000 0.250000 0.250000 0.250000 0.250000 0.250000 0.250000 0.250000 0.250000 0.250000 0.250000 0.250000 0.250000 0.250000 0.250000 0.250000 0.250000 0.250000 0.250000 0.250000 0.250000 0.250000 0.250000 0.250000 0.250000 0.250000 0.250000 0.250000 0.250000 0.250000 0.250000 0.250000 0.250000 0.250000 0.250000 0.250000 0.250000 0.250000 0.250000 0.250000 0.250000 0.250000 0.250000 0.250000 0.250000 0.250000 0.250000 0.250000 0.250000 0.250000 0.250000 0.250000 0.250000 0.250000 0.250000 0.250000 0.250000 0.250000 0.250000 0.250000 0.250000 0.250000 0.250000 0.250000 0.250000 0.250000 0.250000 0.250000 0.250000 0.250000 0.250000 0.250000 0.250000 0.250000 0.250000 0.250000 0.250000 0.250000 0.250000 0.250000 0.250000 0.250000 0.250000 0.250000 0.250000 0.250000 0.250000 0.250000 0.250000 0.250000 0.250000 0.250000 0.250000 0.250000 0.250000 0.250000 0.250000 0.250000 0.250000 0.250000 0.250000 0.250000 0.250000 0.250000 0.250000 0.250000 0.250000 0.250000 0.250000 0.250000 0.250000 0.250000 0.250000 0.250000 0.250000 0.250000 0.250000 0.250000 0.250000 0.250000 0.250000 0.250000 0.250000 0.250000 0.250000 0.250000 0.250000 0.250000 0.250000 0.250000 0.250000 0.250000 0.250000 0.250000 0.250000 0.250000 0.250000 0.250000 0.250000 0.250000 0.250000 0.250000 0.250000 0.250000 0.250000 0.250000 0.250000 0.250000 0.250000 0.250000 0.250000 0.250000 0.250000 0.250000 0.250000 0.250000 0.250000 0.250000 0.250000 0.250000 0.250000 0.250000 0.250000 0.250000 0.250000 0.250000 0.250000 0.250000 0.250000 0.250000 0.250000 0.250000 0.250000 0.250000 0.250000 0.250000 0.250000 0.250000 0.250000 0.250000 0.250000 0.250000 0.250000 0.250000 0.250000 0.250000 0.250000 0.250000 0.250000 0.250000 0.250000 0.250000 0.250000 0.250000 0.250000 0.250000 0.250000 0.250000 0.250000 0.250000 0.250000 0.250000 0.250000 0.250000 0.250000 0.250000 0.250000 0.250000 0.250000 0.250000 0.250000 0.250000 0.250000 0.250000 0.250000 0.250000 0.250000 0.250000 0.250000 0.250000 0.250000 0.250000 0.250000 0.250000 0.250000 0.250000 0.250000 0.250000 0.250000 0.250000 0.250000 0.250000 0.250000 0.250000 0.250000 0.250000 0.250000 0.250000 0.250000 0.250000 0.250000 0.250000 0.250000 0.250000 0.250000 0.250000 0.250000 0.250000 0.250000 0.250000 0.250000 0.250000 0.250000 0.250000 0.250000 0.250000 0.250000 0.250000 0.250000 0.250000 0.250000 0.250000 0.250000 0.250000 0.250000 0.250000 0.250000 0.250000 0.250000 0.250000 0.250000 0.250000 0.250000 0.250000 0.250000 0.250000 0.250000 0.250000 0.250000 0.019608 0.073529 0.294118 0.612745 0.250000 0.250000 0.250000 0.250000 0.250000 0.250000 0.250000 0.250000 0.250000 0.250000 0.250000 0.250000 0.285714 0.071429 0.285714 0.357143 0.250000 0.250000 0.250000 0.250000 0.250000 0.250000 0.250000 0.250000 0.250000 0.250000 0.250000 0.250000 0.250000 0.250000 0.250000 0.250000 0.250000 0.250000 0.250000 0.250000 0.250000 0.250000 0.250000 0.250000 0.250000 0.250000 0.250000 0.250000 0.250000 0.250000 0.250000 0.250000 0.250000 0.250000 0.250000 0.250000 0.250000 0.250000 0.250000 0.250000 0.250000 0.250000 0.250000 0.250000 0.250000 0.250000 0.250000 0.250000 0.250000 0.250000 0.250000 0.250000 0.250000 0.250000 0.250000 0.250000 0.250000 0.250000 0.250000 0.250000 0.250000 0.250000 0.250000 0.250000 0.250000 0.250000 0.250000 0.250000 0.250000 0.250000 0.250000 0.250000 0.250000 0.250000 0.250000 0.250000 0.250000 0.250000 0.250000 0.250000 0.250000 0.250000 0.250000 0.250000 0.250000 0.250000 0.250000 0.250000 0.250000 0.250000 0.250000 0.250000 0.250000 0.250000 0.250000 0.250000 0.250000 0.250000 0.250000 0.250000 0.250000 0.250000 0.250000 0.250000 0.250000 0.250000 0.250000 0.250000 0.077778 0.066667 0.244444 0.611111 0.250000 0.250000 0.250000 0.250000 0.250000 0.250000 0.250000 0.250000 0.250000 0.250000 0.250000 0.250000 0.117647 0.117647 0.588235 0.176471 0.250000 0.250000 0.250000 0.250000 0.250000 0.250000 0.250000 0.250000 0.250000 0.250000 0.250000 0.250000 0.250000 0.250000 0.250000 0.250000 0.250000 0.250000 0.250000 0.250000 0.250000 0.250000 0.250000 0.250000 0.250000 0.250000 0.250000 0.250000 0.250000 0.250000 0.250000 0.250000 0.250000 0.250000 0.250000 0.250000 0.250000 0.250000 0.250000 0.250000 0.250000 0.250000 0.250000 0.250000 0.250000 0.250000 0.250000 0.250000 0.250000 0.250000 0.250000 0.250000 0.250000 0.250000 0.250000 0.250000 0.250000 0.250000 0.250000 0.250000 0.250000 0.250000 0.250000 0.250000 0.250000 0.250000 0.250000 0.250000 0.250000 0.250000 0.250000 0.250000 0.250000 0.250000 0.250000 0.250000 0.250000 0.250000 0.250000 0.250000 0.250000 0.250000 0.250000 0.250000 0.250000 0.250000 0.250000 0.250000 0.250000 0.250000 0.250000 0.250000 0.250000 0.250000 0.250000 0.250000 0.250000 0.250000 0.250000 0.250000 0.074074 0.370370 0.518519 0.037037 0.001302 0.139323 0.264323 0.595052 0.079941 0.131437 0.299166 0.489456 0.250000 0.250000 0.250000 0.250000 0.017241 0.706897 0.258621 0.017241 0.535715 0.178571 0.250000 0.035714 0.021155 0.152087 0.402516 0.424242 0.250000 0.250000 0.250000 0.250000 0.070423 0.295775 0.563379 0.070423 0.009009 0.162162 0.459460 0.369369 0.005333 0.138667 0.333333 0.522667 0.250000 0.250000 0.250000 0.250000 0.250000 0.250000 0.250000 0.250000 0.250000 0.250000 0.250000 0.250000 0.250000 0.250000 0.250000 0.250000 0.250000 0.250000 0.250000 0.250000 0.250000 0.250000 0.250000 0.250000 0.166667 0.166667 0.499999 0.166667 0.092308 0.061538 0.184615 0.661539 0.250000 0.250000 0.250000 0.250000 0.250000 0.250000 0.250000 0.250000 0.142857 0.571429 0.142857 0.142857 0.137195 0.103659 0.332317 0.426829 0.250000 0.250000 0.250000 0.250000 0.250000 0.250000 0.250000 0.250000 0.083333 0.250000 0.583334 0.083333 0.019108 0.057325 0.178344 0.745223 0.250000 0.250000 0.250000 0.250000 0.250000 0.250000 0.250000 0.250000 0.250000 0.250000 0.250000 0.250000 0.250000 0.250000 0.250000 0.250000 0.014286 0.828571 0.142857 0.014286 0.027972 0.377622 0.592075 0.002331 0.308017 0.316456 0.371308 0.004219 0.275275 0.062563 0.117117 0.545045 0.250000 0.250000 0.250000 0.250000 0.063272 0.364198 0.563271 0.009259 0.035714 0.428571 0.500001 0.035714 0.073648 0.165708 0.416570 0.344074 0.250000 0.250000 0.250000 0.250000 0.037300 0.269982 0.577857 0.114861 0.004751 0.175772 0.460807 0.358670 0.091603 0.137405 0.458015 0.312977 0.250000 0.250000 0.250000 0.250000 0.250000 0.250000 0.250000 0.250000 0.250000 0.250000 0.250000 0.250000 0.250000 0.250000 0.250000 0.250000 0.469231 0.238462 0.284615 0.007692 0.025000 0.450000 0.512500 0.012500 0.203125 0.250000 0.515625 0.031250 0.082921 0.103960 0.273515 0.539604 0.250000 0.250000 0.250000 0.250000 0.250000 0.250000 0.250000 0.250000 0.100418 0.251046 0.502092 0.146444 0.031320 0.178971 0.454139 0.335570 0.250000 0.250000 0.250000 0.250000 0.038462 0.405594 0.552447 0.003497 0.063107 0.152104 0.359223 0.425566 0.053272 0.073059 0.199899 0.673770 0.250000 0.250000 0.250000 0.250000 0.250000 0.250000 0.250000 0.250000 0.250000 0.250000 0.250000 0.250000 0.250000 0.250000 0.250000 0.250000 0.250000 0.250000 0.250000 0.250000 0.082090 0.231343 0.679104 0.007463 0.250000 0.250000 0.250000 0.250000 0.250000 0.250000 0.250000 0.250000 0.250000 0.250000 0.250000 0.250000 0.005587 0.201117 0.787709 0.005587 0.250000 0.250000 0.250000 0.250000 0.250000 0.250000 0.250000 0.250000 0.250000 0.250000 0.250000 0.250000 0.064356 0.002475 0.373762 0.559407 0.250000 0.250000 0.250000 0.250000 0.250000 0.250000 0.250000 0.250000 0.250000 0.250000 0.250000 0.250000 0.250000 0.250000 0.250000 0.250000 0.250000 0.250000 0.250000 0.250000 0.250000 0.250000 0.250000 0.250000 0.250000 0.250000 0.250000 0.250000 0.250000 0.250000 0.250000 0.250000 0.250000 0.250000 0.250000 0.250000 0.250000 0.250000 0.250000 0.250000 0.250000 0.250000 0.250000 0.250000 0.250000 0.250000 0.250000 0.250000 0.250000 0.250000 0.250000 0.250000 0.250000 0.250000 0.250000 0.250000 0.250000 0.250000 0.250000 0.250000 0.250000 0.250000 0.250000 0.250000 0.250000 0.250000 0.250000 0.250000 0.250000 0.250000 0.250000 0.250000 0.250000 0.250000 0.250000 0.250000 0.250000 0.250000 0.250000 0.250000 0.250000 0.250000 0.250000 0.250000 0.250000 0.250000 0.250000 0.250000 0.250000 0.250000 0.250000 0.250000 0.250000 0.250000 0.250000 0.250000 0.250000 0.250000 0.250000 0.250000 0.250000 0.250000 0.250000 0.250000 0.250000 0.250000 0.250000 0.250000 0.250000 0.250000 0.250000 0.250000 0.250000 0.250000 0.250000 0.250000 0.250000 0.250000 0.250000 0.250000 0.250000 0.250000 0.250000 0.250000 0.250000 0.250000 0.250000 0.250000 0.250000 0.250000 0.250000 0.250000 0.250000 0.250000 0.250000 0.250000 0.250000 0.250000 0.250000 0.250000 0.250000 0.250000 0.250000 0.250000 0.250000 0.250000 0.250000 0.250000 0.250000 0.250000 0.250000 0.250000 0.250000 0.250000 0.250000 0.250000 0.250000 0.250000 0.250000 0.250000 0.250000 0.250000 0.250000 0.250000 0.250000 0.250000 0.250000 0.250000 0.250000 0.250000 0.250000 0.250000 0.250000 0.250000 0.250000 0.250000 0.250000 0.250000 0.250000 0.250000 0.250000 0.250000 0.250000 0.250000 0.250000 0.250000 0.250000 0.250000 0.250000 0.250000 0.250000 0.250000 0.250000 0.250000 0.250000 0.250000 0.250000 0.250000 0.250000 0.250000 0.250000 0.250000 0.250000 0.250000 0.250000 0.250000 0.250000 0.250000 0.250000 0.250000 0.250000 0.250000 0.250000 0.250000 0.250000 0.250000 0.250000 0.250000 0.250000 0.250000 0.250000 0.250000 0.250000 0.250000 0.250000 0.250000 0.250000 0.250000 0.032258 0.225806 0.516130 0.225806 0.250000 0.250000 0.250000 0.250000 0.250000 0.250000 0.250000 0.250000 0.250000 0.250000 0.250000 0.250000 0.250000 0.250000 0.250000 0.250000 0.250000 0.250000 0.250000 0.250000 0.250000 0.250000 0.250000 0.250000 0.250000 0.250000 0.250000 0.250000 0.250000 0.250000 0.250000 0.250000 0.250000 0.250000 0.250000 0.250000 0.250000 0.250000 0.250000 0.250000 0.250000 0.250000 0.250000 0.250000 0.250000 0.250000 0.250000 0.250000 0.250000 0.250000 0.250000 0.250000 0.250000 0.250000 0.250000 0.250000 0.250000 0.250000 0.250000 0.250000 0.250000 0.250000 0.250000 0.250000 0.250000 0.250000 0.250000 0.250000 0.250000 0.250000 0.250000 0.250000 0.250000 0.250000 0.250000 0.250000 0.250000 0.250000 0.250000 0.250000 0.250000 0.250000 0.250000 0.250000 0.250000 0.250000 0.250000 0.250000 0.250000 0.250000 0.250000 0.250000 0.250000 0.250000 0.250000 0.250000 0.250000 0.250000 0.250000 0.250000 0.250000 0.250000 0.250000 0.250000 0.250000 0.250000 0.250000 0.250000 0.250000 0.250000 0.250000 0.250000 0.250000 0.250000 0.250000 0.250000 0.250000 0.250000 0.250000 0.250000 0.250000 0.250000 0.250000 0.250000 0.017722 0.056962 0.372152 0.553164 0.250000 0.250000 0.250000 0.250000 0.071429 0.071429 0.785713 0.071429 0.090909 0.090909 0.363636 0.454546 0.012048 0.075301 0.316265 0.596386 0.250000 0.250000 0.250000 0.250000 0.250000 0.250000 0.250000 0.250000 0.250000 0.250000 0.250000 0.250000 0.010000 0.050000 0.250000 0.690000 0.250000 0.250000 0.250000 0.250000 0.250000 0.250000 0.250000 0.250000 0.250000 0.250000 0.250000 0.250000 0.250000 0.250000 0.250000 0.250000 0.250000 0.250000 0.250000 0.250000 0.250000 0.250000 0.250000 0.250000 0.250000 0.250000 0.250000 0.250000 0.250000 0.250000 0.250000 0.250000 0.250000 0.250000 0.250000 0.250000 0.250000 0.250000 0.250000 0.250000 0.166667 0.166667 0.166667 0.499999 0.200000 0.200000 0.200000 0.400000 0.250000 0.250000 0.250000 0.250000 0.250000 0.250000 0.250000 0.250000 0.250000 0.250000 0.250000 0.250000 0.250000 0.250000 0.250000 0.250000 0.250000 0.250000 0.250000 0.250000 0.250000 0.250000 0.250000 0.250000 0.250000 0.250000 0.250000 0.250000 0.250000 0.250000 0.250000 0.250000 0.250000 0.250000 0.250000 0.250000 0.038961 0.584416 0.363636 0.012987 0.001647 0.428336 0.482702 0.087315 0.021755 0.171875 0.397356 0.409014 0.250000 0.250000 0.250000 0.250000 0.012987 0.909091 0.064935 0.012987 0.284440 0.156095 0.275025 0.284440 0.069626 0.147031 0.385695 0.397648 0.250000 0.250000 0.250000 0.250000 0.006993 0.363636 0.482518 0.146853 0.008242 0.214286 0.645604 0.131868 0.004009 0.145755 0.332075 0.518161 0.250000 0.250000 0.250000 0.250000 0.250000 0.250000 0.250000 0.250000 0.250000 0.250000 0.250000 0.250000 0.250000 0.250000 0.250000 0.250000 0.250000 0.250000 0.250000 0.250000 0.250000 0.250000 0.250000 0.250000 0.187500 0.125000 0.625000 0.062500 0.450000 0.150000 0.350000 0.050000 0.250000 0.250000 0.250000 0.250000 0.100000 0.100000 0.100000 0.700000 0.034884 0.151163 0.476744 0.337209 0.027397 0.260274 0.424658 0.287671 0.250000 0.250000 0.250000 0.250000 0.250000 0.250000 0.250000 0.250000 0.250000 0.250000 0.250000 0.250000 0.040268 0.214765 0.342282 0.402685 0.250000 0.250000 0.250000 0.250000 0.250000 0.250000 0.250000 0.250000 0.250000 0.250000 0.250000 0.250000 0.250000 0.250000 0.250000 0.250000 0.250000 0.250000 0.250000 0.250000 0.027726 0.391867 0.578559 0.001848 0.026411 0.124850 0.493797 0.354942 0.066160 0.137318 0.414151 0.382371 0.250000 0.250000 0.250000 0.250000 0.214077 0.356308 0.429323 0.000292 0.033533 0.235629 0.527844 0.202994 0.048166 0.124450 0.365526 0.461858 0.250000 0.250000 0.250000 0.250000 0.037721 0.282122 0.563851 0.116306 0.044234 0.276777 0.575356 0.103633 0.012435 0.094131 0.319324 0.574110 0.250000 0.250000 0.250000 0.250000 0.250000 0.250000 0.250000 0.250000 0.250000 0.250000 0.250000 0.250000 0.250000 0.250000 0.250000 0.250000 0.250000 0.250000 0.250000 0.250000 0.250000 0.250000 0.250000 0.250000 0.357142 0.357143 0.214286 0.071429 0.459337 0.119729 0.227410 0.193524 0.250000 0.250000 0.250000 0.250000 0.241573 0.174157 0.443821 0.140449 0.025126 0.296482 0.603015 0.075377 0.044711 0.155943 0.465649 0.333697 0.250000 0.250000 0.250000 0.250000 0.250000 0.250000 0.250000 0.250000 0.122024 0.104167 0.258929 0.514880 0.025399 0.097755 0.278795 0.598051 0.250000 0.250000 0.250000 0.250000 0.250000 0.250000 0.250000 0.250000 0.250000 0.250000 0.250000 0.250000 0.250000 0.250000 0.250000 0.250000 0.250000 0.250000 0.250000 0.250000 0.250000 0.250000 0.250000 0.250000 0.250000 0.250000 0.250000 0.250000 0.250000 0.250000 0.250000 0.250000 0.250000 0.250000 0.250000 0.250000 0.250000 0.250000 0.250000 0.250000 0.330709 0.007874 0.653543 0.007874 0.250000 0.250000 0.250000 0.250000 0.250000 0.250000 0.250000 0.250000 0.007353 0.169118 0.816176 0.007353 0.250000 0.250000 0.250000 0.250000 0.250000 0.250000 0.250000 0.250000 0.250000 0.250000 0.250000 0.250000 0.250000 0.250000 0.250000 0.250000 0.250000 0.250000 0.250000 0.250000 0.250000 0.250000 0.250000 0.250000 0.250000 0.250000 0.250000 0.250000 0.250000 0.250000 0.250000 0.250000 0.250000 0.250000 0.250000 0.250000 0.250000 0.250000 0.250000 0.250000 0.250000 0.250000 0.250000 0.250000 0.250000 0.250000 0.250000 0.250000 0.250000 0.250000 0.250000 0.250000 0.250000 0.250000 0.250000 0.250000 0.250000 0.250000 0.250000 0.250000 0.250000 0.250000 0.250000 0.250000 0.250000 0.250000 0.250000 0.250000 0.250000 0.250000 0.250000 0.250000 0.250000 0.250000 0.250000 0.250000 0.250000 0.250000 0.250000 0.250000 0.250000 0.250000 0.250000 0.250000 0.250000 0.250000 0.250000 0.250000 0.250000 0.250000 0.250000 0.250000 0.250000 0.250000 0.250000 0.250000 0.250000 0.250000 0.250000 0.250000 0.250000 0.250000 0.250000 0.250000 0.250000 0.250000 0.250000 0.250000 0.250000 0.250000 0.250000 0.250000 0.250000 0.250000 0.250000 0.250000 0.250000 0.250000 0.250000 0.250000 0.250000 0.250000 0.250000 0.250000 0.250000 0.250000 0.250000 0.250000 0.250000 0.250000 0.250000 0.250000 0.250000 0.250000 0.250000 0.250000 0.250000 0.250000 0.250000 0.250000 0.250000 0.250000 0.250000 0.250000 0.250000 0.250000 0.250000 0.250000 0.250000 0.250000 0.250000 0.250000 0.250000 0.250000 0.250000 0.250000 0.250000 0.250000 0.250000 0.250000 0.250000 0.250000 0.250000 0.250000 0.250000 0.250000 0.250000 0.250000 0.250000 0.250000 0.250000 0.250000 0.250000 0.250000 0.250000 0.250000 0.250000 0.250000 0.250000 0.250000 0.250000 0.250000 0.250000 0.250000 0.250000 0.250000 0.250000 0.250000 0.250000 0.250000 0.250000 0.250000 0.250000 0.250000 0.250000 0.250000 0.250000 0.250000 0.250000 0.250000 0.250000 0.250000 0.250000 0.250000 0.250000 0.250000 0.250000 0.250000 0.250000 0.250000 0.250000 0.250000 0.250000 0.250000 0.250000 0.250000 0.250000 0.250000 0.250000 0.250000 0.250000 0.250000 0.250000 0.250000 0.250000 0.250000 0.250000 0.250000 0.047619 0.095238 0.309524 0.547619 0.250000 0.250000 0.250000 0.250000 0.250000 0.250000 0.250000 0.250000 0.250000 0.250000 0.250000 0.250000 0.250000 0.250000 0.250000 0.250000 0.250000 0.250000 0.250000 0.250000 0.250000 0.250000 0.250000 0.250000 0.250000 0.250000 0.250000 0.250000 0.250000 0.250000 0.250000 0.250000 0.250000 0.250000 0.250000 0.250000 0.250000 0.250000 0.250000 0.250000 0.250000 0.250000 0.250000 0.250000 0.250000 0.250000 0.250000 0.250000 0.250000 0.250000 0.250000 0.250000 0.250000 0.250000 0.250000 0.250000 0.250000 0.250000 0.250000 0.250000 0.250000 0.250000 0.250000 0.250000 0.250000 0.250000 0.250000 0.250000 0.250000 0.250000 0.250000 0.250000 0.250000 0.250000 0.250000 0.250000 0.250000 0.250000 0.250000 0.250000 0.250000 0.250000 0.250000 0.250000 0.250000 0.250000 0.250000 0.250000 0.250000 0.250000 0.250000 0.250000 0.250000 0.250000 0.250000 0.250000 0.250000 0.250000 0.250000 0.250000 0.250000 0.250000 0.250000 0.250000 0.250000 0.250000 0.250000 0.250000 0.250000 0.250000 0.250000 0.250000 0.250000 0.250000 0.250000 0.250000 0.250000 0.250000 0.250000 0.250000 0.111111 0.111111 0.666667 0.111111 0.044264 0.046359 0.323730 0.585647 0.250000 0.250000 0.250000 0.250000 0.250000 0.250000 0.250000 0.250000 0.014493 0.115942 0.521739 0.347826 0.001402 0.038192 0.347582 0.612824 0.250000 0.250000 0.250000 0.250000 0.250000 0.250000 0.250000 0.250000 0.005780 0.098266 0.231214 0.664740 0.047945 0.054795 0.232877 0.664383 0.250000 0.250000 0.250000 0.250000 0.250000 0.250000 0.250000 0.250000 0.250000 0.250000 0.250000 0.250000 0.250000 0.250000 0.250000 0.250000 0.250000 0.250000 0.250000 0.250000 0.250000 0.250000 0.250000 0.250000 0.250000 0.250000 0.250000 0.250000 0.250000 0.250000 0.250000 0.250000 0.250000 0.250000 0.250000 0.250000 0.250000 0.250000 0.250000 0.250000 0.250000 0.250000 0.250000 0.250000 0.166667 0.166667 0.499999 0.166667 0.250000 0.250000 0.250000 0.250000 0.250000 0.250000 0.250000 0.250000 0.250000 0.250000 0.250000 0.250000 0.250000 0.250000 0.250000 0.250000 0.250000 0.250000 0.250000 0.250000 0.250000 0.250000 0.250000 0.250000 0.250000 0.250000 0.250000 0.250000 0.250000 0.250000 0.250000 0.250000 0.250000 0.250000 0.250000 0.250000 0.636796 0.147502 0.214909 0.000793 0.014368 0.183087 0.452791 0.349754 0.031752 0.126193 0.352765 0.489290 0.250000 0.250000 0.250000 0.250000 0.250000 0.250000 0.250000 0.250000 0.026773 0.181306 0.413340 0.378581 0.015251 0.131723 0.359016 0.494010 0.250000 0.250000 0.250000 0.250000 0.011364 0.363636 0.477273 0.147727 0.008505 0.167029 0.366630 0.457836 0.028968 0.110230 0.303186 0.557616 0.250000 0.250000 0.250000 0.250000 0.250000 0.250000 0.250000 0.250000 0.250000 0.250000 0.250000 0.250000 0.250000 0.250000 0.250000 0.250000 0.250000 0.250000 0.250000 0.250000 0.250000 0.250000 0.250000 0.250000 0.250000 0.250000 0.250000 0.250000 0.136364 0.436364 0.363636 0.063636 0.250000 0.250000 0.250000 0.250000 0.250000 0.250000 0.250000 0.250000 0.142857 0.142857 0.571429 0.142857 0.038356 0.212329 0.368493 0.380822 0.250000 0.250000 0.250000 0.250000 0.250000 0.250000 0.250000 0.250000 0.250000 0.250000 0.250000 0.250000 0.250000 0.250000 0.250000 0.250000 0.250000 0.250000 0.250000 0.250000 0.250000 0.250000 0.250000 0.250000 0.250000 0.250000 0.250000 0.250000 0.250000 0.250000 0.250000 0.250000 0.250000 0.250000 0.250000 0.250000 0.602854 0.175276 0.219076 0.002794 0.044598 0.153947 0.349392 0.452063 0.011496 0.135076 0.348091 0.505337 0.250000 0.250000 0.250000 0.250000 0.456129 0.228412 0.315111 0.000348 0.031912 0.229016 0.536069 0.203003 0.034702 0.116201 0.348427 0.500670 0.250000 0.250000 0.250000 0.250000 0.330863 0.351241 0.246388 0.071508 0.057318 0.151873 0.429576 0.361233 0.027688 0.082957 0.259660 0.629695 0.250000 0.250000 0.250000 0.250000 0.250000 0.250000 0.250000 0.250000 0.250000 0.250000 0.250000 0.250000 0.250000 0.250000 0.250000 0.250000 0.250000 0.250000 0.250000 0.250000 0.250000 0.250000 0.250000 0.250000 0.250000 0.250000 0.250000 0.250000 0.146985 0.224874 0.458543 0.169598 0.250000 0.250000 0.250000 0.250000 0.250000 0.250000 0.250000 0.250000 0.023256 0.372093 0.581395 0.023256 0.028455 0.077236 0.475610 0.418699 0.250000 0.250000 0.250000 0.250000 0.133333 0.200000 0.533334 0.133333 0.037313 0.380597 0.500000 0.082090 0.027950 0.142857 0.409938 0.419255 0.250000 0.250000 0.250000 0.250000 0.250000 0.250000 0.250000 0.250000 0.250000 0.250000 0.250000 0.250000 0.250000 0.250000 0.250000 0.250000 0.250000 0.250000 0.250000 0.250000 0.250000 0.250000 0.250000 0.250000 0.250000 0.250000 0.250000 0.250000 0.250000 0.250000 0.250000 0.250000 0.250000 0.250000 0.250000 0.250000 0.250000 0.250000 0.250000 0.250000 0.047619 0.047619 0.857143 0.047619 0.250000 0.250000 0.250000 0.250000 0.250000 0.250000 0.250000 0.250000 0.017857 0.017857 0.946429 0.017857 0.200000 0.200000 0.400000 0.200000 0.007692 0.007692 0.223077 0.761539 0.250000 0.250000 0.250000 0.250000 0.250000 0.250000 0.250000 0.250000 0.250000 0.250000 0.250000 0.250000 0.250000 0.250000 0.250000 0.250000 0.250000 0.250000 0.250000 0.250000 0.250000 0.250000 0.250000 0.250000 0.250000 0.250000 0.250000 0.250000 0.250000 0.250000 0.250000 0.250000 0.250000 0.250000 0.250000 0.250000 0.250000 0.250000 0.250000 0.250000 0.250000 0.250000 0.250000 0.250000 0.250000 0.250000 0.250000 0.250000 0.250000 0.250000 0.250000 0.250000 0.250000 0.250000 0.250000 0.250000 0.007812 0.085938 0.898438 0.007812 0.250000 0.250000 0.250000 0.250000 0.250000 0.250000 0.250000 0.250000 0.250000 0.250000 0.250000 0.250000 0.250000 0.250000 0.250000 0.250000 0.250000 0.250000 0.250000 0.250000 0.250000 0.250000 0.250000 0.250000 0.250000 0.250000 0.250000 0.250000 0.250000 0.250000 0.250000 0.250000 0.250000 0.250000 0.250000 0.250000 0.250000 0.250000 0.250000 0.250000 0.250000 0.250000 0.250000 0.250000 0.250000 0.250000 0.250000 0.250000 0.250000 0.250000 0.250000 0.250000 0.250000 0.250000 0.250000 0.250000 0.250000 0.250000 0.250000 0.250000 0.250000 0.250000 0.250000 0.250000 0.250000 0.250000 0.250000 0.250000 0.250000 0.250000 0.250000 0.250000 0.250000 0.250000 0.250000 0.250000 0.250000 0.250000 0.250000 0.250000 0.250000 0.250000 0.250000 0.250000 0.250000 0.250000 0.250000 0.250000 0.250000 0.250000 0.250000 0.250000 0.250000 0.250000 0.250000 0.250000 0.250000 0.250000 0.250000 0.250000 0.250000 0.250000 0.250000 0.250000 0.250000 0.250000 0.250000 0.250000 0.250000 0.250000 0.250000 0.250000 0.250000 0.250000 0.250000 0.250000 0.250000 0.250000 0.250000 0.250000 0.250000 0.250000 0.250000 0.250000 0.250000 0.250000 0.250000 0.250000 0.250000 0.250000 0.250000 0.250000 0.250000 0.250000 0.250000 0.250000 0.250000 0.250000 0.250000 0.250000 0.250000 0.250000 0.250000 0.250000 0.250000 0.250000 0.250000 0.250000 0.250000 0.250000 0.250000 0.250000 0.250000 0.250000 0.250000 0.250000 0.250000 0.250000 0.250000 0.250000 0.250000 0.250000 0.250000 0.250000 0.250000 0.250000 0.250000 0.250000 0.250000 0.250000 0.250000 0.250000 0.250000 0.250000 0.250000 0.250000 0.002604 0.002604 0.348958 0.645834 0.250000 0.250000 0.250000 0.250000 0.250000 0.250000 0.250000 0.250000 0.250000 0.250000 0.250000 0.250000 0.005376 0.080645 0.381720 0.532259 0.250000 0.250000 0.250000 0.250000 0.250000 0.250000 0.250000 0.250000 0.250000 0.250000 0.250000 0.250000 0.250000 0.250000 0.250000 0.250000 0.250000 0.250000 0.250000 0.250000 0.250000 0.250000 0.250000 0.250000 0.250000 0.250000 0.250000 0.250000 0.250000 0.250000 0.250000 0.250000 0.250000 0.250000 0.250000 0.250000 0.250000 0.250000 0.250000 0.250000 0.250000 0.250000 0.250000 0.250000 0.250000 0.250000 0.250000 0.250000 0.250000 0.250000 0.250000 0.250000 0.250000 0.250000 0.250000 0.250000 0.250000 0.250000 0.250000 0.250000 0.250000 0.250000 0.250000 0.250000 0.250000 0.250000 0.250000 0.250000 0.250000 0.250000 0.250000 0.250000 0.250000 0.250000 0.250000 0.250000 0.250000 0.250000 0.250000 0.250000 0.250000 0.250000 0.250000 0.250000 0.250000 0.250000 0.250000 0.250000 0.250000 0.250000 0.250000 0.250000 0.015802 0.053171 0.176596 0.754431 0.250000 0.250000 0.250000 0.250000 0.250000 0.250000 0.250000 0.250000 0.005435 0.027174 0.168478 0.798913 0.021192 0.036785 0.326269 0.615754 0.250000 0.250000 0.250000 0.250000 0.250000 0.250000 0.250000 0.250000 0.005435 0.005435 0.277174 0.711956 0.004246 0.024628 0.124841 0.846285 0.250000 0.250000 0.250000 0.250000 0.250000 0.250000 0.250000 0.250000 0.250000 0.250000 0.250000 0.250000 0.250000 0.250000 0.250000 0.250000 0.250000 0.250000 0.250000 0.250000 0.250000 0.250000 0.250000 0.250000 0.250000 0.250000 0.250000 0.250000 0.250000 0.250000 0.250000 0.250000 0.250000 0.250000 0.250000 0.250000 0.250000 0.250000 0.250000 0.250000 0.250000 0.250000 0.250000 0.250000 0.250000 0.250000 0.250000 0.250000 0.250000 0.250000 0.250000 0.250000 0.250000 0.250000 0.250000 0.250000 0.250000 0.250000 0.250000 0.250000 0.250000 0.250000 0.250000 0.250000 0.250000 0.250000 0.250000 0.250000 0.250000 0.250000 0.250000 0.250000 0.250000 0.250000 0.250000 0.250000 0.250000 0.250000 0.250000 0.250000 0.250000 0.250000 0.250000 0.250000 0.495496 0.099099 0.396396 0.009009 0.019863 0.162845 0.313714 0.503578 0.037864 0.150457 0.358519 0.453160 0.250000 0.250000 0.250000 0.250000 0.250000 0.250000 0.250000 0.250000 0.028713 0.168069 0.419348 0.383870 0.016634 0.130200 0.350604 0.502562 0.250000 0.250000 0.250000 0.250000 0.250000 0.250000 0.250000 0.250000 0.009071 0.183443 0.371554 0.435932 0.010181 0.095363 0.279177 0.615279 0.250000 0.250000 0.250000 0.250000 0.250000 0.250000 0.250000 0.250000 0.250000 0.250000 0.250000 0.250000 0.250000 0.250000 0.250000 0.250000 0.250000 0.250000 0.250000 0.250000 0.250000 0.250000 0.250000 0.250000 0.250000 0.250000 0.250000 0.250000 0.250000 0.250000 0.250000 0.250000 0.250000 0.250000 0.250000 0.250000 0.250000 0.250000 0.250000 0.250000 0.062500 0.437500 0.312500 0.187500 0.261905 0.098997 0.365915 0.273183 0.250000 0.250000 0.250000 0.250000 0.250000 0.250000 0.250000 0.250000 0.029412 0.470588 0.470588 0.029412 0.093878 0.285714 0.497959 0.122449 0.250000 0.250000 0.250000 0.250000 0.250000 0.250000 0.250000 0.250000 0.250000 0.250000 0.250000 0.250000 0.250000 0.250000 0.250000 0.250000 0.250000 0.250000 0.250000 0.250000 0.994486 0.003225 0.002185 0.000104 0.041659 0.114113 0.340364 0.503864 0.069608 0.087056 0.306677 0.536659 0.250000 0.250000 0.250000 0.250000 0.461129 0.229322 0.309194 0.000355 0.028532 0.117257 0.359779 0.494432 0.040784 0.095762 0.302426 0.561028 0.250000 0.250000 0.250000 0.250000 0.148880 0.212854 0.290979 0.347287 0.041922 0.112737 0.316371 0.528970 0.022334 0.075140 0.214228 0.688298 0.250000 0.250000 0.250000 0.250000 0.250000 0.250000 0.250000 0.250000 0.250000 0.250000 0.250000 0.250000 0.250000 0.250000 0.250000 0.250000 0.250000 0.250000 0.250000 0.250000 0.250000 0.250000 0.250000 0.250000 0.250000 0.250000 0.250000 0.250000 0.250000 0.250000 0.250000 0.250000 0.250000 0.250000 0.250000 0.250000 0.250000 0.250000 0.250000 0.250000 0.011364 0.056818 0.306818 0.625000 0.037594 0.208020 0.498747 0.255639 0.250000 0.250000 0.250000 0.250000 0.250000 0.250000 0.250000 0.250000 0.001946 0.089494 0.410506 0.498054 0.116541 0.084757 0.256432 0.542270 0.250000 0.250000 0.250000 0.250000 0.250000 0.250000 0.250000 0.250000 0.250000 0.250000 0.250000 0.250000 0.250000 0.250000 0.250000 0.250000 0.250000 0.250000 0.250000 0.250000 0.250000 0.250000 0.250000 0.250000 0.003521 0.003521 0.989437 0.003521 0.250000 0.250000 0.250000 0.250000 0.250000 0.250000 0.250000 0.250000 0.250000 0.250000 0.250000 0.250000 0.250000 0.250000 0.250000 0.250000 0.002551 0.002551 0.403061 0.591837 0.250000 0.250000 0.250000 0.250000 0.250000 0.250000 0.250000 0.250000 0.118014 0.017527 0.385394 0.479065 0.010450 0.021967 0.179918 0.787665 0.250000 0.250000 0.250000 0.250000 0.250000 0.250000 0.250000 0.250000 0.250000 0.250000 0.250000 0.250000 0.250000 0.250000 0.250000 0.250000 0.250000 0.250000 0.250000 0.250000 0.250000 0.250000 0.250000 0.250000 0.250000 0.250000 0.250000 0.250000 0.250000 0.250000 0.250000 0.250000 0.250000 0.250000 0.250000 0.250000 0.250000 0.250000 0.250000 0.250000 0.250000 0.250000 0.250000 0.250000 0.250000 0.250000 0.250000 0.250000 0.250000 0.250000 0.250000 0.250000 0.250000 0.250000 0.250000 0.250000 0.052632 0.842104 0.052632 0.052632 0.250000 0.250000 0.250000 0.250000 0.075107 0.620172 0.302575 0.002146 0.994024 0.001992 0.001992 0.001992 0.250000 0.250000 0.250000 0.250000 0.181818 0.772728 0.022727 0.022727 0.021739 0.413043 0.543479 0.021739 0.929487 0.038462 0.025641 0.006410 0.250000 0.250000 0.250000 0.250000 0.925743 0.059406 0.013201 0.001650 0.250000 0.250000 0.250000 0.250000 0.250000 0.250000 0.250000 0.250000 0.250000 0.250000 0.250000 0.250000 0.250000 0.250000 0.250000 0.250000 0.250000 0.250000 0.250000 0.250000 0.250000 0.250000 0.250000 0.250000 0.250000 0.250000 0.250000 0.250000 0.250000 0.250000 0.250000 0.250000 0.956521 0.014493 0.014493 0.014493 0.250000 0.250000 0.250000 0.250000 0.571429 0.142857 0.142857 0.142857 0.004717 0.617924 0.372642 0.004717 0.250000 0.250000 0.250000 0.250000 0.250000 0.250000 0.250000 0.250000 0.142857 0.571429 0.142857 0.142857 0.985150 0.004950 0.004950 0.004950 0.250000 0.250000 0.250000 0.250000 0.250000 0.250000 0.250000 0.250000 0.250000 0.250000 0.250000 0.250000 0.250000 0.250000 0.250000 0.250000 0.250000 0.250000 0.250000 0.250000 0.250000 0.250000 0.250000 0.250000 0.250000 0.250000 0.250000 0.250000 0.250000 0.250000 0.250000 0.250000 0.250000 0.250000 0.250000 0.250000 0.250000 0.250000 0.250000 0.250000 0.250000 0.250000 0.250000 0.250000 0.250000 0.250000 0.250000 0.250000 0.250000 0.250000 0.250000 0.250000 0.250000 0.250000 0.250000 0.250000 0.250000 0.250000 0.250000 0.250000 0.031250 0.156250 0.781250 0.031250 0.250000 0.250000 0.250000 0.250000 0.250000 0.250000 0.250000 0.250000 0.250000 0.250000 0.250000 0.250000 0.250000 0.250000 0.250000 0.250000 0.250000 0.250000 0.250000 0.250000 0.250000 0.250000 0.250000 0.250000 0.250000 0.250000 0.250000 0.250000 0.250000 0.250000 0.250000 0.250000 0.250000 0.250000 0.250000 0.250000 0.250000 0.250000 0.250000 0.250000 0.250000 0.250000 0.250000 0.250000 0.250000 0.250000 0.250000 0.250000 0.250000 0.250000 0.250000 0.250000 0.250000 0.250000 0.250000 0.250000 0.250000 0.250000 0.250000 0.250000 0.250000 0.250000 0.250000 0.250000 0.250000 0.250000 0.250000 0.250000 0.250000 0.250000 0.250000 0.250000 0.250000 0.250000 0.250000 0.250000 0.250000 0.250000 0.250000 0.250000 0.250000 0.250000 0.250000 0.250000 0.250000 0.250000 0.250000 0.250000 0.250000 0.250000 0.250000 0.250000 0.250000 0.250000 0.250000 0.250000 0.250000 0.250000 0.250000 0.250000 0.982354 0.005882 0.005882 0.005882 0.250000 0.250000 0.250000 0.250000 0.250000 0.250000 0.250000 0.250000 0.062500 0.812500 0.062500 0.062500 0.041667 0.466667 0.483333 0.008333 0.015220 0.122795 0.334140 0.527845 0.071543 0.178859 0.488746 0.260852 0.250000 0.250000 0.250000 0.250000 0.100000 0.100000 0.700000 0.100000 0.006993 0.027972 0.216783 0.748252 0.005102 0.127551 0.780612 0.086735 0.250000 0.250000 0.250000 0.250000 0.250000 0.250000 0.250000 0.250000 0.250000 0.250000 0.250000 0.250000 0.008065 0.056452 0.153226 0.782257 0.250000 0.250000 0.250000 0.250000 0.250000 0.250000 0.250000 0.250000 0.250000 0.250000 0.250000 0.250000 0.250000 0.250000 0.250000 0.250000 0.250000 0.250000 0.250000 0.250000 0.250000 0.250000 0.250000 0.250000 0.050000 0.250000 0.650000 0.050000 0.250000 0.250000 0.250000 0.250000 0.250000 0.250000 0.250000 0.250000 0.250000 0.250000 0.250000 0.250000 0.250000 0.250000 0.250000 0.250000 0.250000 0.250000 0.250000 0.250000 0.250000 0.250000 0.250000 0.250000 0.250000 0.250000 0.250000 0.250000 0.250000 0.250000 0.250000 0.250000 0.096774 0.096774 0.322581 0.483871 0.066667 0.569696 0.357576 0.006061 0.250000 0.250000 0.250000 0.250000 0.250000 0.250000 0.250000 0.250000 0.001393 0.072423 0.309192 0.616992 0.002315 0.594907 0.400463 0.002315 0.245527 0.351635 0.394201 0.008637 0.013835 0.208733 0.547082 0.230350 0.019947 0.176432 0.411526 0.392095 0.250000 0.250000 0.250000 0.250000 0.024038 0.564905 0.399038 0.012019 0.017061 0.215465 0.498074 0.269400 0.026936 0.162177 0.396184 0.414703 0.250000 0.250000 0.250000 0.250000 0.007576 0.795454 0.189394 0.007576 0.001735 0.302689 0.339115 0.356461 0.038462 0.192308 0.374126 0.395104 0.842104 0.052632 0.052632 0.052632 0.250000 0.250000 0.250000 0.250000 0.250000 0.250000 0.250000 0.250000 0.001307 0.156863 0.470588 0.371242 0.250000 0.250000 0.250000 0.250000 0.250000 0.250000 0.250000 0.250000 0.536586 0.097561 0.317073 0.048780 0.083333 0.375000 0.535715 0.005952 0.250000 0.250000 0.250000 0.250000 0.250000 0.250000 0.250000 0.250000 0.250000 0.250000 0.250000 0.250000 0.114130 0.304348 0.576087 0.005435 0.250000 0.250000 0.250000 0.250000 0.250000 0.250000 0.250000 0.250000 0.125000 0.125000 0.375000 0.375000 0.030303 0.318182 0.121212 0.530303 0.001901 0.442966 0.553232 0.001901 0.250000 0.250000 0.250000 0.250000 0.250000 0.250000 0.250000 0.250000 0.114754 0.573771 0.295082 0.016393 0.013158 0.921052 0.052632 0.013158 0.389456 0.269324 0.322155 0.019065 0.004969 0.226665 0.516933 0.251433 0.379625 0.076801 0.312376 0.231198 0.001969 0.553149 0.442913 0.001969 0.088791 0.348673 0.539822 0.022714 0.016078 0.257255 0.594118 0.132549 0.166667 0.257143 0.461904 0.114286 0.008772 0.447368 0.535088 0.008772 0.037338 0.253239 0.649225 0.060198 0.008772 0.175917 0.547847 0.267464 0.109539 0.086478 0.262579 0.541404 0.250000 0.250000 0.250000 0.250000 0.250000 0.250000 0.250000 0.250000 0.250000 0.250000 0.250000 0.250000 0.166667 0.333333 0.333333 0.166667 0.001799 0.415468 0.580934 0.001799 0.863635 0.045455 0.045455 0.045455 0.204852 0.350404 0.439353 0.005391 0.366667 0.155556 0.377777 0.100000 0.250000 0.250000 0.250000 0.250000 0.081081 0.270270 0.621622 0.027027 0.010638 0.329787 0.617022 0.042553 0.066667 0.245455 0.378787 0.309091 0.250000 0.250000 0.250000 0.250000 0.250000 0.250000 0.250000 0.250000 0.064713 0.212454 0.420025 0.302808 0.376446 0.104101 0.095689 0.423764 0.250000 0.250000 0.250000 0.250000 0.250000 0.250000 0.250000 0.250000 0.250000 0.250000 0.250000 0.250000 0.250000 0.250000 0.250000 0.250000 0.250000 0.250000 0.250000 0.250000 0.250000 0.250000 0.250000 0.250000 0.250000 0.250000 0.250000 0.250000 0.400000 0.200000 0.200000 0.200000 0.250000 0.250000 0.250000 0.250000 0.250000 0.250000 0.250000 0.250000 0.250000 0.250000 0.250000 0.250000 0.250000 0.250000 0.250000 0.250000 0.250000 0.250000 0.250000 0.250000 0.250000 0.250000 0.250000 0.250000 0.250000 0.250000 0.250000 0.250000 0.250000 0.250000 0.250000 0.250000 0.250000 0.250000 0.250000 0.250000 0.250000 0.250000 0.250000 0.250000 0.250000 0.250000 0.250000 0.250000 0.250000 0.250000 0.250000 0.250000 0.250000 0.250000 0.250000 0.250000 0.250000 0.250000 0.250000 0.250000 0.250000 0.250000 0.250000 0.250000 0.250000 0.250000 0.250000 0.250000 0.250000 0.250000 0.250000 0.250000 0.250000 0.250000 0.250000 0.250000 0.250000 0.250000 0.250000 0.250000 0.250000 0.250000 0.250000 0.250000 0.250000 0.250000 0.250000 0.250000 0.250000 0.250000 0.250000 0.250000 0.250000 0.250000 0.250000 0.250000 0.250000 0.250000 0.250000 0.250000 0.250000 0.250000 0.250000 0.250000 0.250000 0.250000 0.250000 0.250000 0.250000 0.250000 0.250000 0.250000 0.250000 0.250000 0.250000 0.250000 0.250000 0.250000 0.250000 0.250000 0.250000 0.250000 0.250000 0.250000 0.250000 0.250000 0.250000 0.250000 0.250000 0.250000 0.250000 0.250000 0.250000 0.250000 0.250000 0.250000 0.250000 0.250000 0.250000 0.250000 0.250000 0.250000 0.250000 0.250000 0.250000 0.250000 0.250000 0.250000 0.250000 0.250000 0.250000 0.250000 0.250000 0.250000 0.250000 0.250000 0.250000 0.250000 0.250000 0.250000 0.250000 0.250000 0.250000 0.250000 0.250000 0.250000 0.250000 0.250000 0.250000 0.250000 0.250000 0.250000 0.250000 0.250000 0.250000 0.250000 0.250000 0.250000 0.250000 0.250000 0.250000 0.250000 0.250000 0.250000 0.250000 0.250000 0.250000 0.250000 0.250000 0.250000 0.250000 0.250000 0.250000 0.250000 0.250000 0.250000 0.250000 0.250000 0.250000 0.250000 0.250000 0.250000 0.250000 0.250000 0.250000 0.250000 0.250000 0.250000 0.250000 0.250000 0.250000 0.250000 0.250000 0.250000 0.250000 0.250000 0.250000 0.250000 0.250000 0.250000 0.250000 0.250000 0.250000 0.250000 0.250000 0.250000 0.250000 0.250000 0.250000 0.250000 0.250000 0.250000 0.250000 0.250000 0.250000 0.250000 0.250000 0.250000 0.250000 0.250000 0.250000 0.250000 0.250000 0.250000 0.250000 0.250000 0.250000 0.250000 0.250000 0.250000 0.250000 0.250000 0.250000 0.250000 0.250000 0.250000 0.010405 0.065896 0.314451 0.609248 0.250000 0.250000 0.250000 0.250000 0.250000 0.250000 0.250000 0.250000 0.250000 0.250000 0.250000 0.250000 0.294118 0.029412 0.294118 0.382352 0.250000 0.250000 0.250000 0.250000 0.250000 0.250000 0.250000 0.250000 0.250000 0.250000 0.250000 0.250000 0.250000 0.250000 0.250000 0.250000 0.250000 0.250000 0.250000 0.250000 0.250000 0.250000 0.250000 0.250000 0.250000 0.250000 0.250000 0.250000 0.250000 0.250000 0.250000 0.250000 0.250000 0.250000 0.250000 0.250000 0.250000 0.250000 0.250000 0.250000 0.250000 0.250000 0.250000 0.250000 0.250000 0.250000 0.250000 0.250000 0.250000 0.250000 0.250000 0.250000 0.250000 0.250000 0.250000 0.250000 0.250000 0.250000 0.250000 0.250000 0.250000 0.250000 0.250000 0.250000 0.250000 0.250000 0.250000 0.250000 0.250000 0.250000 0.250000 0.250000 0.250000 0.250000 0.250000 0.250000 0.250000 0.250000 0.250000 0.250000 0.250000 0.250000 0.250000 0.250000 0.250000 0.250000 0.250000 0.250000 0.250000 0.250000 0.250000 0.250000 0.250000 0.250000 0.250000 0.250000 0.250000 0.250000 0.250000 0.250000 0.250000 0.250000 0.250000 0.250000 0.013514 0.256757 0.675675 0.054054 0.046784 0.063158 0.410526 0.479532 0.250000 0.250000 0.250000 0.250000 0.250000 0.250000 0.250000 0.250000 0.250000 0.250000 0.250000 0.250000 0.002122 0.079045 0.375066 0.543767 0.250000 0.250000 0.250000 0.250000 0.250000 0.250000 0.250000 0.250000 0.250000 0.250000 0.250000 0.250000 0.250000 0.250000 0.250000 0.250000 0.250000 0.250000 0.250000 0.250000 0.250000 0.250000 0.250000 0.250000 0.250000 0.250000 0.250000 0.250000 0.250000 0.250000 0.250000 0.250000 0.250000 0.250000 0.250000 0.250000 0.250000 0.250000 0.250000 0.250000 0.250000 0.250000 0.250000 0.250000 0.250000 0.250000 0.250000 0.250000 0.250000 0.250000 0.250000 0.250000 0.250000 0.250000 0.250000 0.250000 0.250000 0.250000 0.250000 0.250000 0.250000 0.250000 0.250000 0.250000 0.250000 0.250000 0.250000 0.250000 0.250000 0.250000 0.250000 0.250000 0.200000 0.200000 0.200000 0.400000 0.250000 0.250000 0.250000 0.250000 0.250000 0.250000 0.250000 0.250000 0.250000 0.250000 0.250000 0.250000 0.250000 0.250000 0.250000 0.250000 0.250000 0.250000 0.250000 0.250000 0.250000 0.250000 0.250000 0.250000 0.060811 0.493243 0.439189 0.006757 0.000132 0.104991 0.245730 0.649147 0.108929 0.164007 0.372507 0.354557 0.250000 0.250000 0.250000 0.250000 0.003115 0.869159 0.124611 0.003115 0.259740 0.142857 0.584416 0.012987 0.012605 0.125911 0.345571 0.515913 0.250000 0.250000 0.250000 0.250000 0.038961 0.324675 0.597403 0.038961 0.001346 0.144011 0.489905 0.364738 0.005228 0.142644 0.343913 0.508215 0.250000 0.250000 0.250000 0.250000 0.250000 0.250000 0.250000 0.250000 0.250000 0.250000 0.250000 0.250000 0.250000 0.250000 0.250000 0.250000 0.250000 0.250000 0.250000 0.250000 0.250000 0.250000 0.250000 0.250000 0.062500 0.375000 0.500000 0.062500 0.209756 0.102439 0.346342 0.341463 0.250000 0.250000 0.250000 0.250000 0.250000 0.250000 0.250000 0.250000 0.100000 0.700000 0.100000 0.100000 0.086873 0.164093 0.333977 0.415057 0.250000 0.250000 0.250000 0.250000 0.250000 0.250000 0.250000 0.250000 0.057143 0.200000 0.571428 0.171429 0.005492 0.046930 0.123814 0.823764 0.250000 0.250000 0.250000 0.250000 0.250000 0.250000 0.250000 0.250000 0.250000 0.250000 0.250000 0.250000 0.250000 0.250000 0.250000 0.250000 0.021097 0.818566 0.156118 0.004219 0.071030 0.401437 0.526735 0.000798 0.321366 0.351138 0.326620 0.000876 0.320372 0.061445 0.120606 0.497577 0.250000 0.250000 0.250000 0.250000 0.071575 0.331452 0.583376 0.013597 0.028571 0.434286 0.531429 0.005714 0.070434 0.140136 0.345055 0.444375 0.250000 0.250000 0.250000 0.250000 0.036611 0.258499 0.562500 0.142390 0.010494 0.183647 0.491911 0.313948 0.056381 0.117133 0.422203 0.404283 0.250000 0.250000 0.250000 0.250000 0.250000 0.250000 0.250000 0.250000 0.250000 0.250000 0.250000 0.250000 0.250000 0.250000 0.250000 0.250000 0.460882 0.250356 0.287340 0.001422 0.010823 0.456710 0.530302 0.002165 0.288000 0.228000 0.468000 0.016000 0.079446 0.095627 0.244461 0.580466 0.250000 0.250000 0.250000 0.250000 0.250000 0.250000 0.250000 0.250000 0.090985 0.247078 0.497496 0.164441 0.058803 0.178497 0.431802 0.330898 0.588234 0.294118 0.058824 0.058824 0.034670 0.391570 0.573080 0.000680 0.052000 0.135000 0.335000 0.478000 0.045973 0.074017 0.204870 0.675140 0.250000 0.250000 0.250000 0.250000 0.250000 0.250000 0.250000 0.250000 0.250000 0.250000 0.250000 0.250000 0.250000 0.250000 0.250000 0.250000 0.250000 0.250000 0.250000 0.250000 0.080519 0.212987 0.703897 0.002597 0.250000 0.250000 0.250000 0.250000 0.250000 0.250000 0.250000 0.250000 0.250000 0.250000 0.250000 0.250000 0.000882 0.200176 0.798060 0.000882 0.250000 0.250000 0.250000 0.250000 0.250000 0.250000 0.250000 0.250000 0.250000 0.250000 0.250000 0.250000 0.062874 0.000499 0.374750 0.561877 0.250000 0.250000 0.250000 0.250000 0.250000 0.250000 0.250000 0.250000 0.250000 0.250000 0.250000 0.250000 0.250000 0.250000 0.250000 0.250000 0.250000 0.250000 0.250000 0.250000 0.250000 0.250000 0.250000 0.250000 0.250000 0.250000 0.250000 0.250000 0.250000 0.250000 0.250000 0.250000 0.250000 0.250000 0.250000 0.250000 0.250000 0.250000 0.250000 0.250000 0.250000 0.250000 0.250000 0.250000 0.250000 0.250000 0.250000 0.250000 0.250000 0.250000 0.250000 0.250000 0.250000 0.250000 0.250000 0.250000 0.250000 0.250000 0.250000 0.250000 0.250000 0.250000 0.250000 0.250000 0.250000 0.250000 0.250000 0.250000 0.250000 0.250000 0.250000 0.250000 0.250000 0.250000 0.250000 0.250000 0.250000 0.250000 0.250000 0.250000 0.250000 0.250000 0.250000 0.250000 0.250000 0.250000 0.250000 0.250000 0.250000 0.250000 0.250000 0.250000 0.250000 0.250000 0.250000 0.250000 0.250000 0.250000 0.250000 0.250000 0.250000 0.250000 0.250000 0.250000 0.250000 0.250000 0.250000 0.250000 0.250000 0.250000 0.250000 0.250000 0.250000 0.250000 0.250000 0.250000 0.250000 0.250000 0.250000 0.250000 0.250000 0.250000 0.250000 0.250000 0.250000 0.250000 0.250000 0.250000 0.250000 0.250000 0.250000 