<?xml version="1.0" encoding="UTF-8"?>
<BIF VERSION="0.3"  xmlns="http://www.cs.ubc.ca/labs/lci/fopi/ve/XMLBIFv0_3"
xmlns:xsi="http://www.w3.org/2001/XMLSchema-instance"
xsi:schemaLocation="http://www.cs.ubc.ca/labs/lci/fopi/ve/XMLBIFv0_3 http://www.cs.ubc.ca/labs/lci/fopi/ve/XMLBIFv0_3/XMLBIFv0_3.xsd">
<NETWORK>
<NAME>Financial_std</NAME>
<VARIABLE TYPE="nature">
	<NAME>amount(loan0)</NAME>
	<OUTCOME>0</OUTCOME>
	<OUTCOME>1</OUTCOME>
	<OUTCOME>2</OUTCOME>
	<OUTCOME>3</OUTCOME>
	<OUTCOME>4</OUTCOME>
	<PROPERTY> position=(6000.0,4000.0)</PROPERTY>
</VARIABLE>
<VARIABLE TYPE="nature">
	<NAME>amount2(trans0)</NAME>
	<OUTCOME>0</OUTCOME>
	<OUTCOME>1</OUTCOME>
	<OUTCOME>2</OUTCOME>
	<OUTCOME>3</OUTCOME>
	<PROPERTY> position=(6200.0,4000.0)</PROPERTY>
</VARIABLE>
<VARIABLE TYPE="nature">
	<NAME>amount3(order20)</NAME>
	<OUTCOME>0</OUTCOME>
	<OUTCOME>1</OUTCOME>
	<OUTCOME>2</OUTCOME>
	<OUTCOME>3</OUTCOME>
	<OUTCOME>4</OUTCOME>
	<PROPERTY> position=(6400.0,4000.0)</PROPERTY>
</VARIABLE>
<VARIABLE TYPE="nature">
	<NAME>balance(trans0)</NAME>
	<OUTCOME>0</OUTCOME>
	<OUTCOME>1</OUTCOME>
	<OUTCOME>2</OUTCOME>
	<OUTCOME>3</OUTCOME>
	<PROPERTY> position=(6000.0,4200.0)</PROPERTY>
</VARIABLE>
<VARIABLE TYPE="nature">
	<NAME>bank_to(order20)</NAME>
	<OUTCOME>AB</OUTCOME>
	<OUTCOME>CD</OUTCOME>
	<OUTCOME>EF</OUTCOME>
	<OUTCOME>GH</OUTCOME>
	<OUTCOME>IJ</OUTCOME>
	<OUTCOME>KL</OUTCOME>
	<OUTCOME>MN</OUTCOME>
	<OUTCOME>OP</OUTCOME>
	<OUTCOME>QR</OUTCOME>
	<OUTCOME>ST</OUTCOME>
	<OUTCOME>UV</OUTCOME>
	<OUTCOME>WX</OUTCOME>
	<OUTCOME>YZ</OUTCOME>
	<PROPERTY> position=(6200.0,4200.0)</PROPERTY>
</VARIABLE>
<VARIABLE TYPE="nature">
	<NAME>duration(loan0)</NAME>
	<OUTCOME>12</OUTCOME>
	<OUTCOME>24</OUTCOME>
	<OUTCOME>36</OUTCOME>
	<OUTCOME>48</OUTCOME>
	<OUTCOME>60</OUTCOME>
	<PROPERTY> position=(6400.0,4200.0)</PROPERTY>
</VARIABLE>
<VARIABLE TYPE="nature">
	<NAME>frequency(acc0)</NAME>
	<OUTCOME>afterTrans</OUTCOME>
	<OUTCOME>Monthly</OUTCOME>
	<OUTCOME>Weekly</OUTCOME>
	<PROPERTY> position=(6000.0,4400.0)</PROPERTY>
</VARIABLE>
<VARIABLE TYPE="nature">
	<NAME>k_symbol(order20)</NAME>
	<OUTCOME>Household</OUTCOME>
	<OUTCOME>Insurance</OUTCOME>
	<OUTCOME>Loan</OUTCOME>
	<PROPERTY> position=(6200.0,4400.0)</PROPERTY>
</VARIABLE>
<VARIABLE TYPE="nature">
	<NAME>Loan_Acc(loan0,acc0)</NAME>
	<OUTCOME>T</OUTCOME>
	<PROPERTY> position=(6400.0,4400.0)</PROPERTY>
</VARIABLE>
<VARIABLE TYPE="nature">
	<NAME>Loan_Order(trans0,loan0)</NAME>
	<OUTCOME>T</OUTCOME>
	<PROPERTY> position=(6000.0,4600.0)</PROPERTY>
</VARIABLE>
<VARIABLE TYPE="nature">
	<NAME>Loan_Trans(order20,loan0)</NAME>
	<OUTCOME>T</OUTCOME>
	<PROPERTY> position=(6200.0,4600.0)</PROPERTY>
</VARIABLE>
<VARIABLE TYPE="nature">
	<NAME>operation(trans0)</NAME>
	<OUTCOME>ccw</OUTCOME>
	<OUTCOME>cic</OUTCOME>
	<OUTCOME>Collection</OUTCOME>
	<OUTCOME>cw</OUTCOME>
	<OUTCOME>Remittance</OUTCOME>
	<PROPERTY> position=(6400.0,4600.0)</PROPERTY>
</VARIABLE>
<VARIABLE TYPE="nature">
	<NAME>payments(loan0)</NAME>
	<OUTCOME>0</OUTCOME>
	<OUTCOME>1</OUTCOME>
	<OUTCOME>2</OUTCOME>
	<OUTCOME>3</OUTCOME>
	<OUTCOME>4</OUTCOME>
	<PROPERTY> position=(6000.0,4800.0)</PROPERTY>
</VARIABLE>
<VARIABLE TYPE="nature">
	<NAME>status(loan0)</NAME>
	<OUTCOME>A</OUTCOME>
	<OUTCOME>B</OUTCOME>
	<PROPERTY> position=(6200.0,4800.0)</PROPERTY>
</VARIABLE>
<VARIABLE TYPE="nature">
	<NAME>type(trans0)</NAME>
	<OUTCOME>Credit</OUTCOME>
	<OUTCOME>VYBER</OUTCOME>
	<OUTCOME>Withdrawal</OUTCOME>
	<PROPERTY> position=(6400.0,4800.0)</PROPERTY>
</VARIABLE>
<DEFINITION>
	<FOR>amount(loan0)</FOR>
	<GIVEN>balance(trans0)</GIVEN>
	<GIVEN>duration(loan0)</GIVEN>
	<GIVEN>Loan_Order(trans0,loan0)</GIVEN>
	<GIVEN>payments(loan0)</GIVEN>
	<TABLE> 0.200000 0.200000 0.200000 0.200000 0.200000 0.993588 0.001603 0.001603 0.001603 0.001603 0.997580 0.000605 0.000605 0.000605 0.000605 0.982380 0.004405 0.004405 0.004405 0.004405 0.987768 0.003058 0.003058 0.003058 0.003058 0.200000 0.200000 0.200000 0.200000 0.200000 0.998192 0.000452 0.000452 0.000452 0.000452 0.581570 0.413897 0.001511 0.001511 0.001511 0.000574 0.997704 0.000574 0.000574 0.000574 0.001075 0.995700 0.001075 0.001075 0.001075 0.999684 0.000079 0.000079 0.000079 0.000079 0.730761 0.268930 0.000103 0.000103 0.000103 0.000113 0.999548 0.000113 0.000113 0.000113 0.000160 0.086629 0.912891 0.000160 0.000160 0.001209 0.001209 0.995164 0.001209 0.001209 0.999748 0.000063 0.000063 0.000063 0.000063 0.069444 0.930292 0.000088 0.000088 0.000088 0.000169 0.434186 0.565307 0.000169 0.000169 0.000362 0.000362 0.624910 0.374004 0.000362 0.000945 0.000945 0.000945 0.183365 0.813800 0.800283 0.199492 0.000075 0.000075 0.000075 0.000077 0.783876 0.215893 0.000077 0.000077 0.000078 0.000078 0.968733 0.031033 0.000078 0.000198 0.000198 0.000198 0.931422 0.067984 0.000332 0.000332 0.000332 0.000332 0.998672 0.200000 0.200000 0.200000 0.200000 0.200000 0.200000 0.200000 0.200000 0.200000 0.200000 0.994312 0.001422 0.001422 0.001422 0.001422 0.967212 0.008197 0.008197 0.008197 0.008197 0.972028 0.006993 0.006993 0.006993 0.006993 0.200000 0.200000 0.200000 0.200000 0.200000 0.996076 0.000981 0.000981 0.000981 0.000981 0.680555 0.277778 0.013889 0.013889 0.013889 0.001449 0.994204 0.001449 0.001449 0.001449 0.002681 0.989276 0.002681 0.002681 0.002681 0.998976 0.000256 0.000256 0.000256 0.000256 0.719970 0.279241 0.000263 0.000263 0.000263 0.000194 0.999224 0.000194 0.000194 0.000194 0.000307 0.166462 0.832617 0.000307 0.000307 0.004651 0.004651 0.981396 0.004651 0.004651 0.997300 0.000675 0.000675 0.000675 0.000675 0.001621 0.997839 0.000180 0.000180 0.000180 0.000366 0.438552 0.560350 0.000366 0.000366 0.000512 0.000512 0.758833 0.239631 0.000512 0.013699 0.013699 0.013699 0.945204 0.013699 0.897071 0.102242 0.000229 0.000229 0.000229 0.000202 0.802217 0.197177 0.000202 0.000202 0.000169 0.000169 0.856225 0.143268 0.000169 0.000313 0.000313 0.000313 0.965258 0.033803 0.018182 0.018182 0.018182 0.018182 0.927272 0.200000 0.200000 0.200000 0.200000 0.200000 0.200000 0.200000 0.200000 0.200000 0.200000 0.943660 0.014085 0.014085 0.014085 0.014085 0.636364 0.090909 0.090909 0.090909 0.090909 0.826088 0.043478 0.043478 0.043478 0.043478 0.200000 0.200000 0.200000 0.200000 0.200000 0.951220 0.012195 0.012195 0.012195 0.012195 0.142857 0.428572 0.142857 0.142857 0.142857 0.014925 0.940300 0.014925 0.014925 0.014925 0.032258 0.870968 0.032258 0.032258 0.032258 0.974684 0.006329 0.006329 0.006329 0.006329 0.840808 0.152466 0.002242 0.002242 0.002242 0.003289 0.986844 0.003289 0.003289 0.003289 0.005848 0.087719 0.894737 0.005848 0.005848 0.090909 0.090909 0.636364 0.090909 0.090909 0.911112 0.022222 0.022222 0.022222 0.022222 0.001689 0.993244 0.001689 0.001689 0.001689 0.005051 0.404040 0.580807 0.005051 0.005051 0.007299 0.007299 0.678833 0.299270 0.007299 0.062500 0.062500 0.062500 0.750000 0.062500 0.198347 0.776861 0.008264 0.008264 0.008264 0.003425 0.780821 0.208904 0.003425 0.003425 0.002639 0.002639 0.986806 0.005277 0.002639 0.002632 0.002632 0.002632 0.971051 0.021053 0.090909 0.090909 0.090909 0.090909 0.636364 0.200000 0.200000 0.200000 0.200000 0.200000 0.200000 0.200000 0.200000 0.200000 0.200000 0.333332 0.166667 0.166667 0.166667 0.166667 0.200000 0.200000 0.200000 0.200000 0.200000 0.200000 0.200000 0.200000 0.200000 0.200000 0.200000 0.200000 0.200000 0.200000 0.200000 0.428572 0.142857 0.142857 0.142857 0.142857 0.200000 0.200000 0.200000 0.200000 0.200000 0.142857 0.428572 0.142857 0.142857 0.142857 0.200000 0.200000 0.200000 0.200000 0.200000 0.500000 0.125000 0.125000 0.125000 0.125000 0.500000 0.125000 0.125000 0.125000 0.125000 0.200000 0.200000 0.200000 0.200000 0.200000 0.200000 0.200000 0.200000 0.200000 0.200000 0.200000 0.200000 0.200000 0.200000 0.200000 0.200000 0.200000 0.200000 0.200000 0.200000 0.166667 0.333332 0.166667 0.166667 0.166667 0.125000 0.375000 0.250000 0.125000 0.125000 0.200000 0.200000 0.200000 0.200000 0.200000 0.200000 0.200000 0.200000 0.200000 0.200000 0.200000 0.200000 0.200000 0.200000 0.200000 0.100000 0.600000 0.100000 0.100000 0.100000 0.142857 0.142857 0.428572 0.142857 0.142857 0.062500 0.062500 0.062500 0.750000 0.062500 0.200000 0.200000 0.200000 0.200000 0.200000</TABLE>
</DEFINITION>
<DEFINITION>
	<FOR>amount2(trans0)</FOR>
	<GIVEN>balance(trans0)</GIVEN>
	<GIVEN>Loan_Order(trans0,loan0)</GIVEN>
	<GIVEN>operation(trans0)</GIVEN>
	<GIVEN>payments(loan0)</GIVEN>
	<GIVEN>type(trans0)</GIVEN>
	<TABLE> 0.250000 0.250000 0.250000 0.250000 0.250000 0.250000 0.250000 0.250000 0.989761 0.003413 0.003413 0.003413 0.250000 0.250000 0.250000 0.250000 0.250000 0.250000 0.250000 0.250000 0.971155 0.009615 0.009615 0.009615 0.250000 0.250000 0.250000 0.250000 0.250000 0.250000 0.250000 0.250000 0.981706 0.006098 0.006098 0.006098 0.250000 0.250000 0.250000 0.250000 0.250000 0.250000 0.250000 0.250000 0.949153 0.016949 0.016949 0.016949 0.250000 0.250000 0.250000 0.250000 0.250000 0.250000 0.250000 0.250000 0.250000 0.250000 0.250000 0.250000 0.951801 0.047712 0.000325 0.000162 0.250000 0.250000 0.250000 0.250000 0.250000 0.250000 0.250000 0.250000 0.893518 0.104321 0.001852 0.000309 0.250000 0.250000 0.250000 0.250000 0.250000 0.250000 0.250000 0.250000 0.843787 0.148372 0.007539 0.000302 0.250000 0.250000 0.250000 0.250000 0.250000 0.250000 0.250000 0.250000 0.877345 0.112128 0.010069 0.000458 0.250000 0.250000 0.250000 0.250000 0.250000 0.250000 0.250000 0.250000 0.889764 0.103346 0.005906 0.000984 0.250000 0.250000 0.250000 0.250000 0.250000 0.250000 0.250000 0.250000 0.995260 0.001580 0.001580 0.001580 0.250000 0.250000 0.250000 0.250000 0.250000 0.250000 0.250000 0.250000 0.709039 0.290153 0.000404 0.000404 0.250000 0.250000 0.250000 0.250000 0.250000 0.250000 0.250000 0.250000 0.001672 0.994984 0.001672 0.001672 0.250000 0.250000 0.250000 0.250000 0.250000 0.250000 0.250000 0.250000 0.050000 0.750000 0.150000 0.050000 0.250000 0.250000 0.250000 0.250000 0.250000 0.250000 0.250000 0.250000 0.100000 0.100000 0.700000 0.100000 0.250000 0.250000 0.250000 0.250000 0.250000 0.250000 0.250000 0.250000 0.250000 0.250000 0.250000 0.250000 0.898877 0.093633 0.003745 0.003745 0.986745 0.011688 0.001145 0.000422 0.250000 0.250000 0.250000 0.250000 0.904191 0.094611 0.000599 0.000599 0.971477 0.024251 0.004009 0.000263 0.250000 0.250000 0.250000 0.250000 0.855004 0.143420 0.000788 0.000788 0.947808 0.046675 0.005219 0.000298 0.250000 0.250000 0.250000 0.250000 0.885058 0.112388 0.001277 0.001277 0.928929 0.057580 0.012100 0.001391 0.250000 0.250000 0.250000 0.250000 0.878504 0.102804 0.009346 0.009346 0.949146 0.039730 0.009138 0.001986 0.250000 0.250000 0.250000 0.250000 0.250000 0.250000 0.250000 0.250000 0.999832 0.000056 0.000056 0.000056 0.250000 0.250000 0.250000 0.250000 0.250000 0.250000 0.250000 0.250000 0.999790 0.000070 0.000070 0.000070 0.250000 0.250000 0.250000 0.250000 0.250000 0.250000 0.250000 0.250000 0.999730 0.000090 0.000090 0.000090 0.250000 0.250000 0.250000 0.250000 0.250000 0.250000 0.250000 0.250000 0.999484 0.000172 0.000172 0.000172 0.250000 0.250000 0.250000 0.250000 0.250000 0.250000 0.250000 0.250000 0.998797 0.000401 0.000401 0.000401 0.250000 0.250000 0.250000 0.250000 0.250000 0.250000 0.250000 0.250000 0.988189 0.003937 0.003937 0.003937 0.250000 0.250000 0.250000 0.250000 0.250000 0.250000 0.250000 0.250000 0.977779 0.007407 0.007407 0.007407 0.250000 0.250000 0.250000 0.250000 0.250000 0.250000 0.250000 0.250000 0.975001 0.008333 0.008333 0.008333 0.250000 0.250000 0.250000 0.250000 0.250000 0.250000 0.250000 0.250000 0.925000 0.025000 0.025000 0.025000 0.250000 0.250000 0.250000 0.250000 0.250000 0.250000 0.250000 0.250000 0.250000 0.250000 0.250000 0.250000 0.604599 0.363739 0.031285 0.000377 0.250000 0.250000 0.250000 0.250000 0.250000 0.250000 0.250000 0.250000 0.402102 0.485342 0.112279 0.000277 0.250000 0.250000 0.250000 0.250000 0.250000 0.250000 0.250000 0.250000 0.345181 0.557074 0.097403 0.000342 0.250000 0.250000 0.250000 0.250000 0.250000 0.250000 0.250000 0.250000 0.361380 0.495763 0.142252 0.000605 0.250000 0.250000 0.250000 0.250000 0.250000 0.250000 0.250000 0.250000 0.282895 0.555921 0.157895 0.003289 0.250000 0.250000 0.250000 0.250000 0.250000 0.250000 0.250000 0.250000 0.250000 0.250000 0.250000 0.250000 0.250000 0.250000 0.250000 0.250000 0.250000 0.250000 0.250000 0.250000 0.343256 0.638140 0.017674 0.000930 0.250000 0.250000 0.250000 0.250000 0.250000 0.250000 0.250000 0.250000 0.000570 0.821551 0.172178 0.005701 0.250000 0.250000 0.250000 0.250000 0.250000 0.250000 0.250000 0.250000 0.000908 0.819256 0.175295 0.004541 0.250000 0.250000 0.250000 0.250000 0.250000 0.250000 0.250000 0.250000 0.025000 0.025000 0.825000 0.125000 0.250000 0.250000 0.250000 0.250000 0.250000 0.250000 0.250000 0.250000 0.250000 0.250000 0.250000 0.250000 0.767241 0.215517 0.008621 0.008621 0.912863 0.063624 0.023167 0.000346 0.250000 0.250000 0.250000 0.250000 0.930035 0.066553 0.001706 0.001706 0.755005 0.176611 0.068186 0.000198 0.250000 0.250000 0.250000 0.250000 0.889980 0.106090 0.001965 0.001965 0.807122 0.144298 0.048374 0.000206 0.250000 0.250000 0.250000 0.250000 0.906122 0.089796 0.002041 0.002041 0.783741 0.163528 0.052417 0.000314 0.250000 0.250000 0.250000 0.250000 0.907406 0.055556 0.018519 0.018519 0.745705 0.189003 0.061856 0.003436 0.250000 0.250000 0.250000 0.250000 0.250000 0.250000 0.250000 0.250000 0.999223 0.000259 0.000259 0.000259 0.250000 0.250000 0.250000 0.250000 0.250000 0.250000 0.250000 0.250000 0.999385 0.000205 0.000205 0.000205 0.250000 0.250000 0.250000 0.250000 0.250000 0.250000 0.250000 0.250000 0.999319 0.000227 0.000227 0.000227 0.250000 0.250000 0.250000 0.250000 0.250000 0.250000 0.250000 0.250000 0.998908 0.000364 0.000364 0.000364 0.250000 0.250000 0.250000 0.250000 0.250000 0.250000 0.250000 0.250000 0.981817 0.006061 0.006061 0.006061 0.250000 0.250000 0.250000 0.250000 0.250000 0.250000 0.250000 0.250000 0.250000 0.250000 0.250000 0.250000 0.250000 0.250000 0.250000 0.250000 0.250000 0.250000 0.250000 0.250000 0.625000 0.125000 0.125000 0.125000 0.250000 0.250000 0.250000 0.250000 0.250000 0.250000 0.250000 0.250000 0.499999 0.166667 0.166667 0.166667 0.250000 0.250000 0.250000 0.250000 0.250000 0.250000 0.250000 0.250000 0.250000 0.250000 0.250000 0.250000 0.250000 0.250000 0.250000 0.250000 0.250000 0.250000 0.250000 0.250000 0.250000 0.250000 0.250000 0.250000 0.122271 0.567685 0.305677 0.004367 0.250000 0.250000 0.250000 0.250000 0.250000 0.250000 0.250000 0.250000 0.177126 0.518218 0.303644 0.001012 0.250000 0.250000 0.250000 0.250000 0.250000 0.250000 0.250000 0.250000 0.172581 0.598387 0.227419 0.001613 0.250000 0.250000 0.250000 0.250000 0.250000 0.250000 0.250000 0.250000 0.177273 0.529545 0.290909 0.002273 0.250000 0.250000 0.250000 0.250000 0.250000 0.250000 0.250000 0.250000 0.127273 0.527272 0.327273 0.018182 0.250000 0.250000 0.250000 0.250000 0.250000 0.250000 0.250000 0.250000 0.250000 0.250000 0.250000 0.250000 0.250000 0.250000 0.250000 0.250000 0.250000 0.250000 0.250000 0.250000 0.020000 0.340000 0.540000 0.100000 0.250000 0.250000 0.250000 0.250000 0.250000 0.250000 0.250000 0.250000 0.007634 0.175573 0.618320 0.198473 0.250000 0.250000 0.250000 0.250000 0.250000 0.250000 0.250000 0.250000 0.007353 0.375000 0.536765 0.080882 0.250000 0.250000 0.250000 0.250000 0.250000 0.250000 0.250000 0.250000 0.100000 0.100000 0.300000 0.500000 0.250000 0.250000 0.250000 0.250000 0.250000 0.250000 0.250000 0.250000 0.250000 0.250000 0.250000 0.250000 0.400000 0.200000 0.200000 0.200000 0.509434 0.396226 0.075472 0.018868 0.250000 0.250000 0.250000 0.250000 0.785713 0.071429 0.071429 0.071429 0.717132 0.254980 0.023904 0.003984 0.250000 0.250000 0.250000 0.250000 0.727273 0.090909 0.090909 0.090909 0.700000 0.242857 0.050000 0.007143 0.250000 0.250000 0.250000 0.250000 0.499999 0.166667 0.166667 0.166667 0.635761 0.298013 0.059603 0.006623 0.250000 0.250000 0.250000 0.250000 0.250000 0.250000 0.250000 0.250000 0.499999 0.357143 0.071429 0.071429 0.250000 0.250000 0.250000 0.250000 0.250000 0.250000 0.250000 0.250000 0.921052 0.026316 0.026316 0.026316 0.250000 0.250000 0.250000 0.250000 0.250000 0.250000 0.250000 0.250000 0.971428 0.009524 0.009524 0.009524 0.250000 0.250000 0.250000 0.250000 0.250000 0.250000 0.250000 0.250000 0.940000 0.020000 0.020000 0.020000 0.250000 0.250000 0.250000 0.250000 0.250000 0.250000 0.250000 0.250000 0.892858 0.035714 0.035714 0.035714 0.250000 0.250000 0.250000 0.250000 0.250000 0.250000 0.250000 0.250000 0.250000 0.250000 0.250000 0.250000 0.250000 0.250000 0.250000 0.250000 0.250000 0.250000 0.250000 0.250000 0.250000 0.250000 0.250000 0.250000 0.250000 0.250000 0.250000 0.250000 0.250000 0.250000 0.250000 0.250000 0.250000 0.250000 0.250000 0.250000 0.250000 0.250000 0.250000 0.250000 0.250000 0.250000 0.250000 0.250000 0.250000 0.250000 0.250000 0.250000 0.250000 0.250000 0.250000 0.250000 0.250000 0.250000 0.250000 0.250000 0.250000 0.250000 0.250000 0.250000 0.250000 0.250000 0.250000 0.250000 0.250000 0.250000 0.250000 0.250000 0.250000 0.250000 0.250000 0.250000 0.142857 0.571429 0.142857 0.142857 0.250000 0.250000 0.250000 0.250000 0.250000 0.250000 0.250000 0.250000 0.076923 0.538462 0.307692 0.076923 0.250000 0.250000 0.250000 0.250000 0.250000 0.250000 0.250000 0.250000 0.100000 0.200000 0.600000 0.100000 0.250000 0.250000 0.250000 0.250000 0.250000 0.250000 0.250000 0.250000 0.058824 0.588234 0.294118 0.058824 0.250000 0.250000 0.250000 0.250000 0.250000 0.250000 0.250000 0.250000 0.250000 0.250000 0.250000 0.250000 0.250000 0.250000 0.250000 0.250000 0.250000 0.250000 0.250000 0.250000 0.250000 0.250000 0.250000 0.250000 0.250000 0.250000 0.250000 0.250000 0.250000 0.250000 0.250000 0.250000 0.250000 0.250000 0.250000 0.250000 0.250000 0.250000 0.250000 0.250000 0.250000 0.250000 0.250000 0.250000 0.250000 0.250000 0.250000 0.250000 0.250000 0.250000 0.250000 0.250000 0.250000 0.250000 0.250000 0.250000 0.250000 0.250000 0.250000 0.250000 0.250000 0.250000 0.250000 0.250000 0.250000 0.250000 0.250000 0.250000 0.250000 0.250000 0.250000 0.250000 0.250000 0.250000 0.250000 0.250000 0.250000 0.250000 0.250000 0.250000 0.250000 0.250000 0.250000 0.250000 0.250000 0.250000 0.250000 0.250000 0.250000 0.250000 0.250000 0.250000 0.250000 0.250000 0.250000 0.250000 0.400000 0.200000 0.200000 0.200000 0.200000 0.400000 0.200000 0.200000 0.250000 0.250000 0.250000 0.250000 0.250000 0.250000 0.250000 0.250000 0.250000 0.250000 0.250000 0.250000 0.250000 0.250000 0.250000 0.250000 0.250000 0.250000 0.250000 0.250000 0.250000 0.250000 0.250000 0.250000 0.250000 0.250000 0.250000 0.250000 0.250000 0.250000 0.250000 0.250000 0.250000 0.250000 0.250000 0.250000 0.250000 0.250000 0.250000 0.250000 0.250000 0.250000 0.250000 0.250000 0.250000 0.250000 0.250000 0.250000 0.250000 0.250000 0.250000 0.250000 0.250000 0.250000 0.250000 0.250000 0.250000 0.250000 0.250000 0.250000 0.250000 0.250000 0.250000 0.250000 0.250000 0.250000 0.250000 0.250000 0.250000 0.250000 0.250000 0.250000 0.250000 0.250000 0.250000 0.250000 0.250000 0.250000 0.250000 0.250000 0.250000 0.250000 0.250000 0.250000 0.250000 0.250000 0.250000 0.250000 0.250000 0.250000 0.250000 0.250000 0.250000 0.250000 0.250000 0.250000</TABLE>
</DEFINITION>
<DEFINITION>
	<FOR>amount3(order20)</FOR>
	<GIVEN>balance(trans0)</GIVEN>
	<GIVEN>Loan_Order(trans0,loan0)</GIVEN>
	<GIVEN>Loan_Trans(order20,loan0)</GIVEN>
	<GIVEN>operation(trans0)</GIVEN>
	<GIVEN>payments(loan0)</GIVEN>
	<TABLE> 0.697279 0.224490 0.071429 0.003401 0.003401 0.514286 0.409524 0.028571 0.038095 0.009524 0.333333 0.581818 0.012121 0.066667 0.006061 0.016667 0.033333 0.900000 0.033333 0.016667 0.200000 0.200000 0.200000 0.200000 0.200000 0.769594 0.147655 0.071069 0.011520 0.000162 0.418698 0.423018 0.108608 0.043197 0.006479 0.154959 0.729576 0.048839 0.042508 0.024118 0.321592 0.104758 0.564501 0.005947 0.003202 0.476893 0.162242 0.303835 0.056047 0.000983 0.735016 0.077287 0.184543 0.001577 0.001577 0.421137 0.380799 0.132311 0.060912 0.004841 0.148581 0.532554 0.115192 0.058431 0.145242 0.047619 0.047619 0.761905 0.047619 0.095238 0.090909 0.090909 0.636364 0.090909 0.090909 0.745938 0.156565 0.083620 0.013818 0.000059 0.381567 0.469170 0.105491 0.036605 0.007167 0.175637 0.667871 0.063224 0.049802 0.043466 0.259598 0.072773 0.625596 0.028482 0.013551 0.431133 0.119420 0.396032 0.053033 0.000382 0.793317 0.124714 0.073532 0.008381 0.000056 0.451667 0.390742 0.115590 0.036795 0.005206 0.270740 0.578819 0.061994 0.052186 0.036261 0.439904 0.103121 0.435937 0.015175 0.005863 0.563076 0.171806 0.185423 0.079295 0.000400 0.752941 0.070588 0.168627 0.003922 0.003922 0.441176 0.470588 0.058824 0.022059 0.007353 0.272727 0.628100 0.024793 0.066116 0.008264 0.073171 0.024390 0.780488 0.097561 0.024390 0.200000 0.200000 0.200000 0.200000 0.200000 0.699321 0.181613 0.094951 0.023738 0.000377 0.420238 0.447885 0.078518 0.034559 0.018800 0.172190 0.705500 0.042023 0.059447 0.020840 0.241984 0.095584 0.635814 0.025408 0.001210 0.324590 0.098361 0.570491 0.003279 0.003279 0.200000 0.200000 0.200000 0.200000 0.200000 0.253717 0.561339 0.159851 0.023234 0.001859 0.179487 0.566382 0.096866 0.072365 0.084900 0.235027 0.019964 0.622504 0.081670 0.040835 0.024390 0.024390 0.902440 0.024390 0.024390 0.722462 0.149750 0.102829 0.024626 0.000333 0.396411 0.464641 0.089019 0.032871 0.017058 0.170209 0.682885 0.043997 0.071216 0.031693 0.185407 0.055540 0.692894 0.054996 0.011163 0.201754 0.061404 0.730994 0.002924 0.002924 0.749741 0.156898 0.077801 0.015301 0.000259 0.503283 0.374846 0.093352 0.020107 0.008412 0.259723 0.570844 0.084603 0.052763 0.032067 0.331999 0.064434 0.529304 0.056061 0.018202 0.343373 0.150602 0.493977 0.006024 0.006024 0.200000 0.200000 0.200000 0.200000 0.200000 0.444445 0.222222 0.111111 0.111111 0.111111 0.142857 0.428572 0.142857 0.142857 0.142857 0.200000 0.200000 0.200000 0.200000 0.200000 0.200000 0.200000 0.200000 0.200000 0.200000 0.691303 0.208696 0.060870 0.034783 0.004348 0.438827 0.436805 0.071790 0.028311 0.024267 0.132045 0.764896 0.017713 0.069243 0.016103 0.269841 0.058957 0.632653 0.036281 0.002268 0.160714 0.053571 0.750001 0.017857 0.017857 0.200000 0.200000 0.200000 0.200000 0.200000 0.019608 0.764705 0.019608 0.176471 0.019608 0.128788 0.575757 0.030303 0.136364 0.128788 0.051095 0.029197 0.788321 0.109489 0.021898 0.090909 0.090909 0.636364 0.090909 0.090909 0.600000 0.309091 0.054545 0.018182 0.018182 0.461833 0.438931 0.057252 0.011450 0.030534 0.135135 0.750000 0.020270 0.060811 0.033784 0.350649 0.032468 0.584415 0.025974 0.006494 0.066667 0.066667 0.733332 0.066667 0.066667 0.564103 0.307692 0.076923 0.025641 0.025641 0.433962 0.443396 0.094340 0.018868 0.009434 0.117647 0.745098 0.019608 0.039216 0.078431 0.275862 0.068966 0.517241 0.103448 0.034483 0.200000 0.200000 0.200000 0.200000 0.200000 0.200000 0.200000 0.200000 0.200000 0.200000 0.200000 0.200000 0.200000 0.200000 0.200000 0.200000 0.200000 0.200000 0.200000 0.200000 0.200000 0.200000 0.200000 0.200000 0.200000 0.200000 0.200000 0.200000 0.200000 0.200000 0.375000 0.250000 0.125000 0.125000 0.125000 0.428571 0.285714 0.142857 0.071429 0.071429 0.090909 0.545455 0.181818 0.090909 0.090909 0.222222 0.055556 0.555555 0.111111 0.055556 0.200000 0.200000 0.200000 0.200000 0.200000 0.200000 0.200000 0.200000 0.200000 0.200000 0.200000 0.200000 0.200000 0.200000 0.200000 0.200000 0.200000 0.200000 0.200000 0.200000 0.200000 0.200000 0.200000 0.200000 0.200000 0.200000 0.200000 0.200000 0.200000 0.200000 0.200000 0.200000 0.200000 0.200000 0.200000 0.285715 0.285714 0.142857 0.142857 0.142857 0.200000 0.200000 0.200000 0.200000 0.200000 0.200000 0.200000 0.200000 0.200000 0.200000 0.200000 0.200000 0.200000 0.200000 0.200000 0.200000 0.200000 0.200000 0.200000 0.200000 0.200000 0.200000 0.200000 0.200000 0.200000 0.200000 0.200000 0.200000 0.200000 0.200000 0.200000 0.200000 0.200000 0.200000 0.200000 0.200000 0.200000 0.200000 0.200000 0.200000</TABLE>
</DEFINITION>
<DEFINITION>
	<FOR>balance(trans0)</FOR>
	<GIVEN>duration(loan0)</GIVEN>
	<GIVEN>Loan_Order(trans0,loan0)</GIVEN>
	<GIVEN>operation(trans0)</GIVEN>
	<GIVEN>payments(loan0)</GIVEN>
	<GIVEN>status(loan0)</GIVEN>
	<TABLE> 0.250000 0.250000 0.250000 0.250000 0.250000 0.250000 0.250000 0.250000 0.250000 0.250000 0.250000 0.250000 0.250000 0.250000 0.250000 0.250000 0.250000 0.250000 0.250000 0.250000 0.250000 0.250000 0.250000 0.250000 0.250000 0.250000 0.250000 0.250000 0.250000 0.250000 0.250000 0.250000 0.250000 0.250000 0.250000 0.250000 0.250000 0.250000 0.250000 0.250000 0.250000 0.250000 0.250000 0.250000 0.250000 0.250000 0.250000 0.250000 0.250000 0.250000 0.250000 0.250000 0.916666 0.027778 0.027778 0.027778 0.250000 0.250000 0.250000 0.250000 0.401848 0.482678 0.110855 0.004619 0.250000 0.250000 0.250000 0.250000 0.369565 0.554348 0.065217 0.010870 0.250000 0.250000 0.250000 0.250000 0.382979 0.446809 0.159574 0.010638 0.250000 0.250000 0.250000 0.250000 0.250000 0.250000 0.250000 0.250000 0.250000 0.250000 0.250000 0.250000 0.974791 0.008403 0.008403 0.008403 0.250000 0.250000 0.250000 0.250000 0.610000 0.370000 0.010000 0.010000 0.250000 0.250000 0.250000 0.250000 0.250000 0.250000 0.250000 0.250000 0.250000 0.250000 0.250000 0.250000 0.214286 0.714286 0.035714 0.035714 0.250000 0.250000 0.250000 0.250000 0.250000 0.250000 0.250000 0.250000 0.250000 0.250000 0.250000 0.250000 0.993196 0.002268 0.002268 0.002268 0.250000 0.250000 0.250000 0.250000 0.753170 0.231615 0.014370 0.000845 0.250000 0.250000 0.250000 0.250000 0.729084 0.258964 0.007968 0.003984 0.250000 0.250000 0.250000 0.250000 0.780281 0.202817 0.014085 0.002817 0.250000 0.250000 0.250000 0.250000 0.250000 0.250000 0.250000 0.250000 0.250000 0.250000 0.250000 0.250000 0.923077 0.025641 0.025641 0.025641 0.250000 0.250000 0.250000 0.250000 0.737360 0.255618 0.005618 0.001404 0.250000 0.250000 0.250000 0.250000 0.571428 0.285714 0.071429 0.071429 0.250000 0.250000 0.250000 0.250000 0.411765 0.470587 0.058824 0.058824 0.250000 0.250000 0.250000 0.250000 0.250000 0.250000 0.250000 0.250000 0.250000 0.250000 0.250000 0.250000 0.250000 0.250000 0.250000 0.250000 0.250000 0.250000 0.250000 0.250000 0.250000 0.250000 0.250000 0.250000 0.250000 0.250000 0.250000 0.250000 0.125000 0.625000 0.125000 0.125000 0.250000 0.250000 0.250000 0.250000 0.250000 0.250000 0.250000 0.250000 0.250000 0.250000 0.250000 0.250000 0.250000 0.250000 0.250000 0.250000 0.250000 0.250000 0.250000 0.250000 0.428795 0.461659 0.106416 0.003130 0.250000 0.250000 0.250000 0.250000 0.738318 0.224299 0.028037 0.009346 0.250000 0.250000 0.250000 0.250000 0.476103 0.439338 0.079044 0.005515 0.250000 0.250000 0.250000 0.250000 0.477352 0.456446 0.062718 0.003484 0.250000 0.250000 0.250000 0.250000 0.250000 0.250000 0.250000 0.250000 0.250000 0.250000 0.250000 0.250000 0.250000 0.250000 0.250000 0.250000 0.250000 0.250000 0.250000 0.250000 0.250000 0.250000 0.250000 0.250000 0.250000 0.250000 0.250000 0.250000 0.250000 0.250000 0.250000 0.250000 0.250000 0.250000 0.250000 0.250000 0.071429 0.642857 0.250000 0.035714 0.250000 0.250000 0.250000 0.250000 0.250000 0.250000 0.250000 0.250000 0.250000 0.250000 0.250000 0.250000 0.748402 0.243070 0.007107 0.001421 0.250000 0.250000 0.250000 0.250000 0.939790 0.054974 0.002618 0.002618 0.250000 0.250000 0.250000 0.250000 0.703232 0.278061 0.017857 0.000850 0.250000 0.250000 0.250000 0.250000 0.779350 0.213578 0.005658 0.001414 0.250000 0.250000 0.250000 0.250000 0.250000 0.250000 0.250000 0.250000 0.250000 0.250000 0.250000 0.250000 0.697472 0.300158 0.001580 0.000790 0.250000 0.250000 0.250000 0.250000 0.891566 0.100402 0.004016 0.004016 0.250000 0.250000 0.250000 0.250000 0.844961 0.152455 0.001292 0.001292 0.250000 0.250000 0.250000 0.250000 0.763578 0.230032 0.003195 0.003195 0.220077 0.772201 0.003861 0.003861 0.250000 0.250000 0.250000 0.250000 0.313725 0.647059 0.019608 0.019608 0.250000 0.250000 0.250000 0.250000 0.636363 0.318182 0.030303 0.015152 0.250000 0.250000 0.250000 0.250000 0.571429 0.371429 0.028571 0.028571 0.250000 0.250000 0.250000 0.250000 0.250000 0.250000 0.250000 0.250000 0.250000 0.250000 0.250000 0.250000 0.612903 0.354130 0.032613 0.000354 0.482142 0.345238 0.148810 0.023810 0.383535 0.459080 0.156416 0.000969 0.470588 0.382353 0.125000 0.022059 0.506008 0.415220 0.078327 0.000445 0.602272 0.295455 0.090909 0.011364 0.693045 0.225420 0.079137 0.002398 0.565108 0.362832 0.070796 0.001264 0.250000 0.250000 0.250000 0.250000 0.532663 0.427136 0.035176 0.005025 0.979729 0.006757 0.006757 0.006757 0.857143 0.047619 0.047619 0.047619 0.744660 0.253482 0.000929 0.000929 0.250000 0.250000 0.250000 0.250000 0.136729 0.792226 0.069705 0.001340 0.250000 0.250000 0.250000 0.250000 0.005085 0.910169 0.083051 0.001695 0.250000 0.250000 0.250000 0.250000 0.250000 0.250000 0.250000 0.250000 0.250000 0.250000 0.250000 0.250000 0.807121 0.191899 0.000817 0.000163 0.805309 0.126844 0.064897 0.002950 0.719290 0.266328 0.014213 0.000169 0.746429 0.228571 0.021429 0.003571 0.714217 0.278016 0.007608 0.000159 0.833333 0.152381 0.009524 0.004762 0.754731 0.239703 0.005195 0.000371 0.746154 0.244231 0.008974 0.000641 0.250000 0.250000 0.250000 0.250000 0.868361 0.127021 0.002309 0.002309 0.786784 0.211855 0.001210 0.000151 0.850498 0.122924 0.023256 0.003322 0.806290 0.189836 0.003646 0.000228 0.680001 0.293333 0.013333 0.013333 0.609456 0.386442 0.003886 0.000216 0.777777 0.166667 0.027778 0.027778 0.606243 0.390956 0.002401 0.000400 0.704175 0.294011 0.000907 0.000907 0.250000 0.250000 0.250000 0.250000 0.820575 0.174641 0.002392 0.002392 0.571428 0.380952 0.023810 0.023810 0.250000 0.250000 0.250000 0.250000 0.597016 0.328358 0.059701 0.014925 0.363636 0.545454 0.045455 0.045455 0.734375 0.234375 0.015625 0.015625 0.800000 0.100000 0.050000 0.050000 0.600000 0.300000 0.050000 0.050000 0.200000 0.400000 0.200000 0.200000 0.250000 0.250000 0.250000 0.250000 0.250000 0.250000 0.250000 0.250000 0.833160 0.159917 0.006577 0.000346 0.547619 0.333333 0.111111 0.007937 0.370799 0.493314 0.135164 0.000723 0.378049 0.475609 0.140244 0.006098 0.385852 0.482315 0.127546 0.004287 0.555556 0.326389 0.111111 0.006944 0.467611 0.421053 0.109312 0.002024 0.369919 0.508130 0.117886 0.004065 0.250000 0.250000 0.250000 0.250000 0.831968 0.118852 0.045082 0.004098 0.968749 0.010417 0.010417 0.010417 0.970000 0.010000 0.010000 0.010000 0.638030 0.341352 0.019473 0.001145 0.250000 0.250000 0.250000 0.250000 0.323194 0.643853 0.031686 0.001267 0.250000 0.250000 0.250000 0.250000 0.015974 0.894569 0.086262 0.003195 0.192308 0.653846 0.134615 0.019231 0.250000 0.250000 0.250000 0.250000 0.250000 0.250000 0.250000 0.250000 0.951596 0.047580 0.000659 0.000165 0.853414 0.134538 0.010040 0.002008 0.707335 0.276209 0.016314 0.000142 0.582492 0.397306 0.016835 0.003367 0.702044 0.289997 0.007694 0.000265 0.815789 0.172515 0.008772 0.002924 0.600907 0.395692 0.002834 0.000567 0.722714 0.256637 0.019174 0.001475 0.250000 0.250000 0.250000 0.250000 0.913044 0.079710 0.004831 0.002415 0.920217 0.079376 0.000271 0.000136 0.781513 0.193277 0.016807 0.008403 0.717895 0.272979 0.008963 0.000163 0.542553 0.425532 0.021277 0.010638 0.796754 0.200295 0.002582 0.000369 0.735633 0.241379 0.011494 0.011494 0.636634 0.358416 0.003960 0.000990 0.759322 0.233898 0.003390 0.003390 0.250000 0.250000 0.250000 0.250000 0.977365 0.018519 0.002058 0.002058 0.844000 0.148000 0.004000 0.004000 0.250000 0.250000 0.250000 0.250000 0.360360 0.612613 0.018018 0.009009 0.250000 0.250000 0.250000 0.250000 0.415493 0.563380 0.014085 0.007042 0.166667 0.499999 0.166667 0.166667 0.604651 0.348837 0.023256 0.023256 0.250000 0.250000 0.250000 0.250000 0.250000 0.250000 0.250000 0.250000 0.250000 0.250000 0.250000 0.250000 0.608013 0.364942 0.026711 0.000334 0.949999 0.016667 0.016667 0.016667 0.471622 0.433953 0.091914 0.002511 0.720000 0.226667 0.040000 0.013333 0.452025 0.446303 0.100352 0.001320 0.617470 0.341867 0.039157 0.001506 0.473985 0.381345 0.137056 0.007614 0.606666 0.340000 0.046667 0.006667 0.250000 0.250000 0.250000 0.250000 0.957066 0.032200 0.008945 0.001789 0.989437 0.003521 0.003521 0.003521 0.250000 0.250000 0.250000 0.250000 0.653021 0.325503 0.020805 0.000671 0.596153 0.365385 0.019231 0.019231 0.211268 0.725351 0.062207 0.001174 0.250000 0.250000 0.250000 0.250000 0.006536 0.816993 0.173203 0.003268 0.250000 0.250000 0.250000 0.250000 0.250000 0.250000 0.250000 0.250000 0.250000 0.250000 0.250000 0.250000 0.785292 0.211749 0.002811 0.000148 0.978418 0.007194 0.007194 0.007194 0.777887 0.215971 0.005863 0.000279 0.832653 0.155102 0.008163 0.004082 0.708952 0.283760 0.007139 0.000149 0.821429 0.175466 0.002329 0.000776 0.576003 0.397965 0.025733 0.000299 0.833333 0.158046 0.005747 0.002874 0.250000 0.250000 0.250000 0.250000 0.967412 0.028864 0.002793 0.000931 0.751155 0.245991 0.002718 0.000136 0.925000 0.025000 0.025000 0.025000 0.728265 0.267255 0.004340 0.000140 0.728571 0.242857 0.014286 0.014286 0.713366 0.283000 0.003469 0.000165 0.888990 0.109190 0.000910 0.000910 0.681528 0.312102 0.006016 0.000354 0.777778 0.194444 0.013889 0.013889 0.250000 0.250000 0.250000 0.250000 0.995830 0.002780 0.000695 0.000695</TABLE>
</DEFINITION>
<DEFINITION>
	<FOR>bank_to(order20)</FOR>
	<GIVEN>balance(trans0)</GIVEN>
	<GIVEN>Loan_Order(trans0,loan0)</GIVEN>
	<GIVEN>Loan_Trans(order20,loan0)</GIVEN>
	<GIVEN>operation(trans0)</GIVEN>
	<TABLE> 0.056726 0.098865 0.131282 0.030794 0.038898 0.100486 0.087520 0.098865 0.059968 0.106969 0.053485 0.048622 0.087520 0.105769 0.079814 0.060646 0.059703 0.055556 0.067685 0.106021 0.074158 0.097536 0.059829 0.067056 0.066365 0.099862 0.069132 0.064041 0.084941 0.095391 0.063505 0.092444 0.039925 0.140407 0.141211 0.032958 0.068596 0.041265 0.066184 0.087506 0.076794 0.074065 0.067235 0.055863 0.084455 0.083116 0.086811 0.094572 0.054524 0.076438 0.068794 0.089827 0.093731 0.086296 0.069328 0.061912 0.065833 0.073638 0.085111 0.093576 0.097147 0.055932 0.070046 0.059077 0.088373 0.054945 0.117216 0.043956 0.078755 0.036630 0.023810 0.120879 0.100733 0.053114 0.029304 0.069597 0.173991 0.097070 0.109387 0.077082 0.056263 0.068019 0.053571 0.082376 0.098259 0.085427 0.071967 0.069724 0.069095 0.063891 0.094939 0.039072 0.059491 0.107890 0.076632 0.065793 0.131334 0.048147 0.065289 0.091253 0.028989 0.105621 0.091001 0.089488 0.089278 0.085611 0.056722 0.061222 0.060611 0.091111 0.090222 0.086833 0.074889 0.053500 0.074611 0.071444 0.103946 0.090155 0.063576 0.075618 0.073496 0.053032 0.095146 0.081046 0.093898 0.069379 0.052533 0.085475 0.084165 0.082481 0.052632 0.052632 0.052632 0.052632 0.105263 0.105263 0.052632 0.157892 0.052632 0.052632 0.052632 0.105263 0.105263 0.106667 0.107097 0.036989 0.064946 0.051613 0.080430 0.100645 0.091613 0.072688 0.070538 0.085161 0.045161 0.086452 0.024691 0.070988 0.030864 0.027778 0.104938 0.120370 0.030864 0.080247 0.098765 0.009259 0.083333 0.135802 0.182101 0.104502 0.104502 0.030547 0.054662 0.062701 0.091640 0.102894 0.110931 0.048232 0.062701 0.091640 0.051447 0.083601 0.087156 0.105505 0.022936 0.027523 0.050459 0.073394 0.091743 0.105505 0.055046 0.064220 0.087156 0.091743 0.137614 0.076924 0.076923 0.076923 0.076923 0.076923 0.076923 0.076923 0.076923 0.076923 0.076923 0.076923 0.076923 0.076923 0.090909 0.045455 0.022727 0.113636 0.022727 0.159091 0.181817 0.045455 0.090909 0.068182 0.045455 0.045455 0.068182 0.076924 0.076923 0.076923 0.076923 0.076923 0.076923 0.076923 0.076923 0.076923 0.076923 0.076923 0.076923 0.076923 0.066667 0.066667 0.066667 0.066667 0.066667 0.066667 0.066667 0.066667 0.133330 0.066667 0.066667 0.066667 0.133333 0.076924 0.076923 0.076923 0.076923 0.076923 0.076923 0.076923 0.076923 0.076923 0.076923 0.076923 0.076923 0.076923</TABLE>
</DEFINITION>
<DEFINITION>
	<FOR>duration(loan0)</FOR>
	<GIVEN>Loan_Order(trans0,loan0)</GIVEN>
	<GIVEN>operation(trans0)</GIVEN>
	<GIVEN>status(loan0)</GIVEN>
	<TABLE> 0.000903 0.000903 0.357724 0.160795 0.479675 0.021739 0.108696 0.021739 0.782609 0.065217 0.000043 0.000043 0.321679 0.301742 0.376493 0.107401 0.262124 0.228730 0.151871 0.249874 0.000133 0.000133 0.338519 0.273368 0.387847 0.498943 0.052854 0.038055 0.306554 0.103594 0.000016 0.000016 0.330342 0.292927 0.376699 0.158668 0.261963 0.200788 0.158309 0.220272 0.000017 0.000017 0.308658 0.293240 0.398068 0.084939 0.286489 0.211849 0.117608 0.299115</TABLE>
</DEFINITION>
<DEFINITION>
	<FOR>frequency(acc0)</FOR>
	<GIVEN>balance(trans0)</GIVEN>
	<GIVEN>Loan_Acc(loan0,acc0)</GIVEN>
	<GIVEN>Loan_Order(trans0,loan0)</GIVEN>
	<GIVEN>operation(trans0)</GIVEN>
	<GIVEN>payments(loan0)</GIVEN>
	<TABLE> 0.003425 0.993150 0.003425 0.087379 0.883495 0.029126 0.006135 0.717791 0.276074 0.327586 0.586207 0.086207 0.333334 0.333333 0.333333 0.003084 0.983769 0.013147 0.065761 0.672739 0.261500 0.092911 0.785219 0.121870 0.007326 0.894689 0.097985 0.035468 0.884729 0.079803 0.104430 0.893988 0.001582 0.099314 0.725878 0.174808 0.118928 0.680067 0.201005 0.052632 0.789473 0.157895 0.111111 0.777778 0.111111 0.009905 0.965125 0.024970 0.070967 0.735146 0.193887 0.093077 0.712047 0.194876 0.004769 0.732304 0.262927 0.040092 0.827797 0.132111 0.005421 0.971165 0.023414 0.067689 0.732761 0.199550 0.093683 0.752249 0.154068 0.003795 0.794376 0.201829 0.006814 0.987174 0.006012 0.003953 0.992094 0.003953 0.089552 0.731344 0.179104 0.008403 0.756303 0.235294 0.179487 0.794872 0.025641 0.333334 0.333333 0.333333 0.000377 0.926848 0.072775 0.043430 0.715353 0.241217 0.145641 0.677265 0.177094 0.007874 0.847971 0.144155 0.095710 0.673267 0.231023 0.333334 0.333333 0.333333 0.108007 0.770950 0.121043 0.029093 0.597262 0.373645 0.000909 0.416364 0.582727 0.025641 0.948718 0.025641 0.000333 0.868798 0.130869 0.055279 0.708319 0.236402 0.105931 0.617493 0.276576 0.005993 0.719422 0.274585 0.097059 0.597059 0.305882 0.000259 0.929424 0.070317 0.047619 0.760673 0.191708 0.052332 0.612742 0.334926 0.001821 0.556649 0.441530 0.054878 0.878049 0.067073 0.333334 0.333333 0.333333 0.142857 0.714286 0.142857 0.200000 0.600000 0.200000 0.333334 0.333333 0.333333 0.333334 0.333333 0.333333 0.004386 0.657895 0.337719 0.020263 0.676799 0.302938 0.164782 0.625202 0.210016 0.025057 0.785877 0.189066 0.203704 0.370370 0.425926 0.333334 0.333333 0.333333 0.265306 0.714286 0.020408 0.007692 0.423077 0.569231 0.007407 0.577778 0.414815 0.111111 0.777778 0.111111 0.018868 0.660377 0.320755 0.015385 0.657692 0.326923 0.157534 0.541096 0.301370 0.065789 0.618422 0.315789 0.153846 0.307692 0.538462 0.027027 0.405405 0.567568 0.076923 0.605769 0.317308 0.122449 0.714286 0.163265 0.037037 0.629630 0.333333 0.333334 0.333333 0.333333 0.333334 0.333333 0.333333 0.333334 0.333333 0.333333 0.333334 0.333333 0.333333 0.333334 0.333333 0.333333 0.333334 0.333333 0.333333 0.166667 0.666666 0.166667 0.166667 0.333333 0.500000 0.222222 0.666667 0.111111 0.312500 0.375000 0.312500 0.333334 0.333333 0.333333 0.333334 0.333333 0.333333 0.333334 0.333333 0.333333 0.333334 0.333333 0.333333 0.333334 0.333333 0.333333 0.333334 0.333333 0.333333 0.333334 0.333333 0.333333 0.400000 0.400000 0.200000 0.333334 0.333333 0.333333 0.333334 0.333333 0.333333 0.333334 0.333333 0.333333 0.333334 0.333333 0.333333 0.333334 0.333333 0.333333 0.333334 0.333333 0.333333 0.333334 0.333333 0.333333 0.333334 0.333333 0.333333</TABLE>
</DEFINITION>
<DEFINITION>
	<FOR>k_symbol(order20)</FOR>
	<GIVEN>amount2(trans0)</GIVEN>
	<GIVEN>amount3(order20)</GIVEN>
	<GIVEN>balance(trans0)</GIVEN>
	<GIVEN>Loan_Order(trans0,loan0)</GIVEN>
	<GIVEN>Loan_Trans(order20,loan0)</GIVEN>
	<GIVEN>operation(trans0)</GIVEN>
	<TABLE> 0.458599 0.133758 0.407643 0.476367 0.139187 0.384446 0.269520 0.109610 0.620870 0.460538 0.138930 0.400532 0.543978 0.179030 0.276992 0.547038 0.142857 0.310105 0.427748 0.126260 0.445992 0.308333 0.050000 0.641667 0.482547 0.144982 0.372471 0.554139 0.201664 0.244197 0.500000 0.166667 0.333333 0.480620 0.147287 0.372093 0.333334 0.333333 0.333333 0.487342 0.170886 0.341772 0.493827 0.160494 0.345679 0.333334 0.333333 0.333333 0.333334 0.333333 0.333333 0.333334 0.333333 0.333333 0.250000 0.250000 0.500000 0.333334 0.333333 0.333333 0.485437 0.004854 0.509709 0.484970 0.012915 0.502115 0.551725 0.018062 0.430213 0.393660 0.016592 0.589748 0.496326 0.027421 0.476253 0.303797 0.006329 0.689874 0.392857 0.000576 0.606567 0.374332 0.005348 0.620320 0.300485 0.001436 0.698079 0.415792 0.006418 0.577790 0.166667 0.166667 0.666666 0.270718 0.005525 0.723757 0.333334 0.333333 0.333333 0.322222 0.005556 0.672222 0.418367 0.010204 0.571429 0.333334 0.333333 0.333333 0.333334 0.333333 0.333333 0.333334 0.333333 0.333333 0.333334 0.333333 0.333333 0.333334 0.333333 0.333333 0.405063 0.012658 0.582279 0.395522 0.028918 0.575560 0.878260 0.118841 0.002899 0.439900 0.039232 0.520868 0.558987 0.075185 0.365828 0.658823 0.011765 0.329412 0.430311 0.033829 0.535860 0.968750 0.015625 0.015625 0.321247 0.027354 0.651399 0.487411 0.060128 0.452461 0.333334 0.333333 0.333333 0.337662 0.012987 0.649351 0.333334 0.333333 0.333333 0.215190 0.025316 0.759494 0.392857 0.071429 0.535714 0.333334 0.333333 0.333333 0.333334 0.333333 0.333333 0.333334 0.333333 0.333333 0.333334 0.333333 0.333333 0.333334 0.333333 0.333333 0.882352 0.058824 0.058824 0.858267 0.002625 0.139108 0.981982 0.009009 0.009009 0.924852 0.000537 0.074611 0.870527 0.000651 0.128822 0.866666 0.066667 0.066667 0.987342 0.006329 0.006329 0.777778 0.111111 0.111111 0.997032 0.001484 0.001484 0.996310 0.001845 0.001845 0.333334 0.333333 0.333333 0.857142 0.071429 0.071429 0.333334 0.333333 0.333333 0.833334 0.083333 0.083333 0.714286 0.142857 0.142857 0.333334 0.333333 0.333333 0.333334 0.333333 0.333333 0.333334 0.333333 0.333333 0.333334 0.333333 0.333333 0.333334 0.333333 0.333333 0.333334 0.333333 0.333333 0.978948 0.010526 0.010526 0.333334 0.333333 0.333333 0.997564 0.001218 0.001218 0.996086 0.001957 0.001957 0.333334 0.333333 0.333333 0.955556 0.022222 0.022222 0.333334 0.333333 0.333333 0.991596 0.004202 0.004202 0.991380 0.004310 0.004310 0.333334 0.333333 0.333333 0.500000 0.250000 0.250000 0.333334 0.333333 0.333333 0.777778 0.111111 0.111111 0.666666 0.166667 0.166667 0.333334 0.333333 0.333333 0.333334 0.333333 0.333333 0.333334 0.333333 0.333333 0.333334 0.333333 0.333333 0.333334 0.333333 0.333333 0.333334 0.333333 0.333333 0.533597 0.134387 0.332016 0.607407 0.162963 0.229630 0.560000 0.155385 0.284615 0.333334 0.333333 0.333333 0.333334 0.333333 0.333333 0.515309 0.146860 0.337831 0.726688 0.226688 0.046624 0.485200 0.162162 0.352638 0.333334 0.333333 0.333333 0.333334 0.333333 0.333333 0.419431 0.151659 0.428910 0.666667 0.222222 0.111111 0.415385 0.107692 0.476923 0.333334 0.333333 0.333333 0.333334 0.333333 0.333333 0.416666 0.166667 0.416667 0.333334 0.333333 0.333333 0.333334 0.333333 0.333333 0.333334 0.333333 0.333333 0.333334 0.333333 0.333333 0.324232 0.064846 0.610922 0.305949 0.025496 0.668555 0.285246 0.009836 0.704918 0.333334 0.333333 0.333333 0.333334 0.333333 0.333333 0.331366 0.007263 0.661371 0.223759 0.008137 0.768104 0.260059 0.000981 0.738960 0.333334 0.333333 0.333333 0.333334 0.333333 0.333333 0.270758 0.001805 0.727437 0.090909 0.030303 0.878788 0.278689 0.016393 0.704918 0.333334 0.333333 0.333333 0.333334 0.333333 0.333333 0.333333 0.166667 0.500000 0.333334 0.333333 0.333333 0.250000 0.250000 0.500000 0.333334 0.333333 0.333333 0.333334 0.333333 0.333333 0.435821 0.032836 0.531343 0.881081 0.048649 0.070270 0.246888 0.047718 0.705394 0.333334 0.333333 0.333333 0.333334 0.333333 0.333333 0.353763 0.029032 0.617205 0.383595 0.061520 0.554885 0.213115 0.012750 0.774135 0.333334 0.333333 0.333333 0.333334 0.333333 0.333333 0.256522 0.013043 0.730435 0.085106 0.021277 0.893617 0.184211 0.026316 0.789473 0.333334 0.333333 0.333333 0.333334 0.333333 0.333333 0.222222 0.111111 0.666667 0.333334 0.333333 0.333333 0.333334 0.333333 0.333333 0.333334 0.333333 0.333333 0.333334 0.333333 0.333333 0.853659 0.024390 0.121951 0.974684 0.012658 0.012658 0.973684 0.013158 0.013158 0.333334 0.333333 0.333333 0.333334 0.333333 0.333333 0.990740 0.004630 0.004630 0.990148 0.004926 0.004926 0.983606 0.008197 0.008197 0.333334 0.333333 0.333333 0.333334 0.333333 0.333333 0.965518 0.017241 0.017241 0.818182 0.090909 0.090909 0.714286 0.142857 0.142857 0.333334 0.333333 0.333333 0.333334 0.333333 0.333333 0.500000 0.250000 0.250000 0.333334 0.333333 0.333333 0.333334 0.333333 0.333333 0.333334 0.333333 0.333333 0.333334 0.333333 0.333333 0.875000 0.062500 0.062500 0.980198 0.009901 0.009901 0.959184 0.020408 0.020408 0.333334 0.333333 0.333333 0.333334 0.333333 0.333333 0.972222 0.013889 0.013889 0.987342 0.006329 0.006329 0.963636 0.018182 0.018182 0.333334 0.333333 0.333333 0.333334 0.333333 0.333333 0.904762 0.047619 0.047619 0.333334 0.333333 0.333333 0.750000 0.125000 0.125000 0.333334 0.333333 0.333333 0.333334 0.333333 0.333333 0.333334 0.333333 0.333333 0.333334 0.333333 0.333333 0.333334 0.333333 0.333333 0.333334 0.333333 0.333333 0.333334 0.333333 0.333333 0.590909 0.272727 0.136364 0.333334 0.333333 0.333333 0.577778 0.122222 0.300000 0.333334 0.333333 0.333333 0.333334 0.333333 0.333333 0.506702 0.171582 0.321716 0.694445 0.296296 0.009259 0.444000 0.148000 0.408000 0.333334 0.333333 0.333333 0.333334 0.333333 0.333333 0.464844 0.164062 0.371094 0.812500 0.125000 0.062500 0.300000 0.200000 0.500000 0.333334 0.333333 0.333333 0.333334 0.333333 0.333333 0.250000 0.250000 0.500000 0.333334 0.333333 0.333333 0.333334 0.333333 0.333333 0.333334 0.333333 0.333333 0.333334 0.333333 0.333333 0.090909 0.045455 0.863636 0.333334 0.333333 0.333333 0.311111 0.011111 0.677778 0.333334 0.333333 0.333333 0.333334 0.333333 0.333333 0.309524 0.002381 0.688095 0.315271 0.004926 0.679803 0.231608 0.002725 0.765667 0.333334 0.333333 0.333333 0.333334 0.333333 0.333333 0.316206 0.003953 0.679841 0.171429 0.014286 0.814285 0.333333 0.083333 0.583334 0.333334 0.333333 0.333333 0.333334 0.333333 0.333333 0.222222 0.111111 0.666667 0.333334 0.333333 0.333333 0.333334 0.333333 0.333333 0.333334 0.333333 0.333333 0.333334 0.333333 0.333333 0.350000 0.050000 0.600000 0.090909 0.090909 0.818182 0.216216 0.013514 0.770270 0.333334 0.333333 0.333333 0.333334 0.333333 0.333333 0.278539 0.022831 0.698630 0.169591 0.058480 0.771929 0.217105 0.013158 0.769737 0.333334 0.333333 0.333333 0.333334 0.333333 0.333333 0.254386 0.026316 0.719298 0.079365 0.031746 0.888889 0.333333 0.111111 0.555556 0.333334 0.333333 0.333333 0.333334 0.333333 0.333333 0.250000 0.125000 0.625000 0.333334 0.333333 0.333333 0.333334 0.333333 0.333333 0.333334 0.333333 0.333333 0.333334 0.333333 0.333333 0.500000 0.250000 0.250000 0.333334 0.333333 0.333333 0.846154 0.076923 0.076923 0.333334 0.333333 0.333333 0.333334 0.333333 0.333333 0.942858 0.028571 0.028571 0.944444 0.027778 0.027778 0.961538 0.019231 0.019231 0.333334 0.333333 0.333333 0.333334 0.333333 0.333333 0.928572 0.035714 0.035714 0.933334 0.033333 0.033333 0.333334 0.333333 0.333333 0.333334 0.333333 0.333333 0.333334 0.333333 0.333333 0.333334 0.333333 0.333333 0.333334 0.333333 0.333333 0.333334 0.333333 0.333333 0.333334 0.333333 0.333333 0.333334 0.333333 0.333333 0.333334 0.333333 0.333333 0.333334 0.333333 0.333333 0.333334 0.333333 0.333333 0.333334 0.333333 0.333333 0.333334 0.333333 0.333333 0.900000 0.050000 0.050000 0.950000 0.025000 0.025000 0.900000 0.050000 0.050000 0.333334 0.333333 0.333333 0.333334 0.333333 0.333333 0.875000 0.062500 0.062500 0.875000 0.062500 0.062500 0.333334 0.333333 0.333333 0.333334 0.333333 0.333333 0.333334 0.333333 0.333333 0.333334 0.333333 0.333333 0.333334 0.333333 0.333333 0.333334 0.333333 0.333333 0.333334 0.333333 0.333333 0.333334 0.333333 0.333333 0.333334 0.333333 0.333333 0.333334 0.333333 0.333333 0.437500 0.187500 0.375000 0.333334 0.333333 0.333333 0.333334 0.333333 0.333333 0.333334 0.333333 0.333333 0.500000 0.333333 0.166667 0.333334 0.333333 0.333333 0.333334 0.333333 0.333333 0.333334 0.333333 0.333333 0.333334 0.333333 0.333333 0.500000 0.333333 0.166667 0.333334 0.333333 0.333333 0.333334 0.333333 0.333333 0.333334 0.333333 0.333333 0.333334 0.333333 0.333333 0.333334 0.333333 0.333333 0.333334 0.333333 0.333333 0.333334 0.333333 0.333333 0.333334 0.333333 0.333333 0.333334 0.333333 0.333333 0.333334 0.333333 0.333333 0.375000 0.125000 0.500000 0.333334 0.333333 0.333333 0.333334 0.333333 0.333333 0.333334 0.333333 0.333333 0.500000 0.100000 0.400000 0.333334 0.333333 0.333333 0.333334 0.333333 0.333333 0.333334 0.333333 0.333333 0.333334 0.333333 0.333333 0.318182 0.045455 0.636363 0.333334 0.333333 0.333333 0.333334 0.333333 0.333333 0.333334 0.333333 0.333333 0.333334 0.333333 0.333333 0.333334 0.333333 0.333333 0.333334 0.333333 0.333333 0.333334 0.333333 0.333333 0.333334 0.333333 0.333333 0.333334 0.333333 0.333333 0.333334 0.333333 0.333333 0.300000 0.100000 0.600000 0.333334 0.333333 0.333333 0.333334 0.333333 0.333333 0.333334 0.333333 0.333333 0.111111 0.111111 0.777778 0.333334 0.333333 0.333333 0.333334 0.333333 0.333333 0.333334 0.333333 0.333333 0.333334 0.333333 0.333333 0.066667 0.066667 0.866666 0.333334 0.333333 0.333333 0.333334 0.333333 0.333333 0.333334 0.333333 0.333333 0.333334 0.333333 0.333333 0.333334 0.333333 0.333333 0.333334 0.333333 0.333333 0.333334 0.333333 0.333333 0.333334 0.333333 0.333333 0.333334 0.333333 0.333333 0.333334 0.333333 0.333333 0.333334 0.333333 0.333333 0.333334 0.333333 0.333333 0.333334 0.333333 0.333333 0.333334 0.333333 0.333333 0.333334 0.333333 0.333333 0.333334 0.333333 0.333333 0.333334 0.333333 0.333333 0.333334 0.333333 0.333333 0.333334 0.333333 0.333333 0.714286 0.142857 0.142857 0.333334 0.333333 0.333333 0.333334 0.333333 0.333333 0.333334 0.333333 0.333333 0.333334 0.333333 0.333333 0.333334 0.333333 0.333333 0.333334 0.333333 0.333333 0.333334 0.333333 0.333333 0.333334 0.333333 0.333333 0.333334 0.333333 0.333333 0.333334 0.333333 0.333333 0.333334 0.333333 0.333333 0.333334 0.333333 0.333333 0.333334 0.333333 0.333333 0.333334 0.333333 0.333333 0.500000 0.250000 0.250000 0.333334 0.333333 0.333333 0.333334 0.333333 0.333333 0.333334 0.333333 0.333333 0.333334 0.333333 0.333333 0.750000 0.125000 0.125000 0.333334 0.333333 0.333333 0.333334 0.333333 0.333333 0.333334 0.333333 0.333333 0.333334 0.333333 0.333333 0.333334 0.333333 0.333333 0.333334 0.333333 0.333333 0.333334 0.333333 0.333333</TABLE>
</DEFINITION>
<DEFINITION>
	<FOR>Loan_Acc(loan0,acc0)</FOR>
	<TABLE> 1.000000</TABLE>
</DEFINITION>
<DEFINITION>
	<FOR>Loan_Order(trans0,loan0)</FOR>
	<TABLE> 1.000000</TABLE>
</DEFINITION>
<DEFINITION>
	<FOR>Loan_Trans(order20,loan0)</FOR>
	<TABLE> 1.000000</TABLE>
</DEFINITION>
<DEFINITION>
	<FOR>operation(trans0)</FOR>
	<GIVEN>type(trans0)</GIVEN>
	<TABLE> 0.000027 0.786199 0.213720 0.000027 0.000027 0.000171 0.000171 0.000171 0.999316 0.000171 0.008135 0.000007 0.000007 0.510287 0.481564</TABLE>
</DEFINITION>
<DEFINITION>
	<FOR>payments(loan0)</FOR>
	<GIVEN>Loan_Order(trans0,loan0)</GIVEN>
	<GIVEN>operation(trans0)</GIVEN>
	<GIVEN>type(trans0)</GIVEN>
	<TABLE> 0.200000 0.200000 0.200000 0.200000 0.200000 0.200000 0.200000 0.200000 0.200000 0.200000 0.470384 0.205575 0.243031 0.080139 0.000871 0.307578 0.266934 0.233406 0.145653 0.046429 0.200000 0.200000 0.200000 0.200000 0.200000 0.200000 0.200000 0.200000 0.200000 0.200000 0.078858 0.449620 0.309425 0.155964 0.006133 0.200000 0.200000 0.200000 0.200000 0.200000 0.200000 0.200000 0.200000 0.200000 0.200000 0.200000 0.200000 0.200000 0.200000 0.200000 0.064588 0.387185 0.304609 0.217235 0.026383 0.272185 0.285703 0.256396 0.146544 0.039172 0.200000 0.200000 0.200000 0.200000 0.200000 0.200000 0.200000 0.200000 0.200000 0.200000 0.321584 0.283221 0.229589 0.126416 0.039190</TABLE>
</DEFINITION>
<DEFINITION>
	<FOR>status(loan0)</FOR>
	<GIVEN>Loan_Order(trans0,loan0)</GIVEN>
	<GIVEN>operation(trans0)</GIVEN>
	<GIVEN>payments(loan0)</GIVEN>
	<GIVEN>type(trans0)</GIVEN>
	<TABLE> 0.500000 0.500000 0.500000 0.500000 0.998152 0.001848 0.500000 0.500000 0.500000 0.500000 0.919831 0.080169 0.500000 0.500000 0.500000 0.500000 0.932143 0.067857 0.500000 0.500000 0.500000 0.500000 0.935484 0.064516 0.500000 0.500000 0.500000 0.500000 0.500000 0.500000 0.962045 0.037955 0.500000 0.500000 0.500000 0.500000 0.868545 0.131455 0.500000 0.500000 0.500000 0.500000 0.793380 0.206620 0.500000 0.500000 0.500000 0.500000 0.578505 0.421495 0.500000 0.500000 0.500000 0.500000 0.000733 0.999267 0.500000 0.500000 0.500000 0.500000 0.819334 0.180666 0.500000 0.500000 0.500000 0.500000 0.954356 0.045644 0.500000 0.500000 0.500000 0.500000 0.960776 0.039224 0.500000 0.500000 0.500000 0.500000 0.960706 0.039294 0.500000 0.500000 0.500000 0.500000 0.020000 0.980000 0.500000 0.500000 0.500000 0.500000 0.500000 0.500000 0.828042 0.171958 0.953873 0.046127 0.500000 0.500000 0.877488 0.122512 0.884163 0.115837 0.500000 0.500000 0.870714 0.129286 0.828424 0.171576 0.500000 0.500000 0.654058 0.345942 0.661881 0.338119 0.500000 0.500000 0.006452 0.993548 0.000356 0.999644 0.500000 0.500000 0.500000 0.500000 0.979384 0.020616 0.500000 0.500000 0.500000 0.500000 0.920494 0.079506 0.500000 0.500000 0.500000 0.500000 0.860827 0.139173 0.500000 0.500000 0.500000 0.500000 0.738612 0.261388 0.500000 0.500000 0.500000 0.500000 0.000377 0.999623</TABLE>
</DEFINITION>
<DEFINITION>
	<FOR>type(trans0)</FOR>
	<TABLE> 0.203247 0.031734 0.765019</TABLE>
</DEFINITION>
</NETWORK>
</BIF>
