<?xml version="1.0" encoding="UTF-8"?>
<BIF VERSION="0.3"  xmlns="http://www.cs.ubc.ca/labs/lci/fopi/ve/XMLBIFv0_3"
xmlns:xsi="http://www.w3.org/2001/XMLSchema-instance"
xsi:schemaLocation="http://www.cs.ubc.ca/labs/lci/fopi/ve/XMLBIFv0_3 http://www.cs.ubc.ca/labs/lci/fopi/ve/XMLBIFv0_3/XMLBIFv0_3.xsd">
<NETWORK>
<NAME>UW_std</NAME>
<VARIABLE TYPE="nature">
	<NAME>advisedBy(person0,person1)</NAME>
	<OUTCOME>T</OUTCOME>
	<PROPERTY> position=(6000.0,4000.0)</PROPERTY>
</VARIABLE>
<VARIABLE TYPE="nature">
	<NAME>courseLevel(course0)</NAME>
	<OUTCOME>Level_300</OUTCOME>
	<OUTCOME>Level_400</OUTCOME>
	<PROPERTY> position=(6200.0,4000.0)</PROPERTY>
</VARIABLE>
<VARIABLE TYPE="nature">
	<NAME>hasPosition(person0)</NAME>
	<OUTCOME>0</OUTCOME>
	<PROPERTY> position=(6400.0,4000.0)</PROPERTY>
</VARIABLE>
<VARIABLE TYPE="nature">
	<NAME>hasPosition(person1)</NAME>
	<OUTCOME>Faculty</OUTCOME>
	<PROPERTY> position=(6000.0,4200.0)</PROPERTY>
</VARIABLE>
<VARIABLE TYPE="nature">
	<NAME>inPhase(person0)</NAME>
	<OUTCOME>Post_Generals</OUTCOME>
	<PROPERTY> position=(6200.0,4200.0)</PROPERTY>
</VARIABLE>
<VARIABLE TYPE="nature">
	<NAME>inPhase(person1)</NAME>
	<OUTCOME>0</OUTCOME>
	<PROPERTY> position=(6400.0,4200.0)</PROPERTY>
</VARIABLE>
<VARIABLE TYPE="nature">
	<NAME>professor(person0)</NAME>
	<OUTCOME>0</OUTCOME>
	<PROPERTY> position=(6000.0,4400.0)</PROPERTY>
</VARIABLE>
<VARIABLE TYPE="nature">
	<NAME>professor(person1)</NAME>
	<OUTCOME>1</OUTCOME>
	<PROPERTY> position=(6200.0,4400.0)</PROPERTY>
</VARIABLE>
<VARIABLE TYPE="nature">
	<NAME>student(person0)</NAME>
	<OUTCOME>1</OUTCOME>
	<PROPERTY> position=(6400.0,4400.0)</PROPERTY>
</VARIABLE>
<VARIABLE TYPE="nature">
	<NAME>student(person1)</NAME>
	<OUTCOME>0</OUTCOME>
	<PROPERTY> position=(6000.0,4600.0)</PROPERTY>
</VARIABLE>
<VARIABLE TYPE="nature">
	<NAME>taughtBy(course0,person0)</NAME>
	<OUTCOME>T</OUTCOME>
	<PROPERTY> position=(6200.0,4600.0)</PROPERTY>
</VARIABLE>
<VARIABLE TYPE="nature">
	<NAME>taughtBy(course0,person1)</NAME>
	<OUTCOME>T</OUTCOME>
	<PROPERTY> position=(6400.0,4600.0)</PROPERTY>
</VARIABLE>
<VARIABLE TYPE="nature">
	<NAME>yearsInProgram(person0)</NAME>
	<OUTCOME>Year_5</OUTCOME>
	<OUTCOME>Year_6</OUTCOME>
	<PROPERTY> position=(6000.0,4800.0)</PROPERTY>
</VARIABLE>
<VARIABLE TYPE="nature">
	<NAME>yearsInProgram(person1)</NAME>
	<OUTCOME>0</OUTCOME>
	<PROPERTY> position=(6200.0,4800.0)</PROPERTY>
</VARIABLE>
<DEFINITION>
	<FOR>advisedBy(person0,person1)</FOR>
	<TABLE> 1.000000</TABLE>
</DEFINITION>
<DEFINITION>
	<FOR>courseLevel(course0)</FOR>
	<GIVEN>hasPosition(person0)</GIVEN>
	<GIVEN>hasPosition(person1)</GIVEN>
	<GIVEN>taughtBy(course0,person0)</GIVEN>
	<GIVEN>taughtBy(course0,person1)</GIVEN>
	<TABLE> 0.500000 0.500000</TABLE>
</DEFINITION>
<DEFINITION>
	<FOR>hasPosition(person0)</FOR>
	<GIVEN>hasPosition(person1)</GIVEN>
	<GIVEN>professor(person0)</GIVEN>
	<GIVEN>student(person0)</GIVEN>
	<GIVEN>taughtBy(course0,person0)</GIVEN>
	<GIVEN>taughtBy(course0,person1)</GIVEN>
	<TABLE> 1.000000</TABLE>
</DEFINITION>
<DEFINITION>
	<FOR>hasPosition(person1)</FOR>
	<TABLE> 1.000000</TABLE>
</DEFINITION>
<DEFINITION>
	<FOR>inPhase(person0)</FOR>
	<GIVEN>yearsInProgram(person0)</GIVEN>
	<TABLE> 1.000000 1.000000</TABLE>
</DEFINITION>
<DEFINITION>
	<FOR>inPhase(person1)</FOR>
	<TABLE> 1.000000</TABLE>
</DEFINITION>
<DEFINITION>
	<FOR>professor(person0)</FOR>
	<GIVEN>inPhase(person0)</GIVEN>
	<GIVEN>student(person0)</GIVEN>
	<TABLE> 1.000000</TABLE>
</DEFINITION>
<DEFINITION>
	<FOR>professor(person1)</FOR>
	<TABLE> 1.000000</TABLE>
</DEFINITION>
<DEFINITION>
	<FOR>student(person0)</FOR>
	<GIVEN>inPhase(person0)</GIVEN>
	<GIVEN>inPhase(person1)</GIVEN>
	<GIVEN>professor(person1)</GIVEN>
	<GIVEN>student(person1)</GIVEN>
	<GIVEN>taughtBy(course0,person0)</GIVEN>
	<GIVEN>taughtBy(course0,person1)</GIVEN>
	<TABLE> 1.000000</TABLE>
</DEFINITION>
<DEFINITION>
	<FOR>student(person1)</FOR>
	<TABLE> 1.000000</TABLE>
</DEFINITION>
<DEFINITION>
	<FOR>taughtBy(course0,person0)</FOR>
	<TABLE> 1.000000</TABLE>
</DEFINITION>
<DEFINITION>
	<FOR>taughtBy(course0,person1)</FOR>
	<TABLE> 1.000000</TABLE>
</DEFINITION>
<DEFINITION>
	<FOR>yearsInProgram(person0)</FOR>
	<GIVEN>inPhase(person1)</GIVEN>
	<GIVEN>taughtBy(course0,person0)</GIVEN>
	<GIVEN>taughtBy(course0,person1)</GIVEN>
	<TABLE> 0.500000 0.500000</TABLE>
</DEFINITION>
<DEFINITION>
	<FOR>yearsInProgram(person1)</FOR>
	<TABLE> 1.000000</TABLE>
</DEFINITION>
</NETWORK>
</BIF>
