<?xml version="1.0" encoding="UTF-8"?>
<BIF VERSION="0.3"  xmlns="http://www.cs.ubc.ca/labs/lci/fopi/ve/XMLBIFv0_3"
xmlns:xsi="http://www.w3.org/2001/XMLSchema-instance"
xsi:schemaLocation="http://www.cs.ubc.ca/labs/lci/fopi/ve/XMLBIFv0_3 http://www.cs.ubc.ca/labs/lci/fopi/ve/XMLBIFv0_3/XMLBIFv0_3.xsd">
<NETWORK>
<NAME>MovieLens_TQ</NAME>
<VARIABLE TYPE="nature">
	<NAME>Action(item20)</NAME>
	<OUTCOME>0</OUTCOME>
	<OUTCOME>1</OUTCOME>
	<PROPERTY> position=(6000.0,4000.0)</PROPERTY>
</VARIABLE>
<VARIABLE TYPE="nature">
	<NAME>Age(User0)</NAME>
	<OUTCOME>1</OUTCOME>
	<OUTCOME>18</OUTCOME>
	<OUTCOME>25</OUTCOME>
	<OUTCOME>35</OUTCOME>
	<OUTCOME>45</OUTCOME>
	<OUTCOME>50</OUTCOME>
	<OUTCOME>56</OUTCOME>
	<PROPERTY> position=(6200.0,4000.0)</PROPERTY>
</VARIABLE>
<VARIABLE TYPE="nature">
	<NAME>Drama(item20)</NAME>
	<OUTCOME>0</OUTCOME>
	<OUTCOME>1</OUTCOME>
	<PROPERTY> position=(6400.0,4000.0)</PROPERTY>
</VARIABLE>
<VARIABLE TYPE="nature">
	<NAME>Gender(User0)</NAME>
	<OUTCOME>F</OUTCOME>
	<OUTCOME>M</OUTCOME>
	<PROPERTY> position=(6000.0,4200.0)</PROPERTY>
</VARIABLE>
<VARIABLE TYPE="nature">
	<NAME>Horror(item20)</NAME>
	<OUTCOME>0</OUTCOME>
	<OUTCOME>1</OUTCOME>
	<PROPERTY> position=(6200.0,4200.0)</PROPERTY>
</VARIABLE>
<VARIABLE TYPE="nature">
	<NAME>rating(User0,item20)</NAME>
	<OUTCOME>1</OUTCOME>
	<OUTCOME>2</OUTCOME>
	<OUTCOME>3</OUTCOME>
	<OUTCOME>4</OUTCOME>
	<OUTCOME>5</OUTCOME>
	<PROPERTY> position=(6400.0,4200.0)</PROPERTY>
</VARIABLE>
<VARIABLE TYPE="nature">
	<NAME>u2base(User0,item20)</NAME>
	<OUTCOME>T</OUTCOME>
	<PROPERTY> position=(6000.0,4400.0)</PROPERTY>
</VARIABLE>
<DEFINITION>
	<FOR>Action(item20)</FOR>
	<GIVEN>Horror(item20)</GIVEN>
	<TABLE> 0.628804 0.371196 0.999990 0.000010</TABLE>
</DEFINITION>
<DEFINITION>
	<FOR>Age(User0)</FOR>
	<GIVEN>Drama(item20)</GIVEN>
	<GIVEN>Horror(item20)</GIVEN>
	<GIVEN>rating(User0,item20)</GIVEN>
	<GIVEN>u2base(User0,item20)</GIVEN>
	<TABLE> 0.037096 0.242127 0.447797 0.151848 0.053320 0.044752 0.023060 0.028817 0.214797 0.427653 0.180643 0.070928 0.051813 0.025349 0.025967 0.198429 0.408821 0.195228 0.076973 0.064901 0.029681 0.027241 0.190761 0.402737 0.201432 0.077239 0.067747 0.032843 0.032263 0.203241 0.397469 0.191579 0.072532 0.069469 0.033447 0.042504 0.213287 0.392496 0.174325 0.069883 0.078786 0.028719 0.026106 0.204653 0.410997 0.193088 0.083931 0.056675 0.024550 0.025295 0.182870 0.403787 0.204309 0.088673 0.064837 0.030229 0.029719 0.179856 0.396425 0.208282 0.084996 0.067694 0.033028 0.036439 0.185521 0.366389 0.206369 0.088470 0.076082 0.040730 0.041296 0.232104 0.418963 0.164552 0.063519 0.048143 0.031423 0.027387 0.197738 0.409326 0.193064 0.082916 0.058614 0.030955 0.023269 0.171618 0.392001 0.207571 0.090263 0.075676 0.039602 0.023488 0.161765 0.385561 0.208591 0.092454 0.081557 0.046584 0.028285 0.167082 0.371281 0.199397 0.089877 0.088963 0.055115 0.142857 0.142857 0.142857 0.142857 0.142857 0.142858 0.142857 0.142857 0.142857 0.142857 0.142857 0.142857 0.142858 0.142857 0.142857 0.142857 0.142857 0.142857 0.142857 0.142858 0.142857 0.142857 0.142857 0.142857 0.142857 0.142857 0.142858 0.142857 0.142857 0.142857 0.142857 0.142857 0.142857 0.142858 0.142857</TABLE>
</DEFINITION>
<DEFINITION>
	<FOR>Drama(item20)</FOR>
	<GIVEN>Action(item20)</GIVEN>
	<GIVEN>Horror(item20)</GIVEN>
	<TABLE> 0.000002 0.999998 0.999990 0.000010 0.999997 0.000003 0.500000 0.500000</TABLE>
</DEFINITION>
<DEFINITION>
	<FOR>Gender(User0)</FOR>
	<GIVEN>Action(item20)</GIVEN>
	<GIVEN>Drama(item20)</GIVEN>
	<GIVEN>u2base(User0,item20)</GIVEN>
	<TABLE> 0.219024 0.780976 0.278651 0.721349 0.199956 0.800044 0.500000 0.500000</TABLE>
</DEFINITION>
<DEFINITION>
	<FOR>Horror(item20)</FOR>
	<TABLE> 0.897756 0.102244</TABLE>
</DEFINITION>
<DEFINITION>
	<FOR>rating(User0,item20)</FOR>
	<GIVEN>Drama(item20)</GIVEN>
	<GIVEN>Gender(User0)</GIVEN>
	<GIVEN>Horror(item20)</GIVEN>
	<GIVEN>u2base(User0,item20)</GIVEN>
	<TABLE> 0.067070 0.118115 0.273636 0.336099 0.205080 0.104683 0.134771 0.275925 0.314093 0.170528 0.065509 0.125063 0.274881 0.332421 0.202126 0.101371 0.147274 0.282902 0.309147 0.159306 0.041525 0.086768 0.244898 0.365938 0.260871 0.200000 0.200000 0.200000 0.200000 0.200000 0.042395 0.093064 0.251291 0.364896 0.248354 0.200000 0.200000 0.200000 0.200000 0.200000</TABLE>
</DEFINITION>
<DEFINITION>
	<FOR>u2base(User0,item20)</FOR>
	<TABLE> 1.000000</TABLE>
</DEFINITION>
</NETWORK>
</BIF>
