<?xml version="1.0" encoding="UTF-8"?>
<BIF VERSION="0.3"  xmlns="http://www.cs.ubc.ca/labs/lci/fopi/ve/XMLBIFv0_3"
xmlns:xsi="http://www.w3.org/2001/XMLSchema-instance"
xsi:schemaLocation="http://www.cs.ubc.ca/labs/lci/fopi/ve/XMLBIFv0_3 http://www.cs.ubc.ca/labs/lci/fopi/ve/XMLBIFv0_3/XMLBIFv0_3.xsd">
<NETWORK>
<NAME>Mutagenesis_std</NAME>
<VARIABLE TYPE="nature">
	<NAME>atype(Atom0)</NAME>
	<OUTCOME>0</OUTCOME>
	<OUTCOME>1</OUTCOME>
	<OUTCOME>2</OUTCOME>
	<PROPERTY> position=(6000.0,4000.0)</PROPERTY>
</VARIABLE>
<VARIABLE TYPE="nature">
	<NAME>bond(Mole0,Atom0)</NAME>
	<OUTCOME>T</OUTCOME>
	<PROPERTY> position=(6200.0,4000.0)</PROPERTY>
</VARIABLE>
<VARIABLE TYPE="nature">
	<NAME>btype(Mole0,Atom0)</NAME>
	<OUTCOME>1</OUTCOME>
	<OUTCOME>2</OUTCOME>
	<OUTCOME>3</OUTCOME>
	<OUTCOME>4</OUTCOME>
	<OUTCOME>5</OUTCOME>
	<OUTCOME>7</OUTCOME>
	<PROPERTY> position=(6400.0,4000.0)</PROPERTY>
</VARIABLE>
<VARIABLE TYPE="nature">
	<NAME>charge(Atom0)</NAME>
	<OUTCOME>0</OUTCOME>
	<OUTCOME>1</OUTCOME>
	<PROPERTY> position=(6000.0,4200.0)</PROPERTY>
</VARIABLE>
<VARIABLE TYPE="nature">
	<NAME>elem(Atom0)</NAME>
	<OUTCOME>b</OUTCOME>
	<OUTCOME>c</OUTCOME>
	<OUTCOME>f</OUTCOME>
	<OUTCOME>h</OUTCOME>
	<OUTCOME>i</OUTCOME>
	<OUTCOME>n</OUTCOME>
	<OUTCOME>o</OUTCOME>
	<PROPERTY> position=(6200.0,4200.0)</PROPERTY>
</VARIABLE>
<VARIABLE TYPE="nature">
	<NAME>ind1(Mole0)</NAME>
	<OUTCOME>0</OUTCOME>
	<OUTCOME>1</OUTCOME>
	<PROPERTY> position=(6400.0,4200.0)</PROPERTY>
</VARIABLE>
<VARIABLE TYPE="nature">
	<NAME>inda(Mole0)</NAME>
	<OUTCOME>0</OUTCOME>
	<OUTCOME>1</OUTCOME>
	<PROPERTY> position=(6000.0,4400.0)</PROPERTY>
</VARIABLE>
<VARIABLE TYPE="nature">
	<NAME>label(Mole0)</NAME>
	<OUTCOME>1</OUTCOME>
	<OUTCOME>2</OUTCOME>
	<PROPERTY> position=(6200.0,4400.0)</PROPERTY>
</VARIABLE>
<VARIABLE TYPE="nature">
	<NAME>logp(Mole0)</NAME>
	<OUTCOME>0</OUTCOME>
	<OUTCOME>1</OUTCOME>
	<OUTCOME>2</OUTCOME>
	<OUTCOME>3</OUTCOME>
	<OUTCOME>4</OUTCOME>
	<OUTCOME>5</OUTCOME>
	<OUTCOME>6</OUTCOME>
	<OUTCOME>7</OUTCOME>
	<OUTCOME>8</OUTCOME>
	<OUTCOME>9</OUTCOME>
	<PROPERTY> position=(6400.0,4400.0)</PROPERTY>
</VARIABLE>
<VARIABLE TYPE="nature">
	<NAME>lumo(Mole0)</NAME>
	<OUTCOME>1</OUTCOME>
	<OUTCOME>2</OUTCOME>
	<OUTCOME>3</OUTCOME>
	<OUTCOME>4</OUTCOME>
	<OUTCOME>5</OUTCOME>
	<OUTCOME>6</OUTCOME>
	<OUTCOME>7</OUTCOME>
	<OUTCOME>8</OUTCOME>
	<OUTCOME>9</OUTCOME>
	<PROPERTY> position=(6000.0,4600.0)</PROPERTY>
</VARIABLE>
<VARIABLE TYPE="nature">
	<NAME>moleatm(Mole0,Atom0)</NAME>
	<OUTCOME>T</OUTCOME>
	<PROPERTY> position=(6200.0,4600.0)</PROPERTY>
</VARIABLE>
<DEFINITION>
	<FOR>atype(Atom0)</FOR>
	<GIVEN>bond(Mole0,Atom0)</GIVEN>
	<GIVEN>btype(Mole0,Atom0)</GIVEN>
	<GIVEN>charge(Atom0)</GIVEN>
	<GIVEN>elem(Atom0)</GIVEN>
	<GIVEN>ind1(Mole0)</GIVEN>
	<GIVEN>inda(Mole0)</GIVEN>
	<GIVEN>moleatm(Mole0,Atom0)</GIVEN>
	<TABLE> 0.333334 0.333333 0.333333 0.333334 0.333333 0.333333 0.500000 0.250000 0.250000 0.333334 0.333333 0.333333 0.285714 0.479592 0.234694 0.333334 0.333333 0.333333 0.326180 0.386266 0.287554 0.125000 0.750000 0.125000 0.111111 0.111111 0.777778 0.333334 0.333333 0.333333 0.125000 0.125000 0.750000 0.333334 0.333333 0.333333 0.996358 0.001821 0.001821 0.333334 0.333333 0.333333 0.997672 0.001164 0.001164 0.965518 0.017241 0.017241 0.333334 0.333333 0.333333 0.333334 0.333333 0.333333 0.250000 0.250000 0.500000 0.333334 0.333333 0.333333 0.041667 0.041667 0.916666 0.333334 0.333333 0.333333 0.050000 0.050000 0.900000 0.333334 0.333333 0.333333 0.090909 0.090909 0.818182 0.333334 0.333333 0.333333 0.052632 0.052632 0.894736 0.333334 0.333333 0.333333 0.500000 0.250000 0.250000 0.333334 0.333333 0.333333 0.333334 0.333333 0.333333 0.333334 0.333333 0.333333 0.071429 0.428571 0.500000 0.333334 0.333333 0.333333 0.076923 0.692308 0.230769 0.333334 0.333333 0.333333 0.333334 0.333333 0.333333 0.333334 0.333333 0.333333 0.333334 0.333333 0.333333 0.333334 0.333333 0.333333 0.931034 0.034483 0.034483 0.333334 0.333333 0.333333 0.866666 0.066667 0.066667 0.333334 0.333333 0.333333 0.333334 0.333333 0.333333 0.333334 0.333333 0.333333 0.333334 0.333333 0.333333 0.333334 0.333333 0.333333 0.009346 0.009346 0.981308 0.333334 0.333333 0.333333 0.008403 0.008403 0.983194 0.333334 0.333333 0.333333 0.333334 0.333333 0.333333 0.333334 0.333333 0.333333 0.333334 0.333333 0.333333 0.333334 0.333333 0.333333 0.333334 0.333333 0.333333 0.333334 0.333333 0.333333 0.333334 0.333333 0.333333 0.333334 0.333333 0.333333 0.142857 0.714286 0.142857 0.333334 0.333333 0.333333 0.200000 0.600000 0.200000 0.333334 0.333333 0.333333 0.333334 0.333333 0.333333 0.333334 0.333333 0.333333 0.333334 0.333333 0.333333 0.333334 0.333333 0.333333 0.333334 0.333333 0.333333 0.333334 0.333333 0.333333 0.333334 0.333333 0.333333 0.333334 0.333333 0.333333 0.333334 0.333333 0.333333 0.333334 0.333333 0.333333 0.333334 0.333333 0.333333 0.333334 0.333333 0.333333 0.250000 0.250000 0.500000 0.333334 0.333333 0.333333 0.333334 0.333333 0.333333 0.333334 0.333333 0.333333 0.004651 0.004651 0.990698 0.333334 0.333333 0.333333 0.004274 0.004274 0.991452 0.142857 0.142857 0.714286 0.333334 0.333333 0.333333 0.333334 0.333333 0.333333 0.333334 0.333333 0.333333 0.333334 0.333333 0.333333 0.333334 0.333333 0.333333 0.333334 0.333333 0.333333 0.333334 0.333333 0.333333 0.333334 0.333333 0.333333 0.333334 0.333333 0.333333 0.333334 0.333333 0.333333 0.333334 0.333333 0.333333 0.333334 0.333333 0.333333 0.333334 0.333333 0.333333 0.333334 0.333333 0.333333 0.333334 0.333333 0.333333 0.333334 0.333333 0.333333 0.333334 0.333333 0.333333 0.333334 0.333333 0.333333 0.333334 0.333333 0.333333 0.333334 0.333333 0.333333 0.052632 0.052632 0.894736 0.333334 0.333333 0.333333 0.066667 0.066667 0.866666 0.125000 0.125000 0.750000 0.333334 0.333333 0.333333 0.333334 0.333333 0.333333 0.333334 0.333333 0.333333 0.333334 0.333333 0.333333 0.333334 0.333333 0.333333 0.333334 0.333333 0.333333 0.333334 0.333333 0.333333 0.333334 0.333333 0.333333 0.333334 0.333333 0.333333 0.333334 0.333333 0.333333 0.333334 0.333333 0.333333 0.333334 0.333333 0.333333 0.333334 0.333333 0.333333 0.333334 0.333333 0.333333 0.333334 0.333333 0.333333 0.333334 0.333333 0.333333 0.333334 0.333333 0.333333 0.333334 0.333333 0.333333 0.333334 0.333333 0.333333 0.333334 0.333333 0.333333 0.333334 0.333333 0.333333 0.333334 0.333333 0.333333 0.333334 0.333333 0.333333 0.333334 0.333333 0.333333 0.333334 0.333333 0.333333 0.333334 0.333333 0.333333 0.250000 0.250000 0.500000 0.333334 0.333333 0.333333 0.333334 0.333333 0.333333 0.333334 0.333333 0.333333 0.333334 0.333333 0.333333 0.333334 0.333333 0.333333 0.333334 0.333333 0.333333 0.333334 0.333333 0.333333 0.333334 0.333333 0.333333 0.333334 0.333333 0.333333 0.333334 0.333333 0.333333 0.333334 0.333333 0.333333 0.333334 0.333333 0.333333 0.333334 0.333333 0.333333 0.333334 0.333333 0.333333 0.333334 0.333333 0.333333 0.333334 0.333333 0.333333 0.333334 0.333333 0.333333 0.333334 0.333333 0.333333 0.333334 0.333333 0.333333 0.333334 0.333333 0.333333 0.333334 0.333333 0.333333 0.333334 0.333333 0.333333 0.333334 0.333333 0.333333 0.333334 0.333333 0.333333 0.333334 0.333333 0.333333 0.333334 0.333333 0.333333 0.333334 0.333333 0.333333 0.333334 0.333333 0.333333 0.333334 0.333333 0.333333 0.333334 0.333333 0.333333 0.333334 0.333333 0.333333 0.333334 0.333333 0.333333 0.333334 0.333333 0.333333 0.333334 0.333333 0.333333 0.333334 0.333333 0.333333 0.333334 0.333333 0.333333 0.333334 0.333333 0.333333 0.333334 0.333333 0.333333 0.333334 0.333333 0.333333 0.333334 0.333333 0.333333 0.333334 0.333333 0.333333 0.333334 0.333333 0.333333 0.333334 0.333333 0.333333 0.333334 0.333333 0.333333 0.333334 0.333333 0.333333 0.333334 0.333333 0.333333 0.333334 0.333333 0.333333 0.333334 0.333333 0.333333 0.333334 0.333333 0.333333 0.333334 0.333333 0.333333 0.333334 0.333333 0.333333 0.333334 0.333333 0.333333 0.333334 0.333333 0.333333 0.333334 0.333333 0.333333 0.333334 0.333333 0.333333 0.333334 0.333333 0.333333 0.333334 0.333333 0.333333 0.333334 0.333333 0.333333 0.333334 0.333333 0.333333 0.200000 0.200000 0.600000 0.333334 0.333333 0.333333 0.333334 0.333333 0.333333 0.333334 0.333333 0.333333 0.333334 0.333333 0.333333 0.333334 0.333333 0.333333 0.333334 0.333333 0.333333 0.333334 0.333333 0.333333 0.333334 0.333333 0.333333 0.333334 0.333333 0.333333 0.333334 0.333333 0.333333 0.333334 0.333333 0.333333 0.333334 0.333333 0.333333 0.333334 0.333333 0.333333 0.333334 0.333333 0.333333 0.333334 0.333333 0.333333 0.333334 0.333333 0.333333 0.333334 0.333333 0.333333 0.333334 0.333333 0.333333 0.333334 0.333333 0.333333 0.333334 0.333333 0.333333 0.333334 0.333333 0.333333 0.333334 0.333333 0.333333 0.333334 0.333333 0.333333 0.333334 0.333333 0.333333 0.333334 0.333333 0.333333 0.333334 0.333333 0.333333 0.333334 0.333333 0.333333 0.333334 0.333333 0.333333 0.333334 0.333333 0.333333 0.333334 0.333333 0.333333 0.333334 0.333333 0.333333 0.333334 0.333333 0.333333 0.333334 0.333333 0.333333 0.333334 0.333333 0.333333 0.333334 0.333333 0.333333 0.333334 0.333333 0.333333 0.333334 0.333333 0.333333 0.333334 0.333333 0.333333 0.333334 0.333333 0.333333 0.333334 0.333333 0.333333 0.333334 0.333333 0.333333 0.333334 0.333333 0.333333 0.333334 0.333333 0.333333 0.333334 0.333333 0.333333 0.333334 0.333333 0.333333 0.333334 0.333333 0.333333 0.333334 0.333333 0.333333 0.333334 0.333333 0.333333 0.333334 0.333333 0.333333 0.333334 0.333333 0.333333 0.333334 0.333333 0.333333 0.333334 0.333333 0.333333 0.333334 0.333333 0.333333 0.333334 0.333333 0.333333 0.333334 0.333333 0.333333 0.200000 0.200000 0.600000 0.333334 0.333333 0.333333 0.333334 0.333333 0.333333 0.333334 0.333333 0.333333 0.333334 0.333333 0.333333 0.333334 0.333333 0.333333 0.333334 0.333333 0.333333 0.333334 0.333333 0.333333 0.333334 0.333333 0.333333 0.333334 0.333333 0.333333 0.333334 0.333333 0.333333 0.333334 0.333333 0.333333 0.333334 0.333333 0.333333 0.333334 0.333333 0.333333 0.333334 0.333333 0.333333 0.333334 0.333333 0.333333 0.333334 0.333333 0.333333 0.333334 0.333333 0.333333 0.333334 0.333333 0.333333 0.333334 0.333333 0.333333 0.333334 0.333333 0.333333 0.333334 0.333333 0.333333 0.333334 0.333333 0.333333 0.333334 0.333333 0.333333 0.333334 0.333333 0.333333 0.333334 0.333333 0.333333 0.333334 0.333333 0.333333 0.333334 0.333333 0.333333 0.333334 0.333333 0.333333 0.333334 0.333333 0.333333 0.333334 0.333333 0.333333 0.333334 0.333333 0.333333 0.333334 0.333333 0.333333 0.333334 0.333333 0.333333 0.001513 0.889561 0.108926 0.333334 0.333333 0.333333 0.000806 0.723388 0.275806 0.010526 0.557895 0.431579 0.333334 0.333333 0.333333 0.333334 0.333333 0.333333 0.333334 0.333333 0.333333 0.333334 0.333333 0.333333 0.333334 0.333333 0.333333 0.333334 0.333333 0.333333 0.333334 0.333333 0.333333 0.333334 0.333333 0.333333 0.333334 0.333333 0.333333 0.333334 0.333333 0.333333 0.333334 0.333333 0.333333 0.333334 0.333333 0.333333 0.032258 0.032258 0.935484 0.333334 0.333333 0.333333 0.166667 0.166667 0.666666 0.333334 0.333333 0.333333 0.250000 0.250000 0.500000 0.333334 0.333333 0.333333 0.250000 0.250000 0.500000 0.333334 0.333333 0.333333 0.333334 0.333333 0.333333 0.333334 0.333333 0.333333 0.333334 0.333333 0.333333 0.333334 0.333333 0.333333 0.200000 0.600000 0.200000 0.333334 0.333333 0.333333 0.250000 0.250000 0.500000 0.333334 0.333333 0.333333 0.333334 0.333333 0.333333 0.333334 0.333333 0.333333 0.333334 0.333333 0.333333 0.333334 0.333333 0.333333 0.333334 0.333333 0.333333 0.333334 0.333333 0.333333 0.333334 0.333333 0.333333 0.333334 0.333333 0.333333 0.333334 0.333333 0.333333 0.333334 0.333333 0.333333 0.333334 0.333333 0.333333 0.333334 0.333333 0.333333 0.333334 0.333333 0.333333 0.333334 0.333333 0.333333 0.333334 0.333333 0.333333 0.333334 0.333333 0.333333 0.333334 0.333333 0.333333 0.333334 0.333333 0.333333 0.333334 0.333333 0.333333 0.333334 0.333333 0.333333</TABLE>
</DEFINITION>
<DEFINITION>
	<FOR>bond(Mole0,Atom0)</FOR>
	<TABLE> 1.000000</TABLE>
</DEFINITION>
<DEFINITION>
	<FOR>btype(Mole0,Atom0)</FOR>
	<GIVEN>bond(Mole0,Atom0)</GIVEN>
	<GIVEN>ind1(Mole0)</GIVEN>
	<GIVEN>inda(Mole0)</GIVEN>
	<TABLE> 0.469071 0.134021 0.000573 0.000573 0.000573 0.395189 0.166667 0.166667 0.166667 0.166667 0.166665 0.166667 0.458002 0.089066 0.000724 0.001086 0.001086 0.450036 0.365269 0.059880 0.005988 0.005988 0.005988 0.556887</TABLE>
</DEFINITION>
<DEFINITION>
	<FOR>charge(Atom0)</FOR>
	<GIVEN>bond(Mole0,Atom0)</GIVEN>
	<GIVEN>btype(Mole0,Atom0)</GIVEN>
	<GIVEN>elem(Atom0)</GIVEN>
	<GIVEN>logp(Mole0)</GIVEN>
	<GIVEN>moleatm(Mole0,Atom0)</GIVEN>
	<TABLE> 0.500000 0.500000 0.500000 0.500000 0.500000 0.500000 0.333333 0.666667 0.500000 0.500000 0.500000 0.500000 0.666667 0.333333 0.500000 0.500000 0.500000 0.500000 0.500000 0.500000 0.625000 0.375000 0.888889 0.111111 0.926829 0.073171 0.833333 0.166667 0.936170 0.063830 0.950617 0.049383 0.974359 0.025641 0.975000 0.025000 0.947368 0.052632 0.866667 0.133333 0.500000 0.500000 0.666667 0.333333 0.833333 0.166667 0.750000 0.250000 0.500000 0.500000 0.833333 0.166667 0.500000 0.500000 0.500000 0.500000 0.500000 0.500000 0.500000 0.500000 0.909091 0.090909 0.911111 0.088889 0.977477 0.022523 0.914676 0.085324 0.980488 0.019512 0.988950 0.011050 0.993243 0.006757 0.993902 0.006098 0.978723 0.021277 0.857143 0.142857 0.500000 0.500000 0.500000 0.500000 0.500000 0.500000 0.500000 0.500000 0.500000 0.500000 0.500000 0.500000 0.666667 0.333333 0.500000 0.500000 0.500000 0.500000 0.500000 0.500000 0.500000 0.500000 0.333333 0.666667 0.264151 0.735849 0.207792 0.792208 0.090909 0.909091 0.035714 0.964286 0.090909 0.909091 0.058824 0.941176 0.250000 0.750000 0.250000 0.750000 0.666667 0.333333 0.500000 0.500000 0.833333 0.166667 0.800000 0.200000 0.750000 0.250000 0.833333 0.166667 0.750000 0.250000 0.750000 0.250000 0.750000 0.250000 0.833333 0.166667 0.500000 0.500000 0.500000 0.500000 0.500000 0.500000 0.500000 0.500000 0.500000 0.500000 0.500000 0.500000 0.500000 0.500000 0.500000 0.500000 0.500000 0.500000 0.500000 0.500000 0.500000 0.500000 0.500000 0.500000 0.500000 0.500000 0.833333 0.166667 0.500000 0.500000 0.750000 0.250000 0.500000 0.500000 0.500000 0.500000 0.500000 0.500000 0.500000 0.500000 0.500000 0.500000 0.500000 0.500000 0.500000 0.500000 0.500000 0.500000 0.500000 0.500000 0.500000 0.500000 0.500000 0.500000 0.500000 0.500000 0.500000 0.500000 0.500000 0.500000 0.500000 0.500000 0.500000 0.500000 0.500000 0.500000 0.500000 0.500000 0.500000 0.500000 0.500000 0.500000 0.500000 0.500000 0.500000 0.500000 0.500000 0.500000 0.500000 0.500000 0.500000 0.500000 0.500000 0.500000 0.500000 0.500000 0.500000 0.500000 0.500000 0.500000 0.500000 0.500000 0.500000 0.500000 0.500000 0.500000 0.500000 0.500000 0.500000 0.500000 0.500000 0.500000 0.250000 0.750000 0.125000 0.875000 0.285714 0.714286 0.100000 0.900000 0.250000 0.750000 0.125000 0.875000 0.166667 0.833333 0.333333 0.666667 0.500000 0.500000 0.888889 0.111111 0.954545 0.045455 0.987805 0.012195 0.991379 0.008621 0.983051 0.016949 0.990566 0.009434 0.958333 0.041667 0.970588 0.029412 0.888889 0.111111 0.833333 0.166667 0.500000 0.500000 0.500000 0.500000 0.500000 0.500000 0.500000 0.500000 0.500000 0.500000 0.500000 0.500000 0.500000 0.500000 0.500000 0.500000 0.500000 0.500000 0.500000 0.500000 0.500000 0.500000 0.500000 0.500000 0.500000 0.500000 0.500000 0.500000 0.500000 0.500000 0.500000 0.500000 0.500000 0.500000 0.500000 0.500000 0.500000 0.500000 0.500000 0.500000 0.500000 0.500000 0.500000 0.500000 0.500000 0.500000 0.500000 0.500000 0.500000 0.500000 0.500000 0.500000 0.500000 0.500000 0.500000 0.500000 0.500000 0.500000 0.500000 0.500000 0.500000 0.500000 0.500000 0.500000 0.500000 0.500000 0.500000 0.500000 0.500000 0.500000 0.500000 0.500000 0.500000 0.500000 0.500000 0.500000 0.500000 0.500000 0.500000 0.500000 0.500000 0.500000 0.500000 0.500000 0.500000 0.500000 0.500000 0.500000 0.500000 0.500000 0.500000 0.500000 0.500000 0.500000 0.500000 0.500000 0.500000 0.500000 0.500000 0.500000 0.500000 0.500000 0.500000 0.500000 0.500000 0.500000 0.500000 0.500000 0.666667 0.333333 0.500000 0.500000 0.500000 0.500000 0.500000 0.500000 0.500000 0.500000 0.500000 0.500000 0.500000 0.500000 0.500000 0.500000 0.500000 0.500000 0.500000 0.500000 0.500000 0.500000 0.500000 0.500000 0.500000 0.500000 0.500000 0.500000 0.500000 0.500000 0.500000 0.500000 0.500000 0.500000 0.500000 0.500000 0.500000 0.500000 0.500000 0.500000 0.500000 0.500000 0.500000 0.500000 0.500000 0.500000 0.500000 0.500000 0.500000 0.500000 0.500000 0.500000 0.500000 0.500000 0.500000 0.500000 0.500000 0.500000 0.500000 0.500000 0.500000 0.500000 0.500000 0.500000 0.500000 0.500000 0.500000 0.500000 0.500000 0.500000 0.500000 0.500000 0.500000 0.500000 0.500000 0.500000 0.500000 0.500000 0.500000 0.500000 0.500000 0.500000 0.500000 0.500000 0.500000 0.500000 0.500000 0.500000 0.500000 0.500000 0.500000 0.500000 0.500000 0.500000 0.500000 0.500000 0.500000 0.500000 0.500000 0.500000 0.500000 0.500000 0.500000 0.500000 0.500000 0.500000 0.500000 0.500000 0.500000 0.500000 0.500000 0.500000 0.500000 0.500000 0.500000 0.500000 0.500000 0.500000 0.500000 0.500000 0.500000 0.500000 0.500000 0.500000 0.500000 0.500000 0.500000 0.500000 0.500000 0.500000 0.500000 0.500000 0.500000 0.500000 0.500000 0.500000 0.500000 0.500000 0.500000 0.500000 0.500000 0.500000 0.500000 0.500000 0.500000 0.500000 0.500000 0.500000 0.500000 0.500000 0.500000 0.500000 0.500000 0.500000 0.500000 0.500000 0.500000 0.500000 0.750000 0.250000 0.500000 0.500000 0.500000 0.500000 0.500000 0.500000 0.500000 0.500000 0.500000 0.500000 0.500000 0.500000 0.500000 0.500000 0.500000 0.500000 0.500000 0.500000 0.500000 0.500000 0.500000 0.500000 0.500000 0.500000 0.500000 0.500000 0.500000 0.500000 0.500000 0.500000 0.500000 0.500000 0.500000 0.500000 0.500000 0.500000 0.500000 0.500000 0.500000 0.500000 0.500000 0.500000 0.500000 0.500000 0.500000 0.500000 0.500000 0.500000 0.500000 0.500000 0.500000 0.500000 0.500000 0.500000 0.500000 0.500000 0.500000 0.500000 0.500000 0.500000 0.500000 0.500000 0.500000 0.500000 0.500000 0.500000 0.500000 0.500000 0.500000 0.500000 0.500000 0.500000 0.500000 0.500000 0.500000 0.500000 0.500000 0.500000 0.500000 0.500000 0.500000 0.500000 0.500000 0.500000 0.500000 0.500000 0.500000 0.500000 0.500000 0.500000 0.500000 0.500000 0.500000 0.500000 0.500000 0.500000 0.500000 0.500000 0.500000 0.500000 0.500000 0.500000 0.500000 0.500000 0.500000 0.500000 0.500000 0.500000 0.500000 0.500000 0.500000 0.500000 0.500000 0.500000 0.500000 0.500000 0.500000 0.500000 0.500000 0.500000 0.500000 0.500000 0.500000 0.500000 0.500000 0.500000 0.500000 0.500000 0.500000 0.500000 0.500000 0.500000 0.500000 0.500000 0.500000 0.500000 0.500000 0.500000 0.750000 0.250000 0.500000 0.500000 0.500000 0.500000 0.500000 0.500000 0.500000 0.500000 0.500000 0.500000 0.500000 0.500000 0.500000 0.500000 0.500000 0.500000 0.500000 0.500000 0.500000 0.500000 0.500000 0.500000 0.500000 0.500000 0.500000 0.500000 0.500000 0.500000 0.500000 0.500000 0.500000 0.500000 0.937500 0.062500 0.978723 0.021277 0.988372 0.011628 0.994536 0.005464 0.996198 0.003802 0.998120 0.001880 0.995000 0.005000 0.995868 0.004132 0.984375 0.015625 0.954545 0.045455 0.500000 0.500000 0.500000 0.500000 0.500000 0.500000 0.500000 0.500000 0.500000 0.500000 0.500000 0.500000 0.500000 0.500000 0.500000 0.500000 0.500000 0.500000 0.500000 0.500000 0.500000 0.500000 0.500000 0.500000 0.500000 0.500000 0.500000 0.500000 0.500000 0.500000 0.500000 0.500000 0.500000 0.500000 0.500000 0.500000 0.500000 0.500000 0.500000 0.500000 0.500000 0.500000 0.500000 0.500000 0.500000 0.500000 0.500000 0.500000 0.500000 0.500000 0.500000 0.500000 0.500000 0.500000 0.500000 0.500000 0.500000 0.500000 0.500000 0.500000 0.750000 0.250000 0.666667 0.333333 0.965517 0.034483 0.500000 0.500000 0.666667 0.333333 0.500000 0.500000 0.500000 0.500000 0.500000 0.500000 0.500000 0.500000 0.500000 0.500000 0.500000 0.500000 0.500000 0.500000 0.500000 0.500000 0.666667 0.333333 0.666667 0.333333 0.500000 0.500000 0.500000 0.500000 0.500000 0.500000 0.500000 0.500000 0.500000 0.500000</TABLE>
</DEFINITION>
<DEFINITION>
	<FOR>elem(Atom0)</FOR>
	<GIVEN>bond(Mole0,Atom0)</GIVEN>
	<GIVEN>btype(Mole0,Atom0)</GIVEN>
	<GIVEN>ind1(Mole0)</GIVEN>
	<GIVEN>inda(Mole0)</GIVEN>
	<GIVEN>moleatm(Mole0,Atom0)</GIVEN>
	<TABLE> 0.002424 0.129697 0.008485 0.694546 0.001212 0.152727 0.010909 0.142858 0.142857 0.142857 0.142857 0.142857 0.142857 0.142857 0.001574 0.189614 0.004721 0.683713 0.001574 0.105429 0.013375 0.014925 0.089552 0.014925 0.835823 0.014925 0.014925 0.014925 0.004167 0.020833 0.004167 0.004167 0.004167 0.075000 0.887499 0.142858 0.142857 0.142857 0.142857 0.142857 0.142857 0.142857 0.003968 0.011905 0.003968 0.003968 0.003968 0.051587 0.920636 0.062500 0.062500 0.062500 0.062500 0.062500 0.375000 0.312500 0.142858 0.142857 0.142857 0.142857 0.142857 0.142857 0.142857 0.142858 0.142857 0.142857 0.142857 0.142857 0.142857 0.142857 0.125000 0.125000 0.125000 0.125000 0.125000 0.250000 0.125000 0.142858 0.142857 0.142857 0.142857 0.142857 0.142857 0.142857 0.142858 0.142857 0.142857 0.142857 0.142857 0.142857 0.142857 0.142858 0.142857 0.142857 0.142857 0.142857 0.142857 0.142857 0.111111 0.111111 0.111111 0.111111 0.111111 0.111111 0.333334 0.142858 0.142857 0.142857 0.142857 0.142857 0.142857 0.142857 0.142858 0.142857 0.142857 0.142857 0.142857 0.142857 0.142857 0.142858 0.142857 0.142857 0.142857 0.142857 0.142857 0.142857 0.111111 0.111111 0.111111 0.111111 0.111111 0.111111 0.333334 0.142858 0.142857 0.142857 0.142857 0.142857 0.142857 0.142857 0.001437 0.949711 0.001437 0.001437 0.001437 0.041667 0.002874 0.142858 0.142857 0.142857 0.142857 0.142857 0.142857 0.142857 0.000801 0.991992 0.000801 0.000801 0.000801 0.003203 0.001601 0.010101 0.939394 0.010101 0.010101 0.010101 0.010101 0.010101</TABLE>
</DEFINITION>
<DEFINITION>
	<FOR>ind1(Mole0)</FOR>
	<GIVEN>label(Mole0)</GIVEN>
	<TABLE> 0.174371 0.825629 0.921963 0.078037</TABLE>
</DEFINITION>
<DEFINITION>
	<FOR>inda(Mole0)</FOR>
	<GIVEN>logp(Mole0)</GIVEN>
	<TABLE> 0.982759 0.017241 0.992537 0.007463 0.998549 0.001451 0.998932 0.001068 0.998366 0.001634 0.999124 0.000876 0.617925 0.382075 0.997980 0.002020 0.992754 0.007246 0.980000 0.020000</TABLE>
</DEFINITION>
<DEFINITION>
	<FOR>label(Mole0)</FOR>
	<TABLE> 0.733419 0.266581</TABLE>
</DEFINITION>
<DEFINITION>
	<FOR>logp(Mole0)</FOR>
	<GIVEN>ind1(Mole0)</GIVEN>
	<GIVEN>label(Mole0)</GIVEN>
	<TABLE> 0.001653 0.076033 0.148760 0.456198 0.261157 0.049587 0.001653 0.001653 0.001653 0.001653 0.049351 0.076190 0.402597 0.307359 0.090909 0.070130 0.000866 0.000866 0.000866 0.000866 0.000353 0.000353 0.047686 0.108089 0.115154 0.364183 0.149417 0.174497 0.039915 0.000353 0.009434 0.009434 0.009434 0.009434 0.235849 0.009434 0.009434 0.009434 0.235849 0.462264</TABLE>
</DEFINITION>
<DEFINITION>
	<FOR>lumo(Mole0)</FOR>
	<GIVEN>inda(Mole0)</GIVEN>
	<GIVEN>label(Mole0)</GIVEN>
	<TABLE> 0.017770 0.053922 0.063113 0.207721 0.131740 0.300244 0.196691 0.028493 0.000306 0.000800 0.000800 0.000800 0.000800 0.078400 0.176000 0.340000 0.339200 0.063200 0.005882 0.005882 0.005882 0.194118 0.764708 0.005882 0.005882 0.005882 0.005882 0.111111 0.111111 0.111111 0.111111 0.111112 0.111111 0.111111 0.111111 0.111111</TABLE>
</DEFINITION>
<DEFINITION>
	<FOR>moleatm(Mole0,Atom0)</FOR>
	<TABLE> 1.000000</TABLE>
</DEFINITION>
</NETWORK>
</BIF>
