<?xml version="1.0" encoding="UTF-8"?>
<BIF VERSION="0.3"  xmlns="http://www.cs.ubc.ca/labs/lci/fopi/ve/XMLBIFv0_3"
xmlns:xsi="http://www.w3.org/2001/XMLSchema-instance"
xsi:schemaLocation="http://www.cs.ubc.ca/labs/lci/fopi/ve/XMLBIFv0_3 http://www.cs.ubc.ca/labs/lci/fopi/ve/XMLBIFv0_3/XMLBIFv0_3.xsd">
<NETWORK>
<NAME>MovieLens_std</NAME>
<VARIABLE TYPE="nature">
	<NAME>action(item20)</NAME>
	<OUTCOME>0</OUTCOME>
	<OUTCOME>1</OUTCOME>
	<PROPERTY> position=(6000.0,4000.0)</PROPERTY>
</VARIABLE>
<VARIABLE TYPE="nature">
	<NAME>Age(User0)</NAME>
	<OUTCOME>0</OUTCOME>
	<OUTCOME>1</OUTCOME>
	<OUTCOME>2</OUTCOME>
	<PROPERTY> position=(6200.0,4000.0)</PROPERTY>
</VARIABLE>
<VARIABLE TYPE="nature">
	<NAME>drama(item20)</NAME>
	<OUTCOME>0</OUTCOME>
	<OUTCOME>1</OUTCOME>
	<PROPERTY> position=(6400.0,4000.0)</PROPERTY>
</VARIABLE>
<VARIABLE TYPE="nature">
	<NAME>Gender(User0)</NAME>
	<OUTCOME>F</OUTCOME>
	<OUTCOME>M</OUTCOME>
	<PROPERTY> position=(6000.0,4200.0)</PROPERTY>
</VARIABLE>
<VARIABLE TYPE="nature">
	<NAME>horror(item20)</NAME>
	<OUTCOME>0</OUTCOME>
	<OUTCOME>1</OUTCOME>
	<PROPERTY> position=(6200.0,4200.0)</PROPERTY>
</VARIABLE>
<VARIABLE TYPE="nature">
	<NAME>rating(User0,item20)</NAME>
	<OUTCOME>1</OUTCOME>
	<OUTCOME>2</OUTCOME>
	<OUTCOME>3</OUTCOME>
	<OUTCOME>4</OUTCOME>
	<OUTCOME>5</OUTCOME>
	<PROPERTY> position=(6400.0,4200.0)</PROPERTY>
</VARIABLE>
<VARIABLE TYPE="nature">
	<NAME>u2base(User0,item20)</NAME>
	<OUTCOME>T</OUTCOME>
	<PROPERTY> position=(6000.0,4400.0)</PROPERTY>
</VARIABLE>
<DEFINITION>
	<FOR>action(item20)</FOR>
	<TABLE> 0.742796 0.257204</TABLE>
</DEFINITION>
<DEFINITION>
	<FOR>Age(User0)</FOR>
	<GIVEN>action(item20)</GIVEN>
	<GIVEN>drama(item20)</GIVEN>
	<GIVEN>horror(item20)</GIVEN>
	<GIVEN>u2base(User0,item20)</GIVEN>
	<TABLE> 0.451028 0.459543 0.089429 0.481765 0.444251 0.073984 0.410904 0.476129 0.112967 0.593333 0.360000 0.046667 0.509692 0.425067 0.065241 0.547619 0.388889 0.063492 0.441185 0.459066 0.099749 0.333333 0.333334 0.333333</TABLE>
</DEFINITION>
<DEFINITION>
	<FOR>drama(item20)</FOR>
	<GIVEN>action(item20)</GIVEN>
	<GIVEN>horror(item20)</GIVEN>
	<TABLE> 0.500365 0.499635 0.906142 0.093858 0.816714 0.183286 0.999007 0.000993</TABLE>
</DEFINITION>
<DEFINITION>
	<FOR>Gender(User0)</FOR>
	<GIVEN>action(item20)</GIVEN>
	<GIVEN>rating(User0,item20)</GIVEN>
	<GIVEN>u2base(User0,item20)</GIVEN>
	<TABLE> 0.332001 0.667999 0.269914 0.730086 0.275271 0.724729 0.260618 0.739382 0.295997 0.704003 0.260797 0.739203 0.201674 0.798326 0.205372 0.794628 0.205386 0.794614 0.242051 0.757949</TABLE>
</DEFINITION>
<DEFINITION>
	<FOR>horror(item20)</FOR>
	<TABLE> 0.947619 0.052381</TABLE>
</DEFINITION>
<DEFINITION>
	<FOR>rating(User0,item20)</FOR>
	<GIVEN>Age(User0)</GIVEN>
	<GIVEN>drama(item20)</GIVEN>
	<GIVEN>horror(item20)</GIVEN>
	<GIVEN>u2base(User0,item20)</GIVEN>
	<TABLE> 0.078414 0.134122 0.288065 0.317843 0.181556 0.093718 0.140577 0.264676 0.336765 0.164264 0.053520 0.096503 0.243014 0.358910 0.248053 0.082418 0.175824 0.384615 0.225275 0.131868 0.061747 0.122834 0.298267 0.331504 0.185648 0.090203 0.173835 0.290323 0.281362 0.164277 0.037358 0.089793 0.260307 0.365044 0.247498 0.133929 0.223214 0.383929 0.178571 0.080357 0.042781 0.109485 0.278638 0.365887 0.203209 0.042857 0.157143 0.282143 0.339286 0.178571 0.022972 0.083381 0.227453 0.412649 0.253545 0.055556 0.055556 0.555554 0.277778 0.055556</TABLE>
</DEFINITION>
<DEFINITION>
	<FOR>u2base(User0,item20)</FOR>
	<TABLE> 1.000000</TABLE>
</DEFINITION>
</NETWORK>
</BIF>
