<?xml version="1.0" encoding="UTF-8"?>
<BIF VERSION="0.3"  xmlns="http://www.cs.ubc.ca/labs/lci/fopi/ve/XMLBIFv0_3"
xmlns:xsi="http://www.w3.org/2001/XMLSchema-instance"
xsi:schemaLocation="http://www.cs.ubc.ca/labs/lci/fopi/ve/XMLBIFv0_3 http://www.cs.ubc.ca/labs/lci/fopi/ve/XMLBIFv0_3/XMLBIFv0_3.xsd">
<NETWORK>
<NAME>imdb_MovieLens</NAME>
<VARIABLE TYPE="nature">
	<NAME>age(users0)</NAME>
	<OUTCOME>1</OUTCOME>
	<OUTCOME>18</OUTCOME>
	<OUTCOME>25</OUTCOME>
	<OUTCOME>35</OUTCOME>
	<OUTCOME>45</OUTCOME>
	<OUTCOME>50</OUTCOME>
	<OUTCOME>56</OUTCOME>
	<PROPERTY> position=(6000.0,4000.0)</PROPERTY>
</VARIABLE>
<VARIABLE TYPE="nature">
	<NAME>avg_revenue(directors0)</NAME>
	<OUTCOME>0</OUTCOME>
	<OUTCOME>1</OUTCOME>
	<OUTCOME>2</OUTCOME>
	<OUTCOME>3</OUTCOME>
	<OUTCOME>4</OUTCOME>
	<PROPERTY> position=(6200.0,4000.0)</PROPERTY>
</VARIABLE>
<VARIABLE TYPE="nature">
	<NAME>a_gender(actors0)</NAME>
	<OUTCOME>F</OUTCOME>
	<OUTCOME>M</OUTCOME>
	<PROPERTY> position=(6400.0,4000.0)</PROPERTY>
</VARIABLE>
<VARIABLE TYPE="nature">
	<NAME>a_quality(actors0)</NAME>
	<OUTCOME>0</OUTCOME>
	<OUTCOME>1</OUTCOME>
	<OUTCOME>2</OUTCOME>
	<OUTCOME>3</OUTCOME>
	<OUTCOME>4</OUTCOME>
	<OUTCOME>5</OUTCOME>
	<PROPERTY> position=(6000.0,4200.0)</PROPERTY>
</VARIABLE>
<VARIABLE TYPE="nature">
	<NAME>cast_num(movies0,actors0)</NAME>
	<OUTCOME>0</OUTCOME>
	<OUTCOME>1</OUTCOME>
	<OUTCOME>2</OUTCOME>
	<OUTCOME>3</OUTCOME>
	<PROPERTY> position=(6200.0,4200.0)</PROPERTY>
</VARIABLE>
<VARIABLE TYPE="nature">
	<NAME>country(movies0)</NAME>
	<OUTCOME>France</OUTCOME>
	<OUTCOME>other</OUTCOME>
	<OUTCOME>UK</OUTCOME>
	<OUTCOME>USA</OUTCOME>
	<PROPERTY> position=(6400.0,4200.0)</PROPERTY>
</VARIABLE>
<VARIABLE TYPE="nature">
	<NAME>d_quality(directors0)</NAME>
	<OUTCOME>0</OUTCOME>
	<OUTCOME>1</OUTCOME>
	<OUTCOME>2</OUTCOME>
	<OUTCOME>3</OUTCOME>
	<OUTCOME>4</OUTCOME>
	<OUTCOME>5</OUTCOME>
	<PROPERTY> position=(6000.0,4400.0)</PROPERTY>
</VARIABLE>
<VARIABLE TYPE="nature">
	<NAME>genre(movies0,directors0)</NAME>
	<OUTCOME>Action</OUTCOME>
	<OUTCOME>Adventure</OUTCOME>
	<OUTCOME>Animation</OUTCOME>
	<OUTCOME>Comedy</OUTCOME>
	<OUTCOME>Crime</OUTCOME>
	<OUTCOME>Documentary</OUTCOME>
	<OUTCOME>Drama</OUTCOME>
	<OUTCOME>Horror</OUTCOME>
	<OUTCOME>Other</OUTCOME>
	<PROPERTY> position=(6200.0,4400.0)</PROPERTY>
</VARIABLE>
<VARIABLE TYPE="nature">
	<NAME>isEnglish(movies0)</NAME>
	<OUTCOME>T</OUTCOME>
	<OUTCOME>F</OUTCOME>
	<PROPERTY> position=(6400.0,4400.0)</PROPERTY>
</VARIABLE>
<VARIABLE TYPE="nature">
	<NAME>occupation(users0)</NAME>
	<OUTCOME>1</OUTCOME>
	<OUTCOME>2</OUTCOME>
	<OUTCOME>3</OUTCOME>
	<OUTCOME>4</OUTCOME>
	<OUTCOME>5</OUTCOME>
	<PROPERTY> position=(6000.0,4600.0)</PROPERTY>
</VARIABLE>
<VARIABLE TYPE="nature">
	<NAME>rating(users0,movies0)</NAME>
	<OUTCOME>1</OUTCOME>
	<OUTCOME>2</OUTCOME>
	<OUTCOME>3</OUTCOME>
	<OUTCOME>4</OUTCOME>
	<OUTCOME>5</OUTCOME>
	<PROPERTY> position=(6200.0,4600.0)</PROPERTY>
</VARIABLE>
<VARIABLE TYPE="nature">
	<NAME>runningtime(movies0)</NAME>
	<OUTCOME>0</OUTCOME>
	<OUTCOME>1</OUTCOME>
	<OUTCOME>2</OUTCOME>
	<OUTCOME>3</OUTCOME>
	<PROPERTY> position=(6400.0,4600.0)</PROPERTY>
</VARIABLE>
<VARIABLE TYPE="nature">
	<NAME>u_gender(users0)</NAME>
	<OUTCOME>F</OUTCOME>
	<OUTCOME>M</OUTCOME>
	<PROPERTY> position=(6000.0,4800.0)</PROPERTY>
</VARIABLE>
<VARIABLE TYPE="nature">
	<NAME>year(movies0)</NAME>
	<OUTCOME>1</OUTCOME>
	<OUTCOME>2</OUTCOME>
	<OUTCOME>3</OUTCOME>
	<OUTCOME>4</OUTCOME>
	<PROPERTY> position=(6200.0,4800.0)</PROPERTY>
</VARIABLE>
<DEFINITION>
	<FOR>age(users0)</FOR>
	<GIVEN>avg_revenue(directors0)</GIVEN>
	<GIVEN>a_quality(actors0)</GIVEN>
	<GIVEN>cast_num(movies0,actors0)</GIVEN>
	<GIVEN>country(movies0)</GIVEN>
	<GIVEN>year(movies0)</GIVEN>
	<TABLE> 0.142858 0.142857 0.142857 0.142857 0.142857 0.142857 0.142857 0.142858 0.142857 0.142857 0.142857 0.142857 0.142857 0.142857 0.031250 0.125000 0.250000 0.312500 0.156250 0.093750 0.031250 0.142858 0.142857 0.142857 0.142857 0.142857 0.142857 0.142857 0.074828 0.448980 0.346939 0.108844 0.006803 0.006803 0.006803 0.037762 0.202797 0.404196 0.197203 0.076923 0.043357 0.037762 0.142858 0.142857 0.142857 0.142857 0.142857 0.142857 0.142857 0.056526 0.204522 0.340185 0.198356 0.105858 0.062693 0.031860 0.111112 0.111111 0.111111 0.111111 0.333333 0.111111 0.111111 0.028473 0.212070 0.410965 0.161071 0.094773 0.053974 0.038674 0.142858 0.142857 0.142857 0.142857 0.142857 0.142857 0.142857 0.142858 0.142857 0.142857 0.142857 0.142857 0.142857 0.142857 0.025883 0.082353 0.270588 0.261176 0.167059 0.129412 0.063529 0.142858 0.142857 0.142857 0.142857 0.142857 0.142857 0.142857 0.142858 0.142857 0.142857 0.142857 0.142857 0.142857 0.142857 0.012562 0.127411 0.511664 0.200314 0.080081 0.049798 0.018170 0.142858 0.142857 0.142857 0.142857 0.142857 0.142857 0.142857 0.142858 0.142857 0.142857 0.142857 0.142857 0.142857 0.142857 0.100000 0.400000 0.100000 0.100000 0.100000 0.100000 0.100000 0.142858 0.142857 0.142857 0.142857 0.142857 0.142857 0.142857 0.142858 0.142857 0.142857 0.142857 0.142857 0.142857 0.142857 0.142858 0.142857 0.142857 0.142857 0.142857 0.142857 0.142857 0.142858 0.142857 0.142857 0.142857 0.142857 0.142857 0.142857 0.057934 0.360202 0.443325 0.078086 0.045340 0.012594 0.002519 0.142858 0.142857 0.142857 0.142857 0.142857 0.142857 0.142857 0.142858 0.142857 0.142857 0.142857 0.142857 0.142857 0.142857 0.142858 0.142857 0.142857 0.142857 0.142857 0.142857 0.142857 0.142858 0.142857 0.142857 0.142857 0.142857 0.142857 0.142857 0.015464 0.197809 0.424613 0.226160 0.072165 0.048325 0.015464 0.005988 0.035928 0.485030 0.245509 0.065868 0.125749 0.035928 0.142858 0.142857 0.142857 0.142857 0.142857 0.142857 0.142857 0.005135 0.073171 0.295250 0.347882 0.084724 0.132221 0.061617 0.142858 0.142857 0.142857 0.142857 0.142857 0.142857 0.142857 0.142858 0.142857 0.142857 0.142857 0.142857 0.142857 0.142857 0.142858 0.142857 0.142857 0.142857 0.142857 0.142857 0.142857 0.142858 0.142857 0.142857 0.142857 0.142857 0.142857 0.142857 0.142858 0.142857 0.142857 0.142857 0.142857 0.142857 0.142857 0.142858 0.142857 0.142857 0.142857 0.142857 0.142857 0.142857 0.142858 0.142857 0.142857 0.142857 0.142857 0.142857 0.142857 0.065327 0.396985 0.442211 0.035176 0.050251 0.005025 0.005025 0.142858 0.142857 0.142857 0.142857 0.142857 0.142857 0.142857 0.142858 0.142857 0.142857 0.142857 0.142857 0.142857 0.142857 0.142858 0.142857 0.142857 0.142857 0.142857 0.142857 0.142857 0.142858 0.142857 0.142857 0.142857 0.142857 0.142857 0.142857 0.014826 0.271829 0.482702 0.120264 0.067545 0.028007 0.014827 0.009709 0.038835 0.475728 0.242718 0.067961 0.126214 0.038835 0.142858 0.142857 0.142857 0.142857 0.142857 0.142857 0.142857 0.023810 0.190476 0.285714 0.309524 0.047619 0.095238 0.047619 0.142858 0.142857 0.142857 0.142857 0.142857 0.142857 0.142857 0.142858 0.142857 0.142857 0.142857 0.142857 0.142857 0.142857 0.142858 0.142857 0.142857 0.142857 0.142857 0.142857 0.142857 0.142858 0.142857 0.142857 0.142857 0.142857 0.142857 0.142857 0.142858 0.142857 0.142857 0.142857 0.142857 0.142857 0.142857 0.142858 0.142857 0.142857 0.142857 0.142857 0.142857 0.142857 0.142858 0.142857 0.142857 0.142857 0.142857 0.142857 0.142857 0.142858 0.142857 0.142857 0.142857 0.142857 0.142857 0.142857 0.142858 0.142857 0.142857 0.142857 0.142857 0.142857 0.142857 0.142858 0.142857 0.142857 0.142857 0.142857 0.142857 0.142857 0.142858 0.142857 0.142857 0.142857 0.142857 0.142857 0.142857 0.142858 0.142857 0.142857 0.142857 0.142857 0.142857 0.142857 0.142858 0.142857 0.142857 0.142857 0.142857 0.142857 0.142857 0.142858 0.142857 0.142857 0.142857 0.142857 0.142857 0.142857 0.142858 0.142857 0.142857 0.142857 0.142857 0.142857 0.142857 0.142858 0.142857 0.142857 0.142857 0.142857 0.142857 0.142857 0.142858 0.142857 0.142857 0.142857 0.142857 0.142857 0.142857 0.142858 0.142857 0.142857 0.142857 0.142857 0.142857 0.142857 0.142858 0.142857 0.142857 0.142857 0.142857 0.142857 0.142857 0.142858 0.142857 0.142857 0.142857 0.142857 0.142857 0.142857 0.142858 0.142857 0.142857 0.142857 0.142857 0.142857 0.142857 0.142858 0.142857 0.142857 0.142857 0.142857 0.142857 0.142857 0.142858 0.142857 0.142857 0.142857 0.142857 0.142857 0.142857 0.142858 0.142857 0.142857 0.142857 0.142857 0.142857 0.142857 0.142858 0.142857 0.142857 0.142857 0.142857 0.142857 0.142857 0.142858 0.142857 0.142857 0.142857 0.142857 0.142857 0.142857 0.142858 0.142857 0.142857 0.142857 0.142857 0.142857 0.142857 0.142858 0.142857 0.142857 0.142857 0.142857 0.142857 0.142857 0.142858 0.142857 0.142857 0.142857 0.142857 0.142857 0.142857 0.142858 0.142857 0.142857 0.142857 0.142857 0.142857 0.142857 0.142858 0.142857 0.142857 0.142857 0.142857 0.142857 0.142857 0.142858 0.142857 0.142857 0.142857 0.142857 0.142857 0.142857 0.142858 0.142857 0.142857 0.142857 0.142857 0.142857 0.142857 0.142858 0.142857 0.142857 0.142857 0.142857 0.142857 0.142857 0.142858 0.142857 0.142857 0.142857 0.142857 0.142857 0.142857 0.142858 0.142857 0.142857 0.142857 0.142857 0.142857 0.142857 0.142858 0.142857 0.142857 0.142857 0.142857 0.142857 0.142857 0.142858 0.142857 0.142857 0.142857 0.142857 0.142857 0.142857 0.142858 0.142857 0.142857 0.142857 0.142857 0.142857 0.142857 0.142858 0.142857 0.142857 0.142857 0.142857 0.142857 0.142857 0.142858 0.142857 0.142857 0.142857 0.142857 0.142857 0.142857 0.142858 0.142857 0.142857 0.142857 0.142857 0.142857 0.142857 0.142858 0.142857 0.142857 0.142857 0.142857 0.142857 0.142857 0.142858 0.142857 0.142857 0.142857 0.142857 0.142857 0.142857 0.142858 0.142857 0.142857 0.142857 0.142857 0.142857 0.142857 0.100000 0.100000 0.100000 0.100000 0.400000 0.100000 0.100000 0.111112 0.111111 0.333333 0.111111 0.111111 0.111111 0.111111 0.041666 0.208333 0.291667 0.125000 0.125000 0.166667 0.041667 0.142858 0.142857 0.142857 0.142857 0.142857 0.142857 0.142857 0.142858 0.142857 0.142857 0.142857 0.142857 0.142857 0.142857 0.142858 0.142857 0.142857 0.142857 0.142857 0.142857 0.142857 0.142858 0.142857 0.142857 0.142857 0.142857 0.142857 0.142857 0.142858 0.142857 0.142857 0.142857 0.142857 0.142857 0.142857 0.142858 0.142857 0.142857 0.142857 0.142857 0.142857 0.142857 0.142858 0.142857 0.142857 0.142857 0.142857 0.142857 0.142857 0.142858 0.142857 0.142857 0.142857 0.142857 0.142857 0.142857 0.142858 0.142857 0.142857 0.142857 0.142857 0.142857 0.142857 0.142858 0.142857 0.142857 0.142857 0.142857 0.142857 0.142857 0.142858 0.142857 0.142857 0.142857 0.142857 0.142857 0.142857 0.142858 0.142857 0.142857 0.142857 0.142857 0.142857 0.142857 0.142858 0.142857 0.142857 0.142857 0.142857 0.142857 0.142857 0.062500 0.062500 0.062500 0.062500 0.625000 0.062500 0.062500 0.058821 0.058824 0.647059 0.058824 0.058824 0.058824 0.058824 0.009174 0.229358 0.339450 0.119266 0.119266 0.174312 0.009174 0.142858 0.142857 0.142857 0.142857 0.142857 0.142857 0.142857 0.142858 0.142857 0.142857 0.142857 0.142857 0.142857 0.142857 0.142858 0.142857 0.142857 0.142857 0.142857 0.142857 0.142857 0.142858 0.142857 0.142857 0.142857 0.142857 0.142857 0.142857 0.142858 0.142857 0.142857 0.142857 0.142857 0.142857 0.142857 0.142858 0.142857 0.142857 0.142857 0.142857 0.142857 0.142857 0.142858 0.142857 0.142857 0.142857 0.142857 0.142857 0.142857 0.142858 0.142857 0.142857 0.142857 0.142857 0.142857 0.142857 0.142858 0.142857 0.142857 0.142857 0.142857 0.142857 0.142857 0.142858 0.142857 0.142857 0.142857 0.142857 0.142857 0.142857 0.142858 0.142857 0.142857 0.142857 0.142857 0.142857 0.142857 0.142858 0.142857 0.142857 0.142857 0.142857 0.142857 0.142857 0.142858 0.142857 0.142857 0.142857 0.142857 0.142857 0.142857 0.142858 0.142857 0.142857 0.142857 0.142857 0.142857 0.142857 0.125000 0.125000 0.250000 0.125000 0.125000 0.125000 0.125000 0.142858 0.142857 0.142857 0.142857 0.142857 0.142857 0.142857 0.142858 0.142857 0.142857 0.142857 0.142857 0.142857 0.142857 0.142858 0.142857 0.142857 0.142857 0.142857 0.142857 0.142857 0.142858 0.142857 0.142857 0.142857 0.142857 0.142857 0.142857 0.142858 0.142857 0.142857 0.142857 0.142857 0.142857 0.142857 0.142858 0.142857 0.142857 0.142857 0.142857 0.142857 0.142857 0.142858 0.142857 0.142857 0.142857 0.142857 0.142857 0.142857 0.142858 0.142857 0.142857 0.142857 0.142857 0.142857 0.142857 0.090910 0.363636 0.181818 0.090909 0.090909 0.090909 0.090909 0.142858 0.142857 0.142857 0.142857 0.142857 0.142857 0.142857 0.029152 0.211660 0.409379 0.160963 0.095057 0.054499 0.039290 0.142858 0.142857 0.142857 0.142857 0.142857 0.142857 0.142857 0.142858 0.142857 0.142857 0.142857 0.142857 0.142857 0.142857 0.142858 0.142857 0.142857 0.142857 0.142857 0.142857 0.142857 0.161291 0.161290 0.096774 0.161290 0.290323 0.032258 0.096774 0.018433 0.202765 0.350230 0.235023 0.092166 0.073733 0.027650 0.024353 0.253582 0.365330 0.206304 0.070201 0.053009 0.027221 0.142858 0.142857 0.142857 0.142857 0.142857 0.142857 0.142857 0.142858 0.142857 0.142857 0.142857 0.142857 0.142857 0.142857 0.125000 0.250000 0.125000 0.125000 0.125000 0.125000 0.125000 0.125000 0.125000 0.250000 0.125000 0.125000 0.125000 0.125000 0.142858 0.142857 0.142857 0.142857 0.142857 0.142857 0.142857 0.142858 0.142857 0.142857 0.142857 0.142857 0.142857 0.142857 0.062500 0.250000 0.250000 0.250000 0.062500 0.062500 0.062500 0.011905 0.250000 0.238095 0.142857 0.178571 0.107143 0.071429 0.142858 0.142857 0.142857 0.142857 0.142857 0.142857 0.142857 0.142858 0.142857 0.142857 0.142857 0.142857 0.142857 0.142857 0.142858 0.142857 0.142857 0.142857 0.142857 0.142857 0.142857 0.026316 0.052632 0.473684 0.236842 0.105263 0.078947 0.026316 0.045453 0.196970 0.318182 0.212121 0.106061 0.075758 0.045455 0.024145 0.112676 0.241449 0.259557 0.189135 0.110664 0.062374 0.012581 0.166822 0.311743 0.252563 0.120690 0.104380 0.031221 0.028351 0.235052 0.441237 0.180412 0.059794 0.045876 0.009278 0.142858 0.142857 0.142857 0.142857 0.142857 0.142857 0.142857 0.142858 0.142857 0.142857 0.142857 0.142857 0.142857 0.142857 0.142858 0.142857 0.142857 0.142857 0.142857 0.142857 0.142857 0.100000 0.100000 0.400000 0.100000 0.100000 0.100000 0.100000 0.142858 0.142857 0.142857 0.142857 0.142857 0.142857 0.142857 0.142858 0.142857 0.142857 0.142857 0.142857 0.142857 0.142857 0.023254 0.302326 0.302326 0.302326 0.023256 0.023256 0.023256 0.003344 0.237458 0.344482 0.137124 0.147157 0.080268 0.050167 0.142858 0.142857 0.142857 0.142857 0.142857 0.142857 0.142857 0.142858 0.142857 0.142857 0.142857 0.142857 0.142857 0.142857 0.142858 0.142857 0.142857 0.142857 0.142857 0.142857 0.142857 0.003921 0.035294 0.537255 0.254902 0.098039 0.066667 0.003922 0.125000 0.125000 0.125000 0.250000 0.125000 0.125000 0.125000 0.031999 0.085333 0.232000 0.230667 0.190667 0.142667 0.086667 0.011780 0.152387 0.291922 0.244798 0.137240 0.119492 0.042381 0.026573 0.253611 0.451569 0.183324 0.049105 0.028500 0.007318 0.142858 0.142857 0.142857 0.142857 0.142857 0.142857 0.142857 0.142858 0.142857 0.142857 0.142857 0.142857 0.142857 0.142857 0.142858 0.142857 0.142857 0.142857 0.142857 0.142857 0.142857 0.066665 0.066667 0.600000 0.066667 0.066667 0.066667 0.066667 0.142858 0.142857 0.142857 0.142857 0.142857 0.142857 0.142857 0.142858 0.142857 0.142857 0.142857 0.142857 0.142857 0.142857 0.142858 0.142857 0.142857 0.142857 0.142857 0.142857 0.142857 0.007143 0.242857 0.412857 0.102857 0.151429 0.044286 0.038571 0.142858 0.142857 0.142857 0.142857 0.142857 0.142857 0.142857 0.142858 0.142857 0.142857 0.142857 0.142857 0.142857 0.142857 0.142858 0.142857 0.142857 0.142857 0.142857 0.142857 0.142857 0.004466 0.035714 0.535714 0.254464 0.098214 0.066964 0.004464 0.142858 0.142857 0.142857 0.142857 0.142857 0.142857 0.142857 0.142858 0.142857 0.142857 0.142857 0.142857 0.142857 0.142857 0.014978 0.173359 0.287019 0.232101 0.137030 0.103569 0.051944 0.003802 0.284696 0.388783 0.257129 0.033270 0.006179 0.026141 0.066668 0.183333 0.183333 0.166667 0.133333 0.183333 0.083333 0.142858 0.142857 0.142857 0.142857 0.142857 0.142857 0.142857 0.007751 0.046512 0.333333 0.271318 0.248062 0.054264 0.038760 0.043478 0.304348 0.260870 0.260870 0.043478 0.043478 0.043478 0.030769 0.123077 0.376923 0.146154 0.146154 0.100000 0.076923 0.032258 0.032258 0.806452 0.032258 0.032258 0.032258 0.032258 0.021052 0.178947 0.469173 0.227068 0.058647 0.036090 0.009023 0.056074 0.158879 0.285047 0.144860 0.163551 0.144860 0.046729 0.142858 0.142857 0.142857 0.142857 0.142857 0.142857 0.142857 0.016396 0.901639 0.016393 0.016393 0.016393 0.016393 0.016393 0.007143 0.035714 0.364286 0.292857 0.114286 0.128571 0.057143 0.090910 0.272727 0.090909 0.181818 0.181818 0.090909 0.090909 0.125000 0.125000 0.125000 0.125000 0.250000 0.125000 0.125000 0.022047 0.146839 0.308652 0.229617 0.133111 0.106073 0.053661 0.031390 0.130045 0.381166 0.206278 0.099776 0.090807 0.060538 0.006448 0.206963 0.386202 0.179239 0.080593 0.094778 0.045777 0.142858 0.142857 0.142857 0.142857 0.142857 0.142857 0.142857 0.142858 0.142857 0.142857 0.142857 0.142857 0.142857 0.142857 0.026315 0.026316 0.263158 0.236842 0.184211 0.157895 0.105263 0.088890 0.333333 0.244444 0.177778 0.022222 0.111111 0.022222 0.142858 0.142857 0.142857 0.142857 0.142857 0.142857 0.142857 0.090910 0.090909 0.454545 0.090909 0.090909 0.090909 0.090909 0.016481 0.166617 0.469883 0.235841 0.062032 0.039257 0.009889 0.020938 0.216683 0.420405 0.175806 0.080093 0.059156 0.026919 0.142858 0.142857 0.142857 0.142857 0.142857 0.142857 0.142857 0.014653 0.098901 0.179487 0.190476 0.164835 0.197802 0.153846 0.014832 0.098086 0.377512 0.220096 0.122967 0.111483 0.055024 0.007195 0.122302 0.417266 0.258993 0.086331 0.100719 0.007194 0.016537 0.160772 0.418006 0.170877 0.113918 0.079467 0.040423 0.023120 0.111434 0.240809 0.242830 0.151232 0.149337 0.081238 0.022562 0.127855 0.321013 0.237503 0.126800 0.113272 0.050995 0.022492 0.241795 0.418362 0.171455 0.061855 0.055107 0.028934 0.142858 0.142857 0.142857 0.142857 0.142857 0.142857 0.142857 0.142858 0.142857 0.142857 0.142857 0.142857 0.142857 0.142857 0.111112 0.111111 0.222222 0.111111 0.222222 0.111111 0.111111 0.097223 0.347222 0.236111 0.180556 0.006944 0.125000 0.006944 0.142858 0.142857 0.142857 0.142857 0.142857 0.142857 0.142857 0.055553 0.055556 0.666667 0.055556 0.055556 0.055556 0.055556 0.018585 0.167131 0.463295 0.233904 0.062525 0.042214 0.012346 0.021032 0.253517 0.437544 0.151485 0.068353 0.049595 0.018474 0.142858 0.142857 0.142857 0.142857 0.142857 0.142857 0.142857 0.011111 0.066667 0.116667 0.172222 0.188889 0.244444 0.200000 0.020615 0.071335 0.320681 0.254254 0.145615 0.134817 0.052683 0.003258 0.143322 0.403909 0.250814 0.071661 0.123779 0.003257 0.017734 0.157572 0.409959 0.168486 0.121419 0.083902 0.040928 0.021750 0.109021 0.214839 0.243395 0.162930 0.164131 0.083934 0.022028 0.135102 0.330306 0.240200 0.120511 0.106590 0.045263 0.024810 0.250366 0.411254 0.166926 0.061318 0.057544 0.027782 0.142858 0.142857 0.142857 0.142857 0.142857 0.142857 0.142857 0.142858 0.142857 0.142857 0.142857 0.142857 0.142857 0.142857 0.142858 0.142857 0.142857 0.142857 0.142857 0.142857 0.142857 0.041668 0.270833 0.354167 0.145833 0.020833 0.145833 0.020833 0.142858 0.142857 0.142857 0.142857 0.142857 0.142857 0.142857 0.142858 0.142857 0.142857 0.142857 0.142857 0.142857 0.142857 0.017585 0.168629 0.481394 0.232062 0.055582 0.036583 0.008165 0.018396 0.300142 0.441528 0.133411 0.060080 0.033835 0.012608 0.142858 0.142857 0.142857 0.142857 0.142857 0.142857 0.142857 0.090910 0.454545 0.090909 0.090909 0.090909 0.090909 0.090909 0.001556 0.150934 0.222510 0.229253 0.206432 0.177386 0.011929 0.002526 0.131313 0.431818 0.282828 0.078283 0.070707 0.002525 0.142858 0.142857 0.142857 0.142857 0.142857 0.142857 0.142857 0.016574 0.077348 0.088398 0.232044 0.298343 0.215470 0.071823 0.016334 0.109107 0.352693 0.256515 0.115430 0.103676 0.046245 0.026739 0.249327 0.410696 0.167463 0.062867 0.056059 0.026849 0.142858 0.142857 0.142857 0.142857 0.142857 0.142857 0.142857 0.111112 0.333333 0.111111 0.111111 0.111111 0.111111 0.111111 0.001191 0.060787 0.296782 0.342074 0.185936 0.067938 0.045292 0.100000 0.100000 0.100000 0.100000 0.200000 0.200000 0.200000 0.142858 0.142857 0.142857 0.142857 0.142857 0.142857 0.142857 0.090910 0.090909 0.454545 0.090909 0.090909 0.090909 0.090909 0.005330 0.076759 0.323028 0.223881 0.097015 0.176972 0.097015 0.024410 0.145387 0.362810 0.254278 0.101113 0.067369 0.044633 0.142858 0.142857 0.142857 0.142857 0.142857 0.142857 0.142857 0.022726 0.102273 0.261364 0.193182 0.140152 0.170455 0.109848 0.024631 0.133005 0.371921 0.231527 0.105911 0.091133 0.041872 0.030487 0.213415 0.329268 0.152439 0.158537 0.054878 0.060976 0.142858 0.142857 0.142857 0.142857 0.142857 0.142857 0.142857 0.036793 0.178783 0.300322 0.201009 0.114302 0.101228 0.067563 0.017593 0.063564 0.262770 0.220772 0.154370 0.165153 0.115778 0.021004 0.188054 0.379061 0.213981 0.071218 0.069248 0.057434 0.142858 0.142857 0.142857 0.142857 0.142857 0.142857 0.142857 0.051725 0.086207 0.181034 0.137931 0.267241 0.137931 0.137931 0.011213 0.102956 0.231397 0.319062 0.147808 0.118247 0.069317 0.027304 0.109215 0.324232 0.184300 0.156997 0.092150 0.105802 0.013366 0.192982 0.389307 0.238931 0.105263 0.055138 0.005013 0.076923 0.076923 0.538462 0.076923 0.076923 0.076923 0.076923 0.011888 0.093688 0.320125 0.232097 0.118030 0.142655 0.081517 0.020009 0.102319 0.331969 0.286949 0.121419 0.086858 0.050477 0.142858 0.142857 0.142857 0.142857 0.142857 0.142857 0.142857 0.019928 0.108696 0.276570 0.196256 0.128019 0.158816 0.111715 0.015893 0.117810 0.297805 0.236504 0.141776 0.130550 0.059662 0.005406 0.118919 0.410811 0.237838 0.162162 0.059459 0.005405 0.020247 0.166185 0.270839 0.195109 0.109387 0.126479 0.111754 0.023080 0.094118 0.242697 0.244864 0.139173 0.150464 0.105604 0.023983 0.119783 0.299994 0.229246 0.130655 0.128448 0.067891 0.017580 0.174129 0.430514 0.192703 0.086567 0.069983 0.028524 0.142858 0.142857 0.142857 0.142857 0.142857 0.142857 0.142857 0.046511 0.178295 0.162791 0.124031 0.240310 0.124031 0.124031 0.015019 0.104091 0.195753 0.324702 0.136199 0.136199 0.088037 0.022619 0.098810 0.330952 0.182143 0.163095 0.090476 0.111905 0.013151 0.193066 0.389719 0.239091 0.105200 0.054991 0.004782 0.045452 0.045455 0.727273 0.045455 0.045455 0.045455 0.045455 0.012282 0.115880 0.365151 0.233463 0.100316 0.111381 0.061527 0.021077 0.103587 0.328700 0.300897 0.110762 0.080717 0.054260 0.142858 0.142857 0.142857 0.142857 0.142857 0.142857 0.142857 0.019313 0.106321 0.270581 0.196840 0.131877 0.160359 0.114709 0.014922 0.118682 0.261684 0.232093 0.157988 0.148908 0.065723 0.002785 0.153203 0.339833 0.225627 0.211699 0.064067 0.002786 0.018958 0.185733 0.286632 0.187018 0.096080 0.116003 0.109576 0.023434 0.095184 0.238283 0.242723 0.138902 0.153942 0.107532 0.025282 0.119464 0.309261 0.227268 0.125739 0.124990 0.067996 0.011798 0.160393 0.412824 0.199207 0.097262 0.077450 0.041066 0.142858 0.142857 0.142857 0.142857 0.142857 0.142857 0.142857 0.142858 0.142857 0.142857 0.142857 0.142857 0.142857 0.142857 0.036253 0.093656 0.087613 0.296073 0.208459 0.178248 0.099698 0.036535 0.091338 0.295227 0.197996 0.133176 0.121980 0.123748 0.142858 0.142857 0.142857 0.142857 0.142857 0.142857 0.142857 0.125000 0.125000 0.250000 0.125000 0.125000 0.125000 0.125000 0.007091 0.113813 0.299223 0.313408 0.129686 0.095914 0.040865 0.021993 0.098289 0.257942 0.360847 0.123269 0.101548 0.036112 0.142858 0.142857 0.142857 0.142857 0.142857 0.142857 0.142857 0.026317 0.107287 0.363360 0.203441 0.103239 0.126518 0.069838 0.015567 0.106213 0.231280 0.238996 0.176932 0.159152 0.071860 0.008621 0.155172 0.310345 0.215517 0.224138 0.077586 0.008621 0.142858 0.142857 0.142857 0.142857 0.142857 0.142857 0.142857 0.032307 0.113685 0.254496 0.250838 0.139287 0.141420 0.067967 0.028243 0.114919 0.301243 0.217851 0.140198 0.128435 0.069111 0.006112 0.172160 0.446395 0.189715 0.091021 0.064105 0.030492 0.142858 0.142857 0.142857 0.142857 0.142857 0.142857 0.142857 0.142858 0.142857 0.142857 0.142857 0.142857 0.142857 0.142857 0.142858 0.142857 0.142857 0.142857 0.142857 0.142857 0.142857 0.142858 0.142857 0.142857 0.142857 0.142857 0.142857 0.142857 0.142858 0.142857 0.142857 0.142857 0.142857 0.142857 0.142857 0.142858 0.142857 0.142857 0.142857 0.142857 0.142857 0.142857 0.142858 0.142857 0.142857 0.142857 0.142857 0.142857 0.142857 0.142858 0.142857 0.142857 0.142857 0.142857 0.142857 0.142857 0.142858 0.142857 0.142857 0.142857 0.142857 0.142857 0.142857 0.142858 0.142857 0.142857 0.142857 0.142857 0.142857 0.142857 0.142858 0.142857 0.142857 0.142857 0.142857 0.142857 0.142857 0.142858 0.142857 0.142857 0.142857 0.142857 0.142857 0.142857 0.142858 0.142857 0.142857 0.142857 0.142857 0.142857 0.142857 0.142858 0.142857 0.142857 0.142857 0.142857 0.142857 0.142857 0.142858 0.142857 0.142857 0.142857 0.142857 0.142857 0.142857 0.111112 0.222222 0.111111 0.111111 0.111111 0.222222 0.111111 0.142858 0.142857 0.142857 0.142857 0.142857 0.142857 0.142857 0.142858 0.142857 0.142857 0.142857 0.142857 0.142857 0.142857 0.142858 0.142857 0.142857 0.142857 0.142857 0.142857 0.142857 0.142858 0.142857 0.142857 0.142857 0.142857 0.142857 0.142857 0.142858 0.142857 0.142857 0.142857 0.142857 0.142857 0.142857 0.142858 0.142857 0.142857 0.142857 0.142857 0.142857 0.142857 0.142858 0.142857 0.142857 0.142857 0.142857 0.142857 0.142857 0.142858 0.142857 0.142857 0.142857 0.142857 0.142857 0.142857 0.142858 0.142857 0.142857 0.142857 0.142857 0.142857 0.142857 0.142858 0.142857 0.142857 0.142857 0.142857 0.142857 0.142857 0.142858 0.142857 0.142857 0.142857 0.142857 0.142857 0.142857 0.142858 0.142857 0.142857 0.142857 0.142857 0.142857 0.142857 0.142858 0.142857 0.142857 0.142857 0.142857 0.142857 0.142857 0.142858 0.142857 0.142857 0.142857 0.142857 0.142857 0.142857 0.142858 0.142857 0.142857 0.142857 0.142857 0.142857 0.142857 0.142858 0.142857 0.142857 0.142857 0.142857 0.142857 0.142857 0.142858 0.142857 0.142857 0.142857 0.142857 0.142857 0.142857 0.142858 0.142857 0.142857 0.142857 0.142857 0.142857 0.142857 0.142858 0.142857 0.142857 0.142857 0.142857 0.142857 0.142857 0.142858 0.142857 0.142857 0.142857 0.142857 0.142857 0.142857 0.142858 0.142857 0.142857 0.142857 0.142857 0.142857 0.142857 0.142858 0.142857 0.142857 0.142857 0.142857 0.142857 0.142857 0.142858 0.142857 0.142857 0.142857 0.142857 0.142857 0.142857 0.142858 0.142857 0.142857 0.142857 0.142857 0.142857 0.142857 0.142858 0.142857 0.142857 0.142857 0.142857 0.142857 0.142857 0.142858 0.142857 0.142857 0.142857 0.142857 0.142857 0.142857 0.142858 0.142857 0.142857 0.142857 0.142857 0.142857 0.142857 0.142858 0.142857 0.142857 0.142857 0.142857 0.142857 0.142857 0.142858 0.142857 0.142857 0.142857 0.142857 0.142857 0.142857 0.142858 0.142857 0.142857 0.142857 0.142857 0.142857 0.142857 0.142858 0.142857 0.142857 0.142857 0.142857 0.142857 0.142857 0.142858 0.142857 0.142857 0.142857 0.142857 0.142857 0.142857 0.142858 0.142857 0.142857 0.142857 0.142857 0.142857 0.142857 0.142858 0.142857 0.142857 0.142857 0.142857 0.142857 0.142857 0.142858 0.142857 0.142857 0.142857 0.142857 0.142857 0.142857 0.142858 0.142857 0.142857 0.142857 0.142857 0.142857 0.142857 0.142858 0.142857 0.142857 0.142857 0.142857 0.142857 0.142857 0.142858 0.142857 0.142857 0.142857 0.142857 0.142857 0.142857 0.142858 0.142857 0.142857 0.142857 0.142857 0.142857 0.142857 0.142858 0.142857 0.142857 0.142857 0.142857 0.142857 0.142857 0.142858 0.142857 0.142857 0.142857 0.142857 0.142857 0.142857 0.142858 0.142857 0.142857 0.142857 0.142857 0.142857 0.142857 0.142858 0.142857 0.142857 0.142857 0.142857 0.142857 0.142857 0.142858 0.142857 0.142857 0.142857 0.142857 0.142857 0.142857 0.142858 0.142857 0.142857 0.142857 0.142857 0.142857 0.142857 0.142858 0.142857 0.142857 0.142857 0.142857 0.142857 0.142857 0.142858 0.142857 0.142857 0.142857 0.142857 0.142857 0.142857 0.142858 0.142857 0.142857 0.142857 0.142857 0.142857 0.142857 0.142858 0.142857 0.142857 0.142857 0.142857 0.142857 0.142857 0.142858 0.142857 0.142857 0.142857 0.142857 0.142857 0.142857 0.142858 0.142857 0.142857 0.142857 0.142857 0.142857 0.142857 0.142858 0.142857 0.142857 0.142857 0.142857 0.142857 0.142857 0.142858 0.142857 0.142857 0.142857 0.142857 0.142857 0.142857 0.142858 0.142857 0.142857 0.142857 0.142857 0.142857 0.142857 0.142858 0.142857 0.142857 0.142857 0.142857 0.142857 0.142857 0.142858 0.142857 0.142857 0.142857 0.142857 0.142857 0.142857 0.142858 0.142857 0.142857 0.142857 0.142857 0.142857 0.142857 0.142858 0.142857 0.142857 0.142857 0.142857 0.142857 0.142857 0.142858 0.142857 0.142857 0.142857 0.142857 0.142857 0.142857 0.142858 0.142857 0.142857 0.142857 0.142857 0.142857 0.142857 0.142858 0.142857 0.142857 0.142857 0.142857 0.142857 0.142857 0.142858 0.142857 0.142857 0.142857 0.142857 0.142857 0.142857 0.142858 0.142857 0.142857 0.142857 0.142857 0.142857 0.142857 0.142858 0.142857 0.142857 0.142857 0.142857 0.142857 0.142857 0.142858 0.142857 0.142857 0.142857 0.142857 0.142857 0.142857 0.142858 0.142857 0.142857 0.142857 0.142857 0.142857 0.142857 0.142858 0.142857 0.142857 0.142857 0.142857 0.142857 0.142857 0.142858 0.142857 0.142857 0.142857 0.142857 0.142857 0.142857 0.142858 0.142857 0.142857 0.142857 0.142857 0.142857 0.142857 0.142858 0.142857 0.142857 0.142857 0.142857 0.142857 0.142857 0.142858 0.142857 0.142857 0.142857 0.142857 0.142857 0.142857 0.142858 0.142857 0.142857 0.142857 0.142857 0.142857 0.142857 0.142858 0.142857 0.142857 0.142857 0.142857 0.142857 0.142857 0.142858 0.142857 0.142857 0.142857 0.142857 0.142857 0.142857 0.142858 0.142857 0.142857 0.142857 0.142857 0.142857 0.142857 0.142858 0.142857 0.142857 0.142857 0.142857 0.142857 0.142857 0.142858 0.142857 0.142857 0.142857 0.142857 0.142857 0.142857 0.142858 0.142857 0.142857 0.142857 0.142857 0.142857 0.142857 0.142858 0.142857 0.142857 0.142857 0.142857 0.142857 0.142857 0.142858 0.142857 0.142857 0.142857 0.142857 0.142857 0.142857 0.142858 0.142857 0.142857 0.142857 0.142857 0.142857 0.142857 0.142858 0.142857 0.142857 0.142857 0.142857 0.142857 0.142857 0.142858 0.142857 0.142857 0.142857 0.142857 0.142857 0.142857 0.142858 0.142857 0.142857 0.142857 0.142857 0.142857 0.142857 0.142858 0.142857 0.142857 0.142857 0.142857 0.142857 0.142857 0.142858 0.142857 0.142857 0.142857 0.142857 0.142857 0.142857 0.142858 0.142857 0.142857 0.142857 0.142857 0.142857 0.142857 0.142858 0.142857 0.142857 0.142857 0.142857 0.142857 0.142857 0.142858 0.142857 0.142857 0.142857 0.142857 0.142857 0.142857 0.142858 0.142857 0.142857 0.142857 0.142857 0.142857 0.142857 0.142858 0.142857 0.142857 0.142857 0.142857 0.142857 0.142857 0.142858 0.142857 0.142857 0.142857 0.142857 0.142857 0.142857 0.142858 0.142857 0.142857 0.142857 0.142857 0.142857 0.142857 0.142858 0.142857 0.142857 0.142857 0.142857 0.142857 0.142857 0.142858 0.142857 0.142857 0.142857 0.142857 0.142857 0.142857 0.142858 0.142857 0.142857 0.142857 0.142857 0.142857 0.142857 0.142858 0.142857 0.142857 0.142857 0.142857 0.142857 0.142857 0.142858 0.142857 0.142857 0.142857 0.142857 0.142857 0.142857 0.142858 0.142857 0.142857 0.142857 0.142857 0.142857 0.142857 0.142858 0.142857 0.142857 0.142857 0.142857 0.142857 0.142857 0.142858 0.142857 0.142857 0.142857 0.142857 0.142857 0.142857 0.142858 0.142857 0.142857 0.142857 0.142857 0.142857 0.142857 0.142858 0.142857 0.142857 0.142857 0.142857 0.142857 0.142857 0.142858 0.142857 0.142857 0.142857 0.142857 0.142857 0.142857 0.142858 0.142857 0.142857 0.142857 0.142857 0.142857 0.142857 0.142858 0.142857 0.142857 0.142857 0.142857 0.142857 0.142857 0.142858 0.142857 0.142857 0.142857 0.142857 0.142857 0.142857 0.142858 0.142857 0.142857 0.142857 0.142857 0.142857 0.142857 0.142858 0.142857 0.142857 0.142857 0.142857 0.142857 0.142857 0.142858 0.142857 0.142857 0.142857 0.142857 0.142857 0.142857 0.142858 0.142857 0.142857 0.142857 0.142857 0.142857 0.142857 0.142858 0.142857 0.142857 0.142857 0.142857 0.142857 0.142857 0.142858 0.142857 0.142857 0.142857 0.142857 0.142857 0.142857 0.142858 0.142857 0.142857 0.142857 0.142857 0.142857 0.142857 0.142858 0.142857 0.142857 0.142857 0.142857 0.142857 0.142857 0.142858 0.142857 0.142857 0.142857 0.142857 0.142857 0.142857 0.142858 0.142857 0.142857 0.142857 0.142857 0.142857 0.142857 0.142858 0.142857 0.142857 0.142857 0.142857 0.142857 0.142857 0.142858 0.142857 0.142857 0.142857 0.142857 0.142857 0.142857 0.142858 0.142857 0.142857 0.142857 0.142857 0.142857 0.142857 0.142858 0.142857 0.142857 0.142857 0.142857 0.142857 0.142857 0.142858 0.142857 0.142857 0.142857 0.142857 0.142857 0.142857 0.142858 0.142857 0.142857 0.142857 0.142857 0.142857 0.142857 0.142858 0.142857 0.142857 0.142857 0.142857 0.142857 0.142857 0.142858 0.142857 0.142857 0.142857 0.142857 0.142857 0.142857 0.142858 0.142857 0.142857 0.142857 0.142857 0.142857 0.142857 0.142858 0.142857 0.142857 0.142857 0.142857 0.142857 0.142857 0.134615 0.346154 0.307692 0.076923 0.076923 0.019231 0.038462 0.142858 0.142857 0.142857 0.142857 0.142857 0.142857 0.142857 0.142858 0.142857 0.142857 0.142857 0.142857 0.142857 0.142857 0.142858 0.142857 0.142857 0.142857 0.142857 0.142857 0.142857 0.142858 0.142857 0.142857 0.142857 0.142857 0.142857 0.142857 0.142858 0.142857 0.142857 0.142857 0.142857 0.142857 0.142857 0.142858 0.142857 0.142857 0.142857 0.142857 0.142857 0.142857 0.142858 0.142857 0.142857 0.142857 0.142857 0.142857 0.142857 0.090910 0.272727 0.272727 0.090909 0.090909 0.090909 0.090909 0.142858 0.142857 0.142857 0.142857 0.142857 0.142857 0.142857 0.142858 0.142857 0.142857 0.142857 0.142857 0.142857 0.142857 0.142858 0.142857 0.142857 0.142857 0.142857 0.142857 0.142857 0.142858 0.142857 0.142857 0.142857 0.142857 0.142857 0.142857 0.142858 0.142857 0.142857 0.142857 0.142857 0.142857 0.142857 0.142858 0.142857 0.142857 0.142857 0.142857 0.142857 0.142857 0.142858 0.142857 0.142857 0.142857 0.142857 0.142857 0.142857 0.100671 0.369128 0.275168 0.181208 0.020134 0.020134 0.033557 0.142858 0.142857 0.142857 0.142857 0.142857 0.142857 0.142857 0.142858 0.142857 0.142857 0.142857 0.142857 0.142857 0.142857 0.142858 0.142857 0.142857 0.142857 0.142857 0.142857 0.142857 0.142858 0.142857 0.142857 0.142857 0.142857 0.142857 0.142857 0.142858 0.142857 0.142857 0.142857 0.142857 0.142857 0.142857 0.142858 0.142857 0.142857 0.142857 0.142857 0.142857 0.142857 0.142858 0.142857 0.142857 0.142857 0.142857 0.142857 0.142857 0.019608 0.450980 0.450980 0.019608 0.019608 0.019608 0.019608 0.142858 0.142857 0.142857 0.142857 0.142857 0.142857 0.142857 0.142858 0.142857 0.142857 0.142857 0.142857 0.142857 0.142857 0.142858 0.142857 0.142857 0.142857 0.142857 0.142857 0.142857 0.142858 0.142857 0.142857 0.142857 0.142857 0.142857 0.142857 0.142858 0.142857 0.142857 0.142857 0.142857 0.142857 0.142857 0.142858 0.142857 0.142857 0.142857 0.142857 0.142857 0.142857 0.142858 0.142857 0.142857 0.142857 0.142857 0.142857 0.142857 0.094737 0.389474 0.260150 0.189474 0.022556 0.018045 0.025564 0.142858 0.142857 0.142857 0.142857 0.142857 0.142857 0.142857 0.142858 0.142857 0.142857 0.142857 0.142857 0.142857 0.142857 0.142858 0.142857 0.142857 0.142857 0.142857 0.142857 0.142857 0.142858 0.142857 0.142857 0.142857 0.142857 0.142857 0.142857 0.142858 0.142857 0.142857 0.142857 0.142857 0.142857 0.142857 0.142858 0.142857 0.142857 0.142857 0.142857 0.142857 0.142857 0.142858 0.142857 0.142857 0.142857 0.142857 0.142857 0.142857 0.032258 0.419355 0.419355 0.032258 0.032258 0.032258 0.032258 0.142858 0.142857 0.142857 0.142857 0.142857 0.142857 0.142857 0.142858 0.142857 0.142857 0.142857 0.142857 0.142857 0.142857 0.142858 0.142857 0.142857 0.142857 0.142857 0.142857 0.142857 0.142858 0.142857 0.142857 0.142857 0.142857 0.142857 0.142857 0.142858 0.142857 0.142857 0.142857 0.142857 0.142857 0.142857 0.142858 0.142857 0.142857 0.142857 0.142857 0.142857 0.142857 0.142858 0.142857 0.142857 0.142857 0.142857 0.142857 0.142857 0.095063 0.388357 0.264554 0.189388 0.019897 0.016949 0.025792 0.142858 0.142857 0.142857 0.142857 0.142857 0.142857 0.142857 0.142858 0.142857 0.142857 0.142857 0.142857 0.142857 0.142857 0.142858 0.142857 0.142857 0.142857 0.142857 0.142857 0.142857 0.142858 0.142857 0.142857 0.142857 0.142857 0.142857 0.142857 0.142858 0.142857 0.142857 0.142857 0.142857 0.142857 0.142857 0.142858 0.142857 0.142857 0.142857 0.142857 0.142857 0.142857 0.142858 0.142857 0.142857 0.142857 0.142857 0.142857 0.142857 0.142858 0.142857 0.142857 0.142857 0.142857 0.142857 0.142857 0.142858 0.142857 0.142857 0.142857 0.142857 0.142857 0.142857 0.142858 0.142857 0.142857 0.142857 0.142857 0.142857 0.142857 0.142858 0.142857 0.142857 0.142857 0.142857 0.142857 0.142857 0.142858 0.142857 0.142857 0.142857 0.142857 0.142857 0.142857 0.142858 0.142857 0.142857 0.142857 0.142857 0.142857 0.142857 0.142858 0.142857 0.142857 0.142857 0.142857 0.142857 0.142857 0.090910 0.090909 0.272727 0.090909 0.181818 0.181818 0.090909 0.064000 0.344000 0.408000 0.064000 0.056000 0.040000 0.024000 0.142858 0.142857 0.142857 0.142857 0.142857 0.142857 0.142857 0.142858 0.142857 0.142857 0.142857 0.142857 0.142857 0.142857 0.142858 0.142857 0.142857 0.142857 0.142857 0.142857 0.142857 0.142858 0.142857 0.142857 0.142857 0.142857 0.142857 0.142857 0.142858 0.142857 0.142857 0.142857 0.142857 0.142857 0.142857 0.142858 0.142857 0.142857 0.142857 0.142857 0.142857 0.142857 0.142858 0.142857 0.142857 0.142857 0.142857 0.142857 0.142857 0.052630 0.368421 0.368421 0.052632 0.052632 0.052632 0.052632 0.142858 0.142857 0.142857 0.142857 0.142857 0.142857 0.142857 0.142858 0.142857 0.142857 0.142857 0.142857 0.142857 0.142857 0.142858 0.142857 0.142857 0.142857 0.142857 0.142857 0.142857 0.037038 0.111111 0.296296 0.259259 0.148148 0.074074 0.074074 0.142858 0.142857 0.142857 0.142857 0.142857 0.142857 0.142857 0.142858 0.142857 0.142857 0.142857 0.142857 0.142857 0.142857 0.005847 0.111111 0.374269 0.163743 0.152047 0.163743 0.029240 0.008839 0.244949 0.380051 0.188131 0.079545 0.088384 0.010101 0.142858 0.142857 0.142857 0.142857 0.142857 0.142857 0.142857 0.142858 0.142857 0.142857 0.142857 0.142857 0.142857 0.142857 0.142858 0.142857 0.142857 0.142857 0.142857 0.142857 0.142857 0.142858 0.142857 0.142857 0.142857 0.142857 0.142857 0.142857 0.142858 0.142857 0.142857 0.142857 0.142857 0.142857 0.142857 0.142858 0.142857 0.142857 0.142857 0.142857 0.142857 0.142857 0.142858 0.142857 0.142857 0.142857 0.142857 0.142857 0.142857 0.043480 0.391304 0.391304 0.043478 0.043478 0.043478 0.043478 0.142858 0.142857 0.142857 0.142857 0.142857 0.142857 0.142857 0.142858 0.142857 0.142857 0.142857 0.142857 0.142857 0.142857 0.142858 0.142857 0.142857 0.142857 0.142857 0.142857 0.142857 0.022726 0.318182 0.227273 0.136364 0.204545 0.045455 0.045455 0.142858 0.142857 0.142857 0.142857 0.142857 0.142857 0.142857 0.142858 0.142857 0.142857 0.142857 0.142857 0.142857 0.142857 0.001799 0.089928 0.311151 0.228417 0.178058 0.154676 0.035971 0.007639 0.255298 0.379744 0.174717 0.084524 0.088960 0.009118 0.142858 0.142857 0.142857 0.142857 0.142857 0.142857 0.142857 0.142858 0.142857 0.142857 0.142857 0.142857 0.142857 0.142857 0.142858 0.142857 0.142857 0.142857 0.142857 0.142857 0.142857 0.142858 0.142857 0.142857 0.142857 0.142857 0.142857 0.142857 0.142858 0.142857 0.142857 0.142857 0.142857 0.142857 0.142857 0.142858 0.142857 0.142857 0.142857 0.142857 0.142857 0.142857 0.055555 0.111111 0.333333 0.222222 0.166667 0.055556 0.055556 0.142858 0.142857 0.142857 0.142857 0.142857 0.142857 0.142857 0.142858 0.142857 0.142857 0.142857 0.142857 0.142857 0.142857 0.142858 0.142857 0.142857 0.142857 0.142857 0.142857 0.142857 0.142858 0.142857 0.142857 0.142857 0.142857 0.142857 0.142857 0.040817 0.571429 0.020408 0.040816 0.285714 0.020408 0.020408 0.142858 0.142857 0.142857 0.142857 0.142857 0.142857 0.142857 0.142858 0.142857 0.142857 0.142857 0.142857 0.142857 0.142857 0.006493 0.025974 0.448052 0.045455 0.233766 0.227273 0.012987 0.008704 0.218682 0.432857 0.182157 0.066832 0.080976 0.009792 0.142858 0.142857 0.142857 0.142857 0.142857 0.142857 0.142857 0.142858 0.142857 0.142857 0.142857 0.142857 0.142857 0.142857 0.062500 0.125000 0.187500 0.062500 0.125000 0.375000 0.062500 0.090908 0.090909 0.045455 0.318182 0.363636 0.045455 0.045455 0.142858 0.142857 0.142857 0.142857 0.142857 0.142857 0.142857 0.142858 0.142857 0.142857 0.142857 0.142857 0.142857 0.142857 0.135135 0.009009 0.684685 0.144144 0.009009 0.009009 0.009009 0.038790 0.215060 0.442670 0.082145 0.170565 0.014832 0.035938 0.142858 0.142857 0.142857 0.142857 0.142857 0.142857 0.142857 0.142858 0.142857 0.142857 0.142857 0.142857 0.142857 0.142857 0.142858 0.142857 0.142857 0.142857 0.142857 0.142857 0.142857 0.039948 0.176817 0.497708 0.178782 0.085134 0.020301 0.001310 0.142858 0.142857 0.142857 0.142857 0.142857 0.142857 0.142857 0.023256 0.065891 0.170543 0.197674 0.174419 0.217054 0.151163 0.003650 0.072993 0.346715 0.186131 0.164234 0.149635 0.076642 0.025796 0.240143 0.423448 0.152685 0.066065 0.058096 0.033767 0.142858 0.142857 0.142857 0.142857 0.142857 0.142857 0.142857 0.142858 0.142857 0.142857 0.142857 0.142857 0.142857 0.142857 0.015625 0.057292 0.203125 0.161458 0.171875 0.270833 0.119792 0.023067 0.207604 0.442546 0.158479 0.094404 0.053396 0.020504 0.142858 0.142857 0.142857 0.142857 0.142857 0.142857 0.142857 0.142858 0.142857 0.142857 0.142857 0.142857 0.142857 0.142857 0.032921 0.032922 0.255144 0.275720 0.119342 0.160494 0.123457 0.031379 0.201466 0.412903 0.185337 0.081232 0.051613 0.036070 0.142858 0.142857 0.142857 0.142857 0.142857 0.142857 0.142857 0.142858 0.142857 0.142857 0.142857 0.142857 0.142857 0.142857 0.018925 0.100122 0.387057 0.296093 0.100733 0.074481 0.022589 0.028172 0.176161 0.455728 0.184211 0.082353 0.052322 0.021053 0.142858 0.142857 0.142857 0.142857 0.142857 0.142857 0.142857 0.018808 0.114186 0.285330 0.241537 0.132187 0.120365 0.087587 0.016599 0.131732 0.295780 0.263994 0.134381 0.109836 0.047678 0.023878 0.226989 0.420777 0.168966 0.077742 0.055566 0.026082 0.142858 0.142857 0.142857 0.142857 0.142857 0.142857 0.142857 0.142858 0.142857 0.142857 0.142857 0.142857 0.142857 0.142857 0.013441 0.048387 0.263441 0.247312 0.137097 0.252688 0.037634 0.024387 0.207290 0.436476 0.159696 0.095450 0.055330 0.021371 0.142858 0.142857 0.142857 0.142857 0.142857 0.142857 0.142857 0.142858 0.142857 0.142857 0.142857 0.142857 0.142857 0.142857 0.043903 0.048780 0.312195 0.297561 0.112195 0.126829 0.058537 0.037551 0.179132 0.385195 0.185903 0.104186 0.060942 0.047091 0.142858 0.142857 0.142857 0.142857 0.142857 0.142857 0.142857 0.142858 0.142857 0.142857 0.142857 0.142857 0.142857 0.142857 0.010484 0.065402 0.370444 0.336495 0.114828 0.086870 0.015477 0.027230 0.183903 0.449363 0.179745 0.081556 0.055936 0.022267 0.142858 0.142857 0.142857 0.142857 0.142857 0.142857 0.142857 0.024578 0.088408 0.249817 0.236610 0.158474 0.146001 0.096112 0.014893 0.135180 0.305976 0.258762 0.125990 0.108689 0.050510 0.022991 0.225833 0.423874 0.166341 0.079853 0.053654 0.027454 0.142858 0.142857 0.142857 0.142857 0.142857 0.142857 0.142857 0.142858 0.142857 0.142857 0.142857 0.142857 0.142857 0.142857 0.019230 0.115385 0.211538 0.019231 0.115385 0.500000 0.019231 0.042979 0.222603 0.386815 0.176712 0.088356 0.067295 0.015240 0.142858 0.142857 0.142857 0.142857 0.142857 0.142857 0.142857 0.142858 0.142857 0.142857 0.142857 0.142857 0.142857 0.142857 0.142858 0.142857 0.142857 0.142857 0.142857 0.142857 0.142857 0.031167 0.237765 0.452839 0.141165 0.057687 0.047389 0.031988 0.142858 0.142857 0.142857 0.142857 0.142857 0.142857 0.142857 0.100000 0.100000 0.200000 0.200000 0.100000 0.200000 0.100000 0.009847 0.061835 0.373769 0.340685 0.113824 0.085467 0.014573 0.025413 0.203420 0.441872 0.190832 0.076950 0.041919 0.019594 0.142858 0.142857 0.142857 0.142857 0.142857 0.142857 0.142857 0.040650 0.073171 0.105691 0.105691 0.203252 0.268293 0.203252 0.019001 0.201551 0.402258 0.239756 0.079262 0.048771 0.009401 0.023718 0.217029 0.398790 0.182226 0.085313 0.068858 0.024066 0.142858 0.142857 0.142857 0.142857 0.142857 0.142857 0.142857 0.142858 0.142857 0.142857 0.142857 0.142857 0.142857 0.142857 0.012820 0.090909 0.304196 0.236597 0.099068 0.167832 0.088578 0.019441 0.088092 0.394289 0.219320 0.121507 0.063791 0.093560 0.025597 0.138481 0.297944 0.222409 0.130088 0.122115 0.063366 0.023060 0.106918 0.421384 0.253669 0.044025 0.085954 0.064990 0.021271 0.086075 0.254237 0.240611 0.117979 0.175806 0.104021 0.020844 0.180696 0.371361 0.202674 0.085533 0.096182 0.042710 0.142858 0.142857 0.142857 0.142857 0.142857 0.142857 0.142857 0.052630 0.052632 0.263158 0.263158 0.052632 0.263158 0.052632 0.024572 0.125547 0.398182 0.268933 0.091215 0.064961 0.026590 0.030986 0.160563 0.374648 0.250704 0.135211 0.033803 0.014085 0.023255 0.186047 0.209302 0.255814 0.255814 0.046512 0.023256 0.017687 0.099969 0.278991 0.246693 0.132113 0.136266 0.088281 0.004988 0.052369 0.144638 0.254364 0.194514 0.221945 0.127182 0.015817 0.168177 0.439435 0.211903 0.070838 0.066186 0.027644 0.142858 0.142857 0.142857 0.142857 0.142857 0.142857 0.142857 0.037259 0.115385 0.259615 0.277644 0.115385 0.145433 0.049279 0.014992 0.063101 0.275453 0.250839 0.136496 0.164243 0.094876 0.029511 0.135857 0.417316 0.199610 0.101058 0.063753 0.052895 0.025984 0.138307 0.297569 0.222129 0.129925 0.122381 0.063705 0.021142 0.122289 0.361035 0.224348 0.104064 0.110443 0.056679 0.018881 0.087993 0.269111 0.257745 0.140055 0.152704 0.073511 0.019030 0.183695 0.455937 0.175971 0.071343 0.061934 0.032090 0.142858 0.142857 0.142857 0.142857 0.142857 0.142857 0.142857 0.045454 0.045455 0.272727 0.272727 0.045455 0.272727 0.045455 0.020935 0.114122 0.372742 0.277915 0.105501 0.082102 0.026683 0.017900 0.159905 0.432379 0.189737 0.088305 0.082737 0.029037 0.028362 0.102200 0.290465 0.252812 0.158924 0.116870 0.050367 0.022351 0.098839 0.282514 0.245560 0.138740 0.127083 0.084913 0.012403 0.070395 0.256890 0.279054 0.152044 0.145039 0.084175 0.020301 0.188400 0.436090 0.187218 0.077658 0.060258 0.030075 0.142858 0.142857 0.142857 0.142857 0.142857 0.142857 0.142857 0.037112 0.115346 0.259779 0.277834 0.115346 0.145436 0.049147 0.014570 0.058078 0.281609 0.259954 0.130326 0.162159 0.093304 0.032678 0.142662 0.426847 0.192417 0.093134 0.061710 0.050552 0.026223 0.136782 0.298370 0.221828 0.128278 0.124026 0.064493 0.019530 0.118294 0.348826 0.217676 0.108282 0.127194 0.060198 0.018147 0.090974 0.274903 0.255884 0.136540 0.150250 0.073302 0.019204 0.188415 0.466101 0.171253 0.066096 0.059770 0.029161 0.142858 0.142857 0.142857 0.142857 0.142857 0.142857 0.142857 0.019231 0.019231 0.307692 0.307692 0.019231 0.307692 0.019231 0.016306 0.093291 0.353916 0.286554 0.121358 0.094092 0.034483 0.018854 0.158307 0.436974 0.189731 0.087869 0.078620 0.029645 0.026738 0.122995 0.272727 0.254011 0.144385 0.104278 0.074866 0.021812 0.099022 0.287068 0.246394 0.134916 0.127254 0.083534 0.011662 0.061461 0.253504 0.282232 0.155255 0.150901 0.084985 0.020923 0.201657 0.433855 0.179507 0.074023 0.060364 0.029671 0.142858 0.142857 0.142857 0.142857 0.142857 0.142857 0.142857 0.142858 0.142857 0.142857 0.142857 0.142857 0.142857 0.142857 0.016631 0.039451 0.290079 0.322375 0.135757 0.133630 0.062077 0.043714 0.184966 0.353726 0.195312 0.075709 0.072599 0.073974 0.142858 0.142857 0.142857 0.142857 0.142857 0.142857 0.142857 0.125000 0.125000 0.250000 0.125000 0.125000 0.125000 0.125000 0.020083 0.134829 0.331039 0.244296 0.097586 0.127192 0.044975 0.018958 0.225235 0.515583 0.146022 0.042255 0.037085 0.014862 0.142858 0.142857 0.142857 0.142857 0.142857 0.142857 0.142857 0.045454 0.045455 0.272727 0.272727 0.045455 0.272727 0.045455 0.052632 0.052632 0.105263 0.105263 0.263158 0.210526 0.210526 0.011408 0.160162 0.395827 0.179376 0.109126 0.099370 0.044731 0.142858 0.142857 0.142857 0.142857 0.142857 0.142857 0.142857 0.024510 0.140535 0.326888 0.234758 0.113930 0.102722 0.056657 0.012299 0.058474 0.287401 0.258001 0.146673 0.157830 0.079322 0.023220 0.217447 0.475442 0.174282 0.056123 0.041339 0.012147 0.142858 0.142857 0.142857 0.142857 0.142857 0.142857 0.142857 0.142858 0.142857 0.142857 0.142857 0.142857 0.142857 0.142857 0.142858 0.142857 0.142857 0.142857 0.142857 0.142857 0.142857 0.142858 0.142857 0.142857 0.142857 0.142857 0.142857 0.142857 0.142858 0.142857 0.142857 0.142857 0.142857 0.142857 0.142857 0.142858 0.142857 0.142857 0.142857 0.142857 0.142857 0.142857 0.142858 0.142857 0.142857 0.142857 0.142857 0.142857 0.142857 0.142858 0.142857 0.142857 0.142857 0.142857 0.142857 0.142857 0.142858 0.142857 0.142857 0.142857 0.142857 0.142857 0.142857 0.142858 0.142857 0.142857 0.142857 0.142857 0.142857 0.142857 0.142858 0.142857 0.142857 0.142857 0.142857 0.142857 0.142857 0.142858 0.142857 0.142857 0.142857 0.142857 0.142857 0.142857 0.142858 0.142857 0.142857 0.142857 0.142857 0.142857 0.142857 0.034581 0.149856 0.337176 0.224784 0.113353 0.095101 0.045149 0.142858 0.142857 0.142857 0.142857 0.142857 0.142857 0.142857 0.142858 0.142857 0.142857 0.142857 0.142857 0.142857 0.142857 0.142858 0.142857 0.142857 0.142857 0.142857 0.142857 0.142857 0.142858 0.142857 0.142857 0.142857 0.142857 0.142857 0.142857 0.142858 0.142857 0.142857 0.142857 0.142857 0.142857 0.142857 0.142858 0.142857 0.142857 0.142857 0.142857 0.142857 0.142857 0.142858 0.142857 0.142857 0.142857 0.142857 0.142857 0.142857 0.142858 0.142857 0.142857 0.142857 0.142857 0.142857 0.142857 0.142858 0.142857 0.142857 0.142857 0.142857 0.142857 0.142857 0.142858 0.142857 0.142857 0.142857 0.142857 0.142857 0.142857 0.142858 0.142857 0.142857 0.142857 0.142857 0.142857 0.142857 0.142858 0.142857 0.142857 0.142857 0.142857 0.142857 0.142857 0.142858 0.142857 0.142857 0.142857 0.142857 0.142857 0.142857 0.142858 0.142857 0.142857 0.142857 0.142857 0.142857 0.142857 0.142858 0.142857 0.142857 0.142857 0.142857 0.142857 0.142857 0.026517 0.123744 0.322620 0.226195 0.122941 0.111290 0.066693 0.142858 0.142857 0.142857 0.142857 0.142857 0.142857 0.142857 0.142858 0.142857 0.142857 0.142857 0.142857 0.142857 0.142857 0.142858 0.142857 0.142857 0.142857 0.142857 0.142857 0.142857 0.142858 0.142857 0.142857 0.142857 0.142857 0.142857 0.142857 0.142858 0.142857 0.142857 0.142857 0.142857 0.142857 0.142857 0.142858 0.142857 0.142857 0.142857 0.142857 0.142857 0.142857 0.142858 0.142857 0.142857 0.142857 0.142857 0.142857 0.142857 0.142858 0.142857 0.142857 0.142857 0.142857 0.142857 0.142857 0.142858 0.142857 0.142857 0.142857 0.142857 0.142857 0.142857 0.142858 0.142857 0.142857 0.142857 0.142857 0.142857 0.142857 0.142858 0.142857 0.142857 0.142857 0.142857 0.142857 0.142857 0.142858 0.142857 0.142857 0.142857 0.142857 0.142857 0.142857 0.142858 0.142857 0.142857 0.142857 0.142857 0.142857 0.142857 0.142858 0.142857 0.142857 0.142857 0.142857 0.142857 0.142857 0.142858 0.142857 0.142857 0.142857 0.142857 0.142857 0.142857 0.027604 0.139473 0.331184 0.232068 0.117809 0.097450 0.054412 0.142858 0.142857 0.142857 0.142857 0.142857 0.142857 0.142857 0.142858 0.142857 0.142857 0.142857 0.142857 0.142857 0.142857 0.142858 0.142857 0.142857 0.142857 0.142857 0.142857 0.142857 0.142858 0.142857 0.142857 0.142857 0.142857 0.142857 0.142857 0.142858 0.142857 0.142857 0.142857 0.142857 0.142857 0.142857 0.142858 0.142857 0.142857 0.142857 0.142857 0.142857 0.142857 0.142858 0.142857 0.142857 0.142857 0.142857 0.142857 0.142857 0.142858 0.142857 0.142857 0.142857 0.142857 0.142857 0.142857 0.142858 0.142857 0.142857 0.142857 0.142857 0.142857 0.142857 0.142858 0.142857 0.142857 0.142857 0.142857 0.142857 0.142857 0.142858 0.142857 0.142857 0.142857 0.142857 0.142857 0.142857 0.142858 0.142857 0.142857 0.142857 0.142857 0.142857 0.142857 0.142858 0.142857 0.142857 0.142857 0.142857 0.142857 0.142857 0.142858 0.142857 0.142857 0.142857 0.142857 0.142857 0.142857 0.142858 0.142857 0.142857 0.142857 0.142857 0.142857 0.142857 0.034410 0.171437 0.356425 0.220767 0.098812 0.085110 0.033039 0.142858 0.142857 0.142857 0.142857 0.142857 0.142857 0.142857 0.142858 0.142857 0.142857 0.142857 0.142857 0.142857 0.142857 0.142858 0.142857 0.142857 0.142857 0.142857 0.142857 0.142857 0.142858 0.142857 0.142857 0.142857 0.142857 0.142857 0.142857 0.142858 0.142857 0.142857 0.142857 0.142857 0.142857 0.142857 0.142858 0.142857 0.142857 0.142857 0.142857 0.142857 0.142857 0.142858 0.142857 0.142857 0.142857 0.142857 0.142857 0.142857 0.142858 0.142857 0.142857 0.142857 0.142857 0.142857 0.142857 0.142858 0.142857 0.142857 0.142857 0.142857 0.142857 0.142857 0.142858 0.142857 0.142857 0.142857 0.142857 0.142857 0.142857 0.142858 0.142857 0.142857 0.142857 0.142857 0.142857 0.142857 0.142858 0.142857 0.142857 0.142857 0.142857 0.142857 0.142857 0.142858 0.142857 0.142857 0.142857 0.142857 0.142857 0.142857 0.142858 0.142857 0.142857 0.142857 0.142857 0.142857 0.142857 0.142858 0.142857 0.142857 0.142857 0.142857 0.142857 0.142857 0.142858 0.142857 0.142857 0.142857 0.142857 0.142857 0.142857 0.142858 0.142857 0.142857 0.142857 0.142857 0.142857 0.142857 0.142858 0.142857 0.142857 0.142857 0.142857 0.142857 0.142857 0.142858 0.142857 0.142857 0.142857 0.142857 0.142857 0.142857 0.142858 0.142857 0.142857 0.142857 0.142857 0.142857 0.142857 0.142858 0.142857 0.142857 0.142857 0.142857 0.142857 0.142857 0.142858 0.142857 0.142857 0.142857 0.142857 0.142857 0.142857 0.142858 0.142857 0.142857 0.142857 0.142857 0.142857 0.142857 0.142858 0.142857 0.142857 0.142857 0.142857 0.142857 0.142857 0.142858 0.142857 0.142857 0.142857 0.142857 0.142857 0.142857 0.142858 0.142857 0.142857 0.142857 0.142857 0.142857 0.142857 0.142858 0.142857 0.142857 0.142857 0.142857 0.142857 0.142857 0.142858 0.142857 0.142857 0.142857 0.142857 0.142857 0.142857 0.142858 0.142857 0.142857 0.142857 0.142857 0.142857 0.142857 0.142858 0.142857 0.142857 0.142857 0.142857 0.142857 0.142857 0.142858 0.142857 0.142857 0.142857 0.142857 0.142857 0.142857 0.142858 0.142857 0.142857 0.142857 0.142857 0.142857 0.142857 0.142858 0.142857 0.142857 0.142857 0.142857 0.142857 0.142857 0.142858 0.142857 0.142857 0.142857 0.142857 0.142857 0.142857 0.142858 0.142857 0.142857 0.142857 0.142857 0.142857 0.142857 0.142858 0.142857 0.142857 0.142857 0.142857 0.142857 0.142857 0.142858 0.142857 0.142857 0.142857 0.142857 0.142857 0.142857 0.142858 0.142857 0.142857 0.142857 0.142857 0.142857 0.142857 0.142858 0.142857 0.142857 0.142857 0.142857 0.142857 0.142857 0.142858 0.142857 0.142857 0.142857 0.142857 0.142857 0.142857 0.142858 0.142857 0.142857 0.142857 0.142857 0.142857 0.142857 0.142858 0.142857 0.142857 0.142857 0.142857 0.142857 0.142857 0.142858 0.142857 0.142857 0.142857 0.142857 0.142857 0.142857 0.142858 0.142857 0.142857 0.142857 0.142857 0.142857 0.142857 0.142858 0.142857 0.142857 0.142857 0.142857 0.142857 0.142857 0.142858 0.142857 0.142857 0.142857 0.142857 0.142857 0.142857 0.142858 0.142857 0.142857 0.142857 0.142857 0.142857 0.142857 0.142858 0.142857 0.142857 0.142857 0.142857 0.142857 0.142857 0.142858 0.142857 0.142857 0.142857 0.142857 0.142857 0.142857 0.142858 0.142857 0.142857 0.142857 0.142857 0.142857 0.142857 0.142858 0.142857 0.142857 0.142857 0.142857 0.142857 0.142857 0.142858 0.142857 0.142857 0.142857 0.142857 0.142857 0.142857 0.142858 0.142857 0.142857 0.142857 0.142857 0.142857 0.142857 0.142858 0.142857 0.142857 0.142857 0.142857 0.142857 0.142857 0.142858 0.142857 0.142857 0.142857 0.142857 0.142857 0.142857 0.142858 0.142857 0.142857 0.142857 0.142857 0.142857 0.142857 0.142858 0.142857 0.142857 0.142857 0.142857 0.142857 0.142857 0.142858 0.142857 0.142857 0.142857 0.142857 0.142857 0.142857 0.142858 0.142857 0.142857 0.142857 0.142857 0.142857 0.142857 0.142858 0.142857 0.142857 0.142857 0.142857 0.142857 0.142857 0.142858 0.142857 0.142857 0.142857 0.142857 0.142857 0.142857 0.142858 0.142857 0.142857 0.142857 0.142857 0.142857 0.142857 0.142858 0.142857 0.142857 0.142857 0.142857 0.142857 0.142857 0.142858 0.142857 0.142857 0.142857 0.142857 0.142857 0.142857 0.142858 0.142857 0.142857 0.142857 0.142857 0.142857 0.142857 0.142858 0.142857 0.142857 0.142857 0.142857 0.142857 0.142857 0.142858 0.142857 0.142857 0.142857 0.142857 0.142857 0.142857 0.142858 0.142857 0.142857 0.142857 0.142857 0.142857 0.142857 0.142858 0.142857 0.142857 0.142857 0.142857 0.142857 0.142857 0.142858 0.142857 0.142857 0.142857 0.142857 0.142857 0.142857 0.142858 0.142857 0.142857 0.142857 0.142857 0.142857 0.142857 0.142858 0.142857 0.142857 0.142857 0.142857 0.142857 0.142857 0.142858 0.142857 0.142857 0.142857 0.142857 0.142857 0.142857 0.142858 0.142857 0.142857 0.142857 0.142857 0.142857 0.142857 0.142858 0.142857 0.142857 0.142857 0.142857 0.142857 0.142857 0.142858 0.142857 0.142857 0.142857 0.142857 0.142857 0.142857 0.142858 0.142857 0.142857 0.142857 0.142857 0.142857 0.142857 0.142858 0.142857 0.142857 0.142857 0.142857 0.142857 0.142857 0.142858 0.142857 0.142857 0.142857 0.142857 0.142857 0.142857 0.142858 0.142857 0.142857 0.142857 0.142857 0.142857 0.142857 0.142858 0.142857 0.142857 0.142857 0.142857 0.142857 0.142857 0.142858 0.142857 0.142857 0.142857 0.142857 0.142857 0.142857 0.142858 0.142857 0.142857 0.142857 0.142857 0.142857 0.142857 0.142858 0.142857 0.142857 0.142857 0.142857 0.142857 0.142857 0.142858 0.142857 0.142857 0.142857 0.142857 0.142857 0.142857 0.142858 0.142857 0.142857 0.142857 0.142857 0.142857 0.142857 0.142858 0.142857 0.142857 0.142857 0.142857 0.142857 0.142857 0.142858 0.142857 0.142857 0.142857 0.142857 0.142857 0.142857 0.142858 0.142857 0.142857 0.142857 0.142857 0.142857 0.142857 0.142858 0.142857 0.142857 0.142857 0.142857 0.142857 0.142857 0.142858 0.142857 0.142857 0.142857 0.142857 0.142857 0.142857 0.142858 0.142857 0.142857 0.142857 0.142857 0.142857 0.142857 0.142858 0.142857 0.142857 0.142857 0.142857 0.142857 0.142857 0.142858 0.142857 0.142857 0.142857 0.142857 0.142857 0.142857 0.142858 0.142857 0.142857 0.142857 0.142857 0.142857 0.142857 0.142858 0.142857 0.142857 0.142857 0.142857 0.142857 0.142857 0.142858 0.142857 0.142857 0.142857 0.142857 0.142857 0.142857 0.034827 0.243781 0.442786 0.164179 0.054726 0.054726 0.004975 0.142858 0.142857 0.142857 0.142857 0.142857 0.142857 0.142857 0.142858 0.142857 0.142857 0.142857 0.142857 0.142857 0.142857 0.142858 0.142857 0.142857 0.142857 0.142857 0.142857 0.142857 0.142858 0.142857 0.142857 0.142857 0.142857 0.142857 0.142857 0.142858 0.142857 0.142857 0.142857 0.142857 0.142857 0.142857 0.142858 0.142857 0.142857 0.142857 0.142857 0.142857 0.142857 0.142858 0.142857 0.142857 0.142857 0.142857 0.142857 0.142857 0.142858 0.142857 0.142857 0.142857 0.142857 0.142857 0.142857 0.142858 0.142857 0.142857 0.142857 0.142857 0.142857 0.142857 0.142858 0.142857 0.142857 0.142857 0.142857 0.142857 0.142857 0.142858 0.142857 0.142857 0.142857 0.142857 0.142857 0.142857 0.142858 0.142857 0.142857 0.142857 0.142857 0.142857 0.142857 0.142858 0.142857 0.142857 0.142857 0.142857 0.142857 0.142857 0.142858 0.142857 0.142857 0.142857 0.142857 0.142857 0.142857 0.142858 0.142857 0.142857 0.142857 0.142857 0.142857 0.142857 0.032519 0.245935 0.449187 0.164634 0.052846 0.052846 0.002033 0.142858 0.142857 0.142857 0.142857 0.142857 0.142857 0.142857 0.142858 0.142857 0.142857 0.142857 0.142857 0.142857 0.142857 0.142858 0.142857 0.142857 0.142857 0.142857 0.142857 0.142857 0.142858 0.142857 0.142857 0.142857 0.142857 0.142857 0.142857 0.142858 0.142857 0.142857 0.142857 0.142857 0.142857 0.142857 0.142858 0.142857 0.142857 0.142857 0.142857 0.142857 0.142857 0.142858 0.142857 0.142857 0.142857 0.142857 0.142857 0.142857 0.142858 0.142857 0.142857 0.142857 0.142857 0.142857 0.142857 0.142858 0.142857 0.142857 0.142857 0.142857 0.142857 0.142857 0.142858 0.142857 0.142857 0.142857 0.142857 0.142857 0.142857 0.142858 0.142857 0.142857 0.142857 0.142857 0.142857 0.142857 0.142858 0.142857 0.142857 0.142857 0.142857 0.142857 0.142857 0.142858 0.142857 0.142857 0.142857 0.142857 0.142857 0.142857 0.142858 0.142857 0.142857 0.142857 0.142857 0.142857 0.142857 0.142858 0.142857 0.142857 0.142857 0.142857 0.142857 0.142857 0.034827 0.243781 0.442786 0.164179 0.054726 0.054726 0.004975 0.142858 0.142857 0.142857 0.142857 0.142857 0.142857 0.142857 0.142858 0.142857 0.142857 0.142857 0.142857 0.142857 0.142857 0.142858 0.142857 0.142857 0.142857 0.142857 0.142857 0.142857 0.142858 0.142857 0.142857 0.142857 0.142857 0.142857 0.142857 0.142858 0.142857 0.142857 0.142857 0.142857 0.142857 0.142857 0.142858 0.142857 0.142857 0.142857 0.142857 0.142857 0.142857 0.142858 0.142857 0.142857 0.142857 0.142857 0.142857 0.142857 0.007300 0.138686 0.562044 0.226277 0.036496 0.021898 0.007299 0.142858 0.142857 0.142857 0.142857 0.142857 0.142857 0.142857 0.142858 0.142857 0.142857 0.142857 0.142857 0.142857 0.142857 0.142858 0.142857 0.142857 0.142857 0.142857 0.142857 0.142857 0.142858 0.142857 0.142857 0.142857 0.142857 0.142857 0.142857 0.142858 0.142857 0.142857 0.142857 0.142857 0.142857 0.142857 0.142858 0.142857 0.142857 0.142857 0.142857 0.142857 0.142857 0.001789 0.001789 0.495528 0.323792 0.109123 0.044723 0.023256 0.037444 0.297357 0.325991 0.277533 0.026432 0.026432 0.008811 0.142858 0.142857 0.142857 0.142857 0.142857 0.142857 0.142857 0.142858 0.142857 0.142857 0.142857 0.142857 0.142857 0.142857 0.142858 0.142857 0.142857 0.142857 0.142857 0.142857 0.142857 0.142858 0.142857 0.142857 0.142857 0.142857 0.142857 0.142857 0.142858 0.142857 0.142857 0.142857 0.142857 0.142857 0.142857 0.142858 0.142857 0.142857 0.142857 0.142857 0.142857 0.142857 0.142858 0.142857 0.142857 0.142857 0.142857 0.142857 0.142857 0.010869 0.152174 0.510870 0.195652 0.076087 0.032609 0.021739 0.142858 0.142857 0.142857 0.142857 0.142857 0.142857 0.142857 0.142858 0.142857 0.142857 0.142857 0.142857 0.142857 0.142857 0.142858 0.142857 0.142857 0.142857 0.142857 0.142857 0.142857 0.023809 0.125000 0.422619 0.166667 0.166667 0.083333 0.011905 0.142858 0.142857 0.142857 0.142857 0.142857 0.142857 0.142857 0.142858 0.142857 0.142857 0.142857 0.142857 0.142857 0.142857 0.012500 0.112500 0.550000 0.237500 0.025000 0.037500 0.025000 0.022287 0.214581 0.414836 0.184336 0.081184 0.061445 0.021331 0.142858 0.142857 0.142857 0.142857 0.142857 0.142857 0.142857 0.142858 0.142857 0.142857 0.142857 0.142857 0.142857 0.142857 0.142858 0.142857 0.142857 0.142857 0.142857 0.142857 0.142857 0.142858 0.142857 0.142857 0.142857 0.142857 0.142857 0.142857 0.142858 0.142857 0.142857 0.142857 0.142857 0.142857 0.142857 0.142858 0.142857 0.142857 0.142857 0.142857 0.142857 0.142857 0.142858 0.142857 0.142857 0.142857 0.142857 0.142857 0.142857 0.028068 0.194517 0.495431 0.201697 0.055483 0.012402 0.012402 0.142858 0.142857 0.142857 0.142857 0.142857 0.142857 0.142857 0.066667 0.133333 0.066667 0.200000 0.200000 0.200000 0.133333 0.142858 0.142857 0.142857 0.142857 0.142857 0.142857 0.142857 0.010139 0.129278 0.448669 0.215463 0.125475 0.046895 0.024081 0.142858 0.142857 0.142857 0.142857 0.142857 0.142857 0.142857 0.020913 0.106464 0.296578 0.222433 0.123574 0.123574 0.106464 0.001679 0.043661 0.504618 0.287573 0.068430 0.085223 0.008816 0.027465 0.210515 0.426110 0.181945 0.075989 0.052426 0.025550 0.142858 0.142857 0.142857 0.142857 0.142857 0.142857 0.142857 0.142858 0.142857 0.142857 0.142857 0.142857 0.142857 0.142857 0.142858 0.142857 0.142857 0.142857 0.142857 0.142857 0.142857 0.014708 0.088235 0.448529 0.191176 0.102941 0.088235 0.066176 0.142858 0.142857 0.142857 0.142857 0.142857 0.142857 0.142857 0.142858 0.142857 0.142857 0.142857 0.142857 0.142857 0.142857 0.012048 0.124498 0.397590 0.228916 0.092369 0.100402 0.044177 0.018804 0.184656 0.500188 0.192554 0.071455 0.017676 0.014667 0.142858 0.142857 0.142857 0.142857 0.142857 0.142857 0.142857 0.142858 0.142857 0.142857 0.142857 0.142857 0.142857 0.142857 0.142858 0.142857 0.142857 0.142857 0.142857 0.142857 0.142857 0.018092 0.129934 0.423520 0.185855 0.156250 0.070724 0.015625 0.142858 0.142857 0.142857 0.142857 0.142857 0.142857 0.142857 0.142858 0.142857 0.142857 0.142857 0.142857 0.142857 0.142857 0.003654 0.063550 0.495982 0.275383 0.066472 0.073776 0.021183 0.026887 0.232536 0.420191 0.168255 0.073598 0.057219 0.021314 0.142858 0.142857 0.142857 0.142857 0.142857 0.142857 0.142857 0.142858 0.142857 0.142857 0.142857 0.142857 0.142857 0.142857 0.008372 0.090586 0.336717 0.275311 0.123573 0.109871 0.055570 0.007224 0.167369 0.460566 0.205298 0.080674 0.059603 0.019266 0.142858 0.142857 0.142857 0.142857 0.142857 0.142857 0.142857 0.142858 0.142857 0.142857 0.142857 0.142857 0.142857 0.142857 0.013593 0.097087 0.355340 0.273786 0.108738 0.099029 0.052427 0.025326 0.219971 0.439942 0.164978 0.061505 0.051375 0.036903 0.142858 0.142857 0.142857 0.142857 0.142857 0.142857 0.142857 0.055556 0.555556 0.111111 0.083333 0.083333 0.083333 0.027778 0.003449 0.017241 0.279310 0.313793 0.089655 0.200000 0.096552 0.020833 0.137821 0.419872 0.208333 0.105769 0.065705 0.041667 0.142858 0.142857 0.142857 0.142857 0.142857 0.142857 0.142857 0.015750 0.236220 0.062992 0.196850 0.094488 0.204724 0.188976 0.032881 0.158091 0.435441 0.222349 0.079586 0.054160 0.017492 0.047115 0.248183 0.408267 0.170505 0.061476 0.044487 0.019967 0.142858 0.142857 0.142857 0.142857 0.142857 0.142857 0.142857 0.142858 0.142857 0.142857 0.142857 0.142857 0.142857 0.142857 0.008752 0.092283 0.331742 0.264916 0.120127 0.122514 0.059666 0.016463 0.156087 0.428368 0.195662 0.086592 0.077252 0.039576 0.142858 0.142857 0.142857 0.142857 0.142857 0.142857 0.142857 0.142858 0.142857 0.142857 0.142857 0.142857 0.142857 0.142857 0.012658 0.128816 0.394639 0.224125 0.093820 0.097543 0.048399 0.021429 0.161429 0.434490 0.190408 0.083741 0.068503 0.040000 0.142858 0.142857 0.142857 0.142857 0.142857 0.142857 0.142857 0.012699 0.111111 0.269841 0.234921 0.079365 0.212698 0.079365 0.023860 0.164025 0.381445 0.228767 0.096446 0.071417 0.034040 0.018262 0.155588 0.421749 0.193298 0.087564 0.079985 0.043554 0.142858 0.142857 0.142857 0.142857 0.142857 0.142857 0.142857 0.025605 0.107634 0.273589 0.247353 0.130235 0.121385 0.094199 0.019786 0.107619 0.384412 0.260820 0.102535 0.088314 0.036514 0.026117 0.207376 0.428123 0.177297 0.073829 0.058553 0.028705 0.142858 0.142857 0.142857 0.142857 0.142857 0.142857 0.142857 0.142858 0.142857 0.142857 0.142857 0.142857 0.142857 0.142857 0.009497 0.089116 0.314341 0.251278 0.120769 0.138544 0.076455 0.016888 0.167217 0.447595 0.188326 0.084618 0.065529 0.029827 0.142858 0.142857 0.142857 0.142857 0.142857 0.142857 0.142857 0.142858 0.142857 0.142857 0.142857 0.142857 0.142857 0.142857 0.010171 0.080657 0.328694 0.269629 0.119201 0.125981 0.065667 0.021626 0.174461 0.435716 0.179953 0.082992 0.064535 0.040717 0.142858 0.142857 0.142857 0.142857 0.142857 0.142857 0.142857 0.015296 0.086042 0.206501 0.212237 0.137667 0.233270 0.108987 0.009928 0.056426 0.311912 0.286834 0.140021 0.123824 0.071055 0.016368 0.152688 0.415953 0.191152 0.098921 0.079816 0.045102 0.142858 0.142857 0.142857 0.142857 0.142857 0.142857 0.142857 0.031031 0.116116 0.237905 0.224892 0.127794 0.141808 0.120454 0.017888 0.102013 0.383420 0.267026 0.104692 0.088201 0.036760 0.025608 0.209902 0.430730 0.173832 0.074937 0.057468 0.027523 0.142858 0.142857 0.142857 0.142857 0.142857 0.142857 0.142857 0.142858 0.142857 0.142857 0.142857 0.142857 0.142857 0.142857 0.006757 0.101351 0.283784 0.094595 0.108108 0.385135 0.020270 0.014140 0.186242 0.451664 0.181178 0.071748 0.067736 0.027292 0.142858 0.142857 0.142857 0.142857 0.142857 0.142857 0.142857 0.022726 0.097403 0.318182 0.250000 0.123377 0.129870 0.058442 0.010214 0.089951 0.363756 0.264580 0.108402 0.110049 0.053048 0.015910 0.179958 0.435142 0.179179 0.085656 0.056451 0.047704 0.142858 0.142857 0.142857 0.142857 0.142857 0.142857 0.142857 0.012048 0.108434 0.180723 0.325301 0.012048 0.301205 0.060241 0.011763 0.094118 0.352941 0.211765 0.108824 0.158824 0.061765 0.015725 0.127968 0.404179 0.203848 0.114209 0.081363 0.052708 0.142858 0.142857 0.142857 0.142857 0.142857 0.142857 0.142857 0.011726 0.058068 0.228922 0.264098 0.154662 0.141820 0.140704 0.011820 0.079536 0.391373 0.280079 0.115838 0.085496 0.035858 0.026083 0.209485 0.426555 0.178258 0.075180 0.056101 0.028338 0.142858 0.142857 0.142857 0.142857 0.142857 0.142857 0.142857 0.142858 0.142857 0.142857 0.142857 0.142857 0.142857 0.142857 0.008548 0.091575 0.334554 0.266178 0.125763 0.125763 0.047619 0.009130 0.131249 0.445446 0.224720 0.099977 0.062315 0.027163 0.142858 0.142857 0.142857 0.142857 0.142857 0.142857 0.142857 0.020340 0.096500 0.321665 0.252129 0.122990 0.129612 0.056764 0.020204 0.093766 0.347263 0.265930 0.111552 0.113452 0.047833 0.027422 0.217720 0.410262 0.173625 0.061958 0.060223 0.048790 0.142858 0.142857 0.142857 0.142857 0.142857 0.142857 0.142857 0.111112 0.333333 0.111111 0.111111 0.111111 0.111111 0.111111 0.012281 0.091403 0.285546 0.278932 0.086207 0.167218 0.078413 0.017302 0.166163 0.384510 0.214502 0.117001 0.062620 0.037902 0.142858 0.142857 0.142857 0.142857 0.142857 0.142857 0.142857 0.030969 0.152420 0.321245 0.238046 0.105120 0.087024 0.065176 0.019098 0.088491 0.318668 0.273773 0.122488 0.116488 0.060994 0.017717 0.158001 0.431506 0.210596 0.077802 0.069029 0.035349 0.142858 0.142857 0.142857 0.142857 0.142857 0.142857 0.142857 0.142858 0.142857 0.142857 0.142857 0.142857 0.142857 0.142857 0.012905 0.077432 0.302172 0.240478 0.124646 0.158325 0.084042 0.015319 0.138865 0.425924 0.201137 0.086617 0.082581 0.049557 0.142858 0.142857 0.142857 0.142857 0.142857 0.142857 0.142857 0.020502 0.096561 0.321429 0.251984 0.123016 0.129630 0.056878 0.014624 0.063109 0.305138 0.280369 0.134124 0.129513 0.073123 0.016616 0.142567 0.406168 0.196342 0.093433 0.083958 0.060916 0.142858 0.142857 0.142857 0.142857 0.142857 0.142857 0.142857 0.011572 0.071798 0.272360 0.267416 0.147978 0.144494 0.084382 0.019534 0.127589 0.364914 0.242675 0.109114 0.092068 0.044106 0.017834 0.157267 0.429204 0.193673 0.083887 0.074175 0.043960 0.142858 0.142857 0.142857 0.142857 0.142857 0.142857 0.142857 0.023559 0.103750 0.299932 0.246802 0.125802 0.115473 0.084682 0.022868 0.108589 0.329000 0.249516 0.112932 0.112121 0.064974 0.021771 0.177973 0.434486 0.189589 0.079071 0.065481 0.031629 0.142858 0.142857 0.142857 0.142857 0.142857 0.142857 0.142857 0.142858 0.142857 0.142857 0.142857 0.142857 0.142857 0.142857 0.012338 0.075879 0.313387 0.237816 0.127236 0.155768 0.077576 0.015123 0.139214 0.426183 0.200497 0.086404 0.082593 0.049986 0.142858 0.142857 0.142857 0.142857 0.142857 0.142857 0.142857 0.020152 0.096429 0.321939 0.252296 0.122959 0.129592 0.056633 0.014777 0.053195 0.298595 0.286606 0.138787 0.133489 0.074551 0.016634 0.136840 0.404149 0.200871 0.096026 0.085456 0.060024 0.142858 0.142857 0.142857 0.142857 0.142857 0.142857 0.142857 0.013102 0.070773 0.278947 0.252632 0.149496 0.155207 0.079843 0.021833 0.146090 0.378027 0.232721 0.101274 0.081343 0.038712 0.019071 0.156963 0.429965 0.192879 0.081294 0.075994 0.043834 0.142858 0.142857 0.142857 0.142857 0.142857 0.142857 0.142857 0.022760 0.103889 0.298195 0.244958 0.126289 0.116730 0.087179 0.021643 0.104830 0.336237 0.255539 0.110793 0.110690 0.060268 0.021186 0.177605 0.431219 0.193228 0.077492 0.067116 0.032154 0.142858 0.142857 0.142857 0.142857 0.142857 0.142857 0.142857 0.142858 0.142857 0.142857 0.142857 0.142857 0.142857 0.142857 0.012541 0.051698 0.288467 0.259101 0.131845 0.156929 0.099419 0.016909 0.158343 0.422898 0.194914 0.081567 0.078675 0.046694 0.142858 0.142857 0.142857 0.142857 0.142857 0.142857 0.142857 0.020644 0.096614 0.321222 0.251858 0.123039 0.129645 0.056978 0.014535 0.034395 0.283516 0.301246 0.160047 0.131136 0.075125 0.016861 0.135102 0.404138 0.201927 0.095843 0.089715 0.056414 0.142858 0.142857 0.142857 0.142857 0.142857 0.142857 0.142857 0.142858 0.142857 0.142857 0.142857 0.142857 0.142857 0.142857 0.018787 0.138291 0.369010 0.245047 0.105328 0.080229 0.043308 0.020033 0.153032 0.413571 0.196774 0.087828 0.082271 0.046491 0.142858 0.142857 0.142857 0.142857 0.142857 0.142857 0.142857 0.018239 0.076653 0.240557 0.258673 0.144987 0.136299 0.124592 0.010594 0.063793 0.355529 0.299920 0.114836 0.105182 0.050146 0.018790 0.167018 0.419077 0.203929 0.083235 0.073887 0.034064 0.142858 0.142857 0.142857 0.142857 0.142857 0.142857 0.142857 0.142858 0.142857 0.142857 0.142857 0.142857 0.142857 0.142857 0.142858 0.142857 0.142857 0.142857 0.142857 0.142857 0.142857 0.142858 0.142857 0.142857 0.142857 0.142857 0.142857 0.142857 0.142858 0.142857 0.142857 0.142857 0.142857 0.142857 0.142857 0.142858 0.142857 0.142857 0.142857 0.142857 0.142857 0.142857 0.142858 0.142857 0.142857 0.142857 0.142857 0.142857 0.142857 0.142858 0.142857 0.142857 0.142857 0.142857 0.142857 0.142857 0.142858 0.142857 0.142857 0.142857 0.142857 0.142857 0.142857 0.142858 0.142857 0.142857 0.142857 0.142857 0.142857 0.142857 0.142858 0.142857 0.142857 0.142857 0.142857 0.142857 0.142857 0.142858 0.142857 0.142857 0.142857 0.142857 0.142857 0.142857 0.142858 0.142857 0.142857 0.142857 0.142857 0.142857 0.142857 0.142858 0.142857 0.142857 0.142857 0.142857 0.142857 0.142857 0.033069 0.158268 0.355906 0.222047 0.099213 0.075591 0.055906 0.142858 0.142857 0.142857 0.142857 0.142857 0.142857 0.142857 0.142858 0.142857 0.142857 0.142857 0.142857 0.142857 0.142857 0.142858 0.142857 0.142857 0.142857 0.142857 0.142857 0.142857 0.142858 0.142857 0.142857 0.142857 0.142857 0.142857 0.142857 0.142858 0.142857 0.142857 0.142857 0.142857 0.142857 0.142857 0.142858 0.142857 0.142857 0.142857 0.142857 0.142857 0.142857 0.142858 0.142857 0.142857 0.142857 0.142857 0.142857 0.142857 0.142858 0.142857 0.142857 0.142857 0.142857 0.142857 0.142857 0.142858 0.142857 0.142857 0.142857 0.142857 0.142857 0.142857 0.142858 0.142857 0.142857 0.142857 0.142857 0.142857 0.142857 0.142858 0.142857 0.142857 0.142857 0.142857 0.142857 0.142857 0.142858 0.142857 0.142857 0.142857 0.142857 0.142857 0.142857 0.142858 0.142857 0.142857 0.142857 0.142857 0.142857 0.142857 0.142858 0.142857 0.142857 0.142857 0.142857 0.142857 0.142857 0.021759 0.112583 0.350993 0.251656 0.103122 0.088931 0.070956 0.142858 0.142857 0.142857 0.142857 0.142857 0.142857 0.142857 0.142858 0.142857 0.142857 0.142857 0.142857 0.142857 0.142857 0.142858 0.142857 0.142857 0.142857 0.142857 0.142857 0.142857 0.142858 0.142857 0.142857 0.142857 0.142857 0.142857 0.142857 0.142858 0.142857 0.142857 0.142857 0.142857 0.142857 0.142857 0.142858 0.142857 0.142857 0.142857 0.142857 0.142857 0.142857 0.142858 0.142857 0.142857 0.142857 0.142857 0.142857 0.142857 0.142858 0.142857 0.142857 0.142857 0.142857 0.142857 0.142857 0.142858 0.142857 0.142857 0.142857 0.142857 0.142857 0.142857 0.142858 0.142857 0.142857 0.142857 0.142857 0.142857 0.142857 0.142858 0.142857 0.142857 0.142857 0.142857 0.142857 0.142857 0.142858 0.142857 0.142857 0.142857 0.142857 0.142857 0.142857 0.142858 0.142857 0.142857 0.142857 0.142857 0.142857 0.142857 0.142858 0.142857 0.142857 0.142857 0.142857 0.142857 0.142857 0.142858 0.142857 0.142857 0.142857 0.142857 0.142857 0.142857 0.021114 0.112422 0.352102 0.252235 0.102910 0.088644 0.070573 0.032768 0.158310 0.356494 0.222266 0.099092 0.075405 0.055665 0.142858 0.142857 0.142857 0.142857 0.142857 0.142857 0.142857 0.142858 0.142857 0.142857 0.142857 0.142857 0.142857 0.142857 0.142858 0.142857 0.142857 0.142857 0.142857 0.142857 0.142857 0.142858 0.142857 0.142857 0.142857 0.142857 0.142857 0.142857 0.142858 0.142857 0.142857 0.142857 0.142857 0.142857 0.142857 0.142858 0.142857 0.142857 0.142857 0.142857 0.142857 0.142857 0.142858 0.142857 0.142857 0.142857 0.142857 0.142857 0.142857 0.142858 0.142857 0.142857 0.142857 0.142857 0.142857 0.142857 0.142858 0.142857 0.142857 0.142857 0.142857 0.142857 0.142857 0.142858 0.142857 0.142857 0.142857 0.142857 0.142857 0.142857 0.142858 0.142857 0.142857 0.142857 0.142857 0.142857 0.142857 0.142858 0.142857 0.142857 0.142857 0.142857 0.142857 0.142857 0.142858 0.142857 0.142857 0.142857 0.142857 0.142857 0.142857 0.142858 0.142857 0.142857 0.142857 0.142857 0.142857 0.142857 0.142858 0.142857 0.142857 0.142857 0.142857 0.142857 0.142857 0.142858 0.142857 0.142857 0.142857 0.142857 0.142857 0.142857 0.142858 0.142857 0.142857 0.142857 0.142857 0.142857 0.142857 0.142858 0.142857 0.142857 0.142857 0.142857 0.142857 0.142857 0.142858 0.142857 0.142857 0.142857 0.142857 0.142857 0.142857 0.142858 0.142857 0.142857 0.142857 0.142857 0.142857 0.142857 0.142858 0.142857 0.142857 0.142857 0.142857 0.142857 0.142857 0.142858 0.142857 0.142857 0.142857 0.142857 0.142857 0.142857 0.142858 0.142857 0.142857 0.142857 0.142857 0.142857 0.142857 0.142858 0.142857 0.142857 0.142857 0.142857 0.142857 0.142857 0.142858 0.142857 0.142857 0.142857 0.142857 0.142857 0.142857 0.142858 0.142857 0.142857 0.142857 0.142857 0.142857 0.142857 0.142858 0.142857 0.142857 0.142857 0.142857 0.142857 0.142857 0.142858 0.142857 0.142857 0.142857 0.142857 0.142857 0.142857 0.142858 0.142857 0.142857 0.142857 0.142857 0.142857 0.142857 0.142858 0.142857 0.142857 0.142857 0.142857 0.142857 0.142857 0.142858 0.142857 0.142857 0.142857 0.142857 0.142857 0.142857 0.142858 0.142857 0.142857 0.142857 0.142857 0.142857 0.142857 0.142858 0.142857 0.142857 0.142857 0.142857 0.142857 0.142857 0.142858 0.142857 0.142857 0.142857 0.142857 0.142857 0.142857 0.142858 0.142857 0.142857 0.142857 0.142857 0.142857 0.142857 0.142858 0.142857 0.142857 0.142857 0.142857 0.142857 0.142857 0.142858 0.142857 0.142857 0.142857 0.142857 0.142857 0.142857 0.142858 0.142857 0.142857 0.142857 0.142857 0.142857 0.142857 0.142858 0.142857 0.142857 0.142857 0.142857 0.142857 0.142857 0.142858 0.142857 0.142857 0.142857 0.142857 0.142857 0.142857 0.142858 0.142857 0.142857 0.142857 0.142857 0.142857 0.142857 0.142858 0.142857 0.142857 0.142857 0.142857 0.142857 0.142857 0.142858 0.142857 0.142857 0.142857 0.142857 0.142857 0.142857 0.142858 0.142857 0.142857 0.142857 0.142857 0.142857 0.142857 0.142858 0.142857 0.142857 0.142857 0.142857 0.142857 0.142857 0.142858 0.142857 0.142857 0.142857 0.142857 0.142857 0.142857 0.142858 0.142857 0.142857 0.142857 0.142857 0.142857 0.142857 0.142858 0.142857 0.142857 0.142857 0.142857 0.142857 0.142857 0.142858 0.142857 0.142857 0.142857 0.142857 0.142857 0.142857 0.142858 0.142857 0.142857 0.142857 0.142857 0.142857 0.142857 0.142858 0.142857 0.142857 0.142857 0.142857 0.142857 0.142857 0.142858 0.142857 0.142857 0.142857 0.142857 0.142857 0.142857 0.142858 0.142857 0.142857 0.142857 0.142857 0.142857 0.142857 0.142858 0.142857 0.142857 0.142857 0.142857 0.142857 0.142857 0.142858 0.142857 0.142857 0.142857 0.142857 0.142857 0.142857 0.142858 0.142857 0.142857 0.142857 0.142857 0.142857 0.142857 0.142858 0.142857 0.142857 0.142857 0.142857 0.142857 0.142857 0.142858 0.142857 0.142857 0.142857 0.142857 0.142857 0.142857 0.142858 0.142857 0.142857 0.142857 0.142857 0.142857 0.142857 0.142858 0.142857 0.142857 0.142857 0.142857 0.142857 0.142857 0.142858 0.142857 0.142857 0.142857 0.142857 0.142857 0.142857 0.142858 0.142857 0.142857 0.142857 0.142857 0.142857 0.142857 0.142858 0.142857 0.142857 0.142857 0.142857 0.142857 0.142857 0.142858 0.142857 0.142857 0.142857 0.142857 0.142857 0.142857 0.142858 0.142857 0.142857 0.142857 0.142857 0.142857 0.142857 0.142858 0.142857 0.142857 0.142857 0.142857 0.142857 0.142857 0.142858 0.142857 0.142857 0.142857 0.142857 0.142857 0.142857 0.142858 0.142857 0.142857 0.142857 0.142857 0.142857 0.142857 0.142858 0.142857 0.142857 0.142857 0.142857 0.142857 0.142857 0.142858 0.142857 0.142857 0.142857 0.142857 0.142857 0.142857 0.142858 0.142857 0.142857 0.142857 0.142857 0.142857 0.142857 0.142858 0.142857 0.142857 0.142857 0.142857 0.142857 0.142857 0.142858 0.142857 0.142857 0.142857 0.142857 0.142857 0.142857 0.142858 0.142857 0.142857 0.142857 0.142857 0.142857 0.142857 0.142858 0.142857 0.142857 0.142857 0.142857 0.142857 0.142857 0.142858 0.142857 0.142857 0.142857 0.142857 0.142857 0.142857 0.142858 0.142857 0.142857 0.142857 0.142857 0.142857 0.142857 0.142858 0.142857 0.142857 0.142857 0.142857 0.142857 0.142857 0.142858 0.142857 0.142857 0.142857 0.142857 0.142857 0.142857 0.142858 0.142857 0.142857 0.142857 0.142857 0.142857 0.142857 0.142858 0.142857 0.142857 0.142857 0.142857 0.142857 0.142857 0.142858 0.142857 0.142857 0.142857 0.142857 0.142857 0.142857 0.142858 0.142857 0.142857 0.142857 0.142857 0.142857 0.142857 0.142858 0.142857 0.142857 0.142857 0.142857 0.142857 0.142857 0.142858 0.142857 0.142857 0.142857 0.142857 0.142857 0.142857 0.142858 0.142857 0.142857 0.142857 0.142857 0.142857 0.142857 0.142858 0.142857 0.142857 0.142857 0.142857 0.142857 0.142857 0.142858 0.142857 0.142857 0.142857 0.142857 0.142857 0.142857 0.042553 0.148936 0.361702 0.319149 0.042553 0.063830 0.021277 0.142858 0.142857 0.142857 0.142857 0.142857 0.142857 0.142857 0.142858 0.142857 0.142857 0.142857 0.142857 0.142857 0.142857 0.142858 0.142857 0.142857 0.142857 0.142857 0.142857 0.142857 0.142858 0.142857 0.142857 0.142857 0.142857 0.142857 0.142857 0.142858 0.142857 0.142857 0.142857 0.142857 0.142857 0.142857 0.142858 0.142857 0.142857 0.142857 0.142857 0.142857 0.142857 0.142858 0.142857 0.142857 0.142857 0.142857 0.142857 0.142857 0.142858 0.142857 0.142857 0.142857 0.142857 0.142857 0.142857 0.142858 0.142857 0.142857 0.142857 0.142857 0.142857 0.142857 0.142858 0.142857 0.142857 0.142857 0.142857 0.142857 0.142857 0.142858 0.142857 0.142857 0.142857 0.142857 0.142857 0.142857 0.142858 0.142857 0.142857 0.142857 0.142857 0.142857 0.142857 0.142858 0.142857 0.142857 0.142857 0.142857 0.142857 0.142857 0.142858 0.142857 0.142857 0.142857 0.142857 0.142857 0.142857 0.142858 0.142857 0.142857 0.142857 0.142857 0.142857 0.142857 0.034484 0.149425 0.379310 0.333333 0.034483 0.057471 0.011494 0.142858 0.142857 0.142857 0.142857 0.142857 0.142857 0.142857 0.142858 0.142857 0.142857 0.142857 0.142857 0.142857 0.142857 0.142858 0.142857 0.142857 0.142857 0.142857 0.142857 0.142857 0.142858 0.142857 0.142857 0.142857 0.142857 0.142857 0.142857 0.142858 0.142857 0.142857 0.142857 0.142857 0.142857 0.142857 0.142858 0.142857 0.142857 0.142857 0.142857 0.142857 0.142857 0.142858 0.142857 0.142857 0.142857 0.142857 0.142857 0.142857 0.051283 0.256410 0.333333 0.205128 0.076923 0.025641 0.051282 0.142858 0.142857 0.142857 0.142857 0.142857 0.142857 0.142857 0.142858 0.142857 0.142857 0.142857 0.142857 0.142857 0.142857 0.142858 0.142857 0.142857 0.142857 0.142857 0.142857 0.142857 0.142858 0.142857 0.142857 0.142857 0.142857 0.142857 0.142857 0.142858 0.142857 0.142857 0.142857 0.142857 0.142857 0.142857 0.142858 0.142857 0.142857 0.142857 0.142857 0.142857 0.142857 0.142858 0.142857 0.142857 0.142857 0.142857 0.142857 0.142857 0.027248 0.149864 0.395095 0.346049 0.027248 0.051771 0.002725 0.142858 0.142857 0.142857 0.142857 0.142857 0.142857 0.142857 0.142858 0.142857 0.142857 0.142857 0.142857 0.142857 0.142857 0.142858 0.142857 0.142857 0.142857 0.142857 0.142857 0.142857 0.142858 0.142857 0.142857 0.142857 0.142857 0.142857 0.142857 0.142858 0.142857 0.142857 0.142857 0.142857 0.142857 0.142857 0.142858 0.142857 0.142857 0.142857 0.142857 0.142857 0.142857 0.142858 0.142857 0.142857 0.142857 0.142857 0.142857 0.142857 0.038835 0.271845 0.359223 0.213592 0.067961 0.009709 0.038835 0.142858 0.142857 0.142857 0.142857 0.142857 0.142857 0.142857 0.142858 0.142857 0.142857 0.142857 0.142857 0.142857 0.142857 0.142858 0.142857 0.142857 0.142857 0.142857 0.142857 0.142857 0.142858 0.142857 0.142857 0.142857 0.142857 0.142857 0.142857 0.142858 0.142857 0.142857 0.142857 0.142857 0.142857 0.142857 0.142858 0.142857 0.142857 0.142857 0.142857 0.142857 0.142857 0.142858 0.142857 0.142857 0.142857 0.142857 0.142857 0.142857 0.026201 0.149927 0.397380 0.347889 0.026201 0.050946 0.001456 0.142858 0.142857 0.142857 0.142857 0.142857 0.142857 0.142857 0.142858 0.142857 0.142857 0.142857 0.142857 0.142857 0.142857 0.142858 0.142857 0.142857 0.142857 0.142857 0.142857 0.142857 0.142858 0.142857 0.142857 0.142857 0.142857 0.142857 0.142857 0.142858 0.142857 0.142857 0.142857 0.142857 0.142857 0.142857 0.142858 0.142857 0.142857 0.142857 0.142857 0.142857 0.142857 0.142858 0.142857 0.142857 0.142857 0.142857 0.142857 0.142857 0.035929 0.275449 0.365269 0.215569 0.065868 0.005988 0.035928 0.142858 0.142857 0.142857 0.142857 0.142857 0.142857 0.142857 0.142858 0.142857 0.142857 0.142857 0.142857 0.142857 0.142857 0.142858 0.142857 0.142857 0.142857 0.142857 0.142857 0.142857 0.142858 0.142857 0.142857 0.142857 0.142857 0.142857 0.142857 0.142858 0.142857 0.142857 0.142857 0.142857 0.142857 0.142857 0.142858 0.142857 0.142857 0.142857 0.142857 0.142857 0.142857 0.142858 0.142857 0.142857 0.142857 0.142857 0.142857 0.142857 0.142858 0.142857 0.142857 0.142857 0.142857 0.142857 0.142857 0.142858 0.142857 0.142857 0.142857 0.142857 0.142857 0.142857 0.142858 0.142857 0.142857 0.142857 0.142857 0.142857 0.142857 0.142858 0.142857 0.142857 0.142857 0.142857 0.142857 0.142857 0.033898 0.222760 0.430993 0.164649 0.070218 0.048426 0.029056 0.142858 0.142857 0.142857 0.142857 0.142857 0.142857 0.142857 0.142858 0.142857 0.142857 0.142857 0.142857 0.142857 0.142857 0.004831 0.053140 0.584541 0.294686 0.004831 0.053140 0.004831 0.035197 0.238908 0.378626 0.189206 0.084684 0.052688 0.020691 0.142858 0.142857 0.142857 0.142857 0.142857 0.142857 0.142857 0.142858 0.142857 0.142857 0.142857 0.142857 0.142857 0.142857 0.142858 0.142857 0.142857 0.142857 0.142857 0.142857 0.142857 0.142858 0.142857 0.142857 0.142857 0.142857 0.142857 0.142857 0.142858 0.142857 0.142857 0.142857 0.142857 0.142857 0.142857 0.142858 0.142857 0.142857 0.142857 0.142857 0.142857 0.142857 0.142858 0.142857 0.142857 0.142857 0.142857 0.142857 0.142857 0.014129 0.204082 0.463108 0.144427 0.067504 0.067504 0.039246 0.142858 0.142857 0.142857 0.142857 0.142857 0.142857 0.142857 0.142858 0.142857 0.142857 0.142857 0.142857 0.142857 0.142857 0.142858 0.142857 0.142857 0.142857 0.142857 0.142857 0.142857 0.134615 0.326923 0.288462 0.125000 0.096154 0.019231 0.009615 0.076924 0.230769 0.076923 0.230769 0.076923 0.230769 0.076923 0.142858 0.142857 0.142857 0.142857 0.142857 0.142857 0.142857 0.029162 0.179830 0.490887 0.182260 0.059538 0.041312 0.017011 0.066963 0.285149 0.403015 0.162342 0.046207 0.026934 0.009390 0.142858 0.142857 0.142857 0.142857 0.142857 0.142857 0.142857 0.142858 0.142857 0.142857 0.142857 0.142857 0.142857 0.142857 0.142858 0.142857 0.142857 0.142857 0.142857 0.142857 0.142857 0.142858 0.142857 0.142857 0.142857 0.142857 0.142857 0.142857 0.142858 0.142857 0.142857 0.142857 0.142857 0.142857 0.142857 0.142858 0.142857 0.142857 0.142857 0.142857 0.142857 0.142857 0.142858 0.142857 0.142857 0.142857 0.142857 0.142857 0.142857 0.010941 0.204048 0.467724 0.149344 0.065098 0.066193 0.036652 0.142858 0.142857 0.142857 0.142857 0.142857 0.142857 0.142857 0.142858 0.142857 0.142857 0.142857 0.142857 0.142857 0.142857 0.038835 0.067961 0.388350 0.242718 0.097087 0.126214 0.038835 0.067374 0.321677 0.356829 0.139876 0.055291 0.045954 0.012999 0.142858 0.142857 0.142857 0.142857 0.142857 0.142857 0.142857 0.142858 0.142857 0.142857 0.142857 0.142857 0.142857 0.142857 0.023033 0.138199 0.464852 0.214777 0.075980 0.061621 0.021538 0.057611 0.254645 0.405122 0.166938 0.058103 0.042748 0.014833 0.142858 0.142857 0.142857 0.142857 0.142857 0.142857 0.142857 0.142858 0.142857 0.142857 0.142857 0.142857 0.142857 0.142857 0.142858 0.142857 0.142857 0.142857 0.142857 0.142857 0.142857 0.022223 0.066667 0.222222 0.244444 0.111111 0.133333 0.200000 0.142858 0.142857 0.142857 0.142857 0.142857 0.142857 0.142857 0.142858 0.142857 0.142857 0.142857 0.142857 0.142857 0.142857 0.142858 0.142857 0.142857 0.142857 0.142857 0.142857 0.142857 0.021007 0.232493 0.411765 0.179272 0.058824 0.070028 0.026611 0.142858 0.142857 0.142857 0.142857 0.142857 0.142857 0.142857 0.142858 0.142857 0.142857 0.142857 0.142857 0.142857 0.142857 0.033640 0.064220 0.400612 0.247706 0.094801 0.125382 0.033639 0.056266 0.311084 0.374789 0.134848 0.060526 0.047609 0.014878 0.142858 0.142857 0.142857 0.142857 0.142857 0.142857 0.142857 0.142858 0.142857 0.142857 0.142857 0.142857 0.142857 0.142857 0.023677 0.166482 0.487791 0.192934 0.064928 0.046060 0.018128 0.061634 0.257721 0.396270 0.174538 0.050222 0.043306 0.016309 0.142858 0.142857 0.142857 0.142857 0.142857 0.142857 0.142857 0.142858 0.142857 0.142857 0.142857 0.142857 0.142857 0.142857 0.142858 0.142857 0.142857 0.142857 0.142857 0.142857 0.142857 0.034874 0.178992 0.397059 0.203782 0.088655 0.065966 0.030672 0.142858 0.142857 0.142857 0.142857 0.142857 0.142857 0.142857 0.142858 0.142857 0.142857 0.142857 0.142857 0.142857 0.142857 0.020162 0.076613 0.362903 0.250000 0.112903 0.100806 0.076613 0.044155 0.250626 0.426528 0.153557 0.052556 0.040043 0.032535 0.142858 0.142857 0.142857 0.142857 0.142857 0.142857 0.142857 0.142858 0.142857 0.142857 0.142857 0.142857 0.142857 0.142857 0.047620 0.047619 0.047619 0.380952 0.047619 0.380952 0.047619 0.024874 0.210502 0.446799 0.190465 0.069323 0.042837 0.015200 0.142858 0.142857 0.142857 0.142857 0.142857 0.142857 0.142857 0.055437 0.255368 0.334898 0.172661 0.077252 0.058474 0.045910 0.017027 0.109333 0.383178 0.244399 0.106260 0.094354 0.045449 0.047743 0.264634 0.394728 0.154685 0.064483 0.047854 0.025873 0.142858 0.142857 0.142857 0.142857 0.142857 0.142857 0.142857 0.142858 0.142857 0.142857 0.142857 0.142857 0.142857 0.142857 0.142858 0.142857 0.142857 0.142857 0.142857 0.142857 0.142857 0.050302 0.193411 0.383457 0.179773 0.080234 0.071201 0.041622 0.142858 0.142857 0.142857 0.142857 0.142857 0.142857 0.142857 0.142858 0.142857 0.142857 0.142857 0.142857 0.142857 0.142857 0.014317 0.101646 0.442377 0.214030 0.098067 0.089477 0.040086 0.035247 0.230782 0.419324 0.163101 0.065933 0.052287 0.033326 0.142858 0.142857 0.142857 0.142857 0.142857 0.142857 0.142857 0.142858 0.142857 0.142857 0.142857 0.142857 0.142857 0.142857 0.013838 0.068134 0.357275 0.263310 0.117686 0.121244 0.058513 0.023629 0.194372 0.416123 0.187264 0.079636 0.065126 0.033850 0.142858 0.142857 0.142857 0.142857 0.142857 0.142857 0.142857 0.037145 0.178535 0.295960 0.197877 0.105101 0.103218 0.082164 0.016833 0.107096 0.376334 0.257413 0.104504 0.093970 0.043850 0.031763 0.223372 0.430374 0.170436 0.065714 0.051936 0.026405 0.142858 0.142857 0.142857 0.142857 0.142857 0.142857 0.142857 0.142858 0.142857 0.142857 0.142857 0.142857 0.142857 0.142857 0.142858 0.142857 0.142857 0.142857 0.142857 0.142857 0.142857 0.051412 0.197156 0.375137 0.185960 0.079467 0.068657 0.042211 0.142858 0.142857 0.142857 0.142857 0.142857 0.142857 0.142857 0.142858 0.142857 0.142857 0.142857 0.142857 0.142857 0.142857 0.014267 0.118038 0.424858 0.217510 0.099277 0.091264 0.034786 0.037628 0.231826 0.417696 0.162159 0.066028 0.051434 0.033229 0.142858 0.142857 0.142857 0.142857 0.142857 0.142857 0.142857 0.142858 0.142857 0.142857 0.142857 0.142857 0.142857 0.142857 0.018184 0.099106 0.369601 0.248523 0.110396 0.105622 0.048568 0.025549 0.200111 0.413769 0.184212 0.080291 0.062666 0.033402 0.142858 0.142857 0.142857 0.142857 0.142857 0.142857 0.142857 0.036355 0.193661 0.310301 0.196108 0.091937 0.097646 0.073992 0.016257 0.109994 0.388417 0.253174 0.102918 0.089140 0.040100 0.031233 0.221019 0.429813 0.171801 0.066601 0.052413 0.027120 0.142858 0.142857 0.142857 0.142857 0.142857 0.142857 0.142857 0.142858 0.142857 0.142857 0.142857 0.142857 0.142857 0.142857 0.014384 0.064345 0.273278 0.336866 0.159727 0.096139 0.055261 0.049870 0.190755 0.353082 0.186415 0.084201 0.074566 0.061111 0.142858 0.142857 0.142857 0.142857 0.142857 0.142857 0.142857 0.142858 0.142857 0.142857 0.142857 0.142857 0.142857 0.142857 0.015410 0.107877 0.457192 0.212671 0.094521 0.077055 0.035274 0.049476 0.253228 0.401257 0.157843 0.055276 0.047387 0.035533 0.142858 0.142857 0.142857 0.142857 0.142857 0.142857 0.142857 0.142858 0.142857 0.142857 0.142857 0.142857 0.142857 0.142857 0.011767 0.068722 0.409665 0.271672 0.103162 0.096336 0.038676 0.026557 0.200633 0.409766 0.185575 0.084995 0.062566 0.029908 0.142858 0.142857 0.142857 0.142857 0.142857 0.142857 0.142857 0.005132 0.033557 0.220687 0.263324 0.168575 0.151994 0.156731 0.016140 0.107692 0.405220 0.252258 0.097659 0.084373 0.036658 0.032130 0.219807 0.421403 0.172574 0.068990 0.054503 0.030593 0.142858 0.142857 0.142857 0.142857 0.142857 0.142857 0.142857 0.013030 0.071661 0.237785 0.296417 0.169381 0.140065 0.071661 0.017699 0.066372 0.269912 0.331858 0.159292 0.097345 0.057522 0.011277 0.186090 0.437970 0.177945 0.095865 0.061404 0.029449 0.142858 0.142857 0.142857 0.142857 0.142857 0.142857 0.142857 0.142858 0.142857 0.142857 0.142857 0.142857 0.142857 0.142857 0.007611 0.071537 0.315068 0.245053 0.114155 0.168950 0.077626 0.043789 0.270111 0.406150 0.146863 0.062731 0.044526 0.025830 0.142858 0.142857 0.142857 0.142857 0.142857 0.142857 0.142857 0.024641 0.102669 0.328542 0.209446 0.092402 0.133470 0.108830 0.015547 0.107587 0.388060 0.256219 0.103856 0.091418 0.037313 0.021113 0.235282 0.441843 0.182691 0.061884 0.038601 0.018586 0.142858 0.142857 0.142857 0.142857 0.142857 0.142857 0.142857 0.048714 0.228759 0.339418 0.187918 0.085754 0.062543 0.046894 0.027335 0.121152 0.311242 0.249409 0.124564 0.107428 0.058870 0.024618 0.200785 0.447713 0.167880 0.066094 0.060404 0.032506 0.142858 0.142857 0.142857 0.142857 0.142857 0.142857 0.142857 0.011835 0.071006 0.238659 0.297830 0.169625 0.140039 0.071006 0.014518 0.064428 0.273140 0.336661 0.159710 0.096189 0.055354 0.029780 0.166323 0.396325 0.199113 0.083795 0.072866 0.051798 0.142858 0.142857 0.142857 0.142857 0.142857 0.142857 0.142857 0.142858 0.142857 0.142857 0.142857 0.142857 0.142857 0.142857 0.011582 0.100952 0.357638 0.241371 0.109257 0.122895 0.056305 0.023527 0.187338 0.427562 0.180359 0.076620 0.065106 0.039488 0.142858 0.142857 0.142857 0.142857 0.142857 0.142857 0.142857 0.023265 0.102202 0.330702 0.210220 0.091816 0.133361 0.108434 0.018450 0.099733 0.328134 0.239738 0.123481 0.126964 0.063500 0.023019 0.189991 0.416589 0.191297 0.076084 0.065638 0.037382 0.062500 0.250000 0.062500 0.250000 0.062500 0.250000 0.062500 0.039999 0.183818 0.320438 0.208503 0.100632 0.085751 0.060859 0.021869 0.109434 0.325932 0.245996 0.121133 0.114029 0.061607 0.023638 0.193777 0.431391 0.181228 0.073632 0.062297 0.034037 0.142858 0.142857 0.142857 0.142857 0.142857 0.142857 0.142857 0.010618 0.070338 0.239549 0.299270 0.169874 0.140013 0.070338 0.013973 0.064095 0.273694 0.337485 0.159781 0.095990 0.054982 0.030207 0.165252 0.402172 0.193485 0.083860 0.074580 0.050444 0.142858 0.142857 0.142857 0.142857 0.142857 0.142857 0.142857 0.142858 0.142857 0.142857 0.142857 0.142857 0.142857 0.142857 0.010533 0.091697 0.347492 0.242162 0.112566 0.132106 0.063444 0.022753 0.185253 0.427841 0.181884 0.076926 0.065629 0.039714 0.142858 0.142857 0.142857 0.142857 0.142857 0.142857 0.142857 0.023208 0.102182 0.330793 0.210253 0.091791 0.133356 0.108417 0.017159 0.092701 0.334518 0.247411 0.120709 0.125224 0.062278 0.019020 0.184855 0.419432 0.191017 0.077898 0.068773 0.039005 0.020410 0.306122 0.020408 0.306122 0.020408 0.306122 0.020408 0.036219 0.163472 0.306956 0.215081 0.108376 0.097188 0.072708 0.020457 0.104764 0.328764 0.252785 0.120585 0.113064 0.059581 0.023928 0.198045 0.432566 0.178770 0.072170 0.061291 0.033230 0.142858 0.142857 0.142857 0.142857 0.142857 0.142857 0.142857 0.013030 0.071661 0.237785 0.296417 0.169381 0.140065 0.071661 0.013837 0.064011 0.273833 0.337692 0.159799 0.095940 0.054888 0.024431 0.159789 0.398869 0.196262 0.089261 0.079031 0.052357 0.142858 0.142857 0.142857 0.142857 0.142857 0.142857 0.142857 0.142858 0.142857 0.142857 0.142857 0.142857 0.142857 0.142857 0.016166 0.077847 0.367861 0.252473 0.111241 0.101776 0.072636 0.021767 0.173490 0.427617 0.186269 0.081879 0.069428 0.039550 0.142858 0.142857 0.142857 0.142857 0.142857 0.142857 0.142857 0.142858 0.142857 0.142857 0.142857 0.142857 0.142857 0.142857 0.018305 0.101015 0.365057 0.245886 0.109355 0.106507 0.053875 0.017394 0.182697 0.419195 0.187596 0.081014 0.071457 0.040647 0.142858 0.142857 0.142857 0.142857 0.142857 0.142857 0.142857 0.013910 0.051813 0.223106 0.245460 0.172569 0.152402 0.140740 0.018364 0.085846 0.306563 0.265142 0.131957 0.126640 0.065488 0.022924 0.195381 0.438615 0.175345 0.072108 0.061574 0.034053 0.142858 0.142857 0.142857 0.142857 0.142857 0.142857 0.142857 0.142858 0.142857 0.142857 0.142857 0.142857 0.142857 0.142857 0.142858 0.142857 0.142857 0.142857 0.142857 0.142857 0.142857 0.142858 0.142857 0.142857 0.142857 0.142857 0.142857 0.142857 0.142858 0.142857 0.142857 0.142857 0.142857 0.142857 0.142857 0.142858 0.142857 0.142857 0.142857 0.142857 0.142857 0.142857 0.142858 0.142857 0.142857 0.142857 0.142857 0.142857 0.142857 0.142858 0.142857 0.142857 0.142857 0.142857 0.142857 0.142857 0.142858 0.142857 0.142857 0.142857 0.142857 0.142857 0.142857 0.142858 0.142857 0.142857 0.142857 0.142857 0.142857 0.142857 0.142858 0.142857 0.142857 0.142857 0.142857 0.142857 0.142857 0.142858 0.142857 0.142857 0.142857 0.142857 0.142857 0.142857 0.142858 0.142857 0.142857 0.142857 0.142857 0.142857 0.142857 0.142858 0.142857 0.142857 0.142857 0.142857 0.142857 0.142857 0.142858 0.142857 0.142857 0.142857 0.142857 0.142857 0.142857 0.142858 0.142857 0.142857 0.142857 0.142857 0.142857 0.142857 0.142858 0.142857 0.142857 0.142857 0.142857 0.142857 0.142857 0.142858 0.142857 0.142857 0.142857 0.142857 0.142857 0.142857 0.142858 0.142857 0.142857 0.142857 0.142857 0.142857 0.142857 0.142858 0.142857 0.142857 0.142857 0.142857 0.142857 0.142857 0.142858 0.142857 0.142857 0.142857 0.142857 0.142857 0.142857 0.142858 0.142857 0.142857 0.142857 0.142857 0.142857 0.142857 0.013269 0.103739 0.375151 0.248492 0.098914 0.108565 0.051870 0.142858 0.142857 0.142857 0.142857 0.142857 0.142857 0.142857 0.142858 0.142857 0.142857 0.142857 0.142857 0.142857 0.142857 0.142858 0.142857 0.142857 0.142857 0.142857 0.142857 0.142857 0.142858 0.142857 0.142857 0.142857 0.142857 0.142857 0.142857 0.142858 0.142857 0.142857 0.142857 0.142857 0.142857 0.142857 0.142858 0.142857 0.142857 0.142857 0.142857 0.142857 0.142857 0.142858 0.142857 0.142857 0.142857 0.142857 0.142857 0.142857 0.142858 0.142857 0.142857 0.142857 0.142857 0.142857 0.142857 0.142858 0.142857 0.142857 0.142857 0.142857 0.142857 0.142857 0.142858 0.142857 0.142857 0.142857 0.142857 0.142857 0.142857 0.142858 0.142857 0.142857 0.142857 0.142857 0.142857 0.142857 0.142858 0.142857 0.142857 0.142857 0.142857 0.142857 0.142857 0.142858 0.142857 0.142857 0.142857 0.142857 0.142857 0.142857 0.142858 0.142857 0.142857 0.142857 0.142857 0.142857 0.142857 0.142858 0.142857 0.142857 0.142857 0.142857 0.142857 0.142857 0.011751 0.100486 0.371860 0.248886 0.100081 0.113553 0.053383 0.142858 0.142857 0.142857 0.142857 0.142857 0.142857 0.142857 0.142858 0.142857 0.142857 0.142857 0.142857 0.142857 0.142857 0.142858 0.142857 0.142857 0.142857 0.142857 0.142857 0.142857 0.142858 0.142857 0.142857 0.142857 0.142857 0.142857 0.142857 0.142858 0.142857 0.142857 0.142857 0.142857 0.142857 0.142857 0.142858 0.142857 0.142857 0.142857 0.142857 0.142857 0.142857 0.028086 0.093800 0.320615 0.257022 0.123476 0.104399 0.072602 0.028891 0.149278 0.335474 0.194222 0.101124 0.107544 0.083467 0.022534 0.330225 0.449883 0.111111 0.038073 0.031857 0.016317 0.142858 0.142857 0.142857 0.142857 0.142857 0.142857 0.142857 0.142858 0.142857 0.142857 0.142857 0.142857 0.142857 0.142857 0.142858 0.142857 0.142857 0.142857 0.142857 0.142857 0.142857 0.142858 0.142857 0.142857 0.142857 0.142857 0.142857 0.142857 0.142858 0.142857 0.142857 0.142857 0.142857 0.142857 0.142857 0.142858 0.142857 0.142857 0.142857 0.142857 0.142857 0.142857 0.142858 0.142857 0.142857 0.142857 0.142857 0.142857 0.142857 0.142858 0.142857 0.142857 0.142857 0.142857 0.142857 0.142857 