<?xml version="1.0" encoding="UTF-8"?>
<BIF VERSION="0.3"  xmlns="http://www.cs.ubc.ca/labs/lci/fopi/ve/XMLBIFv0_3"
xmlns:xsi="http://www.w3.org/2001/XMLSchema-instance"
xsi:schemaLocation="http://www.cs.ubc.ca/labs/lci/fopi/ve/XMLBIFv0_3 http://www.cs.ubc.ca/labs/lci/fopi/ve/XMLBIFv0_3/XMLBIFv0_3.xsd">
<NETWORK>
<NAME>MovieLens_std</NAME>
<VARIABLE TYPE="nature">
	<NAME>action(item20)</NAME>
	<OUTCOME>0</OUTCOME>
	<OUTCOME>1</OUTCOME>
	<PROPERTY> position=(6000.0,4000.0)</PROPERTY>
</VARIABLE>
<VARIABLE TYPE="nature">
	<NAME>Age(User0)</NAME>
	<OUTCOME>0</OUTCOME>
	<OUTCOME>1</OUTCOME>
	<OUTCOME>2</OUTCOME>
	<PROPERTY> position=(6200.0,4000.0)</PROPERTY>
</VARIABLE>
<VARIABLE TYPE="nature">
	<NAME>u2base(User0,item20)</NAME>
	<OUTCOME>F</OUTCOME>
	<OUTCOME>T</OUTCOME>
	<PROPERTY> position=(6400.0,4000.0)</PROPERTY>
</VARIABLE>
<VARIABLE TYPE="nature">
	<NAME>drama(item20)</NAME>
	<OUTCOME>0</OUTCOME>
	<OUTCOME>1</OUTCOME>
	<PROPERTY> position=(6000.0,4200.0)</PROPERTY>
</VARIABLE>
<VARIABLE TYPE="nature">
	<NAME>Gender(User0)</NAME>
	<OUTCOME>F</OUTCOME>
	<OUTCOME>M</OUTCOME>
	<PROPERTY> position=(6200.0,4200.0)</PROPERTY>
</VARIABLE>
<VARIABLE TYPE="nature">
	<NAME>horror(item20)</NAME>
	<OUTCOME>0</OUTCOME>
	<OUTCOME>1</OUTCOME>
	<PROPERTY> position=(6400.0,4200.0)</PROPERTY>
</VARIABLE>
<VARIABLE TYPE="nature">
	<NAME>rating(User0,item20)</NAME>
	<OUTCOME>1</OUTCOME>
	<OUTCOME>2</OUTCOME>
	<OUTCOME>3</OUTCOME>
	<OUTCOME>4</OUTCOME>
	<OUTCOME>5</OUTCOME>
	<OUTCOME>N/A</OUTCOME>
	<PROPERTY> position=(6000.0,4400.0)</PROPERTY>
</VARIABLE>
<DEFINITION>
	<FOR>action(item20)</FOR>
	<GIVEN>Gender(User0)</GIVEN>
	<GIVEN>rating(User0,item20)</GIVEN>
	<TABLE> 0.787407 0.212593 0.768761 0.231239 0.785244 0.214756 0.794401 0.205599 0.791773 0.208227 0.853761 0.146239 0.724458 0.275542 0.694347 0.305653 0.713304 0.286696 0.739130 0.260870 0.742807 0.257193 0.857626 0.142374</TABLE>
</DEFINITION>
<DEFINITION>
	<FOR>Age(User0)</FOR>
	<GIVEN>action(item20)</GIVEN>
	<GIVEN>rating(User0,item20)</GIVEN>
	<TABLE> 0.518550 0.425799 0.055651 0.462092 0.452137 0.085771 0.427494 0.481336 0.091170 0.423587 0.463822 0.112591 0.422479 0.469008 0.108513 0.397976 0.490997 0.111027 0.588382 0.370954 0.040664 0.508939 0.427919 0.063142 0.491756 0.437532 0.070712 0.485870 0.434828 0.079302 0.501232 0.425826 0.072942 0.390050 0.495672 0.114278</TABLE>
</DEFINITION>
<DEFINITION>
	<FOR>u2base(User0,item20)</FOR>
	<TABLE> 0.949595 0.050405</TABLE>
</DEFINITION>
<DEFINITION>
	<FOR>drama(item20)</FOR>
	<GIVEN>action(item20)</GIVEN>
	<GIVEN>horror(item20)</GIVEN>
	<GIVEN>rating(User0,item20)</GIVEN>
	<TABLE> 0.615673 0.384327 0.571191 0.428809 0.532216 0.467784 0.472572 0.527428 0.440161 0.559839 0.501531 0.498469 0.903974 0.096026 0.890411 0.109589 0.872228 0.127772 0.932418 0.067582 0.932773 0.067227 0.938048 0.061952 0.902998 0.097002 0.870004 0.129996 0.854022 0.145978 0.801962 0.198038 0.726613 0.273387 0.805763 0.194237 0.986111 0.013889 0.993464 0.006536 0.996047 0.003953 0.997033 0.002967 0.995000 0.005000 0.999911 0.000089</TABLE>
</DEFINITION>
<DEFINITION>
	<FOR>Gender(User0)</FOR>
	<GIVEN>rating(User0,item20)</GIVEN>
	<TABLE> 0.313709 0.686291 0.250273 0.749727 0.256499 0.743501 0.246945 0.753055 0.282843 0.717157 0.290525 0.709475</TABLE>
</DEFINITION>
<DEFINITION>
	<FOR>horror(item20)</FOR>
	<TABLE> 0.945303 0.054697</TABLE>
</DEFINITION>
<DEFINITION>
	<FOR>rating(User0,item20)</FOR>
	<GIVEN>u2base(User0,item20)</GIVEN>
	<GIVEN>horror(item20)</GIVEN>
	<TABLE> 0.000000 0.000001 0.000001 0.000001 0.000001 0.999996 0.000013 0.000012 0.000012 0.000012 0.000012 0.999939 0.057323 0.112331 0.274168 0.344584 0.211581 0.000013 0.088671 0.157983 0.286090 0.306166 0.160851 0.000239</TABLE>
</DEFINITION>
</NETWORK>
</BIF>
