<?xml version="1.0" encoding="UTF-8"?>
<BIF VERSION="0.3"  xmlns="http://www.cs.ubc.ca/labs/lci/fopi/ve/XMLBIFv0_3"
xmlns:xsi="http://www.w3.org/2001/XMLSchema-instance"
xsi:schemaLocation="http://www.cs.ubc.ca/labs/lci/fopi/ve/XMLBIFv0_3 http://www.cs.ubc.ca/labs/lci/fopi/ve/XMLBIFv0_3/XMLBIFv0_3.xsd">
<NETWORK>
<NAME>Hepatitis_std</NAME>
<VARIABLE TYPE="nature">
	<NAME>activity(Bio0)</NAME>
	<OUTCOME>0</OUTCOME>
	<OUTCOME>1</OUTCOME>
	<OUTCOME>2</OUTCOME>
	<OUTCOME>3</OUTCOME>
	<OUTCOME>4</OUTCOME>
	<PROPERTY> position=(6000.0,4000.0)</PROPERTY>
</VARIABLE>
<VARIABLE TYPE="nature">
	<NAME>age(dispat0)</NAME>
	<OUTCOME>0</OUTCOME>
	<OUTCOME>1</OUTCOME>
	<OUTCOME>2</OUTCOME>
	<OUTCOME>3</OUTCOME>
	<OUTCOME>4</OUTCOME>
	<OUTCOME>5</OUTCOME>
	<OUTCOME>6</OUTCOME>
	<PROPERTY> position=(6200.0,4000.0)</PROPERTY>
</VARIABLE>
<VARIABLE TYPE="nature">
	<NAME>alb(indis0)</NAME>
	<OUTCOME>0</OUTCOME>
	<OUTCOME>1</OUTCOME>
	<PROPERTY> position=(6400.0,4000.0)</PROPERTY>
</VARIABLE>
<VARIABLE TYPE="nature">
	<NAME>che(indis0)</NAME>
	<OUTCOME>0</OUTCOME>
	<OUTCOME>1</OUTCOME>
	<OUTCOME>2</OUTCOME>
	<OUTCOME>3</OUTCOME>
	<OUTCOME>4</OUTCOME>
	<OUTCOME>5</OUTCOME>
	<OUTCOME>6</OUTCOME>
	<OUTCOME>7</OUTCOME>
	<OUTCOME>8</OUTCOME>
	<OUTCOME>9</OUTCOME>
	<PROPERTY> position=(6000.0,4200.0)</PROPERTY>
</VARIABLE>
<VARIABLE TYPE="nature">
	<NAME>dbil(indis0)</NAME>
	<OUTCOME>0</OUTCOME>
	<OUTCOME>1</OUTCOME>
	<PROPERTY> position=(6200.0,4200.0)</PROPERTY>
</VARIABLE>
<VARIABLE TYPE="nature">
	<NAME>dur(inf0)</NAME>
	<OUTCOME>0</OUTCOME>
	<OUTCOME>1</OUTCOME>
	<OUTCOME>2</OUTCOME>
	<OUTCOME>3</OUTCOME>
	<OUTCOME>4</OUTCOME>
	<PROPERTY> position=(6400.0,4200.0)</PROPERTY>
</VARIABLE>
<VARIABLE TYPE="nature">
	<NAME>fibros(Bio0)</NAME>
	<OUTCOME>0</OUTCOME>
	<OUTCOME>1</OUTCOME>
	<OUTCOME>2</OUTCOME>
	<OUTCOME>3</OUTCOME>
	<OUTCOME>4</OUTCOME>
	<PROPERTY> position=(6000.0,4400.0)</PROPERTY>
</VARIABLE>
<VARIABLE TYPE="nature">
	<NAME>got(indis0)</NAME>
	<OUTCOME>0</OUTCOME>
	<OUTCOME>1</OUTCOME>
	<OUTCOME>2</OUTCOME>
	<OUTCOME>3</OUTCOME>
	<OUTCOME>4</OUTCOME>
	<PROPERTY> position=(6200.0,4400.0)</PROPERTY>
</VARIABLE>
<VARIABLE TYPE="nature">
	<NAME>gpt(indis0)</NAME>
	<OUTCOME>0</OUTCOME>
	<OUTCOME>1</OUTCOME>
	<OUTCOME>2</OUTCOME>
	<OUTCOME>3</OUTCOME>
	<PROPERTY> position=(6400.0,4400.0)</PROPERTY>
</VARIABLE>
<VARIABLE TYPE="nature">
	<NAME>rel11(Bio0,dispat0)</NAME>
	<OUTCOME>F</OUTCOME>
	<OUTCOME>T</OUTCOME>
	<PROPERTY> position=(6000.0,4600.0)</PROPERTY>
</VARIABLE>
<VARIABLE TYPE="nature">
	<NAME>rel12(indis0,dispat0)</NAME>
	<OUTCOME>F</OUTCOME>
	<OUTCOME>T</OUTCOME>
	<PROPERTY> position=(6200.0,4600.0)</PROPERTY>
</VARIABLE>
<VARIABLE TYPE="nature">
	<NAME>rel13(inf0,dispat0)</NAME>
	<OUTCOME>F</OUTCOME>
	<OUTCOME>T</OUTCOME>
	<PROPERTY> position=(6400.0,4600.0)</PROPERTY>
</VARIABLE>
<VARIABLE TYPE="nature">
	<NAME>sex(dispat0)</NAME>
	<OUTCOME>0</OUTCOME>
	<OUTCOME>1</OUTCOME>
	<PROPERTY> position=(6000.0,4800.0)</PROPERTY>
</VARIABLE>
<VARIABLE TYPE="nature">
	<NAME>tbil(indis0)</NAME>
	<OUTCOME>0</OUTCOME>
	<OUTCOME>1</OUTCOME>
	<PROPERTY> position=(6200.0,4800.0)</PROPERTY>
</VARIABLE>
<VARIABLE TYPE="nature">
	<NAME>tcho(indis0)</NAME>
	<OUTCOME>0</OUTCOME>
	<OUTCOME>1</OUTCOME>
	<OUTCOME>2</OUTCOME>
	<OUTCOME>3</OUTCOME>
	<PROPERTY> position=(6400.0,4800.0)</PROPERTY>
</VARIABLE>
<VARIABLE TYPE="nature">
	<NAME>tp(indis0)</NAME>
	<OUTCOME>0</OUTCOME>
	<OUTCOME>1</OUTCOME>
	<OUTCOME>2</OUTCOME>
	<OUTCOME>3</OUTCOME>
	<PROPERTY> position=(6000.0,5000.0)</PROPERTY>
</VARIABLE>
<VARIABLE TYPE="nature">
	<NAME>ttt(indis0)</NAME>
	<OUTCOME>0</OUTCOME>
	<OUTCOME>1</OUTCOME>
	<OUTCOME>2</OUTCOME>
	<OUTCOME>3</OUTCOME>
	<OUTCOME>4</OUTCOME>
	<OUTCOME>5</OUTCOME>
	<PROPERTY> position=(6200.0,5000.0)</PROPERTY>
</VARIABLE>
<VARIABLE TYPE="nature">
	<NAME>Type(dispat0)</NAME>
	<OUTCOME>0</OUTCOME>
	<OUTCOME>1</OUTCOME>
	<PROPERTY> position=(6400.0,5000.0)</PROPERTY>
</VARIABLE>
<VARIABLE TYPE="nature">
	<NAME>ztt(indis0)</NAME>
	<OUTCOME>0</OUTCOME>
	<OUTCOME>1</OUTCOME>
	<OUTCOME>2</OUTCOME>
	<OUTCOME>3</OUTCOME>
	<OUTCOME>4</OUTCOME>
	<OUTCOME>5</OUTCOME>
	<PROPERTY> position=(6000.0,5200.0)</PROPERTY>
</VARIABLE>
<DEFINITION>
	<FOR>activity(Bio0)</FOR>
	<TABLE> 0.062500 0.281250 0.250000 0.250000 0.156250</TABLE>
</DEFINITION>
<DEFINITION>
	<FOR>age(dispat0)</FOR>
	<GIVEN>rel11(Bio0,dispat0)</GIVEN>
	<GIVEN>rel12(indis0,dispat0)</GIVEN>
	<TABLE> 0.014120 0.056327 0.063853 0.088411 0.080116 0.555230 0.141943 0.009164 0.048115 0.064170 0.066130 0.076748 0.591694 0.143979 0.011288 0.048353 0.067626 0.078988 0.077312 0.573087 0.143346 0.005320 0.032023 0.070199 0.048295 0.070825 0.640658 0.132680</TABLE>
</DEFINITION>
<DEFINITION>
	<FOR>alb(indis0)</FOR>
	<GIVEN>tp(indis0)</GIVEN>
	<GIVEN>ztt(indis0)</GIVEN>
	<TABLE> 0.800000 0.200000 0.918089 0.081911 0.928571 0.071429 1.000000 0.000000 0.990826 0.009174 1.000000 0.000000 0.250000 0.750000 0.435612 0.564388 0.702614 0.297386 0.867188 0.132812 0.950820 0.049180 0.994671 0.005329 0.500000 0.500000 0.154412 0.845588 0.307087 0.692913 0.362573 0.637427 0.845455 0.154545 0.961538 0.038462 0.171875 0.828125 0.153846 0.846154 0.025000 0.975000 0.104167 0.895833 0.312169 0.687831 0.811741 0.188259</TABLE>
</DEFINITION>
<DEFINITION>
	<FOR>che(indis0)</FOR>
	<GIVEN>alb(indis0)</GIVEN>
	<GIVEN>got(indis0)</GIVEN>
	<TABLE> 0.000000 0.004115 0.000000 0.000000 0.000000 0.008230 0.905350 0.053498 0.016461 0.012346 0.000000 0.021429 0.002679 0.000000 0.004464 0.030357 0.778571 0.132143 0.018750 0.011607 0.000000 0.018593 0.004042 0.000808 0.012935 0.042846 0.800323 0.105901 0.012935 0.001617 0.000743 0.005948 0.027509 0.003717 0.016357 0.116729 0.790336 0.033457 0.005204 0.000000 0.000000 0.040000 0.200000 0.000000 0.160000 0.200000 0.400000 0.000000 0.000000 0.000000 0.000000 0.005464 0.000000 0.000000 0.005464 0.005464 0.841531 0.131148 0.010929 0.000000 0.000000 0.040498 0.000000 0.000000 0.006231 0.172897 0.531153 0.196262 0.045171 0.007788 0.008386 0.062893 0.000000 0.000000 0.006289 0.303983 0.406708 0.161426 0.046122 0.004193 0.004866 0.065693 0.002433 0.000000 0.021898 0.430658 0.372263 0.090024 0.009732 0.002433 0.000000 0.000000 0.000000 0.000000 0.000000 0.875000 0.125000 0.000000 0.000000 0.000000</TABLE>
</DEFINITION>
<DEFINITION>
	<FOR>dbil(indis0)</FOR>
	<GIVEN>che(indis0)</GIVEN>
	<GIVEN>gpt(indis0)</GIVEN>
	<TABLE> 0.500000 0.500000 1.000000 0.000000 1.000000 0.000000 1.000000 0.000000 0.000000 1.000000 0.296703 0.703297 0.418605 0.581395 0.166667 0.833333 0.500000 0.500000 0.000000 1.000000 0.057143 0.942857 0.000000 1.000000 0.500000 0.500000 0.500000 0.500000 0.500000 0.500000 0.500000 0.500000 0.500000 0.500000 0.000000 1.000000 0.166667 0.833333 0.000000 1.000000 0.250000 0.750000 0.238806 0.761194 0.178082 0.821918 0.088889 0.911111 0.850794 0.149206 0.665732 0.334268 0.599675 0.400325 0.444444 0.555556 0.542857 0.457143 0.785933 0.214067 0.669492 0.330508 0.666667 0.333333 1.000000 0.000000 0.892857 0.107143 0.604651 0.395349 0.500000 0.500000 1.000000 0.000000 1.000000 0.000000 0.800000 0.200000 0.000000 1.000000</TABLE>
</DEFINITION>
<DEFINITION>
	<FOR>dur(inf0)</FOR>
	<TABLE> 0.198978 0.198980 0.198980 0.198980 0.204082</TABLE>
</DEFINITION>
<DEFINITION>
	<FOR>fibros(Bio0)</FOR>
	<TABLE> 0.093750 0.250000 0.218750 0.218750 0.218750</TABLE>
</DEFINITION>
<DEFINITION>
	<FOR>got(indis0)</FOR>
	<GIVEN>tcho(indis0)</GIVEN>
	<GIVEN>ttt(indis0)</GIVEN>
	<TABLE> 0.091463 0.225610 0.268293 0.414634 0.000000 0.135135 0.351351 0.459460 0.054054 0.000000 0.000000 0.425926 0.388889 0.185185 0.000000 0.016667 0.300000 0.450000 0.233333 0.000000 0.108696 0.152174 0.402173 0.326087 0.010870 0.095012 0.059382 0.318290 0.520190 0.007126 0.633929 0.178571 0.125000 0.062500 0.000000 0.272727 0.481284 0.155080 0.090909 0.000000 0.065421 0.523364 0.238318 0.170561 0.002336 0.076419 0.406114 0.334061 0.183406 0.000000 0.018648 0.300699 0.293706 0.377623 0.009324 0.007595 0.152743 0.345148 0.490295 0.004219 0.384615 0.487180 0.076923 0.051282 0.000000 0.270588 0.564706 0.129412 0.035294 0.000000 0.105042 0.609243 0.189076 0.096639 0.000000 0.127907 0.426356 0.255814 0.178295 0.011628 0.074074 0.341564 0.358025 0.218107 0.008230 0.024752 0.257426 0.333333 0.369638 0.014851 0.000000 0.857143 0.142857 0.000000 0.000000 0.000000 0.727272 0.136364 0.090909 0.045455 0.058824 0.598039 0.235294 0.107843 0.000000 0.051724 0.379310 0.336207 0.232759 0.000000 0.049180 0.352459 0.401639 0.188525 0.008197 0.027397 0.296804 0.319635 0.342465 0.013699</TABLE>
</DEFINITION>
<DEFINITION>
	<FOR>gpt(indis0)</FOR>
	<GIVEN>got(indis0)</GIVEN>
	<TABLE> 0.575118 0.422535 0.002347 0.000000 0.066969 0.889898 0.043133 0.000000 0.001750 0.402567 0.595683 0.000000 0.000000 0.038724 0.907745 0.053531 0.000000 0.000000 0.212121 0.787879</TABLE>
</DEFINITION>
<DEFINITION>
	<FOR>rel11(Bio0,dispat0)</FOR>
	<GIVEN>activity(Bio0)</GIVEN>
	<GIVEN>fibros(Bio0)</GIVEN>
	<GIVEN>rel12(indis0,dispat0)</GIVEN>
	<TABLE> 0.986020 0.013980 0.976102 0.023898 0.990011 0.009989 0.984360 0.015640 0.500000 0.500000 0.500000 0.500000 0.500000 0.500000 0.500000 0.500000 0.500000 0.500000 0.500000 0.500000 0.974074 0.025926 0.937093 0.062907 0.832071 0.167929 0.796696 0.203304 0.976024 0.023976 0.963978 0.036022 0.993007 0.006993 0.989369 0.010631 0.993009 0.006991 0.988666 0.011334 0.500000 0.500000 0.500000 0.500000 0.924036 0.075964 0.905992 0.094008 0.900034 0.099966 0.882797 0.117203 0.945038 0.054962 0.926023 0.073977 0.964031 0.035969 0.948339 0.051661 0.500000 0.500000 0.500000 0.500000 0.997998 0.002002 0.999209 0.000791 0.992011 0.007989 0.986469 0.013531 0.964005 0.035995 0.961342 0.038658 0.966020 0.033980 0.955895 0.044105 0.998003 0.001997 0.996485 0.003515 0.956117 0.043883 0.897381 0.102619 0.992006 0.007994 0.988929 0.011071 0.990044 0.009956 0.967843 0.032157 0.978041 0.021959 0.957652 0.042348</TABLE>
</DEFINITION>
<DEFINITION>
	<FOR>rel12(indis0,dispat0)</FOR>
	<TABLE> 0.998000 0.002000</TABLE>
</DEFINITION>
<DEFINITION>
	<FOR>rel13(inf0,dispat0)</FOR>
	<GIVEN>rel11(Bio0,dispat0)</GIVEN>
	<GIVEN>rel12(indis0,dispat0)</GIVEN>
	<GIVEN>Type(dispat0)</GIVEN>
	<TABLE> 1.000000 0.000000 0.996603 0.003397 1.000000 0.000000 0.996205 0.003795 1.000000 0.000000 0.996534 0.003466 0.999997 0.000003 0.996129 0.003871</TABLE>
</DEFINITION>
<DEFINITION>
	<FOR>sex(dispat0)</FOR>
	<GIVEN>rel11(Bio0,dispat0)</GIVEN>
	<GIVEN>rel12(indis0,dispat0)</GIVEN>
	<GIVEN>rel13(inf0,dispat0)</GIVEN>
	<GIVEN>Type(dispat0)</GIVEN>
	<TABLE> 0.762159 0.237841 0.672929 0.327071 0.500000 0.500000 0.699589 0.300411 0.746828 0.253172 0.650888 0.349112 0.500000 0.500000 0.664976 0.335024 0.762159 0.237841 0.684338 0.315662 0.500000 0.500000 0.688043 0.311957 0.746827 0.253173 0.680451 0.319549 0.500000 0.500000 0.661185 0.338815</TABLE>
</DEFINITION>
<DEFINITION>
	<FOR>tbil(indis0)</FOR>
	<GIVEN>dbil(indis0)</GIVEN>
	<GIVEN>got(indis0)</GIVEN>
	<GIVEN>tcho(indis0)</GIVEN>
	<TABLE> 0.896552 0.103448 0.166667 0.833333 0.242991 0.757009 0.375000 0.625000 0.380282 0.619718 0.258004 0.741996 0.179545 0.820455 0.188889 0.811111 0.181818 0.818182 0.254237 0.745763 0.229008 0.770992 0.294643 0.705357 0.340741 0.659259 0.334146 0.665854 0.086093 0.913907 0.169014 0.830986 0.500000 0.500000 1.000000 0.000000 0.500000 0.500000 0.500000 0.500000 0.000000 1.000000 0.000000 1.000000 0.000000 1.000000 0.500000 0.500000 0.033898 0.966102 0.003344 0.996656 0.008264 0.991736 0.000000 1.000000 0.000000 1.000000 0.002770 0.997230 0.000000 1.000000 0.013333 0.986667 0.000000 1.000000 0.000000 1.000000 0.005000 0.995000 0.014925 0.985075 0.000000 1.000000 0.000000 1.000000 0.000000 1.000000 0.000000 1.000000</TABLE>
</DEFINITION>
<DEFINITION>
	<FOR>tcho(indis0)</FOR>
	<GIVEN>ztt(indis0)</GIVEN>
	<TABLE> 0.874172 0.086093 0.026490 0.013245 0.062107 0.469339 0.324686 0.143868 0.110497 0.453039 0.278085 0.158379 0.097015 0.490879 0.286070 0.126036 0.123937 0.500607 0.281896 0.093560 0.199292 0.553656 0.191038 0.056014</TABLE>
</DEFINITION>
<DEFINITION>
	<FOR>tp(indis0)</FOR>
	<GIVEN>gpt(indis0)</GIVEN>
	<GIVEN>ztt(indis0)</GIVEN>
	<TABLE> 0.500000 0.062500 0.000000 0.437500 0.240741 0.567901 0.179012 0.012346 0.169014 0.661971 0.154930 0.014085 0.311475 0.557377 0.065574 0.065574 0.035714 0.571429 0.392857 0.000000 0.000000 0.321429 0.571428 0.107143 0.107143 0.035714 0.071429 0.785714 0.230668 0.494103 0.213630 0.061599 0.145594 0.551724 0.226054 0.076628 0.231729 0.452763 0.221034 0.094474 0.215873 0.390476 0.250794 0.142857 0.143636 0.403636 0.307273 0.145455 0.013514 0.013514 0.000000 0.972972 0.225610 0.463415 0.231707 0.079268 0.090452 0.532664 0.281407 0.095477 0.099819 0.382940 0.366606 0.150635 0.086580 0.350649 0.261905 0.300866 0.082028 0.297696 0.249770 0.370506 0.000000 0.000000 0.000000 1.000000 0.210526 0.421053 0.210526 0.157895 0.166667 0.750000 0.083333 0.000000 0.121212 0.393940 0.363636 0.121212 0.000000 0.222222 0.500000 0.277778 0.090909 0.272727 0.363637 0.272727</TABLE>
</DEFINITION>
<DEFINITION>
	<FOR>ttt(indis0)</FOR>
	<TABLE> 0.057811 0.058162 0.144439 0.156738 0.155684 0.427166</TABLE>
</DEFINITION>
<DEFINITION>
	<FOR>Type(dispat0)</FOR>
	<GIVEN>age(dispat0)</GIVEN>
	<GIVEN>rel11(Bio0,dispat0)</GIVEN>
	<GIVEN>rel12(indis0,dispat0)</GIVEN>
	<TABLE> 0.857488 0.142512 0.588235 0.411765 0.857487 0.142513 0.588218 0.411782 0.644433 0.355567 0.590049 0.409951 0.600154 0.399846 0.514657 0.485343 0.537125 0.462875 0.302412 0.697588 0.405452 0.594548 0.160481 0.839519 0.524683 0.475317 0.502673 0.497327 0.469504 0.530496 0.399570 0.600430 0.629389 0.370611 0.454195 0.545805 0.521419 0.478581 0.285718 0.714282 0.363156 0.636844 0.287583 0.712417 0.281284 0.718716 0.154185 0.845815 0.241615 0.758385 0.139775 0.860225 0.191270 0.808730 0.088054 0.911946</TABLE>
</DEFINITION>
<DEFINITION>
	<FOR>ztt(indis0)</FOR>
	<GIVEN>ttt(indis0)</GIVEN>
	<TABLE> 0.437691 0.386018 0.097264 0.079027 0.000000 0.000000 0.012085 0.598187 0.126888 0.184290 0.054381 0.024169 0.002433 0.564477 0.147202 0.192214 0.068127 0.025547 0.001121 0.332959 0.154709 0.307175 0.107623 0.096413 0.000000 0.152370 0.128668 0.334086 0.198646 0.186230 0.000000 0.020979 0.039490 0.160839 0.196216 0.582476</TABLE>
</DEFINITION>
</NETWORK>
</BIF>
