<?xml version="1.0" encoding="UTF-8"?>
<BIF VERSION="0.3"  xmlns="http://www.cs.ubc.ca/labs/lci/fopi/ve/XMLBIFv0_3"
xmlns:xsi="http://www.w3.org/2001/XMLSchema-instance"
xsi:schemaLocation="http://www.cs.ubc.ca/labs/lci/fopi/ve/XMLBIFv0_3 http://www.cs.ubc.ca/labs/lci/fopi/ve/XMLBIFv0_3/XMLBIFv0_3.xsd">
<NETWORK>
<NAME>Mondial_Tutorial</NAME>
<VARIABLE TYPE="nature">
	<NAME>Borders(Country0,Country1)</NAME>
	<OUTCOME>F</OUTCOME>
	<OUTCOME>T</OUTCOME>
	<PROPERTY> position=(6000.0,4000.0)</PROPERTY>
</VARIABLE>
<VARIABLE TYPE="nature">
	<NAME>Continent(Country0)</NAME>
	<OUTCOME>Africa</OUTCOME>
	<OUTCOME>America</OUTCOME>
	<OUTCOME>Asia</OUTCOME>
	<OUTCOME>Australia/Oceania</OUTCOME>
	<OUTCOME>Europe</OUTCOME>
	<PROPERTY> position=(6200.0,4000.0)</PROPERTY>
</VARIABLE>
<VARIABLE TYPE="nature">
	<NAME>Continent(Country1)</NAME>
	<OUTCOME>Africa</OUTCOME>
	<OUTCOME>America</OUTCOME>
	<OUTCOME>Asia</OUTCOME>
	<OUTCOME>Australia/Oceania</OUTCOME>
	<OUTCOME>Europe</OUTCOME>
	<PROPERTY> position=(6400.0,4000.0)</PROPERTY>
</VARIABLE>
<VARIABLE TYPE="nature">
	<NAME>DiscreteArea(Country0)</NAME>
	<OUTCOME>0</OUTCOME>
	<OUTCOME>1</OUTCOME>
	<OUTCOME>2</OUTCOME>
	<OUTCOME>3</OUTCOME>
	<PROPERTY> position=(6000.0,4200.0)</PROPERTY>
</VARIABLE>
<VARIABLE TYPE="nature">
	<NAME>DiscreteArea(Country1)</NAME>
	<OUTCOME>0</OUTCOME>
	<OUTCOME>1</OUTCOME>
	<OUTCOME>2</OUTCOME>
	<OUTCOME>3</OUTCOME>
	<PROPERTY> position=(6200.0,4200.0)</PROPERTY>
</VARIABLE>
<VARIABLE TYPE="nature">
	<NAME>DiscretePopulation(Country0)</NAME>
	<OUTCOME>0</OUTCOME>
	<OUTCOME>1</OUTCOME>
	<OUTCOME>2</OUTCOME>
	<OUTCOME>3</OUTCOME>
	<PROPERTY> position=(6400.0,4200.0)</PROPERTY>
</VARIABLE>
<VARIABLE TYPE="nature">
	<NAME>DiscretePopulation(Country1)</NAME>
	<OUTCOME>0</OUTCOME>
	<OUTCOME>1</OUTCOME>
	<OUTCOME>2</OUTCOME>
	<OUTCOME>3</OUTCOME>
	<PROPERTY> position=(6000.0,4400.0)</PROPERTY>
</VARIABLE>
<DEFINITION>
	<FOR>Borders(Country0,Country1)</FOR>
	<GIVEN>DiscreteArea(Country0)</GIVEN>
	<GIVEN>DiscreteArea(Country1)</GIVEN>
	<TABLE> 0.998814 0.001186 0.998051 0.001949 0.997625 0.002375 0.997130 0.002870 0.998051 0.001949 0.986837 0.013163 0.984070 0.015930 0.990258 0.009742 0.997625 0.002375 0.984070 0.015930 0.977718 0.022282 0.976738 0.023262 0.997130 0.002870 0.990258 0.009742 0.976738 0.023262 0.948640 0.051360</TABLE>
</DEFINITION>
<DEFINITION>
	<FOR>Continent(Country0)</FOR>
	<GIVEN>DiscretePopulation(Country0)</GIVEN>
	<TABLE> 0.107226 0.357002 0.000178 0.357003 0.178591 0.314762 0.129662 0.259232 0.055622 0.240722 0.315739 0.175449 0.175449 0.017624 0.315739 0.262270 0.147562 0.426137 0.016469 0.147562</TABLE>
</DEFINITION>
<DEFINITION>
	<FOR>Continent(Country1)</FOR>
	<TABLE> 0.269991 0.180002 0.249994 0.075016 0.224997</TABLE>
</DEFINITION>
<DEFINITION>
	<FOR>DiscreteArea(Country0)</FOR>
	<TABLE> 0.145011 0.264998 0.289996 0.299995</TABLE>
</DEFINITION>
<DEFINITION>
	<FOR>DiscreteArea(Country1)</FOR>
	<TABLE> 0.145011 0.264998 0.289996 0.299995</TABLE>
</DEFINITION>
<DEFINITION>
	<FOR>DiscretePopulation(Country0)</FOR>
	<GIVEN>DiscreteArea(Country0)</GIVEN>
	<TABLE> 0.792730 0.206926 0.000172 0.000172 0.075538 0.565918 0.301867 0.056677 0.017322 0.224147 0.482678 0.275853 0.000083 0.083389 0.216678 0.699850</TABLE>
</DEFINITION>
<DEFINITION>
	<FOR>DiscretePopulation(Country1)</FOR>
	<TABLE> 0.140011 0.269999 0.284996 0.304994</TABLE>
</DEFINITION>
</NETWORK>
</BIF>
