<?xml version="1.0" encoding="UTF-8"?>
<BIF VERSION="0.3"  xmlns="http://www.cs.ubc.ca/labs/lci/fopi/ve/XMLBIFv0_3"
xmlns:xsi="http://www.w3.org/2001/XMLSchema-instance"
xsi:schemaLocation="http://www.cs.ubc.ca/labs/lci/fopi/ve/XMLBIFv0_3 http://www.cs.ubc.ca/labs/lci/fopi/ve/XMLBIFv0_3/XMLBIFv0_3.xsd">
<NETWORK>
<NAME>Mutagenesis_std</NAME>
<VARIABLE TYPE="nature">
	<NAME>atype(Atom0)</NAME>
	<OUTCOME>0</OUTCOME>
	<OUTCOME>1</OUTCOME>
	<OUTCOME>2</OUTCOME>
	<PROPERTY> position=(6000.0,4000.0)</PROPERTY>
</VARIABLE>
<VARIABLE TYPE="nature">
	<NAME>bond(Mole0,Atom0)</NAME>
	<OUTCOME>F</OUTCOME>
	<OUTCOME>T</OUTCOME>
	<PROPERTY> position=(6200.0,4000.0)</PROPERTY>
</VARIABLE>
<VARIABLE TYPE="nature">
	<NAME>btype(Mole0,Atom0)</NAME>
	<OUTCOME>1</OUTCOME>
	<OUTCOME>2</OUTCOME>
	<OUTCOME>3</OUTCOME>
	<OUTCOME>4</OUTCOME>
	<OUTCOME>5</OUTCOME>
	<OUTCOME>7</OUTCOME>
	<OUTCOME>N/A</OUTCOME>
	<PROPERTY> position=(6400.0,4000.0)</PROPERTY>
</VARIABLE>
<VARIABLE TYPE="nature">
	<NAME>charge(Atom0)</NAME>
	<OUTCOME>0</OUTCOME>
	<OUTCOME>1</OUTCOME>
	<PROPERTY> position=(6000.0,4200.0)</PROPERTY>
</VARIABLE>
<VARIABLE TYPE="nature">
	<NAME>elem(Atom0)</NAME>
	<OUTCOME>b</OUTCOME>
	<OUTCOME>c</OUTCOME>
	<OUTCOME>f</OUTCOME>
	<OUTCOME>h</OUTCOME>
	<OUTCOME>i</OUTCOME>
	<OUTCOME>n</OUTCOME>
	<OUTCOME>o</OUTCOME>
	<PROPERTY> position=(6200.0,4200.0)</PROPERTY>
</VARIABLE>
<VARIABLE TYPE="nature">
	<NAME>ind1(Mole0)</NAME>
	<OUTCOME>0</OUTCOME>
	<OUTCOME>1</OUTCOME>
	<PROPERTY> position=(6400.0,4200.0)</PROPERTY>
</VARIABLE>
<VARIABLE TYPE="nature">
	<NAME>inda(Mole0)</NAME>
	<OUTCOME>0</OUTCOME>
	<OUTCOME>1</OUTCOME>
	<PROPERTY> position=(6000.0,4400.0)</PROPERTY>
</VARIABLE>
<VARIABLE TYPE="nature">
	<NAME>label(Mole0)</NAME>
	<OUTCOME>1</OUTCOME>
	<OUTCOME>2</OUTCOME>
	<PROPERTY> position=(6200.0,4400.0)</PROPERTY>
</VARIABLE>
<VARIABLE TYPE="nature">
	<NAME>logp(Mole0)</NAME>
	<OUTCOME>0</OUTCOME>
	<OUTCOME>1</OUTCOME>
	<OUTCOME>2</OUTCOME>
	<OUTCOME>3</OUTCOME>
	<OUTCOME>4</OUTCOME>
	<OUTCOME>5</OUTCOME>
	<OUTCOME>6</OUTCOME>
	<OUTCOME>7</OUTCOME>
	<OUTCOME>8</OUTCOME>
	<OUTCOME>9</OUTCOME>
	<PROPERTY> position=(6400.0,4400.0)</PROPERTY>
</VARIABLE>
<VARIABLE TYPE="nature">
	<NAME>lumo(Mole0)</NAME>
	<OUTCOME>1</OUTCOME>
	<OUTCOME>2</OUTCOME>
	<OUTCOME>3</OUTCOME>
	<OUTCOME>4</OUTCOME>
	<OUTCOME>5</OUTCOME>
	<OUTCOME>6</OUTCOME>
	<OUTCOME>7</OUTCOME>
	<OUTCOME>8</OUTCOME>
	<OUTCOME>9</OUTCOME>
	<PROPERTY> position=(6000.0,4600.0)</PROPERTY>
</VARIABLE>
<VARIABLE TYPE="nature">
	<NAME>moleatm(Mole0,Atom0)</NAME>
	<OUTCOME>F</OUTCOME>
	<OUTCOME>T</OUTCOME>
	<PROPERTY> position=(6200.0,4600.0)</PROPERTY>
</VARIABLE>
<DEFINITION>
	<FOR>atype(Atom0)</FOR>
	<GIVEN>charge(Atom0)</GIVEN>
	<GIVEN>elem(Atom0)</GIVEN>
	<TABLE> 0.989362 0.005319 0.005319 0.043898 0.721988 0.234114 0.000415 0.000415 0.999170 0.999992 0.000004 0.000004 0.005319 0.005319 0.989362 0.000074 0.000074 0.999852 0.000009 0.000009 0.999982 0.989362 0.005319 0.005319 0.000216 0.639801 0.359983 0.333333 0.333334 0.333333 0.999716 0.000142 0.000142 0.333333 0.333334 0.333333 0.000020 0.000020 0.999960 0.333333 0.333334 0.333333</TABLE>
</DEFINITION>
<DEFINITION>
	<FOR>bond(Mole0,Atom0)</FOR>
	<GIVEN>atype(Atom0)</GIVEN>
	<GIVEN>elem(Atom0)</GIVEN>
	<GIVEN>ind1(Mole0)</GIVEN>
	<TABLE> 0.988372 0.011628 0.990099 0.009901 0.996863 0.003137 0.992763 0.007237 0.500000 0.500000 0.500000 0.500000 0.995585 0.004415 0.993949 0.006051 0.500000 0.500000 0.500000 0.500000 0.500000 0.500000 0.500000 0.500000 0.500000 0.500000 0.500000 0.500000 0.500000 0.500000 0.500000 0.500000 0.995647 0.004353 0.993959 0.006041 0.500000 0.500000 0.500000 0.500000 0.500000 0.500000 0.500000 0.500000 0.500000 0.500000 0.500000 0.500000 0.500000 0.500000 0.500000 0.500000 0.500000 0.500000 0.500000 0.500000 0.500000 0.500000 0.500000 0.500000 0.997932 0.002068 0.992074 0.007926 0.993677 0.006323 0.995392 0.004608 0.500000 0.500000 0.500000 0.500000 0.988506 0.011494 0.980392 0.019608 0.994169 0.005831 0.995508 0.004492 0.995558 0.004442 0.995629 0.004371</TABLE>
</DEFINITION>
<DEFINITION>
	<FOR>btype(Mole0,Atom0)</FOR>
	<GIVEN>atype(Atom0)</GIVEN>
	<GIVEN>bond(Mole0,Atom0)</GIVEN>
	<GIVEN>charge(Atom0)</GIVEN>
	<GIVEN>elem(Atom0)</GIVEN>
	<TABLE> 0.005236 0.005236 0.005236 0.005236 0.005236 0.005236 0.968584 0.000052 0.000052 0.000052 0.000052 0.000052 0.000052 0.999688 0.142857 0.142857 0.142857 0.142857 0.142857 0.142857 0.142858 0.000004 0.000004 0.000004 0.000004 0.000004 0.000004 0.999976 0.142857 0.142857 0.142857 0.142857 0.142857 0.142857 0.142858 0.142857 0.142857 0.142857 0.142857 0.142857 0.142857 0.142858 0.142857 0.142857 0.142857 0.142857 0.142857 0.142857 0.142858 0.005236 0.005236 0.005236 0.005236 0.005236 0.005236 0.968584 0.142857 0.142857 0.142857 0.142857 0.142857 0.142857 0.142858 0.142857 0.142857 0.142857 0.142857 0.142857 0.142857 0.142858 0.000143 0.000143 0.000143 0.000143 0.000143 0.000143 0.999142 0.142857 0.142857 0.142857 0.142857 0.142857 0.142857 0.142858 0.142857 0.142857 0.142857 0.142857 0.142857 0.142857 0.142858 0.142857 0.142857 0.142857 0.142857 0.142857 0.142857 0.142858 0.250000 0.125000 0.125000 0.125000 0.125000 0.125000 0.125000 0.944956 0.009174 0.009174 0.009174 0.009174 0.009174 0.009174 0.142857 0.142857 0.142857 0.142857 0.142857 0.142857 0.142858 0.995902 0.000683 0.000683 0.000683 0.000683 0.000683 0.000683 0.142857 0.142857 0.142857 0.142857 0.142857 0.142857 0.142858 0.142857 0.142857 0.142857 0.142857 0.142857 0.142857 0.142858 0.142857 0.142857 0.142857 0.142857 0.142857 0.142857 0.142858 0.250000 0.125000 0.125000 0.125000 0.125000 0.125000 0.125000 0.142857 0.142857 0.142857 0.142857 0.142857 0.142857 0.142858 0.142857 0.142857 0.142857 0.142857 0.142857 0.142857 0.142858 0.866668 0.022222 0.022222 0.022222 0.022222 0.022222 0.022222 0.142857 0.142857 0.142857 0.142857 0.142857 0.142857 0.142858 0.142857 0.142857 0.142857 0.142857 0.142857 0.142857 0.142858 0.142857 0.142857 0.142857 0.142857 0.142857 0.142857 0.142858 0.142857 0.142857 0.142857 0.142857 0.142857 0.142857 0.142858 0.000003 0.000003 0.000003 0.000003 0.000003 0.000003 0.999982 0.142857 0.142857 0.142857 0.142857 0.142857 0.142857 0.142858 0.142857 0.142857 0.142857 0.142857 0.142857 0.142857 0.142858 0.142857 0.142857 0.142857 0.142857 0.142857 0.142857 0.142858 0.142857 0.142857 0.142857 0.142857 0.142857 0.142857 0.142858 0.142857 0.142857 0.142857 0.142857 0.142857 0.142857 0.142858 0.142857 0.142857 0.142857 0.142857 0.142857 0.142857 0.142858 0.000339 0.000339 0.000339 0.000339 0.000339 0.000339 0.997966 0.142857 0.142857 0.142857 0.142857 0.142857 0.142857 0.142858 0.142857 0.142857 0.142857 0.142857 0.142857 0.142857 0.142858 0.142857 0.142857 0.142857 0.142857 0.142857 0.142857 0.142858 0.142857 0.142857 0.142857 0.142857 0.142857 0.142857 0.142858 0.142857 0.142857 0.142857 0.142857 0.142857 0.142857 0.142858 0.142857 0.142857 0.142857 0.142857 0.142857 0.142857 0.142858 0.083531 0.004147 0.000592 0.000592 0.000592 0.909954 0.000592 0.142857 0.142857 0.142857 0.142857 0.142857 0.142857 0.142858 0.142857 0.142857 0.142857 0.142857 0.142857 0.142857 0.142858 0.142857 0.142857 0.142857 0.142857 0.142857 0.142857 0.142858 0.142857 0.142857 0.142857 0.142857 0.142857 0.142857 0.142858 0.142857 0.142857 0.142857 0.142857 0.142857 0.142857 0.142858 0.142857 0.142857 0.142857 0.142857 0.142857 0.142857 0.142858 0.636361 0.045455 0.045455 0.045455 0.045455 0.136364 0.045455 0.142857 0.142857 0.142857 0.142857 0.142857 0.142857 0.142858 0.142857 0.142857 0.142857 0.142857 0.142857 0.142857 0.142858 0.142857 0.142857 0.142857 0.142857 0.142857 0.142857 0.142858 0.142857 0.142857 0.142857 0.142857 0.142857 0.142857 0.142858 0.142857 0.142857 0.142857 0.142857 0.142857 0.142857 0.142858 0.142857 0.142857 0.142857 0.142857 0.142857 0.142857 0.142858 0.000010 0.000010 0.000010 0.000010 0.000010 0.000010 0.999940 0.000416 0.000416 0.000416 0.000416 0.000416 0.000416 0.997504 0.142857 0.142857 0.142857 0.142857 0.142857 0.142857 0.142858 0.005236 0.005236 0.005236 0.005236 0.005236 0.005236 0.968584 0.000074 0.000074 0.000074 0.000074 0.000074 0.000074 0.999556 0.000009 0.000009 0.000009 0.000009 0.000009 0.000009 0.999946 0.142857 0.142857 0.142857 0.142857 0.142857 0.142857 0.142858 0.000601 0.000601 0.000601 0.000601 0.000601 0.000601 0.996394 0.142857 0.142857 0.142857 0.142857 0.142857 0.142857 0.142858 0.142857 0.142857 0.142857 0.142857 0.142857 0.142857 0.142858 0.142857 0.142857 0.142857 0.142857 0.142857 0.142857 0.142858 0.000020 0.000020 0.000020 0.000020 0.000020 0.000020 0.999880 0.142857 0.142857 0.142857 0.142857 0.142857 0.142857 0.142858 0.142857 0.142857 0.142857 0.142857 0.142857 0.142857 0.142858 0.162706 0.001828 0.001828 0.001828 0.001828 0.828154 0.001828 0.666664 0.055556 0.055556 0.055556 0.055556 0.055556 0.055556 0.142857 0.142857 0.142857 0.142857 0.142857 0.142857 0.142858 0.250000 0.125000 0.125000 0.125000 0.125000 0.125000 0.125000 0.499999 0.025641 0.025641 0.012821 0.012821 0.410256 0.012821 0.051653 0.925621 0.002066 0.006198 0.006198 0.006198 0.002066 0.142857 0.142857 0.142857 0.142857 0.142857 0.142857 0.142858 0.562500 0.062500 0.062500 0.062500 0.062500 0.125000 0.062500 0.142857 0.142857 0.142857 0.142857 0.142857 0.142857 0.142858 0.142857 0.142857 0.142857 0.142857 0.142857 0.142857 0.142858 0.142857 0.142857 0.142857 0.142857 0.142857 0.142857 0.142858 0.850001 0.130769 0.003846 0.003846 0.003846 0.003846 0.003846 0.142857 0.142857 0.142857 0.142857 0.142857 0.142857 0.142858</TABLE>
</DEFINITION>
<DEFINITION>
	<FOR>charge(Atom0)</FOR>
	<GIVEN>elem(Atom0)</GIVEN>
	<TABLE> 0.500000 0.500000 0.989654 0.010346 0.999585 0.000415 0.975111 0.024889 0.994652 0.005348 0.211603 0.788397 0.999991 0.000009</TABLE>
</DEFINITION>
<DEFINITION>
	<FOR>elem(Atom0)</FOR>
	<TABLE> 0.000411 0.493968 0.002658 0.312077 0.000205 0.070509 0.120172</TABLE>
</DEFINITION>
<DEFINITION>
	<FOR>ind1(Mole0)</FOR>
	<GIVEN>label(Mole0)</GIVEN>
	<TABLE> 0.213116 0.786884 0.936505 0.063495</TABLE>
</DEFINITION>
<DEFINITION>
	<FOR>inda(Mole0)</FOR>
	<GIVEN>bond(Mole0,Atom0)</GIVEN>
	<GIVEN>btype(Mole0,Atom0)</GIVEN>
	<GIVEN>logp(Mole0)</GIVEN>
	<GIVEN>moleatm(Mole0,Atom0)</GIVEN>
	<TABLE> 0.500000 0.500000 0.500000 0.500000 0.500000 0.500000 0.500000 0.500000 0.500000 0.500000 0.500000 0.500000 0.500000 0.500000 0.500000 0.500000 0.500000 0.500000 0.500000 0.500000 0.500000 0.500000 0.500000 0.500000 0.500000 0.500000 0.500000 0.500000 0.500000 0.500000 0.500000 0.500000 0.500000 0.500000 0.500000 0.500000 0.500000 0.500000 0.500000 0.500000 0.500000 0.500000 0.500000 0.500000 0.500000 0.500000 0.500000 0.500000 0.500000 0.500000 0.500000 0.500000 0.500000 0.500000 0.500000 0.500000 0.500000 0.500000 0.500000 0.500000 0.500000 0.500000 0.500000 0.500000 0.500000 0.500000 0.500000 0.500000 0.500000 0.500000 0.500000 0.500000 0.500000 0.500000 0.500000 0.500000 0.500000 0.500000 0.500000 0.500000 0.500000 0.500000 0.500000 0.500000 0.500000 0.500000 0.500000 0.500000 0.500000 0.500000 0.500000 0.500000 0.500000 0.500000 0.500000 0.500000 0.500000 0.500000 0.500000 0.500000 0.500000 0.500000 0.500000 0.500000 0.500000 0.500000 0.500000 0.500000 0.500000 0.500000 0.500000 0.500000 0.500000 0.500000 0.500000 0.500000 0.500000 0.500000 0.500000 0.500000 0.500000 0.500000 0.500000 0.500000 0.500000 0.500000 0.500000 0.500000 0.500000 0.500000 0.500000 0.500000 0.500000 0.500000 0.500000 0.500000 0.500000 0.500000 0.500000 0.500000 0.500000 0.500000 0.500000 0.500000 0.500000 0.500000 0.500000 0.500000 0.500000 0.500000 0.500000 0.500000 0.500000 0.500000 0.500000 0.500000 0.500000 0.500000 0.500000 0.500000 0.500000 0.500000 0.500000 0.500000 0.500000 0.500000 0.500000 0.500000 0.500000 0.500000 0.500000 0.500000 0.500000 0.500000 0.500000 0.500000 0.500000 0.500000 0.500000 0.500000 0.500000 0.500000 0.500000 0.500000 0.500000 0.500000 0.500000 0.500000 0.500000 0.500000 0.500000 0.500000 0.500000 0.500000 0.500000 0.500000 0.500000 0.500000 0.500000 0.500000 0.500000 0.500000 0.500000 0.500000 0.500000 0.500000 0.500000 0.500000 0.500000 0.500000 0.500000 0.500000 0.500000 0.500000 0.500000 0.500000 0.500000 0.500000 0.500000 0.500000 0.500000 0.500000 0.500000 0.500000 0.500000 0.500000 0.500000 0.500000 0.500000 0.500000 0.500000 0.500000 0.500000 0.500000 0.500000 0.500000 0.500000 0.500000 0.500000 0.500000 0.999932 0.000068 0.666667 0.333333 0.999974 0.000026 0.909091 0.090909 0.999994 0.000006 0.952381 0.047619 0.999995 0.000005 0.956522 0.043478 0.999992 0.000008 0.979592 0.020408 0.999995 0.000005 0.964286 0.035714 0.643063 0.356937 0.375000 0.625000 0.999985 0.000015 0.909091 0.090909 0.999949 0.000051 0.750000 0.250000 0.999897 0.000103 0.500000 0.500000 0.500000 0.500000 0.971429 0.028571 0.500000 0.500000 0.984848 0.015152 0.500000 0.500000 0.996875 0.003125 0.500000 0.500000 0.997748 0.002252 0.500000 0.500000 0.996466 0.003534 0.500000 0.500000 0.998012 0.001988 0.500000 0.500000 0.691919 0.308081 0.500000 0.500000 0.995434 0.004566 0.500000 0.500000 0.985294 0.014706 0.500000 0.500000 0.961538 0.038462 0.500000 0.500000 0.888889 0.111111 0.500000 0.500000 0.958333 0.041667 0.500000 0.500000 0.988636 0.011364 0.500000 0.500000 0.992000 0.008000 0.500000 0.500000 0.985075 0.014925 0.500000 0.500000 0.990909 0.009091 0.500000 0.500000 0.666667 0.333333 0.500000 0.500000 0.973684 0.026316 0.500000 0.500000 0.900000 0.100000 0.500000 0.500000 0.833333 0.166667 0.500000 0.500000 0.500000 0.500000 0.500000 0.500000 0.500000 0.500000 0.500000 0.500000 0.500000 0.500000 0.500000 0.500000 0.500000 0.500000 0.500000 0.500000 0.666667 0.333333 0.500000 0.500000 0.500000 0.500000 0.500000 0.500000 0.500000 0.500000 0.500000 0.500000 0.500000 0.500000 0.500000 0.500000 0.500000 0.500000 0.500000 0.500000 0.500000 0.500000 0.500000 0.500000 0.500000 0.500000 0.500000 0.500000 0.500000 0.500000 0.500000 0.500000 0.500000 0.500000 0.500000 0.500000 0.750000 0.250000 0.500000 0.500000 0.500000 0.500000 0.500000 0.500000 0.500000 0.500000 0.500000 0.500000 0.500000 0.500000 0.500000 0.500000 0.500000 0.500000 0.500000 0.500000 0.500000 0.500000 0.500000 0.500000 0.500000 0.500000 0.500000 0.500000 0.500000 0.500000 0.500000 0.500000 0.500000 0.500000 0.500000 0.500000 0.500000 0.500000 0.500000 0.500000 0.750000 0.250000 0.500000 0.500000 0.500000 0.500000 0.500000 0.500000 0.500000 0.500000 0.500000 0.500000 0.500000 0.500000 0.500000 0.500000 0.500000 0.500000 0.500000 0.500000 0.500000 0.500000 0.500000 0.500000 0.500000 0.500000 0.500000 0.500000 0.944444 0.055556 0.500000 0.500000 0.979167 0.020833 0.500000 0.500000 0.996491 0.003509 0.500000 0.500000 0.997275 0.002725 0.500000 0.500000 0.996226 0.003774 0.500000 0.500000 0.998120 0.001880 0.500000 0.500000 0.535000 0.465000 0.500000 0.500000 0.995868 0.004132 0.500000 0.500000 0.984375 0.015625 0.500000 0.500000 0.954545 0.045455 0.500000 0.500000 0.500000 0.500000 0.500000 0.500000 0.500000 0.500000 0.500000 0.500000 0.500000 0.500000 0.500000 0.500000 0.500000 0.500000 0.500000 0.500000 0.500000 0.500000 0.500000 0.500000 0.500000 0.500000 0.500000 0.500000 0.500000 0.500000 0.500000 0.500000 0.500000 0.500000 0.500000 0.500000 0.500000 0.500000 0.500000 0.500000 0.500000 0.500000</TABLE>
</DEFINITION>
<DEFINITION>
	<FOR>label(Mole0)</FOR>
	<TABLE> 0.659459 0.340541</TABLE>
</DEFINITION>
<DEFINITION>
	<FOR>logp(Mole0)</FOR>
	<GIVEN>ind1(Mole0)</GIVEN>
	<GIVEN>label(Mole0)</GIVEN>
	<TABLE> 0.000008 0.115383 0.192300 0.423052 0.230759 0.038466 0.000008 0.000008 0.000008 0.000008 0.050849 0.084746 0.440668 0.271181 0.101695 0.050849 0.000003 0.000003 0.000003 0.000003 0.000002 0.000002 0.052084 0.114583 0.135416 0.374996 0.145832 0.145832 0.031251 0.000002 0.000051 0.000051 0.000051 0.000051 0.249923 0.000051 0.000051 0.000051 0.249923 0.499797</TABLE>
</DEFINITION>
<DEFINITION>
	<FOR>lumo(Mole0)</FOR>
	<GIVEN>inda(Mole0)</GIVEN>
	<GIVEN>label(Mole0)</GIVEN>
	<TABLE> 0.017095 0.051283 0.059830 0.205127 0.136752 0.282048 0.213674 0.034189 0.000002 0.000003 0.000003 0.000003 0.000003 0.079366 0.190474 0.349201 0.317454 0.063493 0.000041 0.000041 0.000041 0.199967 0.799746 0.000041 0.000041 0.000041 0.000041 0.111111 0.111111 0.111111 0.111111 0.111111 0.111111 0.111111 0.111111 0.111112</TABLE>
</DEFINITION>
<DEFINITION>
	<FOR>moleatm(Mole0,Atom0)</FOR>
	<GIVEN>bond(Mole0,Atom0)</GIVEN>
	<GIVEN>btype(Mole0,Atom0)</GIVEN>
	<TABLE> 0.500000 0.500000 0.500000 0.500000 0.500000 0.500000 0.500000 0.500000 0.500000 0.500000 0.500000 0.500000 0.999835 0.000165 0.000466 0.999534 0.002045 0.997955 0.333333 0.666667 0.250000 0.750000 0.250000 0.750000 0.000494 0.999506 0.500000 0.500000</TABLE>
</DEFINITION>
</NETWORK>
</BIF>
