<?xml version="1.0" encoding="UTF-8"?>
<BIF VERSION="0.3"  xmlns="http://www.cs.ubc.ca/labs/lci/fopi/ve/XMLBIFv0_3"
xmlns:xsi="http://www.w3.org/2001/XMLSchema-instance"
xsi:schemaLocation="http://www.cs.ubc.ca/labs/lci/fopi/ve/XMLBIFv0_3 http://www.cs.ubc.ca/labs/lci/fopi/ve/XMLBIFv0_3/XMLBIFv0_3.xsd">
<NETWORK>
<NAME>imdb_MovieLens</NAME>
<VARIABLE TYPE="nature">
	<NAME>age(users0)</NAME>
	<OUTCOME>1</OUTCOME>
	<OUTCOME>18</OUTCOME>
	<OUTCOME>25</OUTCOME>
	<OUTCOME>35</OUTCOME>
	<OUTCOME>45</OUTCOME>
	<OUTCOME>50</OUTCOME>
	<OUTCOME>56</OUTCOME>
	<PROPERTY> position=(6000.0,4000.0)</PROPERTY>
</VARIABLE>
<VARIABLE TYPE="nature">
	<NAME>avg_revenue(directors0)</NAME>
	<OUTCOME>0</OUTCOME>
	<OUTCOME>1</OUTCOME>
	<OUTCOME>2</OUTCOME>
	<OUTCOME>3</OUTCOME>
	<OUTCOME>4</OUTCOME>
	<PROPERTY> position=(6200.0,4000.0)</PROPERTY>
</VARIABLE>
<VARIABLE TYPE="nature">
	<NAME>a_gender(actors0)</NAME>
	<OUTCOME>F</OUTCOME>
	<OUTCOME>M</OUTCOME>
	<PROPERTY> position=(6400.0,4000.0)</PROPERTY>
</VARIABLE>
<VARIABLE TYPE="nature">
	<NAME>a_quality(actors0)</NAME>
	<OUTCOME>0</OUTCOME>
	<OUTCOME>1</OUTCOME>
	<OUTCOME>2</OUTCOME>
	<OUTCOME>3</OUTCOME>
	<OUTCOME>4</OUTCOME>
	<OUTCOME>5</OUTCOME>
	<PROPERTY> position=(6000.0,4200.0)</PROPERTY>
</VARIABLE>
<VARIABLE TYPE="nature">
	<NAME>cast_num(movies0,actors0)</NAME>
	<OUTCOME>0</OUTCOME>
	<OUTCOME>1</OUTCOME>
	<OUTCOME>2</OUTCOME>
	<OUTCOME>3</OUTCOME>
	<OUTCOME>N/A</OUTCOME>
	<PROPERTY> position=(6200.0,4200.0)</PROPERTY>
</VARIABLE>
<VARIABLE TYPE="nature">
	<NAME>country(movies0)</NAME>
	<OUTCOME>France</OUTCOME>
	<OUTCOME>other</OUTCOME>
	<OUTCOME>UK</OUTCOME>
	<OUTCOME>USA</OUTCOME>
	<PROPERTY> position=(6400.0,4200.0)</PROPERTY>
</VARIABLE>
<VARIABLE TYPE="nature">
	<NAME>d_quality(directors0)</NAME>
	<OUTCOME>0</OUTCOME>
	<OUTCOME>1</OUTCOME>
	<OUTCOME>2</OUTCOME>
	<OUTCOME>3</OUTCOME>
	<OUTCOME>4</OUTCOME>
	<OUTCOME>5</OUTCOME>
	<PROPERTY> position=(6000.0,4400.0)</PROPERTY>
</VARIABLE>
<VARIABLE TYPE="nature">
	<NAME>genre(movies0,directors0)</NAME>
	<OUTCOME>Action</OUTCOME>
	<OUTCOME>Adventure</OUTCOME>
	<OUTCOME>Animation</OUTCOME>
	<OUTCOME>Comedy</OUTCOME>
	<OUTCOME>Crime</OUTCOME>
	<OUTCOME>Documentary</OUTCOME>
	<OUTCOME>Drama</OUTCOME>
	<OUTCOME>Horror</OUTCOME>
	<OUTCOME>N/A</OUTCOME>
	<OUTCOME>Other</OUTCOME>
	<PROPERTY> position=(6200.0,4400.0)</PROPERTY>
</VARIABLE>
<VARIABLE TYPE="nature">
	<NAME>isEnglish(movies0)</NAME>
	<OUTCOME>F</OUTCOME>
	<OUTCOME>T</OUTCOME>
	<PROPERTY> position=(6400.0,4400.0)</PROPERTY>
</VARIABLE>
<VARIABLE TYPE="nature">
	<NAME>movies2actors(movies0,actors0)</NAME>
	<OUTCOME>F</OUTCOME>
	<OUTCOME>T</OUTCOME>
	<PROPERTY> position=(6000.0,4600.0)</PROPERTY>
</VARIABLE>
<VARIABLE TYPE="nature">
	<NAME>movies2directors(movies0,directors0)</NAME>
	<OUTCOME>F</OUTCOME>
	<OUTCOME>T</OUTCOME>
	<PROPERTY> position=(6200.0,4600.0)</PROPERTY>
</VARIABLE>
<VARIABLE TYPE="nature">
	<NAME>occupation(users0)</NAME>
	<OUTCOME>1</OUTCOME>
	<OUTCOME>2</OUTCOME>
	<OUTCOME>3</OUTCOME>
	<OUTCOME>4</OUTCOME>
	<OUTCOME>5</OUTCOME>
	<PROPERTY> position=(6400.0,4600.0)</PROPERTY>
</VARIABLE>
<VARIABLE TYPE="nature">
	<NAME>rating(users0,movies0)</NAME>
	<OUTCOME>1</OUTCOME>
	<OUTCOME>2</OUTCOME>
	<OUTCOME>3</OUTCOME>
	<OUTCOME>4</OUTCOME>
	<OUTCOME>5</OUTCOME>
	<OUTCOME>N/A</OUTCOME>
	<PROPERTY> position=(6000.0,4800.0)</PROPERTY>
</VARIABLE>
<VARIABLE TYPE="nature">
	<NAME>runningtime(movies0)</NAME>
	<OUTCOME>0</OUTCOME>
	<OUTCOME>1</OUTCOME>
	<OUTCOME>2</OUTCOME>
	<OUTCOME>3</OUTCOME>
	<PROPERTY> position=(6200.0,4800.0)</PROPERTY>
</VARIABLE>
<VARIABLE TYPE="nature">
	<NAME>u2base(users0,movies0)</NAME>
	<OUTCOME>F</OUTCOME>
	<OUTCOME>T</OUTCOME>
	<PROPERTY> position=(6400.0,4800.0)</PROPERTY>
</VARIABLE>
<VARIABLE TYPE="nature">
	<NAME>u_gender(users0)</NAME>
	<OUTCOME>F</OUTCOME>
	<OUTCOME>M</OUTCOME>
	<PROPERTY> position=(6000.0,5000.0)</PROPERTY>
</VARIABLE>
<VARIABLE TYPE="nature">
	<NAME>year(movies0)</NAME>
	<OUTCOME>1</OUTCOME>
	<OUTCOME>2</OUTCOME>
	<OUTCOME>3</OUTCOME>
	<OUTCOME>4</OUTCOME>
	<PROPERTY> position=(6200.0,5000.0)</PROPERTY>
</VARIABLE>
<DEFINITION>
	<FOR>age(users0)</FOR>
	<GIVEN>movies2actors(movies0,actors0)</GIVEN>
	<TABLE> 0.036761 0.182646 0.346912 0.197549 0.091075 0.082133 0.062924 0.036759 0.182676 0.346966 0.197542 0.091059 0.082110 0.062888</TABLE>
</DEFINITION>
<DEFINITION>
	<FOR>avg_revenue(directors0)</FOR>
	<GIVEN>d_quality(directors0)</GIVEN>
	<GIVEN>movies2actors(movies0,actors0)</GIVEN>
	<GIVEN>u2base(users0,movies0)</GIVEN>
	<TABLE> 0.979170 0.020830 0.000000 0.000000 0.000000 0.979168 0.020832 0.000000 0.000000 0.000000 0.979167 0.020833 0.000000 0.000000 0.000000 0.979167 0.020833 0.000000 0.000000 0.000000 0.300009 0.399984 0.100003 0.100003 0.100001 0.299985 0.399984 0.100004 0.099998 0.100029 0.299979 0.400007 0.100002 0.100009 0.100003 0.299988 0.399990 0.100003 0.099999 0.100020 0.348088 0.094939 0.246842 0.221520 0.088611 0.348087 0.094931 0.246832 0.221528 0.088622 0.348068 0.094942 0.246843 0.221529 0.088618 0.348084 0.094932 0.246831 0.221529 0.088624 0.206963 0.196968 0.163990 0.244026 0.188053 0.206944 0.196946 0.163971 0.244002 0.188137 0.206939 0.196959 0.163985 0.244030 0.188087 0.206939 0.196943 0.163966 0.243998 0.188154 0.244105 0.198327 0.211582 0.133312 0.212674 0.243999 0.198247 0.211507 0.133335 0.212912 0.244079 0.198319 0.211566 0.133314 0.212722 0.243996 0.198247 0.211490 0.133306 0.212961 0.000000 0.000000 0.000000 0.499964 0.500036 0.000000 0.000000 0.000000 0.499297 0.500703 0.000000 0.000000 0.000000 0.499955 0.500045 0.000000 0.000000 0.000000 0.499398 0.500602</TABLE>
</DEFINITION>
<DEFINITION>
	<FOR>a_gender(actors0)</FOR>
	<GIVEN>cast_num(movies0,actors0)</GIVEN>
	<TABLE> 0.267208 0.732792 0.339109 0.660891 0.306762 0.693238 0.310697 0.689303 0.333410 0.666590</TABLE>
</DEFINITION>
<DEFINITION>
	<FOR>a_quality(actors0)</FOR>
	<GIVEN>a_gender(actors0)</GIVEN>
	<GIVEN>cast_num(movies0,actors0)</GIVEN>
	<GIVEN>isEnglish(movies0)</GIVEN>
	<GIVEN>rating(users0,movies0)</GIVEN>
	<GIVEN>runningtime(movies0)</GIVEN>
	<GIVEN>year(movies0)</GIVEN>
	<TABLE> 0.749800 0.000057 0.000057 0.249972 0.000057 0.000057 0.166665 0.166667 0.166667 0.166667 0.166667 0.166667 0.999430 0.000114 0.000114 0.000114 0.000114 0.000114 0.166665 0.166667 0.166667 0.166667 0.166667 0.166667 0.000023 0.000023 0.000023 0.000023 0.999885 0.000023 0.166665 0.166667 0.166667 0.166667 0.166667 0.166667 0.000007 0.000007 0.000007 0.260882 0.739090 0.000007 0.000006 0.000006 0.000006 0.000006 0.999970 0.000006 0.166665 0.166667 0.166667 0.166667 0.166667 0.166667 0.000008 0.000008 0.000008 0.000008 0.999960 0.000008 0.000038 0.000038 0.000038 0.000038 0.999810 0.000038 0.000003 0.000003 0.000003 0.410252 0.589736 0.000003 0.000227 0.000227 0.000227 0.000227 0.998865 0.000227 0.000114 0.000114 0.000114 0.000114 0.999430 0.000114 0.000013 0.000013 0.000013 0.000013 0.999935 0.000013 0.000001 0.000001 0.000001 0.018406 0.981590 0.000001 0.799913 0.000023 0.000023 0.199995 0.000023 0.000023 0.166665 0.166667 0.166667 0.166667 0.166667 0.166667 0.999245 0.000151 0.000151 0.000151 0.000151 0.000151 0.000227 0.000227 0.000227 0.499546 0.499546 0.000227 0.000025 0.000025 0.000025 0.000025 0.999875 0.000025 0.000041 0.000041 0.000041 0.636170 0.363666 0.000041 0.000008 0.000008 0.000008 0.214311 0.785657 0.000008 0.000002 0.000002 0.000002 0.000002 0.999990 0.000002 0.166665 0.166667 0.166667 0.166667 0.166667 0.166667 0.000005 0.000005 0.000005 0.000005 0.999975 0.000005 0.000151 0.000151 0.000151 0.000151 0.999245 0.000151 0.000003 0.000003 0.000003 0.273331 0.726657 0.000003 0.166665 0.166667 0.166667 0.166667 0.166667 0.166667 0.000032 0.000032 0.000032 0.000032 0.999840 0.000032 0.000023 0.000023 0.000023 0.000023 0.999885 0.000023 0.000001 0.000001 0.000001 0.019775 0.980221 0.000001 0.399968 0.000023 0.000023 0.599940 0.000023 0.000023 0.166665 0.166667 0.166667 0.166667 0.166667 0.166667 0.999430 0.000114 0.000114 0.000114 0.000114 0.000114 0.000114 0.000114 0.000114 0.499771 0.499773 0.000114 0.000004 0.000004 0.000004 0.000004 0.999980 0.000004 0.000151 0.000151 0.000151 0.000151 0.999245 0.000151 0.000002 0.000002 0.000002 0.195704 0.804288 0.000002 0.000001 0.000001 0.000001 0.003784 0.996212 0.000001 0.166665 0.166667 0.166667 0.166667 0.166667 0.166667 0.000003 0.000003 0.000003 0.000003 0.999985 0.000003 0.000013 0.000013 0.000013 0.000013 0.999935 0.000013 0.000001 0.000001 0.000001 0.280876 0.719120 0.000001 0.000453 0.000453 0.000453 0.000453 0.997735 0.000453 0.000014 0.000014 0.000014 0.000014 0.999930 0.000014 0.000004 0.000004 0.000004 0.000004 0.999980 0.000004 0.000000 0.000000 0.000653 0.005222 0.994125 0.000000 0.299994 0.000008 0.000008 0.699974 0.000008 0.000008 0.166665 0.166667 0.166667 0.166667 0.166667 0.166667 0.999675 0.000065 0.000065 0.000065 0.000065 0.000065 0.000076 0.000076 0.000076 0.499847 0.499849 0.000076 0.000003 0.000003 0.000003 0.000003 0.999985 0.000003 0.000065 0.000065 0.000065 0.000065 0.999675 0.000065 0.000001 0.000001 0.000001 0.249391 0.750605 0.000001 0.000000 0.000000 0.000000 0.000000 1.000000 0.000000 0.166665 0.166667 0.166667 0.166667 0.166667 0.166667 0.000002 0.000002 0.000002 0.000002 0.999990 0.000002 0.000005 0.000005 0.000005 0.000005 0.999975 0.000005 0.000000 0.000000 0.000000 0.150794 0.849206 0.000000 0.166665 0.166667 0.166667 0.166667 0.166667 0.166667 0.000005 0.000005 0.000005 0.000005 0.999975 0.000005 0.000002 0.000002 0.000002 0.000002 0.999990 0.000002 0.000000 0.000000 0.000000 0.001746 0.998254 0.000000 0.266658 0.000015 0.000015 0.733282 0.000015 0.000015 0.166665 0.166667 0.166667 0.166667 0.166667 0.166667 0.999675 0.000065 0.000065 0.000065 0.000065 0.000065 0.000227 0.000227 0.000227 0.499546 0.499546 0.000227 0.000003 0.000003 0.000003 0.000003 0.999985 0.000003 0.166665 0.166667 0.166667 0.166667 0.166667 0.166667 0.000001 0.000001 0.000001 0.264845 0.735151 0.000001 0.000000 0.000000 0.000000 0.000000 1.000000 0.000000 0.166665 0.166667 0.166667 0.166667 0.166667 0.166667 0.000004 0.000004 0.000004 0.000004 0.999980 0.000004 0.000002 0.000002 0.000002 0.000002 0.999990 0.000002 0.000001 0.000001 0.000001 0.112628 0.887368 0.000001 0.000453 0.000453 0.000453 0.000453 0.997735 0.000453 0.000003 0.000003 0.000003 0.000003 0.999985 0.000003 0.000002 0.000002 0.000002 0.000002 0.999990 0.000002 0.000000 0.000000 0.000000 0.001185 0.998815 0.000000 0.500541 0.000000 0.000000 0.499459 0.000000 0.000000 0.166665 0.166667 0.166667 0.166667 0.166667 0.166667 1.000000 0.000000 0.000000 0.000000 0.000000 0.000000 0.500290 0.000000 0.000000 0.249855 0.249855 0.000000 0.000000 0.000000 0.000000 0.000000 1.000000 0.000000 0.437583 0.000000 0.000000 0.437510 0.124907 0.000000 0.000000 0.000000 0.000000 0.468029 0.531971 0.000000 0.000000 0.000000 0.000000 0.071050 0.928950 0.000000 0.166665 0.166667 0.166667 0.166667 0.166667 0.166667 0.000000 0.000000 0.000000 0.000000 1.000000 0.000000 0.000000 0.000000 0.000000 0.000000 1.000000 0.000000 0.000000 0.000000 0.000000 0.422995 0.577005 0.000000 0.000000 0.000000 0.000000 0.000000 1.000000 0.000000 0.000000 0.000000 0.000000 0.000000 1.000000 0.000000 0.000000 0.000000 0.000000 0.125833 0.874167 0.000000 0.000000 0.000000 0.006835 0.109348 0.883817 0.000000 0.166665 0.166667 0.166667 0.166667 0.166667 0.166667 0.999970 0.000006 0.000006 0.000006 0.000006 0.000006 0.166665 0.166667 0.166667 0.166667 0.166667 0.166667 0.166665 0.166667 0.166667 0.166667 0.166667 0.166667 0.000227 0.000227 0.000227 0.000227 0.998865 0.000227 0.000001 0.000001 0.003848 0.107868 0.888281 0.000001 0.000002 0.000002 0.036543 0.421983 0.541468 0.000002 0.000713 0.000000 0.113126 0.574978 0.311183 0.000000 0.166665 0.166667 0.166667 0.166667 0.166667 0.166667 0.000006 0.000006 0.000006 0.013168 0.986808 0.000006 0.000000 0.000000 0.000000 0.719280 0.280720 0.000000 0.000000 0.004594 0.028884 0.557776 0.408746 0.000000 0.166665 0.166667 0.166667 0.166667 0.166667 0.166667 0.000008 0.000008 0.000008 0.000008 0.999960 0.000008 0.000001 0.000001 0.000001 0.052844 0.947152 0.000001 0.000000 0.000000 0.007647 0.495888 0.484117 0.012348 0.166665 0.166667 0.166667 0.166667 0.166667 0.166667 0.999985 0.000003 0.000003 0.000003 0.000003 0.000003 0.166665 0.166667 0.166667 0.166667 0.166667 0.166667 0.166665 0.166667 0.166667 0.166667 0.166667 0.166667 0.166665 0.166667 0.166667 0.166667 0.166667 0.166667 0.000000 0.000000 0.001015 0.093967 0.905018 0.000000 0.000001 0.000001 0.033801 0.425410 0.540786 0.000001 0.002106 0.000000 0.077584 0.522246 0.398064 0.000000 0.166665 0.166667 0.166667 0.166667 0.166667 0.166667 0.000003 0.000003 0.000003 0.011634 0.988354 0.000003 0.000000 0.000000 0.000000 0.679384 0.320616 0.000000 0.000000 0.000000 0.003656 0.435042 0.561302 0.000000 0.166665 0.166667 0.166667 0.166667 0.166667 0.166667 0.000005 0.000005 0.000005 0.000005 0.999975 0.000005 0.000000 0.000000 0.000000 0.048078 0.951922 0.000000 0.000000 0.000000 0.002265 0.450709 0.533975 0.013051 0.999245 0.000151 0.000151 0.000151 0.000151 0.000151 0.999990 0.000002 0.000002 0.000002 0.000002 0.000002 0.166665 0.166667 0.166667 0.166667 0.166667 0.166667 0.000065 0.000065 0.000065 0.714072 0.285668 0.000065 0.166665 0.166667 0.166667 0.166667 0.166667 0.166667 0.000000 0.000000 0.000391 0.091229 0.908380 0.000000 0.000000 0.000000 0.014271 0.354481 0.631248 0.000000 0.003123 0.000000 0.030412 0.438041 0.528424 0.000000 0.166665 0.166667 0.166667 0.166667 0.166667 0.166667 0.000000 0.000000 0.000000 0.001074 0.998926 0.000000 0.000000 0.000000 0.000000 0.579560 0.420440 0.000000 0.000000 0.000000 0.000987 0.339515 0.659498 0.000000 0.166665 0.166667 0.166667 0.166667 0.166667 0.166667 0.000001 0.000001 0.000001 0.000001 0.999995 0.000001 0.000000 0.000000 0.000000 0.044447 0.955553 0.000000 0.000000 0.000000 0.001250 0.375075 0.601333 0.022342 0.997735 0.000453 0.000453 0.000453 0.000453 0.000453 0.999990 0.000002 0.000002 0.000002 0.000002 0.000002 0.166665 0.166667 0.166667 0.166667 0.166667 0.166667 0.062518 0.000028 0.000028 0.125007 0.812391 0.000028 0.000227 0.000227 0.000227 0.000227 0.998865 0.000227 0.000000 0.000000 0.000367 0.096862 0.902771 0.000000 0.000000 0.000000 0.006653 0.308485 0.684862 0.000000 0.003254 0.000000 0.015362 0.321189 0.660195 0.000000 0.166665 0.166667 0.166667 0.166667 0.166667 0.166667 0.000000 0.000000 0.000000 0.000503 0.999497 0.000000 0.000000 0.000000 0.000000 0.381523 0.618477 0.000000 0.000000 0.000000 0.000135 0.263128 0.736737 0.000000 0.166665 0.166667 0.166667 0.166667 0.166667 0.166667 0.000000 0.000000 0.000000 0.000000 1.000000 0.000000 0.000000 0.000000 0.000000 0.022117 0.977883 0.000000 0.000000 0.000000 0.000639 0.291518 0.670784 0.037059 0.166665 0.166667 0.166667 0.166667 0.166667 0.166667 0.999960 0.000008 0.000008 0.000008 0.000008 0.000008 0.166665 0.166667 0.166667 0.166667 0.166667 0.166667 0.166665 0.166667 0.166667 0.166667 0.166667 0.166667 0.000076 0.000076 0.000076 0.000076 0.999620 0.000076 0.000000 0.000000 0.000000 0.077915 0.922085 0.000000 0.000000 0.000000 0.002729 0.258213 0.739058 0.000000 0.001357 0.000000 0.007574 0.206504 0.784565 0.000000 0.166665 0.166667 0.166667 0.166667 0.166667 0.166667 0.000000 0.000000 0.000000 0.000456 0.999544 0.000000 0.000000 0.000000 0.000000 0.182660 0.817340 0.000000 0.000000 0.000000 0.000137 0.209576 0.790287 0.000000 0.166665 0.166667 0.166667 0.166667 0.166667 0.166667 0.000001 0.000001 0.000001 0.000001 0.999995 0.000001 0.000000 0.000000 0.000000 0.012204 0.987796 0.000000 0.000000 0.000000 0.000109 0.167341 0.781192 0.051358 1.000000 0.000000 0.000000 0.000000 0.000000 0.000000 1.000000 0.000000 0.000000 0.000000 0.000000 0.000000 0.166665 0.166667 0.166667 0.166667 0.166667 0.166667 0.050009 0.000000 0.000000 0.350006 0.599985 0.000000 0.000000 0.000000 0.000000 0.000000 1.000000 0.000000 0.000000 0.000000 0.015023 0.219319 0.765658 0.000000 0.053660 0.000000 0.053692 0.548144 0.344504 0.000000 0.008600 0.000000 0.055895 0.474903 0.460602 0.000000 0.166665 0.166667 0.166667 0.166667 0.166667 0.166667 0.000000 0.000000 0.000000 0.070850 0.929150 0.000000 0.000000 0.000000 0.000000 0.431385 0.568615 0.000000 0.000000 0.007662 0.069024 0.524229 0.399085 0.000000 0.166665 0.166667 0.166667 0.166667 0.166667 0.166667 0.000000 0.000000 0.000000 0.000000 1.000000 0.000000 0.000000 0.000000 0.000000 0.034453 0.965547 0.000000 0.000000 0.000000 0.004931 0.423691 0.568611 0.002767 0.166665 0.166667 0.166667 0.166667 0.166667 0.166667 0.166665 0.166667 0.166667 0.166667 0.166667 0.166667 0.166665 0.166667 0.166667 0.166667 0.166667 0.166667 0.000006 0.000006 0.000006 0.999970 0.000006 0.000006 0.000028 0.000028 0.000028 0.000028 0.999860 0.000028 0.000113 0.000113 0.000113 0.000113 0.999435 0.000113 0.000005 0.000005 0.021510 0.118281 0.860194 0.000005 0.000002 0.000002 0.000002 0.287764 0.712228 0.000002 0.166665 0.166667 0.166667 0.166667 0.166667 0.166667 0.000015 0.000015 0.000015 0.000015 0.999925 0.000015 0.000004 0.000004 0.000004 0.423994 0.575990 0.000004 0.000001 0.000001 0.000001 0.414816 0.585180 0.000001 0.000114 0.000114 0.000114 0.000114 0.999430 0.000114 0.000016 0.000016 0.000016 0.000016 0.999920 0.000016 0.000004 0.000004 0.000004 0.018185 0.981799 0.000004 0.000001 0.000001 0.000001 0.148073 0.851923 0.000001 0.166665 0.166667 0.166667 0.166667 0.166667 0.166667 0.166665 0.166667 0.166667 0.166667 0.166667 0.166667 0.166665 0.166667 0.166667 0.166667 0.166667 0.166667 0.000005 0.000005 0.000005 0.999975 0.000005 0.000005 0.000032 0.000032 0.000032 0.000032 0.999840 0.000032 0.000114 0.000114 0.000114 0.499771 0.499773 0.000114 0.016673 0.000008 0.016673 0.033339 0.933299 0.000008 0.000001 0.000001 0.003677 0.183818 0.812502 0.000001 0.166665 0.166667 0.166667 0.166667 0.166667 0.166667 0.000009 0.000009 0.000009 0.000009 0.999955 0.000009 0.000002 0.000002 0.000002 0.376882 0.623110 0.000002 0.000000 0.000000 0.000000 0.356574 0.643426 0.000000 0.166665 0.166667 0.166667 0.166667 0.166667 0.166667 0.000012 0.000012 0.000012 0.000012 0.999940 0.000012 0.000003 0.000003 0.000003 0.016577 0.983411 0.000003 0.000000 0.000000 0.000000 0.162768 0.837232 0.000000 0.166665 0.166667 0.166667 0.166667 0.166667 0.166667 0.166665 0.166667 0.166667 0.166667 0.166667 0.166667 0.166665 0.166667 0.166667 0.166667 0.166667 0.166667 0.000006 0.000006 0.000006 0.999970 0.000006 0.000006 0.000010 0.000010 0.000010 0.000010 0.999950 0.000010 0.000013 0.000013 0.000013 0.000013 0.999935 0.000013 0.000002 0.000002 0.000002 0.022028 0.977964 0.000002 0.000000 0.000000 0.000000 0.159479 0.840521 0.000000 0.166665 0.166667 0.166667 0.166667 0.166667 0.166667 0.000005 0.000005 0.000005 0.000005 0.999975 0.000005 0.000001 0.000001 0.000001 0.280068 0.719928 0.000001 0.000000 0.000000 0.000000 0.270915 0.729085 0.000000 0.000227 0.000227 0.000227 0.000227 0.998865 0.000227 0.000003 0.000003 0.000003 0.000003 0.999985 0.000003 0.000001 0.000001 0.000001 0.013770 0.986226 0.000001 0.000000 0.000000 0.000261 0.141216 0.858523 0.000000 0.166665 0.166667 0.166667 0.166667 0.166667 0.166667 0.166665 0.166667 0.166667 0.166667 0.166667 0.166667 0.166665 0.166667 0.166667 0.166667 0.166667 0.166667 0.000015 0.000015 0.000015 0.999925 0.000015 0.000015 0.000006 0.000006 0.000006 0.000006 0.999970 0.000006 0.000005 0.000005 0.000005 0.000005 0.999975 0.000005 0.000001 0.000001 0.005815 0.020350 0.973832 0.000001 0.000000 0.000000 0.000000 0.123539 0.876461 0.000000 0.166665 0.166667 0.166667 0.166667 0.166667 0.166667 0.000005 0.000005 0.000005 0.000005 0.999975 0.000005 0.000000 0.000000 0.000000 0.206698 0.793302 0.000000 0.000000 0.000000 0.000000 0.181730 0.818270 0.000000 0.166665 0.166667 0.166667 0.166667 0.166667 0.166667 0.000001 0.000001 0.000001 0.000001 0.999995 0.000001 0.000000 0.000000 0.000000 0.021429 0.978571 0.000000 0.000000 0.000000 0.000000 0.124044 0.875956 0.000000 0.166665 0.166667 0.166667 0.166667 0.166667 0.166667 0.166665 0.166667 0.166667 0.166667 0.166667 0.166667 0.166665 0.166667 0.166667 0.166667 0.166667 0.166667 0.000076 0.000076 0.000076 0.999620 0.000076 0.000076 0.000005 0.000005 0.000005 0.000005 0.999975 0.000005 0.000003 0.000003 0.000003 0.000003 0.999985 0.000003 0.000002 0.000002 0.007845 0.000002 0.992147 0.000002 0.000000 0.000000 0.000000 0.068549 0.931451 0.000000 0.166665 0.166667 0.166667 0.166667 0.166667 0.166667 0.000008 0.000008 0.000008 0.000008 0.999960 0.000008 0.000001 0.000001 0.000001 0.254425 0.745571 0.000001 0.000000 0.000000 0.000000 0.107741 0.892259 0.000000 0.000227 0.000227 0.000227 0.000227 0.998865 0.000227 0.000001 0.000001 0.000001 0.000001 0.999995 0.000001 0.000000 0.000000 0.000000 0.026556 0.973444 0.000000 0.000000 0.000000 0.000000 0.115999 0.884001 0.000000 0.166665 0.166667 0.166667 0.166667 0.166667 0.166667 0.166665 0.166667 0.166667 0.166667 0.166667 0.166667 0.166665 0.166667 0.166667 0.166667 0.166667 0.166667 0.000000 0.000000 0.000000 1.000000 0.000000 0.000000 0.000000 0.000000 0.000000 0.000000 1.000000 0.000000 0.000000 0.000000 0.000000 0.223316 0.776684 0.000000 0.020473 0.000000 0.061404 0.245626 0.672497 0.000000 0.021949 0.000000 0.021946 0.225609 0.730496 0.000000 0.166665 0.166667 0.166667 0.166667 0.166667 0.166667 0.000000 0.000000 0.000000 0.000000 1.000000 0.000000 0.000000 0.000000 0.000000 0.232274 0.767726 0.000000 0.000000 0.000000 0.000000 0.225712 0.774288 0.000000 0.000000 0.000000 0.000000 0.000000 1.000000 0.000000 0.000000 0.000000 0.000000 0.000000 1.000000 0.000000 0.000000 0.000000 0.000000 0.053890 0.946110 0.000000 0.000000 0.000000 0.005034 0.169015 0.825951 0.000000 0.728978 0.000009 0.000009 0.166753 0.104242 0.000009 0.166665 0.166667 0.166667 0.166667 0.166667 0.166667 0.166665 0.166667 0.166667 0.166667 0.166667 0.166667 0.399873 0.000091 0.000091 0.599763 0.000091 0.000091 0.065187 0.000010 0.000010 0.369576 0.565207 0.000010 0.000001 0.000001 0.014595 0.271479 0.705171 0.008753 0.000000 0.000000 0.037823 0.626074 0.336103 0.000000 0.000643 0.007719 0.064038 0.797039 0.130561 0.000000 0.000151 0.000151 0.000151 0.000151 0.999245 0.000151 0.000001 0.000001 0.000001 0.046780 0.953216 0.000001 0.000000 0.000000 0.011666 0.572471 0.415863 0.000000 0.000000 0.000000 0.042841 0.760495 0.196664 0.000000 0.000091 0.000091 0.000091 0.000091 0.999545 0.000091 0.000001 0.000001 0.000001 0.068689 0.931307 0.000001 0.000000 0.000000 0.057428 0.446525 0.496047 0.000000 0.000000 0.009100 0.001153 0.678999 0.307003 0.003745 0.618297 0.000003 0.000003 0.231315 0.150379 0.000003 0.166665 0.166667 0.166667 0.166667 0.166667 0.166667 0.166665 0.166667 0.166667 0.166667 0.166667 0.166667 0.631512 0.000024 0.000024 0.368392 0.000024 0.000024 0.021735 0.000010 0.000010 0.673889 0.304346 0.000010 0.004386 0.000000 0.001463 0.185053 0.800327 0.008771 0.000000 0.000000 0.016790 0.564324 0.418886 0.000000 0.000439 0.002710 0.025198 0.795583 0.176070 0.000000 0.000151 0.000151 0.000151 0.000151 0.999245 0.000151 0.000001 0.000001 0.000001 0.029176 0.970820 0.000001 0.000000 0.000000 0.005528 0.527776 0.466696 0.000000 0.000000 0.000000 0.016385 0.748173 0.235442 0.000000 0.000091 0.000091 0.000091 0.000091 0.999545 0.000091 0.000000 0.000000 0.000000 0.082236 0.917764 0.000000 0.000000 0.000000 0.015659 0.415349 0.568992 0.000000 0.000000 0.001052 0.000849 0.655964 0.337764 0.004371 0.683075 0.000001 0.000001 0.204282 0.112640 0.000001 0.166665 0.166667 0.166667 0.166667 0.166667 0.166667 0.166665 0.166667 0.166667 0.166667 0.166667 0.166667 0.844122 0.000006 0.000006 0.155854 0.000006 0.000006 0.033471 0.000002 0.000002 0.578972 0.387551 0.000002 0.002742 0.000000 0.002011 0.121631 0.864843 0.008773 0.000000 0.000000 0.009050 0.473929 0.517021 0.000000 0.000193 0.000619 0.011275 0.746804 0.241109 0.000000 0.000013 0.000013 0.000013 0.000013 0.999935 0.000013 0.000000 0.000000 0.000000 0.023059 0.976941 0.000000 0.000000 0.000000 0.001299 0.462980 0.535721 0.000000 0.000000 0.000000 0.005983 0.711475 0.282542 0.000000 0.000038 0.000038 0.000038 0.000038 0.999810 0.000038 0.000000 0.000000 0.000000 0.075085 0.924915 0.000000 0.000000 0.000000 0.003208 0.335008 0.661784 0.000000 0.000000 0.000322 0.000374 0.619388 0.375299 0.004617 0.693930 0.000001 0.000001 0.227064 0.079003 0.000001 0.166665 0.166667 0.166667 0.166667 0.166667 0.166667 0.166665 0.166667 0.166667 0.166667 0.166667 0.166667 0.819980 0.000005 0.000005 0.180000 0.000005 0.000005 0.028230 0.000001 0.000001 0.539580 0.432187 0.000001 0.000998 0.000000 0.000222 0.075026 0.904233 0.019521 0.000000 0.000000 0.004138 0.357401 0.638461 0.000000 0.000000 0.000214 0.004542 0.673310 0.321934 0.000000 0.000008 0.000008 0.000008 0.000008 0.999960 0.000008 0.000000 0.000000 0.000000 0.010879 0.989121 0.000000 0.000000 0.000000 0.000772 0.392144 0.607084 0.000000 0.000000 0.000000 0.002781 0.650186 0.347033 0.000000 0.000035 0.000035 0.000035 0.000035 0.999825 0.000035 0.000000 0.000000 0.000000 0.065704 0.934296 0.000000 0.000000 0.000000 0.000554 0.267976 0.731470 0.000000 0.000000 0.000103 0.000183 0.572045 0.419303 0.008366 0.700803 0.000004 0.000004 0.261771 0.037414 0.000004 0.166665 0.166667 0.166667 0.166667 0.166667 0.166667 0.166665 0.166667 0.166667 0.166667 0.166667 0.166667 0.844395 0.000010 0.000010 0.133334 0.022241 0.000010 0.038999 0.000002 0.000002 0.517111 0.443884 0.000002 0.000329 0.000000 0.000000 0.046341 0.904061 0.049269 0.000000 0.000000 0.001930 0.281229 0.716841 0.000000 0.000000 0.000000 0.003124 0.602340 0.394536 0.000000 0.000025 0.000025 0.000025 0.000025 0.999875 0.000025 0.000000 0.000000 0.000000 0.002843 0.997157 0.000000 0.000000 0.000000 0.001129 0.362953 0.635918 0.000000 0.000000 0.000000 0.001700 0.573303 0.424997 0.000000 0.000091 0.000091 0.000091 0.000091 0.999545 0.000091 0.000000 0.000000 0.000000 0.047463 0.952537 0.000000 0.000000 0.000000 0.000417 0.214185 0.785398 0.000000 0.000000 0.000030 0.000050 0.512981 0.463211 0.023728 0.703707 0.000000 0.000000 0.197408 0.098885 0.000000 0.166665 0.166667 0.166667 0.166667 0.166667 0.166667 0.166665 0.166667 0.166667 0.166667 0.166667 0.166667 0.143024 0.000000 0.000000 0.713974 0.143002 0.000000 0.045735 0.000000 0.000000 0.362414 0.591851 0.000000 0.004993 0.000000 0.014978 0.227981 0.742515 0.009533 0.000000 0.000000 0.034824 0.514985 0.450191 0.000000 0.002656 0.003529 0.059321 0.738843 0.195651 0.000000 0.000000 0.000000 0.000000 0.000000 1.000000 0.000000 0.000000 0.000000 0.000000 0.109185 0.890815 0.000000 0.000000 0.000000 0.025796 0.504915 0.469289 0.000000 0.000000 0.000000 0.022394 0.732656 0.244950 0.000000 0.000000 0.000000 0.000000 0.000000 1.000000 0.000000 0.000000 0.000000 0.000000 0.127380 0.872620 0.000000 0.000000 0.000000 0.007559 0.300518 0.691923 0.000000 0.000000 0.000834 0.002498 0.638322 0.357339 0.001007 0.166665 0.166667 0.166667 0.166667 0.166667 0.166667 0.166665 0.166667 0.166667 0.166667 0.166667 0.166667 0.166665 0.166667 0.166667 0.166667 0.166667 0.166667 0.064173 0.000002 0.000002 0.935819 0.000002 0.000002 0.000009 0.000009 0.000009 0.000009 0.999955 0.000009 0.000114 0.000114 0.000114 0.000114 0.999430 0.000114 0.000003 0.000003 0.036234 0.181159 0.782598 0.000003 0.000001 0.000001 0.000001 0.304072 0.695924 0.000001 0.166665 0.166667 0.166667 0.166667 0.166667 0.166667 0.000008 0.000008 0.000008 0.000008 0.999960 0.000008 0.000001 0.000001 0.000001 0.213434 0.786562 0.000001 0.000000 0.000000 0.000000 0.367660 0.632340 0.000000 0.166665 0.166667 0.166667 0.166667 0.166667 0.166667 0.000021 0.000021 0.000021 0.000021 0.999895 0.000021 0.000002 0.000002 0.000002 0.017096 0.923068 0.059830 0.000000 0.000000 0.000000 0.100782 0.899218 0.000000 0.166665 0.166667 0.166667 0.166667 0.166667 0.166667 0.166665 0.166667 0.166667 0.166667 0.166667 0.166667 0.166665 0.166667 0.166667 0.166667 0.166667 0.166667 0.071430 0.000002 0.000002 0.928562 0.000002 0.000002 0.000010 0.000010 0.000010 0.000010 0.999950 0.000010 0.000091 0.000091 0.000091 0.199982 0.799654 0.000091 0.000005 0.000005 0.000005 0.202380 0.797600 0.000005 0.000000 0.000000 0.005198 0.125774 0.869028 0.000000 0.166665 0.166667 0.166667 0.166667 0.166667 0.166667 0.000005 0.000005 0.000005 0.000005 0.999975 0.000005 0.000001 0.000001 0.000001 0.094958 0.905038 0.000001 0.000000 0.000000 0.000000 0.329296 0.670704 0.000000 0.166665 0.166667 0.166667 0.166667 0.166667 0.166667 0.000009 0.000009 0.000009 0.000009 0.999955 0.000009 0.000001 0.000001 0.000001 0.007395 0.953784 0.038818 0.000000 0.000000 0.000000 0.099554 0.900446 0.000000 0.166665 0.166667 0.166667 0.166667 0.166667 0.166667 0.166665 0.166667 0.166667 0.166667 0.166667 0.166667 0.166665 0.166667 0.166667 0.166667 0.166667 0.166667 0.099011 0.000002 0.000002 0.900981 0.000002 0.000002 0.000002 0.000002 0.000002 0.000002 0.999990 0.000002 0.000007 0.000007 0.000007 0.000007 0.999965 0.000007 0.000001 0.000001 0.000001 0.154450 0.845546 0.000001 0.000000 0.000000 0.000000 0.101258 0.898742 0.000000 0.166665 0.166667 0.166667 0.166667 0.166667 0.166667 0.000003 0.000003 0.000003 0.000003 0.999985 0.000003 0.000000 0.000000 0.000000 0.081182 0.918818 0.000000 0.000000 0.000000 0.000000 0.256313 0.743687 0.000000 0.166665 0.166667 0.166667 0.166667 0.166667 0.166667 0.000002 0.000002 0.000002 0.000002 0.999990 0.000002 0.000000 0.000000 0.000000 0.007063 0.915244 0.077693 0.000000 0.000000 0.000280 0.081300 0.918420 0.000000 0.166665 0.166667 0.166667 0.166667 0.166667 0.166667 0.166665 0.166667 0.166667 0.166667 0.166667 0.166667 0.166665 0.166667 0.166667 0.166667 0.166667 0.166667 0.135804 0.000006 0.000006 0.864172 0.000006 0.000006 0.000001 0.000001 0.000001 0.000001 0.999995 0.000001 0.000003 0.000003 0.000003 0.000003 0.999985 0.000003 0.000001 0.000001 0.008091 0.087379 0.904527 0.000001 0.000000 0.000000 0.000000 0.059961 0.940039 0.000000 0.166665 0.166667 0.166667 0.166667 0.166667 0.166667 0.000002 0.000002 0.000002 0.000002 0.999990 0.000002 0.000000 0.000000 0.000000 0.027093 0.972907 0.000000 0.000000 0.000000 0.000000 0.153986 0.846014 0.000000 0.166665 0.166667 0.166667 0.166667 0.166667 0.166667 0.000001 0.000001 0.000001 0.000001 0.999995 0.000001 0.000000 0.000000 0.000000 0.003195 0.909212 0.087593 0.000000 0.000000 0.000000 0.063647 0.936353 0.000000 0.166665 0.166667 0.166667 0.166667 0.166667 0.166667 0.166665 0.166667 0.166667 0.166667 0.166667 0.166667 0.166665 0.166667 0.166667 0.166667 0.166667 0.166667 0.176469 0.000027 0.000027 0.823423 0.000027 0.000027 0.000001 0.000001 0.000001 0.000001 0.999995 0.000001 0.000002 0.000002 0.000002 0.000002 0.999990 0.000002 0.000001 0.000001 0.010001 0.028001 0.961995 0.000001 0.000000 0.000000 0.000000 0.037227 0.962773 0.000000 0.166665 0.166667 0.166667 0.166667 0.166667 0.166667 0.000004 0.000004 0.000004 0.000004 0.999980 0.000004 0.000000 0.000000 0.000000 0.012745 0.987255 0.000000 0.000000 0.000000 0.000000 0.063250 0.936750 0.000000 0.166665 0.166667 0.166667 0.166667 0.166667 0.166667 0.000001 0.000001 0.000001 0.000001 0.999995 0.000001 0.000000 0.000000 0.000000 0.001306 0.892297 0.106397 0.000000 0.000000 0.000000 0.062715 0.937285 0.000000 0.166665 0.166667 0.166667 0.166667 0.166667 0.166667 0.166665 0.166667 0.166667 0.166667 0.166667 0.166667 0.166665 0.166667 0.166667 0.166667 0.166667 0.166667 0.090958 0.000000 0.000000 0.909042 0.000000 0.000000 0.000000 0.000000 0.000000 0.000000 1.000000 0.000000 0.000000 0.000000 0.000000 0.112135 0.887865 0.000000 0.000000 0.000000 0.082311 0.328948 0.588741 0.000000 0.029177 0.000000 0.033342 0.270263 0.667218 0.000000 0.166665 0.166667 0.166667 0.166667 0.166667 0.166667 0.000000 0.000000 0.000000 0.000000 1.000000 0.000000 0.000000 0.000000 0.000000 0.168222 0.831778 0.000000 0.000000 0.000000 0.000000 0.255038 0.744962 0.000000 0.166665 0.166667 0.166667 0.166667 0.166667 0.166667 0.000000 0.000000 0.000000 0.000000 1.000000 0.000000 0.000000 0.000000 0.000000 0.039806 0.953308 0.006886 0.000000 0.000000 0.005256 0.164407 0.830337 0.000000 0.999810 0.000038 0.000038 0.000038 0.000038 0.000038 0.166665 0.166667 0.166667 0.166667 0.166667 0.166667 0.166665 0.166667 0.166667 0.166667 0.166667 0.166667 0.000030 0.000030 0.000030 0.999850 0.000030 0.000030 0.119999 0.000018 0.000018 0.120053 0.759894 0.000018 0.000001 0.000001 0.048145 0.192591 0.752842 0.006420 0.000000 0.000353 0.075920 0.559044 0.363743 0.000940 0.000000 0.004938 0.093058 0.738119 0.163885 0.000000 0.000076 0.000076 0.000076 0.000076 0.999620 0.000076 0.000001 0.000001 0.002483 0.096746 0.831318 0.069451 0.000000 0.000000 0.121904 0.531764 0.346332 0.000000 0.000000 0.002823 0.079640 0.731150 0.185621 0.000766 0.000030 0.000030 0.000030 0.000030 0.999850 0.000030 0.000001 0.000001 0.000001 0.047900 0.912796 0.039301 0.000000 0.000000 0.085831 0.349362 0.555142 0.009665 0.000000 0.000000 0.020790 0.642272 0.327864 0.009074 0.999960 0.000008 0.000008 0.000008 0.000008 0.000008 0.166665 0.166667 0.166667 0.166667 0.166667 0.166667 0.166665 0.166667 0.166667 0.166667 0.166667 0.166667 0.000013 0.000013 0.000013 0.999935 0.000013 0.000013 0.076931 0.000035 0.000035 0.307759 0.615205 0.000035 0.000000 0.000000 0.015020 0.108898 0.857307 0.018775 0.000000 0.000000 0.027978 0.519675 0.450097 0.002250 0.000000 0.001242 0.042545 0.731444 0.224769 0.000000 0.000076 0.000076 0.000076 0.000076 0.999620 0.000076 0.000001 0.000001 0.009501 0.067678 0.846846 0.075973 0.000000 0.000000 0.038889 0.521530 0.439581 0.000000 0.000000 0.000477 0.033648 0.713345 0.251706 0.000824 0.000018 0.000018 0.000018 0.000018 0.999910 0.000018 0.000000 0.000000 0.000000 0.057174 0.885655 0.057171 0.000000 0.000000 0.030024 0.321162 0.639157 0.009657 0.000000 0.000000 0.008946 0.593730 0.388000 0.009324 0.999985 0.000003 0.000003 0.000003 0.000003 0.000003 0.166665 0.166667 0.166667 0.166667 0.166667 0.166667 0.166665 0.166667 0.166667 0.166667 0.166667 0.166667 0.000009 0.000009 0.000009 0.999955 0.000009 0.000009 0.076056 0.000005 0.000005 0.445765 0.478164 0.000005 0.000000 0.000238 0.006897 0.071587 0.897496 0.023782 0.000000 0.000000 0.013525 0.421957 0.561770 0.002748 0.000000 0.000179 0.019914 0.653765 0.326142 0.000000 0.000007 0.000007 0.000007 0.000007 0.999965 0.000007 0.000000 0.000000 0.005078 0.041669 0.873306 0.079947 0.000000 0.000000 0.009846 0.437092 0.553062 0.000000 0.000000 0.000205 0.015038 0.643755 0.339341 0.001661 0.000013 0.000013 0.000013 0.000013 0.999935 0.000013 0.000000 0.000000 0.000000 0.049075 0.888006 0.062919 0.000000 0.000000 0.005249 0.242491 0.738613 0.013647 0.000000 0.000000 0.002486 0.523969 0.460735 0.012810 0.999985 0.000003 0.000003 0.000003 0.000003 0.000003 0.166665 0.166667 0.166667 0.166667 0.166667 0.166667 0.166665 0.166667 0.166667 0.166667 0.166667 0.166667 0.000005 0.000005 0.000005 0.999975 0.000005 0.000005 0.051533 0.000002 0.000002 0.345463 0.602998 0.000002 0.000000 0.000000 0.005057 0.042197 0.925291 0.027455 0.000000 0.000000 0.005124 0.309297 0.678996 0.006583 0.000000 0.000185 0.010617 0.530084 0.459114 0.000000 0.000004 0.000004 0.000004 0.000004 0.999980 0.000004 0.000000 0.000000 0.001060 0.020715 0.891514 0.086711 0.000000 0.000000 0.002677 0.333826 0.663497 0.000000 0.000000 0.000054 0.007749 0.536610 0.450990 0.004597 0.000010 0.000010 0.000010 0.000010 0.999950 0.000010 0.000000 0.000000 0.000000 0.040542 0.864099 0.095359 0.000000 0.000000 0.000990 0.188311 0.786090 0.024609 0.000000 0.000000 0.000921 0.432676 0.541004 0.025399 0.999975 0.000005 0.000005 0.000005 0.000005 0.000005 0.166665 0.166667 0.166667 0.166667 0.166667 0.166667 0.166665 0.166667 0.166667 0.166667 0.166667 0.166667 0.000013 0.000013 0.000013 0.882250 0.117698 0.000013 0.047051 0.000003 0.000003 0.217725 0.735215 0.000003 0.000000 0.000000 0.001573 0.027535 0.912679 0.058213 0.000000 0.000000 0.002107 0.216255 0.762465 0.019173 0.000000 0.000037 0.008076 0.420287 0.571600 0.000000 0.000013 0.000013 0.000013 0.000013 0.999935 0.000013 0.000000 0.000000 0.000478 0.009479 0.833288 0.156755 0.000000 0.000000 0.003202 0.252113 0.744685 0.000000 0.000000 0.000014 0.003940 0.416669 0.559989 0.019388 0.000030 0.000030 0.000030 0.000030 0.999850 0.000030 0.000000 0.000000 0.000000 0.023306 0.821351 0.155343 0.000000 0.000000 0.000391 0.151428 0.788501 0.059680 0.000000 0.000000 0.000306 0.331054 0.593294 0.075346 1.000000 0.000000 0.000000 0.000000 0.000000 0.000000 0.166665 0.166667 0.166667 0.166667 0.166667 0.166667 0.166665 0.166667 0.166667 0.166667 0.166667 0.166667 0.000000 0.000000 0.000000 0.732673 0.267327 0.000000 0.077373 0.000000 0.000000 0.307652 0.614975 0.000000 0.000000 0.005616 0.027972 0.285547 0.670200 0.010665 0.000000 0.005233 0.088372 0.501306 0.403739 0.001350 0.000000 0.004320 0.097016 0.703508 0.195156 0.000000 0.000000 0.000000 0.000000 0.000000 1.000000 0.000000 0.000000 0.000000 0.007447 0.224430 0.757260 0.010863 0.000000 0.000000 0.051970 0.530680 0.417350 0.000000 0.000000 0.000793 0.045001 0.691800 0.261824 0.000582 0.000000 0.000000 0.000000 0.000000 1.000000 0.000000 0.000000 0.000000 0.000000 0.115343 0.858564 0.026093 0.000000 0.000000 0.018078 0.245353 0.731316 0.005253 0.000000 0.000000 0.007280 0.608355 0.380052 0.004313 0.166665 0.166667 0.166667 0.166667 0.166667 0.166667 0.166665 0.166667 0.166667 0.166667 0.166667 0.166667 0.166665 0.166667 0.166667 0.166667 0.166667 0.166667 0.000005 0.000005 0.000005 0.999975 0.000005 0.000005 0.166665 0.166667 0.166667 0.166667 0.166667 0.166667 0.166665 0.166667 0.166667 0.166667 0.166667 0.166667 0.000035 0.000035 0.000035 0.153849 0.846011 0.000035 0.000002 0.000002 0.000002 0.048951 0.951041 0.000002 0.166665 0.166667 0.166667 0.166667 0.166667 0.166667 0.166665 0.166667 0.166667 0.166667 0.166667 0.166667 0.000006 0.000006 0.000006 0.000006 0.999970 0.000006 0.000000 0.000000 0.001804 0.339068 0.659128 0.000000 0.166665 0.166667 0.166667 0.166667 0.166667 0.166667 0.166665 0.166667 0.166667 0.166667 0.166667 0.166667 0.000003 0.000003 0.000003 0.045804 0.954184 0.000003 0.000000 0.000000 0.000000 0.017128 0.982872 0.000000 0.166665 0.166667 0.166667 0.166667 0.166667 0.166667 0.166665 0.166667 0.166667 0.166667 0.166667 0.166667 0.166665 0.166667 0.166667 0.166667 0.166667 0.166667 0.000003 0.000003 0.000003 0.999985 0.000003 0.000003 0.166665 0.166667 0.166667 0.166667 0.166667 0.166667 0.166665 0.166667 0.166667 0.166667 0.166667 0.166667 0.000114 0.000114 0.000114 0.000114 0.999430 0.000114 0.000001 0.000001 0.023364 0.054515 0.922118 0.000001 0.166665 0.166667 0.166667 0.166667 0.166667 0.166667 0.166665 0.166667 0.166667 0.166667 0.166667 0.166667 0.000003 0.000003 0.000003 0.000003 0.999985 0.000003 0.000000 0.000000 0.006725 0.278439 0.714836 0.000000 0.166665 0.166667 0.166667 0.166667 0.166667 0.166667 0.166665 0.166667 0.166667 0.166667 0.166667 0.166667 0.000001 0.000001 0.000001 0.025058 0.974938 0.000001 0.000000 0.000000 0.000000 0.017503 0.982497 0.000000 0.166665 0.166667 0.166667 0.166667 0.166667 0.166667 0.166665 0.166667 0.166667 0.166667 0.166667 0.166667 0.166665 0.166667 0.166667 0.166667 0.166667 0.166667 0.000004 0.000004 0.000004 0.999980 0.000004 0.000004 0.166665 0.166667 0.166667 0.166667 0.166667 0.166667 0.166665 0.166667 0.166667 0.166667 0.166667 0.166667 0.000020 0.000020 0.000020 0.000020 0.999900 0.000020 0.000000 0.000000 0.000000 0.041622 0.958378 0.000000 0.166665 0.166667 0.166667 0.166667 0.166667 0.166667 0.166665 0.166667 0.166667 0.166667 0.166667 0.166667 0.000002 0.000002 0.000002 0.000002 0.999990 0.000002 0.000000 0.000000 0.006120 0.218002 0.775878 0.000000 0.166665 0.166667 0.166667 0.166667 0.166667 0.166667 0.166665 0.166667 0.166667 0.166667 0.166667 0.166667 0.000000 0.000000 0.000000 0.029030 0.970970 0.000000 0.000000 0.000000 0.000177 0.018555 0.981268 0.000000 0.166665 0.166667 0.166667 0.166667 0.166667 0.166667 0.166665 0.166667 0.166667 0.166667 0.166667 0.166667 0.166665 0.166667 0.166667 0.166667 0.166667 0.166667 0.000011 0.000011 0.000011 0.999945 0.000011 0.000011 0.166665 0.166667 0.166667 0.166667 0.166667 0.166667 0.166665 0.166667 0.166667 0.166667 0.166667 0.166667 0.000010 0.000010 0.000010 0.000010 0.999950 0.000010 0.000000 0.000000 0.000000 0.041026 0.958974 0.000000 0.166665 0.166667 0.166667 0.166667 0.166667 0.166667 0.166665 0.166667 0.166667 0.166667 0.166667 0.166667 0.000002 0.000002 0.000002 0.000002 0.999990 0.000002 0.000000 0.000000 0.007447 0.129622 0.862931 0.000000 0.166665 0.166667 0.166667 0.166667 0.166667 0.166667 0.166665 0.166667 0.166667 0.166667 0.166667 0.166667 0.000000 0.000000 0.000000 0.021690 0.978310 0.000000 0.000000 0.000000 0.000000 0.015376 0.984624 0.000000 0.166665 0.166667 0.166667 0.166667 0.166667 0.166667 0.166665 0.166667 0.166667 0.166667 0.166667 0.166667 0.166665 0.166667 0.166667 0.166667 0.166667 0.166667 0.000057 0.000057 0.000057 0.999715 0.000057 0.000057 0.166665 0.166667 0.166667 0.166667 0.166667 0.166667 0.166665 0.166667 0.166667 0.166667 0.166667 0.166667 0.000013 0.000013 0.000013 0.000013 0.999935 0.000013 0.000000 0.000000 0.000000 0.029786 0.970214 0.000000 0.166665 0.166667 0.166667 0.166667 0.166667 0.166667 0.166665 0.166667 0.166667 0.166667 0.166667 0.166667 0.000003 0.000003 0.000003 0.000003 0.999985 0.000003 0.000000 0.000000 0.009370 0.058138 0.932492 0.000000 0.166665 0.166667 0.166667 0.166667 0.166667 0.166667 0.166665 0.166667 0.166667 0.166667 0.166667 0.166667 0.000000 0.000000 0.000000 0.016984 0.983016 0.000000 0.000000 0.000000 0.000000 0.013166 0.986834 0.000000 0.166665 0.166667 0.166667 0.166667 0.166667 0.166667 0.166665 0.166667 0.166667 0.166667 0.166667 0.166667 0.166665 0.166667 0.166667 0.166667 0.166667 0.166667 0.000000 0.000000 0.000000 1.000000 0.000000 0.000000 0.166665 0.166667 0.166667 0.166667 0.166667 0.166667 0.166665 0.166667 0.166667 0.166667 0.166667 0.166667 0.000000 0.000000 0.000000 0.502434 0.497566 0.000000 0.036178 0.000000 0.082679 0.283944 0.597199 0.000000 0.166665 0.166667 0.166667 0.166667 0.166667 0.166667 0.166665 0.166667 0.166667 0.166667 0.166667 0.166667 0.000000 0.000000 0.000000 0.000000 1.000000 0.000000 0.000000 0.000000 0.002548 0.199294 0.798158 0.000000 0.166665 0.166667 0.166667 0.166667 0.166667 0.166667 0.166665 0.166667 0.166667 0.166667 0.166667 0.166667 0.000000 0.000000 0.000000 0.047978 0.952022 0.000000 0.000000 0.000000 0.005321 0.141528 0.853151 0.000000 0.166665 0.166667 0.166667 0.166667 0.166667 0.166667 0.166665 0.166667 0.166667 0.166667 0.166667 0.166667 0.166665 0.166667 0.166667 0.166667 0.166667 0.166667 0.000038 0.000038 0.000038 0.999810 0.000038 0.000038 0.166665 0.166667 0.166667 0.166667 0.166667 0.166667 0.000151 0.000151 0.000151 0.000151 0.999245 0.000151 0.000000 0.000092 0.071592 0.507670 0.420646 0.000000 0.000000 0.004682 0.164260 0.641630 0.189428 0.000000 0.166665 0.166667 0.166667 0.166667 0.166667 0.166667 0.000065 0.000065 0.000065 0.142866 0.856874 0.000065 0.000000 0.000000 0.217259 0.458004 0.324737 0.000000 0.000000 0.001921 0.073716 0.716774 0.207512 0.000077 0.166665 0.166667 0.166667 0.166667 0.166667 0.166667 0.000001 0.000001 0.000001 0.000001 0.954817 0.045179 0.000000 0.000000 0.119834 0.379721 0.483488 0.016957 0.000000 0.002565 0.034875 0.564814 0.385314 0.012432 0.166665 0.166667 0.166667 0.166667 0.166667 0.166667 0.166665 0.166667 0.166667 0.166667 0.166667 0.166667 0.166665 0.166667 0.166667 0.166667 0.166667 0.166667 0.000016 0.000016 0.000016 0.999920 0.000016 0.000016 0.166665 0.166667 0.166667 0.166667 0.166667 0.166667 0.000045 0.000045 0.000045 0.199991 0.799829 0.000045 0.000000 0.000000 0.026916 0.461446 0.511638 0.000000 0.000000 0.001068 0.080779 0.645632 0.272521 0.000000 0.166665 0.166667 0.166667 0.166667 0.166667 0.166667 0.000227 0.000227 0.000227 0.000227 0.998865 0.000227 0.000000 0.000000 0.076606 0.497556 0.425838 0.000000 0.000000 0.000309 0.029833 0.686394 0.283310 0.000154 0.166665 0.166667 0.166667 0.166667 0.166667 0.166667 0.000001 0.000001 0.000001 0.002344 0.939098 0.058555 0.000000 0.000000 0.040676 0.339343 0.604657 0.015324 0.000000 0.000307 0.014532 0.523447 0.449392 0.012322 0.166665 0.166667 0.166667 0.166667 0.166667 0.166667 0.166665 0.166667 0.166667 0.166667 0.166667 0.166667 0.166665 0.166667 0.166667 0.166667 0.166667 0.166667 0.000011 0.000011 0.000011 0.999945 0.000011 0.000011 0.166665 0.166667 0.166667 0.166667 0.166667 0.166667 0.000009 0.000009 0.000009 0.096158 0.903806 0.000009 0.000000 0.000000 0.013267 0.359313 0.627420 0.000000 0.000000 0.000390 0.038000 0.562512 0.399098 0.000000 0.166665 0.166667 0.166667 0.166667 0.166667 0.166667 0.000038 0.000038 0.000038 0.333295 0.666553 0.000038 0.000000 0.000000 0.024460 0.418394 0.557146 0.000000 0.000000 0.000133 0.012489 0.596770 0.390284 0.000324 0.166665 0.166667 0.166667 0.166667 0.166667 0.166667 0.000000 0.000000 0.000000 0.004777 0.936013 0.059210 0.000000 0.000000 0.007220 0.226783 0.745816 0.020181 0.000000 0.000093 0.004429 0.440290 0.535309 0.019879 0.166665 0.166667 0.166667 0.166667 0.166667 0.166667 0.166665 0.166667 0.166667 0.166667 0.166667 0.166667 0.166665 0.166667 0.166667 0.166667 0.166667 0.166667 0.000006 0.000006 0.000006 0.999970 0.000006 0.000006 0.166665 0.166667 0.166667 0.166667 0.166667 0.166667 0.000004 0.000004 0.000004 0.049023 0.950961 0.000004 0.000000 0.000000 0.006138 0.232008 0.761854 0.000000 0.000000 0.000198 0.014550 0.430620 0.554632 0.000000 0.166665 0.166667 0.166667 0.166667 0.166667 0.166667 0.000013 0.000013 0.000013 0.117651 0.882297 0.000013 0.000000 0.000000 0.005601 0.300560 0.693839 0.000000 0.000000 0.000036 0.005826 0.460761 0.532347 0.001030 0.166665 0.166667 0.166667 0.166667 0.166667 0.166667 0.000000 0.000000 0.000000 0.002039 0.918666 0.079295 0.000000 0.000000 0.001364 0.137235 0.824951 0.036450 0.000000 0.000029 0.001598 0.337643 0.622675 0.038055 0.166665 0.166667 0.166667 0.166667 0.166667 0.166667 0.166665 0.166667 0.166667 0.166667 0.166667 0.166667 0.166665 0.166667 0.166667 0.166667 0.166667 0.166667 0.000019 0.000019 0.000019 0.999905 0.000019 0.000019 0.166665 0.166667 0.166667 0.166667 0.166667 0.166667 0.000004 0.000004 0.000004 0.008551 0.991433 0.000004 0.000000 0.000000 0.002380 0.135097 0.862523 0.000000 0.000000 0.000007 0.007644 0.320002 0.672347 0.000000 0.166665 0.166667 0.166667 0.166667 0.166667 0.166667 0.000065 0.000065 0.000065 0.142866 0.856874 0.000065 0.000000 0.000000 0.004135 0.228227 0.767638 0.000000 0.000000 0.000010 0.003274 0.314182 0.676938 0.005596 0.166665 0.166667 0.166667 0.166667 0.166667 0.166667 0.000000 0.000000 0.000000 0.000151 0.882572 0.117277 0.000000 0.000000 0.000593 0.075543 0.834245 0.089619 0.000000 0.000008 0.000706 0.233942 0.651839 0.113505 0.166665 0.166667 0.166667 0.166667 0.166667 0.166667 0.166665 0.166667 0.166667 0.166667 0.166667 0.166667 0.166665 0.166667 0.166667 0.166667 0.166667 0.166667 0.000000 0.000000 0.000000 1.000000 0.000000 0.000000 0.166665 0.166667 0.166667 0.166667 0.166667 0.166667 0.000000 0.000000 0.000000 0.252430 0.747570 0.000000 0.000000 0.001568 0.087826 0.463173 0.447433 0.000000 0.000000 0.004797 0.161151 0.632336 0.201716 0.000000 0.166665 0.166667 0.166667 0.166667 0.166667 0.166667 0.000000 0.000000 0.000000 0.200080 0.799920 0.000000 0.000000 0.000000 0.098362 0.584355 0.317283 0.000000 0.000000 0.000608 0.042478 0.690781 0.265990 0.000143 0.166665 0.166667 0.166667 0.166667 0.166667 0.166667 0.000000 0.000000 0.000000 0.025988 0.928111 0.045901 0.000000 0.000000 0.038080 0.288896 0.661417 0.011607 0.000000 0.000293 0.013329 0.565806 0.412840 0.007732 0.135123 0.001581 0.052529 0.432454 0.374027 0.004286 0.166665 0.166667 0.166667 0.166667 0.166667 0.166667 0.135123 0.001581 0.052529 0.432454 0.374027 0.004286 0.135123 0.001581 0.052529 0.432454 0.374027 0.004286 0.135123 0.001581 0.052529 0.432454 0.374027 0.004286 0.135123 0.001581 0.052529 0.432454 0.374027 0.004286 0.135123 0.001581 0.052529 0.432454 0.374027 0.004286 0.135123 0.001581 0.052529 0.432454 0.374027 0.004286 0.166665 0.166667 0.166667 0.166667 0.166667 0.166667 0.135123 0.001581 0.052529 0.432454 0.374027 0.004286 0.135123 0.001581 0.052529 0.432454 0.374027 0.004286 0.135123 0.001581 0.052529 0.432454 0.374027 0.004286 0.135123 0.001581 0.052529 0.432454 0.374027 0.004286 0.135123 0.001581 0.052529 0.432454 0.374027 0.004286 0.135123 0.001581 0.052529 0.432454 0.374027 0.004286 0.135123 0.001581 0.052529 0.432454 0.374027 0.004286 0.135123 0.001581 0.052529 0.432454 0.374027 0.004286 0.166665 0.166667 0.166667 0.166667 0.166667 0.166667 0.135123 0.001581 0.052529 0.432454 0.374027 0.004286 0.135123 0.001581 0.052529 0.432454 0.374027 0.004286 0.135123 0.001581 0.052529 0.432454 0.374027 0.004286 0.135123 0.001581 0.052529 0.432454 0.374027 0.004286 0.135123 0.001581 0.052529 0.432454 0.374027 0.004286 0.135123 0.001581 0.052529 0.432454 0.374027 0.004286 0.166665 0.166667 0.166667 0.166667 0.166667 0.166667 0.135123 0.001581 0.052529 0.432454 0.374027 0.004286 0.135123 0.001581 0.052529 0.432454 0.374027 0.004286 0.135123 0.001581 0.052529 0.432454 0.374027 0.004286 0.166665 0.166667 0.166667 0.166667 0.166667 0.166667 0.135123 0.001581 0.052529 0.432454 0.374027 0.004286 0.135123 0.001581 0.052529 0.432454 0.374027 0.004286 0.135123 0.001581 0.052529 0.432454 0.374027 0.004286 0.135123 0.001581 0.052529 0.432454 0.374027 0.004286 0.166665 0.166667 0.166667 0.166667 0.166667 0.166667 0.135123 0.001581 0.052529 0.432454 0.374027 0.004286 0.135123 0.001581 0.052529 0.432454 0.374027 0.004286 0.135123 0.001581 0.052529 0.432454 0.374027 0.004286 0.135123 0.001581 0.052529 0.432454 0.374027 0.004286 0.135123 0.001581 0.052529 0.432454 0.374027 0.004286 0.135123 0.001581 0.052529 0.432454 0.374027 0.004286 0.166665 0.166667 0.166667 0.166667 0.166667 0.166667 0.135123 0.001581 0.052529 0.432454 0.374027 0.004286 0.135123 0.001581 0.052529 0.432454 0.374027 0.004286 0.135123 0.001581 0.052529 0.432454 0.374027 0.004286 0.135123 0.001581 0.052529 0.432454 0.374027 0.004286 0.135123 0.001581 0.052529 0.432454 0.374027 0.004286 0.135123 0.001581 0.052529 0.432454 0.374027 0.004286 0.135123 0.001581 0.052529 0.432454 0.374027 0.004286 0.135123 0.001581 0.052529 0.432454 0.374027 0.004286 0.166665 0.166667 0.166667 0.166667 0.166667 0.166667 0.135123 0.001581 0.052529 0.432454 0.374027 0.004286 0.135123 0.001581 0.052529 0.432454 0.374027 0.004286 0.135123 0.001581 0.052529 0.432454 0.374027 0.004286 0.135123 0.001581 0.052529 0.432454 0.374027 0.004286 0.135123 0.001581 0.052529 0.432454 0.374027 0.004286 0.135123 0.001581 0.052529 0.432454 0.374027 0.004286 0.166665 0.166667 0.166667 0.166667 0.166667 0.166667 0.135123 0.001581 0.052529 0.432454 0.374027 0.004286 0.135123 0.001581 0.052529 0.432454 0.374027 0.004286 0.135123 0.001581 0.052529 0.432454 0.374027 0.004286 0.166665 0.166667 0.166667 0.166667 0.166667 0.166667 0.135123 0.001581 0.052529 0.432454 0.374027 0.004286 0.135123 0.001581 0.052529 0.432454 0.374027 0.004286 0.135123 0.001581 0.052529 0.432454 0.374027 0.004286 0.135123 0.001581 0.052529 0.432454 0.374027 0.004286 0.166665 0.166667 0.166667 0.166667 0.166667 0.166667 0.135123 0.001581 0.052529 0.432454 0.374027 0.004286 0.135123 0.001581 0.052529 0.432454 0.374027 0.004286 0.135123 0.001581 0.052529 0.432454 0.374027 0.004286 0.135123 0.001581 0.052529 0.432454 0.374027 0.004286 0.135123 0.001581 0.052529 0.432454 0.374027 0.004286 0.135123 0.001581 0.052529 0.432454 0.374027 0.004286 0.166665 0.166667 0.166667 0.166667 0.166667 0.166667 0.135123 0.001581 0.052529 0.432454 0.374027 0.004286 0.135123 0.001581 0.052529 0.432454 0.374027 0.004286 0.135123 0.001581 0.052529 0.432454 0.374027 0.004286 0.135123 0.001581 0.052529 0.432454 0.374027 0.004286 0.135123 0.001581 0.052529 0.432454 0.374027 0.004286 0.135123 0.001581 0.052529 0.432454 0.374027 0.004286 0.135123 0.001581 0.052529 0.432454 0.374027 0.004286 0.135123 0.001581 0.052529 0.432454 0.374027 0.004286 0.166665 0.166667 0.166667 0.166667 0.166667 0.166667 0.135123 0.001581 0.052529 0.432454 0.374027 0.004286 0.135123 0.001581 0.052529 0.432454 0.374027 0.004286 0.135123 0.001581 0.052529 0.432454 0.374027 0.004286 0.135123 0.001581 0.052529 0.432454 0.374027 0.004286 0.135123 0.001581 0.052529 0.432454 0.374027 0.004286 0.135123 0.001581 0.052529 0.432454 0.374027 0.004286 0.166665 0.166667 0.166667 0.166667 0.166667 0.166667 0.135123 0.001581 0.052529 0.432454 0.374027 0.004286 0.135123 0.001581 0.052529 0.432454 0.374027 0.004286 0.135123 0.001581 0.052529 0.432454 0.374027 0.004286 0.135123 0.001581 0.052529 0.432454 0.374027 0.004286 0.135123 0.001581 0.052529 0.432454 0.374027 0.004286 0.135123 0.001581 0.052529 0.432454 0.374027 0.004286 0.135123 0.001581 0.052529 0.432454 0.374027 0.004286 0.135123 0.001581 0.052529 0.432454 0.374027 0.004286 0.135123 0.001581 0.052529 0.432454 0.374027 0.004286 0.135123 0.001581 0.052529 0.432454 0.374027 0.004286 0.135123 0.001581 0.052529 0.432454 0.374027 0.004286 0.135123 0.001581 0.052529 0.432454 0.374027 0.004286 0.135123 0.001581 0.052529 0.432454 0.374027 0.004286 0.135123 0.001581 0.052529 0.432454 0.374027 0.004286 0.135123 0.001581 0.052529 0.432454 0.374027 0.004286 0.135123 0.001581 0.052529 0.432454 0.374027 0.004286 0.135123 0.001581 0.052529 0.432454 0.374027 0.004286 0.135123 0.001581 0.052529 0.432454 0.374027 0.004286 0.135123 0.001581 0.052529 0.432454 0.374027 0.004286 0.135123 0.001581 0.052529 0.432454 0.374027 0.004286 0.135123 0.001581 0.052529 0.432454 0.374027 0.004286 0.135123 0.001581 0.052529 0.432454 0.374027 0.004286 0.135123 0.001581 0.052529 0.432454 0.374027 0.004286 0.135123 0.001581 0.052529 0.432454 0.374027 0.004286 0.135123 0.001581 0.052529 0.432454 0.374027 0.004286 0.135123 0.001581 0.052529 0.432454 0.374027 0.004286 0.135123 0.001581 0.052529 0.432454 0.374027 0.004286 0.135123 0.001581 0.052529 0.432454 0.374027 0.004286 0.135123 0.001581 0.052529 0.432454 0.374027 0.004286 0.135123 0.001581 0.052529 0.432454 0.374027 0.004286 0.135123 0.001581 0.052529 0.432454 0.374027 0.004286 0.135123 0.001581 0.052529 0.432454 0.374027 0.004286 0.135123 0.001581 0.052529 0.432454 0.374027 0.004286 0.135123 0.001581 0.052529 0.432454 0.374027 0.004286 0.135123 0.001581 0.052529 0.432454 0.374027 0.004286 0.135123 0.001581 0.052529 0.432454 0.374027 0.004286 0.135123 0.001581 0.052529 0.432454 0.374027 0.004286 0.135123 0.001581 0.052529 0.432454 0.374027 0.004286 0.135124 0.001581 0.052529 0.432454 0.374026 0.004286 0.135123 0.001581 0.052529 0.432454 0.374027 0.004286 0.135123 0.001581 0.052529 0.432454 0.374027 0.004286 0.135123 0.001581 0.052529 0.432454 0.374027 0.004286 0.135123 0.001581 0.052529 0.432454 0.374027 0.004286 0.135123 0.001581 0.052529 0.432454 0.374027 0.004286 0.135123 0.001581 0.052529 0.432454 0.374027 0.004286 0.135123 0.001581 0.052529 0.432454 0.374027 0.004286 0.135123 0.001581 0.052529 0.432454 0.374027 0.004286 0.135123 0.001581 0.052529 0.432454 0.374027 0.004286 0.135123 0.001581 0.052529 0.432454 0.374027 0.004286 0.135123 0.001581 0.052529 0.432454 0.374027 0.004286 0.135123 0.001581 0.052529 0.432454 0.374027 0.004286 0.135123 0.001581 0.052529 0.432454 0.374027 0.004286 0.135123 0.001581 0.052529 0.432454 0.374027 0.004286 0.135123 0.001581 0.052529 0.432455 0.374026 0.004286 0.135124 0.001581 0.052529 0.432455 0.374025 0.004286 0.135123 0.001581 0.052529 0.432454 0.374027 0.004286 0.135123 0.001581 0.052529 0.432454 0.374027 0.004286 0.135123 0.001581 0.052529 0.432454 0.374027 0.004286 0.135123 0.001581 0.052529 0.432454 0.374027 0.004286 0.135123 0.001581 0.052529 0.432454 0.374027 0.004286 0.135123 0.001581 0.052529 0.432454 0.374027 0.004286 0.135123 0.001581 0.052529 0.432454 0.374027 0.004286 0.135123 0.001581 0.052529 0.432454 0.374027 0.004286 0.135123 0.001581 0.052529 0.432454 0.374027 0.004286 0.135123 0.001581 0.052529 0.432454 0.374027 0.004286 0.135123 0.001581 0.052529 0.432454 0.374027 0.004286 0.135123 0.001581 0.052529 0.432454 0.374027 0.004286 0.135123 0.001581 0.052529 0.432454 0.374027 0.004286 0.135123 0.001581 0.052529 0.432454 0.374027 0.004286 0.135123 0.001581 0.052529 0.432455 0.374026 0.004286 0.135124 0.001581 0.052530 0.432455 0.374024 0.004286 0.135123 0.001581 0.052529 0.432454 0.374027 0.004286 0.135123 0.001581 0.052529 0.432454 0.374027 0.004286 0.135123 0.001581 0.052529 0.432454 0.374027 0.004286 0.135123 0.001581 0.052529 0.432454 0.374027 0.004286 0.135123 0.001581 0.052529 0.432454 0.374027 0.004286 0.135123 0.001581 0.052529 0.432454 0.374027 0.004286 0.135123 0.001581 0.052529 0.432454 0.374027 0.004286 0.135123 0.001581 0.052529 0.432454 0.374027 0.004286 0.135123 0.001581 0.052529 0.432454 0.374027 0.004286 0.135123 0.001581 0.052529 0.432454 0.374027 0.004286 0.135123 0.001581 0.052529 0.432454 0.374027 0.004286 0.135123 0.001581 0.052529 0.432454 0.374027 0.004286 0.135123 0.001581 0.052529 0.432454 0.374027 0.004286 0.135123 0.001581 0.052529 0.432454 0.374027 0.004286 0.135123 0.001581 0.052529 0.432455 0.374026 0.004286 0.135124 0.001581 0.052530 0.432456 0.374023 0.004286 0.135123 0.001581 0.052529 0.432454 0.374027 0.004286 0.135123 0.001581 0.052529 0.432454 0.374027 0.004286 0.135123 0.001581 0.052529 0.432454 0.374027 0.004286 0.135123 0.001581 0.052529 0.432454 0.374027 0.004286 0.135123 0.001581 0.052529 0.432454 0.374027 0.004286 0.135123 0.001581 0.052529 0.432454 0.374027 0.004286 0.135123 0.001581 0.052529 0.432454 0.374027 0.004286 0.135123 0.001581 0.052529 0.432454 0.374027 0.004286 0.135123 0.001581 0.052529 0.432454 0.374027 0.004286 0.135123 0.001581 0.052529 0.432454 0.374027 0.004286 0.135123 0.001581 0.052529 0.432454 0.374027 0.004286 0.135123 0.001581 0.052529 0.432454 0.374027 0.004286 0.135123 0.001581 0.052529 0.432454 0.374027 0.004286 0.135123 0.001581 0.052529 0.432454 0.374027 0.004286 0.135123 0.001581 0.052529 0.432454 0.374027 0.004286 0.135123 0.001581 0.052529 0.432454 0.374027 0.004286 0.899802 0.000045 0.000045 0.100018 0.000045 0.000045 0.166665 0.166667 0.166667 0.166667 0.166667 0.166667 0.166665 0.166667 0.166667 0.166667 0.166667 0.166667 0.166665 0.166667 0.166667 0.166667 0.166667 0.166667 0.000006 0.000006 0.000006 0.000006 0.999970 0.000006 0.000227 0.000227 0.000227 0.000227 0.998865 0.000227 0.000003 0.000003 0.000003 0.210521 0.789467 0.000003 0.427325 0.000001 0.000001 0.046512 0.526160 0.000001 0.166665 0.166667 0.166667 0.166667 0.166667 0.166667 0.000003 0.000003 0.000003 0.000003 0.999985 0.000003 0.000004 0.000004 0.000004 0.256465 0.743519 0.000004 0.000001 0.000001 0.000001 0.701324 0.298672 0.000001 0.000028 0.000028 0.000028 0.000028 0.999860 0.000028 0.000050 0.000050 0.000050 0.000050 0.999750 0.000050 0.000002 0.000002 0.000002 0.037236 0.962756 0.000002 0.000001 0.000001 0.000001 0.020907 0.979089 0.000001 0.923000 0.000017 0.000017 0.076932 0.000017 0.000017 0.166665 0.166667 0.166667 0.166667 0.166667 0.166667 0.166665 0.166667 0.166667 0.166667 0.166667 0.166667 0.000151 0.000151 0.000151 0.999245 0.000151 0.000151 0.000007 0.000007 0.000007 0.000007 0.999965 0.000007 0.000013 0.000013 0.000013 0.485595 0.514353 0.000013 0.000003 0.000003 0.000003 0.287863 0.712125 0.000003 0.282828 0.000000 0.000000 0.051347 0.665825 0.000000 0.166665 0.166667 0.166667 0.166667 0.166667 0.166667 0.000002 0.000002 0.000002 0.000002 0.999990 0.000002 0.000006 0.000006 0.000006 0.270323 0.729653 0.000006 0.000001 0.000001 0.000001 0.645904 0.354092 0.000001 0.166665 0.166667 0.166667 0.166667 0.166667 0.166667 0.000032 0.000032 0.000032 0.000032 0.999840 0.000032 0.000003 0.000003 0.000003 0.045457 0.954531 0.000003 0.000001 0.000001 0.000001 0.028083 0.971913 0.000001 0.666592 0.000025 0.000025 0.333308 0.000025 0.000025 0.166665 0.166667 0.166667 0.166667 0.166667 0.166667 0.166665 0.166667 0.166667 0.166667 0.166667 0.166667 0.000076 0.000076 0.000076 0.999620 0.000076 0.000076 0.000001 0.000001 0.000001 0.000001 0.999995 0.000001 0.000027 0.000027 0.000027 0.000027 0.999865 0.000027 0.000001 0.000001 0.000001 0.100407 0.899589 0.000001 0.074613 0.000000 0.000000 0.063998 0.861389 0.000000 0.166665 0.166667 0.166667 0.166667 0.166667 0.166667 0.000001 0.000001 0.000001 0.000001 0.999995 0.000001 0.000002 0.000002 0.000002 0.230825 0.769167 0.000002 0.000000 0.000000 0.000000 0.529567 0.470433 0.000000 0.000057 0.000057 0.000057 0.000057 0.999715 0.000057 0.000009 0.000009 0.000009 0.000009 0.999955 0.000009 0.000001 0.000001 0.000001 0.036270 0.963726 0.000001 0.000000 0.000000 0.000296 0.025709 0.973995 0.000000 0.562479 0.000009 0.000009 0.437485 0.000009 0.000009 0.166665 0.166667 0.166667 0.166667 0.166667 0.166667 0.166665 0.166667 0.166667 0.166667 0.166667 0.166667 0.000050 0.000050 0.000050 0.999750 0.000050 0.000050 0.000001 0.000001 0.000001 0.000001 0.999995 0.000001 0.000009 0.000009 0.000009 0.000009 0.999955 0.000009 0.000001 0.000001 0.000001 0.114179 0.885817 0.000001 0.012652 0.000000 0.000000 0.056286 0.931062 0.000000 0.166665 0.166667 0.166667 0.166667 0.166667 0.166667 0.000001 0.000001 0.000001 0.000001 0.999995 0.000001 0.000002 0.000002 0.000002 0.092501 0.907491 0.000002 0.000000 0.000000 0.000000 0.365414 0.634586 0.000000 0.166665 0.166667 0.166667 0.166667 0.166667 0.166667 0.000004 0.000004 0.000004 0.000004 0.999980 0.000004 0.000000 0.000000 0.000000 0.030551 0.969449 0.000000 0.000000 0.000000 0.000000 0.025793 0.974207 0.000000 0.521696 0.000020 0.000020 0.478224 0.000020 0.000020 0.166665 0.166667 0.166667 0.166667 0.166667 0.166667 0.166665 0.166667 0.166667 0.166667 0.166667 0.166667 0.000151 0.000151 0.000151 0.999245 0.000151 0.000151 0.000001 0.000001 0.000001 0.000001 0.999995 0.000001 0.000065 0.000065 0.000065 0.000065 0.999675 0.000065 0.000001 0.000001 0.000001 0.044603 0.955393 0.000001 0.002029 0.000000 0.000000 0.053424 0.944547 0.000000 0.166665 0.166667 0.166667 0.166667 0.166667 0.166667 0.000002 0.000002 0.000002 0.000002 0.999990 0.000002 0.000001 0.000001 0.000001 0.019617 0.980379 0.000001 0.000000 0.000000 0.000000 0.270465 0.729535 0.000000 0.000057 0.000057 0.000057 0.000057 0.999715 0.000057 0.000002 0.000002 0.000002 0.000002 0.999990 0.000002 0.000000 0.000000 0.000000 0.028133 0.971867 0.000000 0.000000 0.000000 0.000000 0.029224 0.970776 0.000000 0.750406 0.000000 0.000000 0.249594 0.000000 0.000000 0.166665 0.166667 0.166667 0.166667 0.166667 0.166667 0.166665 0.166667 0.166667 0.166667 0.166667 0.166667 0.166715 0.000000 0.000000 0.249783 0.583502 0.000000 0.000000 0.000000 0.000000 0.000000 1.000000 0.000000 0.289478 0.000000 0.026316 0.447302 0.236904 0.000000 0.000000 0.000000 0.000000 0.422927 0.577073 0.000000 0.034696 0.000000 0.000000 0.100637 0.864667 0.000000 0.166665 0.166667 0.166667 0.166667 0.166667 0.166667 0.000000 0.000000 0.000000 0.000000 1.000000 0.000000 0.000000 0.000000 0.000000 0.061831 0.938169 0.000000 0.000000 0.000000 0.000000 0.390368 0.609632 0.000000 0.000000 0.000000 0.000000 0.000000 1.000000 0.000000 0.000000 0.000000 0.000000 0.000000 1.000000 0.000000 0.000000 0.000000 0.000000 0.088866 0.911134 0.000000 0.000000 0.000000 0.002623 0.109898 0.887479 0.000000 0.922950 0.000035 0.000035 0.076910 0.000035 0.000035 0.500010 0.000006 0.499966 0.000006 0.000006 0.000006 0.166665 0.166667 0.166667 0.166667 0.166667 0.166667 0.399873 0.000091 0.000091 0.000091 0.599763 0.000091 0.000227 0.000227 0.000227 0.000227 0.998865 0.000227 0.017056 0.000000 0.002326 0.114085 0.864982 0.001551 0.000000 0.000000 0.078854 0.379205 0.541941 0.000000 0.017421 0.003409 0.169497 0.470885 0.338788 0.000000 0.166665 0.166667 0.166667 0.166667 0.166667 0.166667 0.000002 0.000002 0.000002 0.007145 0.992847 0.000002 0.000000 0.000000 0.002238 0.712428 0.278996 0.006338 0.000000 0.000853 0.051780 0.524062 0.423305 0.000000 0.166665 0.166667 0.166667 0.166667 0.166667 0.166667 0.000002 0.000002 0.000002 0.000002 0.953220 0.046772 0.000000 0.000000 0.000000 0.047155 0.887731 0.065114 0.000000 0.000000 0.019833 0.411448 0.559797 0.008922 0.181882 0.000041 0.000041 0.817954 0.000041 0.000041 0.500018 0.000003 0.499970 0.000003 0.000003 0.000003 0.166665 0.166667 0.166667 0.166667 0.166667 0.166667 0.799886 0.000030 0.000030 0.000030 0.199994 0.000030 0.166665 0.166667 0.166667 0.166667 0.166667 0.166667 0.025184 0.000000 0.000646 0.080168 0.890773 0.003229 0.000000 0.000000 0.051966 0.341895 0.606139 0.000000 0.026608 0.000748 0.090537 0.466283 0.415824 0.000000 0.166665 0.166667 0.166667 0.166667 0.166667 0.166667 0.000001 0.000001 0.000001 0.006310 0.993686 0.000001 0.000000 0.000000 0.000157 0.691023 0.303190 0.005630 0.000000 0.000000 0.017313 0.429039 0.553648 0.000000 0.166665 0.166667 0.166667 0.166667 0.166667 0.166667 0.000001 0.000001 0.000001 0.018283 0.924608 0.057106 0.000000 0.000000 0.000000 0.044658 0.886979 0.068363 0.000000 0.000000 0.006842 0.316644 0.667496 0.009018 0.746088 0.000007 0.000007 0.253884 0.000007 0.000007 0.500030 0.000002 0.499962 0.000002 0.000002 0.000002 0.166665 0.166667 0.166667 0.166667 0.166667 0.166667 0.613197 0.000004 0.000004 0.132076 0.254715 0.000004 0.000453 0.000453 0.000453 0.000453 0.997735 0.000453 0.019864 0.000000 0.000233 0.079477 0.896546 0.003880 0.000000 0.000000 0.021375 0.230197 0.748428 0.000000 0.031739 0.000332 0.028607 0.397389 0.541905 0.000028 0.166665 0.166667 0.166667 0.166667 0.166667 0.166667 0.000000 0.000000 0.000000 0.000582 0.999418 0.000000 0.000000 0.000000 0.000000 0.618604 0.367640 0.013756 0.000000 0.000000 0.007143 0.345480 0.647377 0.000000 0.166665 0.166667 0.166667 0.166667 0.166667 0.166667 0.000000 0.000000 0.000000 0.030201 0.923776 0.046023 0.000000 0.000000 0.000000 0.048497 0.865223 0.086280 0.000000 0.000000 0.001834 0.239931 0.748964 0.009271 0.888092 0.000003 0.000003 0.111896 0.000003 0.000003 0.500166 0.000002 0.499826 0.000002 0.000002 0.000002 0.166665 0.166667 0.166667 0.166667 0.166667 0.166667 0.557042 0.000003 0.006711 0.134229 0.302012 0.000003 0.000113 0.000113 0.000113 0.000113 0.999435 0.000113 0.015513 0.000000 0.000219 0.075807 0.903272 0.005189 0.000000 0.000000 0.009523 0.151572 0.838905 0.000000 0.032071 0.000062 0.008202 0.307542 0.652102 0.000021 0.166665 0.166667 0.166667 0.166667 0.166667 0.166667 0.000000 0.000000 0.000000 0.000283 0.999717 0.000000 0.000000 0.000000 0.000072 0.506143 0.461694 0.032091 0.000000 0.000000 0.003322 0.293391 0.703287 0.000000 0.166665 0.166667 0.166667 0.166667 0.166667 0.166667 0.000000 0.000000 0.000000 0.012770 0.930322 0.056908 0.000000 0.000000 0.000000 0.053431 0.832053 0.114516 0.000000 0.000000 0.000430 0.179196 0.807414 0.012960 0.947803 0.000002 0.000002 0.052189 0.000002 0.000002 0.500114 0.000008 0.499854 0.000008 0.000008 0.000008 0.166665 0.166667 0.166667 0.166667 0.166667 0.166667 0.808463 0.000010 0.000010 0.000010 0.191497 0.000010 0.000227 0.000227 0.000227 0.000227 0.998865 0.000227 0.006362 0.000000 0.000000 0.053787 0.926004 0.013847 0.000000 0.000000 0.002918 0.088848 0.908234 0.000000 0.026734 0.000000 0.002031 0.221432 0.749803 0.000000 0.166665 0.166667 0.166667 0.166667 0.166667 0.166667 0.000000 0.000000 0.000000 0.000201 0.999799 0.000000 0.000000 0.000000 0.000000 0.308493 0.614217 0.077290 0.000000 0.000000 0.001660 0.272813 0.725527 0.000000 0.166665 0.166667 0.166667 0.166667 0.166667 0.166667 0.000000 0.000000 0.000000 0.001195 0.906157 0.092648 0.000000 0.000000 0.000000 0.053208 0.742617 0.204175 0.000000 0.000000 0.000283 0.130412 0.843848 0.025457 0.750881 0.000000 0.000000 0.249119 0.000000 0.000000 0.500000 0.000000 0.500000 0.000000 0.000000 0.000000 0.166665 0.166667 0.166667 0.166667 0.166667 0.166667 0.029414 0.000000 0.014707 0.499959 0.455920 0.000000 0.000000 0.000000 0.166578 0.166578 0.666844 0.000000 0.009678 0.000000 0.020577 0.213245 0.751619 0.004881 0.037036 0.000000 0.086471 0.351770 0.524723 0.000000 0.008485 0.001691 0.059397 0.383497 0.546082 0.000848 0.166665 0.166667 0.166667 0.166667 0.166667 0.166667 0.000000 0.000000 0.000000 0.055547 0.944453 0.000000 0.000000 0.000000 0.018471 0.380655 0.597954 0.002920 0.000000 0.001389 0.054137 0.428721 0.515753 0.000000 0.166665 0.166667 0.166667 0.166667 0.166667 0.166667 0.000000 0.000000 0.000000 0.097894 0.884829 0.017277 0.000000 0.000000 0.000000 0.066695 0.916259 0.017046 0.000000 0.000000 0.004180 0.280471 0.713554 0.001795 0.166665 0.166667 0.166667 0.166667 0.166667 0.166667 0.166665 0.166667 0.166667 0.166667 0.166667 0.166667 0.166665 0.166667 0.166667 0.166667 0.166667 0.166667 0.545446 0.000004 0.000004 0.454538 0.000004 0.000004 0.000005 0.000005 0.000005 0.000005 0.999975 0.000005 0.000028 0.000028 0.000028 0.000028 0.999860 0.000028 0.000003 0.000003 0.007522 0.112783 0.879686 0.000003 0.000001 0.000001 0.000001 0.327497 0.672499 0.000001 0.166665 0.166667 0.166667 0.166667 0.166667 0.166667 0.000004 0.000004 0.000004 0.000004 0.999980 0.000004 0.000001 0.000001 0.000001 0.169205 0.830791 0.000001 0.000000 0.000000 0.000000 0.501005 0.498995 0.000000 0.000114 0.000114 0.000114 0.000114 0.999430 0.000114 0.000006 0.000006 0.000006 0.000006 0.999970 0.000006 0.000001 0.000001 0.000001 0.051725 0.890800 0.057472 0.000001 0.000001 0.000001 0.080148 0.919848 0.000001 0.166665 0.166667 0.166667 0.166667 0.166667 0.166667 0.166665 0.166667 0.166667 0.166667 0.166667 0.166667 0.166665 0.166667 0.166667 0.166667 0.166667 0.166667 0.562493 0.000003 0.000003 0.431245 0.006253 0.000003 0.000005 0.000005 0.000005 0.000005 0.999975 0.000005 0.000041 0.000041 0.000041 0.181814 0.818022 0.000041 0.022476 0.000005 0.000005 0.134832 0.842677 0.000005 0.000001 0.000001 0.002410 0.225284 0.772303 0.000001 0.166665 0.166667 0.166667 0.166667 0.166667 0.166667 0.000002 0.000002 0.000002 0.000002 0.999990 0.000002 0.000001 0.000001 0.000001 0.223595 0.776401 0.000001 0.000000 0.000000 0.000000 0.499622 0.500378 0.000000 0.166665 0.166667 0.166667 0.166667 0.166667 0.166667 0.000003 0.000003 0.000003 0.000003 0.999985 0.000003 0.000001 0.000001 0.000001 0.074928 0.854463 0.070606 0.000000 0.000000 0.000000 0.103768 0.896232 0.000000 0.166665 0.166667 0.166667 0.166667 0.166667 0.166667 0.166665 0.166667 0.166667 0.166667 0.166667 0.166667 0.166665 0.166667 0.166667 0.166667 0.166667 0.166667 0.657886 0.000003 0.000003 0.342102 0.000003 0.000003 0.000001 0.000001 0.000001 0.000001 0.999995 0.000001 0.000003 0.000003 0.000003 0.000003 0.999985 0.000003 0.000001 0.000001 0.000001 0.061882 0.938114 0.000001 0.000000 0.000000 0.000000 0.189420 0.810580 0.000000 0.166665 0.166667 0.166667 0.166667 0.166667 0.166667 0.000001 0.000001 0.000001 0.000001 0.999995 0.000001 0.000000 0.000000 0.000000 0.114497 0.885503 0.000000 0.000000 0.000000 0.000000 0.437718 0.562282 0.000000 0.000227 0.000227 0.000227 0.000227 0.998865 0.000227 0.000001 0.000001 0.000001 0.000001 0.999995 0.000001 0.000000 0.000000 0.000000 0.067723 0.843660 0.088617 0.000000 0.000000 0.000159 0.092354 0.907487 0.000000 0.166665 0.166667 0.166667 0.166667 0.166667 0.166667 0.166665 0.166667 0.166667 0.166667 0.166667 0.166667 0.166665 0.166667 0.166667 0.166667 0.166667 0.166667 0.733313 0.000006 0.000006 0.266663 0.000006 0.000006 0.000001 0.000001 0.000001 0.000001 0.999995 0.000001 0.000001 0.000001 0.000001 0.000001 0.999995 0.000001 0.000001 0.000001 0.001367 0.042350 0.956280 0.000001 0.000000 0.000000 0.000000 0.187367 0.812633 0.000000 0.166665 0.166667 0.166667 0.166667 0.166667 0.166667 0.000001 0.000001 0.000001 0.000001 0.999995 0.000001 0.000000 0.000000 0.000000 0.055246 0.944754 0.000000 0.000000 0.000000 0.000000 0.321067 0.678933 0.000000 0.166665 0.166667 0.166667 0.166667 0.166667 0.166667 0.000000 0.000000 0.000000 0.000000 1.000000 0.000000 0.000000 0.000000 0.000000 0.071633 0.829568 0.098799 0.000000 0.000000 0.000000 0.079452 0.920548 0.000000 0.166665 0.166667 0.166667 0.166667 0.166667 0.166667 0.166665 0.166667 0.166667 0.166667 0.166667 0.166667 0.166665 0.166667 0.166667 0.166667 0.166667 0.166667 0.789384 0.000024 0.000024 0.210520 0.000024 0.000024 0.000001 0.000001 0.000001 0.000001 0.999995 0.000001 0.000001 0.000001 0.000001 0.000001 0.999995 0.000001 0.000001 0.000001 0.001621 0.014587 0.983789 0.000001 0.000000 0.000000 0.000000 0.190441 0.809559 0.000000 0.166665 0.166667 0.166667 0.166667 0.166667 0.166667 0.000002 0.000002 0.000002 0.000002 0.999990 0.000002 0.000000 0.000000 0.000000 0.028059 0.971941 0.000000 0.000000 0.000000 0.000000 0.170676 0.829324 0.000000 0.000227 0.000227 0.000227 0.000227 0.998865 0.000227 0.000000 0.000000 0.000000 0.000000 1.000000 0.000000 0.000000 0.000000 0.000000 0.084377 0.797984 0.117639 0.000000 0.000000 0.000000 0.060500 0.939500 0.000000 0.166665 0.166667 0.166667 0.166667 0.166667 0.166667 0.166665 0.166667 0.166667 0.166667 0.166667 0.166667 0.166665 0.166667 0.166667 0.166667 0.166667 0.166667 0.453249 0.000000 0.000000 0.455145 0.091606 0.000000 0.000000 0.000000 0.000000 0.000000 1.000000 0.000000 0.000000 0.000000 0.063217 0.126413 0.810370 0.000000 0.028701 0.000000 0.014346 0.229426 0.727527 0.000000 0.009901 0.000000 0.014850 0.255478 0.719771 0.000000 0.166665 0.166667 0.166667 0.166667 0.166667 0.166667 0.000000 0.000000 0.000000 0.000000 1.000000 0.000000 0.000000 0.000000 0.000000 0.178955 0.821045 0.000000 0.000000 0.000000 0.000000 0.255789 0.744211 0.000000 0.000000 0.000000 0.000000 0.000000 1.000000 0.000000 0.000000 0.000000 0.000000 0.000000 1.000000 0.000000 0.000000 0.000000 0.000000 0.082816 0.902800 0.014384 0.000000 0.000000 0.003434 0.142738 0.853828 0.000000 0.745606 0.000008 0.000008 0.000008 0.254362 0.000008 0.166665 0.166667 0.166667 0.166667 0.166667 0.166667 0.166665 0.166667 0.166667 0.166667 0.166667 0.166667 0.333309 0.000025 0.000025 0.333308 0.333308 0.000025 0.047620 0.000004 0.047620 0.238105 0.666647 0.000004 0.000000 0.000000 0.073142 0.267154 0.657796 0.001908 0.000000 0.000249 0.062546 0.526106 0.411099 0.000000 0.001209 0.002650 0.039968 0.771683 0.184490 0.000000 0.000038 0.000038 0.000038 0.000038 0.999810 0.000038 0.000001 0.000001 0.000001 0.127538 0.854606 0.017853 0.000000 0.000000 0.028380 0.586417 0.385203 0.000000 0.000000 0.000000 0.027010 0.698354 0.274636 0.000000 0.000023 0.000023 0.000023 0.000023 0.999885 0.000023 0.000001 0.000001 0.000001 0.076973 0.921875 0.001149 0.000000 0.000000 0.000000 0.391536 0.605565 0.002899 0.000000 0.000000 0.004178 0.558806 0.434764 0.002252 0.666520 0.000002 0.000002 0.000002 0.333472 0.000002 0.166665 0.166667 0.166667 0.166667 0.166667 0.166667 0.166665 0.166667 0.166667 0.166667 0.166667 0.166667 0.481494 0.000008 0.000008 0.259241 0.259241 0.000008 0.012197 0.000003 0.012197 0.469519 0.506081 0.000003 0.008186 0.000000 0.023195 0.211514 0.755058 0.002047 0.000000 0.000000 0.022677 0.493907 0.483416 0.000000 0.000838 0.000750 0.020438 0.744004 0.233970 0.000000 0.000038 0.000038 0.000038 0.000038 0.999810 0.000038 0.000000 0.000000 0.000000 0.116833 0.865619 0.017548 0.000000 0.000000 0.007693 0.512618 0.479689 0.000000 0.000000 0.000000 0.009494 0.655685 0.334821 0.000000 0.000023 0.000023 0.199995 0.000023 0.799913 0.000023 0.000000 0.000000 0.000000 0.075817 0.918871 0.005312 0.000000 0.000000 0.000000 0.371040 0.626614 0.002346 0.000000 0.000000 0.002767 0.519298 0.476133 0.001802 0.744489 0.000001 0.001965 0.000001 0.253543 0.000001 0.166665 0.166667 0.166667 0.166667 0.166667 0.166667 0.166665 0.166667 0.166667 0.166667 0.166667 0.166667 0.770110 0.000002 0.000002 0.117616 0.112268 0.000002 0.026364 0.000001 0.026364 0.369157 0.578113 0.000001 0.005421 0.000271 0.009848 0.157953 0.824339 0.002168 0.000000 0.000000 0.009494 0.408365 0.582141 0.000000 0.000372 0.000186 0.011425 0.679926 0.308091 0.000000 0.000003 0.000003 0.000003 0.000003 0.999985 0.000003 0.000000 0.000000 0.000000 0.090252 0.890101 0.019647 0.000000 0.000000 0.001877 0.424719 0.573404 0.000000 0.000000 0.000000 0.003811 0.605109 0.391080 0.000000 0.000009 0.000009 0.000009 0.000009 0.999955 0.000009 0.000000 0.000000 0.000000 0.066535 0.925858 0.007607 0.000000 0.000000 0.000000 0.303768 0.692895 0.003337 0.000000 0.000000 0.001326 0.471299 0.524548 0.002827 0.842367 0.000001 0.000001 0.000001 0.157629 0.000001 0.166665 0.166667 0.166667 0.166667 0.166667 0.166667 0.166665 0.166667 0.166667 0.166667 0.166667 0.166667 0.710894 0.000002 0.000002 0.144550 0.144550 0.000002 0.018047 0.000000 0.018050 0.270797 0.693106 0.000000 0.002055 0.000000 0.007191 0.130036 0.855696 0.005022 0.000000 0.000000 0.005522 0.343805 0.650673 0.000000 0.000000 0.000150 0.006948 0.594012 0.398890 0.000000 0.000002 0.000002 0.000002 0.000002 0.999990 0.000002 0.000000 0.000000 0.000000 0.065184 0.913410 0.021406 0.000000 0.000000 0.000343 0.349347 0.650310 0.000000 0.000000 0.000000 0.001590 0.546954 0.451456 0.000000 0.000009 0.000009 0.038468 0.000009 0.961496 0.000009 0.000000 0.000000 0.000000 0.058122 0.926329 0.015549 0.000000 0.000000 0.000000 0.244554 0.749351 0.006095 0.000000 0.000000 0.000488 0.421217 0.572626 0.005669 0.924475 0.000003 0.000003 0.000003 0.075513 0.000003 0.166665 0.166667 0.166667 0.166667 0.166667 0.166667 0.166665 0.166667 0.166667 0.166667 0.166667 0.166667 0.740774 0.000004 0.000004 0.120346 0.138868 0.000004 0.016858 0.000000 0.016859 0.177058 0.789225 0.000000 0.000627 0.000000 0.003685 0.097312 0.886616 0.011760 0.000000 0.000000 0.002317 0.319892 0.677791 0.000000 0.000000 0.000000 0.006935 0.514348 0.478717 0.000000 0.000006 0.000006 0.000006 0.000006 0.999970 0.000006 0.000000 0.000000 0.000000 0.075383 0.883506 0.041111 0.000000 0.000000 0.000346 0.300838 0.698816 0.000000 0.000000 0.000000 0.000588 0.477734 0.521678 0.000000 0.000023 0.000023 0.000023 0.000023 0.999885 0.000023 0.000000 0.000000 0.000000 0.045216 0.928675 0.026109 0.000000 0.000000 0.000000 0.196455 0.788957 0.014588 0.000000 0.000000 0.000154 0.355796 0.629233 0.014817 0.751835 0.000000 0.050127 0.050127 0.147911 0.000000 0.166665 0.166667 0.166667 0.166667 0.166667 0.166667 0.166665 0.166667 0.166667 0.166667 0.166667 0.166667 0.166673 0.000000 0.000000 0.444505 0.388822 0.000000 0.059351 0.000000 0.098918 0.195364 0.646367 0.000000 0.009511 0.007134 0.035668 0.270988 0.674428 0.002271 0.000000 0.003304 0.041306 0.448488 0.506902 0.000000 0.001790 0.003131 0.041595 0.698002 0.255482 0.000000 0.000000 0.000000 0.000000 0.000000 1.000000 0.000000 0.000000 0.000000 0.000000 0.152924 0.843538 0.003538 0.000000 0.000000 0.011925 0.457622 0.530453 0.000000 0.000000 0.000000 0.021511 0.647787 0.330702 0.000000 0.000000 0.000000 0.154138 0.077104 0.768758 0.000000 0.000000 0.000000 0.003607 0.102649 0.890764 0.002980 0.000000 0.000000 0.000000 0.295559 0.702903 0.001538 0.000000 0.000000 0.002946 0.512818 0.483125 0.001111 0.166665 0.166667 0.166667 0.166667 0.166667 0.166667 0.166665 0.166667 0.166667 0.166667 0.166667 0.166667 0.166665 0.166667 0.166667 0.166667 0.166667 0.166667 0.107144 0.000002 0.000002 0.892848 0.000002 0.000002 0.000005 0.000005 0.000005 0.000005 0.999975 0.000005 0.000028 0.000028 0.000028 0.000028 0.999860 0.000028 0.000002 0.000002 0.025272 0.108304 0.866418 0.000002 0.000000 0.000000 0.000000 0.194881 0.805119 0.000000 0.166665 0.166667 0.166667 0.166667 0.166667 0.166667 0.000001 0.000001 0.000001 0.000001 0.999995 0.000001 0.000000 0.000000 0.000000 0.403576 0.596424 0.000000 0.000000 0.000000 0.001443 0.412552 0.586005 0.000000 0.166665 0.166667 0.166667 0.166667 0.166667 0.166667 0.000003 0.000003 0.000003 0.000003 0.999985 0.000003 0.000001 0.000001 0.000001 0.027252 0.790281 0.182464 0.000000 0.000000 0.000000 0.070950 0.929050 0.000000 0.166665 0.166667 0.166667 0.166667 0.166667 0.166667 0.166665 0.166667 0.166667 0.166667 0.166667 0.166667 0.166665 0.166667 0.166667 0.166667 0.166667 0.166667 0.115385 0.000001 0.000001 0.881405 0.003207 0.000001 0.000006 0.000006 0.000006 0.000006 0.999970 0.000006 0.000025 0.000025 0.000025 0.555498 0.444402 0.000025 0.000003 0.000003 0.000003 0.135484 0.864504 0.000003 0.000000 0.000000 0.001828 0.117906 0.880266 0.000000 0.166665 0.166667 0.166667 0.166667 0.166667 0.166667 0.000001 0.000001 0.000001 0.000001 0.999995 0.000001 0.000000 0.000000 0.000000 0.406470 0.593530 0.000000 0.000000 0.000000 0.003270 0.378524 0.618206 0.000000 0.166665 0.166667 0.166667 0.166667 0.166667 0.166667 0.000002 0.000002 0.000002 0.000002 0.999990 0.000002 0.000000 0.000000 0.000000 0.040323 0.828341 0.131336 0.000000 0.000000 0.000000 0.072235 0.927765 0.000000 0.166665 0.166667 0.166667 0.166667 0.166667 0.166667 0.166665 0.166667 0.166667 0.166667 0.166667 0.166667 0.166665 0.166667 0.166667 0.166667 0.166667 0.166667 0.161290 0.000002 0.000002 0.838702 0.000002 0.000002 0.000001 0.000001 0.000001 0.000001 0.999995 0.000001 0.000003 0.000003 0.000003 0.000003 0.999985 0.000003 0.000001 0.000001 0.000001 0.082873 0.917123 0.000001 0.000000 0.000000 0.000000 0.094807 0.905193 0.000000 0.166665 0.166667 0.166667 0.166667 0.166667 0.166667 0.000001 0.000001 0.000001 0.000001 0.999995 0.000001 0.000000 0.000000 0.000000 0.260822 0.739178 0.000000 0.000000 0.000000 0.001483 0.286145 0.712372 0.000000 0.166665 0.166667 0.166667 0.166667 0.166667 0.166667 0.000000 0.000000 0.000000 0.000000 1.000000 0.000000 0.000000 0.000000 0.000000 0.036282 0.761374 0.202344 0.000000 0.000000 0.000346 0.065638 0.934016 0.000000 0.166665 0.166667 0.166667 0.166667 0.166667 0.166667 0.166665 0.166667 0.166667 0.166667 0.166667 0.166667 0.166665 0.166667 0.166667 0.166667 0.166667 0.166667 0.215685 0.000004 0.000004 0.784299 0.000004 0.000004 0.000001 0.000001 0.000001 0.000001 0.999995 0.000001 0.000001 0.000001 0.000001 0.000001 0.999995 0.000001 0.000000 0.000000 0.005710 0.048124 0.946166 0.000000 0.000000 0.000000 0.000000 0.094801 0.905199 0.000000 0.166665 0.166667 0.166667 0.166667 0.166667 0.166667 0.000000 0.000000 0.000000 0.000000 1.000000 0.000000 0.000000 0.000000 0.000000 0.129892 0.870108 0.000000 0.000000 0.000000 0.000875 0.188811 0.810314 0.000000 0.166665 0.166667 0.166667 0.166667 0.166667 0.166667 0.000000 0.000000 0.000000 0.000000 1.000000 0.000000 0.000000 0.000000 0.000000 0.035378 0.771538 0.193084 0.000000 0.000000 0.000000 0.055463 0.944537 0.000000 0.166665 0.166667 0.166667 0.166667 0.166667 0.166667 0.166665 0.166667 0.166667 0.166667 0.166667 0.166667 0.166665 0.166667 0.166667 0.166667 0.166667 0.166667 0.272714 0.000021 0.000021 0.727202 0.000021 0.000021 0.000001 0.000001 0.000001 0.000001 0.999995 0.000001 0.000001 0.000001 0.000001 0.000001 0.999995 0.000001 0.000000 0.000000 0.006924 0.014837 0.978239 0.000000 0.000000 0.000000 0.000000 0.106071 0.893929 0.000000 0.166665 0.166667 0.166667 0.166667 0.166667 0.166667 0.000001 0.000001 0.000001 0.000001 0.999995 0.000001 0.000000 0.000000 0.000000 0.070248 0.929752 0.000000 0.000000 0.000000 0.000521 0.110263 0.889216 0.000000 0.166665 0.166667 0.166667 0.166667 0.166667 0.166667 0.000000 0.000000 0.000000 0.000000 1.000000 0.000000 0.000000 0.000000 0.000000 0.037438 0.784052 0.178510 0.000000 0.000000 0.000000 0.045204 0.954796 0.000000 0.166665 0.166667 0.166667 0.166667 0.166667 0.166667 0.166665 0.166667 0.166667 0.166667 0.166667 0.166667 0.166665 0.166667 0.166667 0.166667 0.166667 0.166667 0.090565 0.000000 0.000000 0.863675 0.045760 0.000000 0.000000 0.000000 0.000000 0.000000 1.000000 0.000000 0.000000 0.000000 0.000000 0.387272 0.612728 0.000000 0.000000 0.000000 0.063352 0.262313 0.674335 0.000000 0.012931 0.000000 0.023705 0.266126 0.697238 0.000000 0.166665 0.166667 0.166667 0.166667 0.166667 0.166667 0.000000 0.000000 0.000000 0.000000 1.000000 0.000000 0.000000 0.000000 0.000000 0.205438 0.794562 0.000000 0.000000 0.000000 0.001152 0.247943 0.750905 0.000000 0.166665 0.166667 0.166667 0.166667 0.166667 0.166667 0.000000 0.000000 0.000000 0.000000 1.000000 0.000000 0.000000 0.000000 0.000000 0.067445 0.898264 0.034291 0.000000 0.000000 0.008860 0.116310 0.874830 0.000000 0.000015 0.000015 0.000015 0.166667 0.833273 0.000015 0.166665 0.166667 0.166667 0.166667 0.166667 0.166667 0.166665 0.166667 0.166667 0.166667 0.166667 0.166667 0.000017 0.000017 0.000017 0.888815 0.111117 0.000017 0.191473 0.000010 0.000010 0.531910 0.276587 0.000010 0.000000 0.000000 0.052053 0.249998 0.691667 0.006282 0.000000 0.000312 0.066233 0.543174 0.387787 0.002494 0.000105 0.006783 0.088387 0.731293 0.173432 0.000000 0.000076 0.000076 0.000076 0.000076 0.999620 0.000076 0.000000 0.000000 0.004424 0.064597 0.906205 0.024774 0.000000 0.000000 0.045263 0.565450 0.387677 0.001610 0.000000 0.003073 0.063139 0.724695 0.208993 0.000100 0.000030 0.000030 0.000030 0.000030 0.999850 0.000030 0.000000 0.000000 0.000000 0.038781 0.944667 0.016552 0.000000 0.000000 0.018989 0.405602 0.560670 0.014739 0.000000 0.006374 0.014906 0.604412 0.367587 0.006721 0.000003 0.000003 0.000003 0.166667 0.833321 0.000003 0.166665 0.166667 0.166667 0.166667 0.166667 0.166667 0.166665 0.166667 0.166667 0.166667 0.166667 0.166667 0.000007 0.000007 0.000007 0.888858 0.111114 0.000007 0.044120 0.000007 0.000007 0.808807 0.147052 0.000007 0.004225 0.000000 0.014788 0.190440 0.774116 0.016431 0.000000 0.000000 0.025450 0.475501 0.493190 0.005859 0.000073 0.001851 0.041288 0.715575 0.241213 0.000000 0.000076 0.000076 0.000076 0.000076 0.999620 0.000076 0.000000 0.000000 0.007064 0.051119 0.915222 0.026595 0.000000 0.000000 0.014759 0.518515 0.465095 0.001631 0.000000 0.000530 0.025182 0.694752 0.279324 0.000212 0.000022 0.000022 0.000022 0.000022 0.999890 0.000022 0.000000 0.000000 0.000763 0.040825 0.937047 0.021365 0.000000 0.000000 0.004910 0.355638 0.623132 0.016320 0.000000 0.000719 0.005559 0.567715 0.419353 0.006654 0.000002 0.000002 0.003861 0.166023 0.830110 0.000002 0.166665 0.166667 0.166667 0.166667 0.166667 0.166667 0.166665 0.166667 0.166667 0.166667 0.166667 0.166667 0.000005 0.000005 0.000005 0.888867 0.111113 0.000005 0.101900 0.000002 0.000002 0.801019 0.097075 0.000002 0.002677 0.000476 0.007318 0.131262 0.837442 0.020825 0.000000 0.000000 0.011228 0.392509 0.589095 0.007168 0.000033 0.000449 0.020200 0.635829 0.343489 0.000000 0.000007 0.000007 0.000007 0.000007 0.999965 0.000007 0.000000 0.000000 0.007497 0.041814 0.921474 0.029215 0.000000 0.000000 0.004789 0.435902 0.556236 0.003073 0.000000 0.000233 0.009931 0.622303 0.367080 0.000453 0.000013 0.000013 0.000013 0.000013 0.999935 0.000013 0.000000 0.000000 0.000155 0.038377 0.939527 0.021941 0.000000 0.000000 0.000983 0.267007 0.709462 0.022548 0.000000 0.000212 0.001957 0.508353 0.479680 0.009798 0.000003 0.000003 0.000003 0.166667 0.833321 0.000003 0.166665 0.166667 0.166667 0.166667 0.166667 0.166667 0.166665 0.166667 0.166667 0.166667 0.166667 0.166667 0.000003 0.000003 0.000003 0.888876 0.111112 0.000003 0.097689 0.000001 0.000001 0.833910 0.068398 0.000001 0.000994 0.000000 0.004896 0.087574 0.882056 0.024480 0.000000 0.000000 0.005996 0.295102 0.681286 0.017616 0.000000 0.000273 0.009390 0.513525 0.476812 0.000000 0.000004 0.000004 0.000004 0.000004 0.999980 0.000004 0.000000 0.000000 0.006967 0.025381 0.935659 0.031993 0.000000 0.000000 0.001274 0.333496 0.659114 0.006116 0.000000 0.000062 0.003985 0.525016 0.469498 0.001439 0.000011 0.000011 0.000011 0.000011 0.999945 0.000011 0.000000 0.000000 0.000000 0.032908 0.935852 0.031240 0.000000 0.000000 0.000311 0.194070 0.770195 0.035424 0.000000 0.000065 0.000804 0.432200 0.548148 0.018783 0.000019 0.000019 0.000019 0.166667 0.833257 0.000019 0.166665 0.166667 0.166667 0.166667 0.166667 0.166667 0.166665 0.166667 0.166667 0.166667 0.166667 0.166667 0.000008 0.000008 0.000008 0.813497 0.186471 0.000008 0.121180 0.000002 0.000002 0.737418 0.141396 0.000002 0.000294 0.000000 0.001913 0.062676 0.884283 0.050834 0.000000 0.000000 0.002525 0.235663 0.709166 0.052646 0.000000 0.000018 0.006849 0.407770 0.585363 0.000000 0.000013 0.000013 0.000013 0.000013 0.999935 0.000013 0.000000 0.000000 0.008076 0.013207 0.916387 0.062330 0.000000 0.000000 0.000681 0.252657 0.733941 0.012721 0.000000 0.000016 0.002006 0.409491 0.581037 0.007450 0.000030 0.000030 0.000030 0.000030 0.999850 0.000030 0.000000 0.000000 0.000000 0.023187 0.921580 0.055233 0.000000 0.000000 0.000148 0.142987 0.787971 0.068894 0.000000 0.000018 0.000297 0.349304 0.603375 0.047006 0.126559 0.000000 0.126559 0.124480 0.622402 0.000000 0.166665 0.166667 0.166667 0.166667 0.166667 0.166667 0.166665 0.166667 0.166667 0.166667 0.166667 0.166667 0.000000 0.000000 0.000000 0.749622 0.250378 0.000000 0.120577 0.000000 0.000000 0.397690 0.481733 0.000000 0.004655 0.012414 0.023276 0.277494 0.671847 0.010314 0.000000 0.004542 0.053212 0.466917 0.471815 0.003514 0.000164 0.007060 0.082530 0.687629 0.222617 0.000000 0.000000 0.000000 0.000000 0.000000 1.000000 0.000000 0.000000 0.000000 0.006546 0.146309 0.842408 0.004737 0.000000 0.000000 0.033866 0.503924 0.460624 0.001586 0.000000 0.000878 0.035906 0.683319 0.279720 0.000177 0.000000 0.000000 0.000000 0.000000 1.000000 0.000000 0.000000 0.000000 0.001544 0.077606 0.909954 0.010896 0.000000 0.000000 0.004806 0.275880 0.713146 0.006168 0.000000 0.000689 0.004813 0.560990 0.429806 0.003702 0.166665 0.166667 0.166667 0.166667 0.166667 0.166667 0.166665 0.166667 0.166667 0.166667 0.166667 0.166667 0.166665 0.166667 0.166667 0.166667 0.166667 0.166667 0.000003 0.000003 0.000003 0.999985 0.000003 0.000003 0.166665 0.166667 0.166667 0.166667 0.166667 0.166667 0.166665 0.166667 0.166667 0.166667 0.166667 0.166667 0.166665 0.166667 0.166667 0.166667 0.166667 0.166667 0.000000 0.000000 0.000000 0.103797 0.896203 0.000000 0.166665 0.166667 0.166667 0.166667 0.166667 0.166667 0.000003 0.000003 0.000003 0.199999 0.799989 0.000003 0.000000 0.000000 0.019085 0.373313 0.607602 0.000000 0.000000 0.000000 0.000000 0.448288 0.551712 0.000000 0.166665 0.166667 0.166667 0.166667 0.166667 0.166667 0.000151 0.000151 0.000151 0.000151 0.999245 0.000151 0.000001 0.000001 0.003449 0.003449 0.993099 0.000001 0.000000 0.000000 0.000000 0.041079 0.958921 0.000000 0.166665 0.166667 0.166667 0.166667 0.166667 0.166667 0.166665 0.166667 0.166667 0.166667 0.166667 0.166667 0.166665 0.166667 0.166667 0.166667 0.166667 0.166667 0.000002 0.000002 0.000002 0.999990 0.000002 0.000002 0.166665 0.166667 0.166667 0.166667 0.166667 0.166667 0.166665 0.166667 0.166667 0.166667 0.166667 0.166667 0.166665 0.166667 0.166667 0.166667 0.166667 0.166667 0.000000 0.000000 0.002740 0.066207 0.931053 0.000000 0.166665 0.166667 0.166667 0.166667 0.166667 0.166667 0.000002 0.000002 0.000002 0.200000 0.799992 0.000002 0.000000 0.000000 0.024255 0.302058 0.673687 0.000000 0.000000 0.000000 0.000000 0.371324 0.628676 0.000000 0.166665 0.166667 0.166667 0.166667 0.166667 0.166667 0.000025 0.000025 0.000025 0.000025 0.999875 0.000025 0.000000 0.000000 0.001291 0.003228 0.995481 0.000000 0.000000 0.000000 0.000000 0.052371 0.947629 0.000000 0.166665 0.166667 0.166667 0.166667 0.166667 0.166667 0.166665 0.166667 0.166667 0.166667 0.166667 0.166667 0.166665 0.166667 0.166667 0.166667 0.166667 0.166667 0.000002 0.000002 0.000002 0.999990 0.000002 0.000002 0.166665 0.166667 0.166667 0.166667 0.166667 0.166667 0.166665 0.166667 0.166667 0.166667 0.166667 0.166667 0.166665 0.166667 0.166667 0.166667 0.166667 0.166667 0.000000 0.000000 0.000000 0.042527 0.957473 0.000000 0.166665 0.166667 0.166667 0.166667 0.166667 0.166667 0.000001 0.000001 0.000001 0.200000 0.799996 0.000001 0.000000 0.000000 0.017445 0.286841 0.695714 0.000000 0.000000 0.000000 0.000000 0.312492 0.687508 0.000000 0.166665 0.166667 0.166667 0.166667 0.166667 0.166667 0.000014 0.000014 0.000014 0.000014 0.999930 0.000014 0.000000 0.000000 0.000192 0.001730 0.998078 0.000000 0.000000 0.000000 0.000277 0.048515 0.951208 0.000000 0.166665 0.166667 0.166667 0.166667 0.166667 0.166667 0.166665 0.166667 0.166667 0.166667 0.166667 0.166667 0.166665 0.166667 0.166667 0.166667 0.166667 0.166667 0.000006 0.000006 0.000006 0.999970 0.000006 0.000006 0.166665 0.166667 0.166667 0.166667 0.166667 0.166667 0.166665 0.166667 0.166667 0.166667 0.166667 0.166667 0.166665 0.166667 0.166667 0.166667 0.166667 0.166667 0.000000 0.000000 0.000000 0.032901 0.967099 0.000000 0.166665 0.166667 0.166667 0.166667 0.166667 0.166667 0.000001 0.000001 0.000001 0.200000 0.799996 0.000001 0.000000 0.000000 0.009267 0.167675 0.823058 0.000000 0.000000 0.000000 0.000000 0.226690 0.773310 0.000000 0.166665 0.166667 0.166667 0.166667 0.166667 0.166667 0.000004 0.000004 0.000004 0.000004 0.999980 0.000004 0.000000 0.000000 0.000210 0.000769 0.999021 0.000000 0.000000 0.000000 0.000000 0.043422 0.956578 0.000000 0.166665 0.166667 0.166667 0.166667 0.166667 0.166667 0.166665 0.166667 0.166667 0.166667 0.166667 0.166667 0.166665 0.166667 0.166667 0.166667 0.166667 0.166667 0.000032 0.000032 0.000032 0.999840 0.000032 0.000032 0.166665 0.166667 0.166667 0.166667 0.166667 0.166667 0.166665 0.166667 0.166667 0.166667 0.166667 0.166667 0.166665 0.166667 0.166667 0.166667 0.166667 0.166667 0.000000 0.000000 0.000000 0.025383 0.974617 0.000000 0.166665 0.166667 0.166667 0.166667 0.166667 0.166667 0.000002 0.000002 0.000002 0.200000 0.799992 0.000002 0.000000 0.000000 0.005468 0.099046 0.895486 0.000000 0.000000 0.000000 0.000000 0.129051 0.870949 0.000000 0.166665 0.166667 0.166667 0.166667 0.166667 0.166667 0.000003 0.000003 0.000003 0.000003 0.999985 0.000003 0.000000 0.000000 0.000177 0.000649 0.999174 0.000000 0.000000 0.000000 0.000000 0.039243 0.960757 0.000000 0.166665 0.166667 0.166667 0.166667 0.166667 0.166667 0.166665 0.166667 0.166667 0.166667 0.166667 0.166667 0.166665 0.166667 0.166667 0.166667 0.166667 0.166667 0.000000 0.000000 0.000000 1.000000 0.000000 0.000000 0.166665 0.166667 0.166667 0.166667 0.166667 0.166667 0.166665 0.166667 0.166667 0.166667 0.166667 0.166667 0.000000 0.000000 0.000000 1.000000 0.000000 0.000000 0.020214 0.000000 0.017965 0.287072 0.674749 0.000000 0.166665 0.166667 0.166667 0.166667 0.166667 0.166667 0.000000 0.000000 0.000000 0.200000 0.800000 0.000000 0.000000 0.000000 0.016447 0.246320 0.737233 0.000000 0.000000 0.000000 0.000000 0.254168 0.745832 0.000000 0.166665 0.166667 0.166667 0.166667 0.166667 0.166667 0.000000 0.000000 0.000000 0.000000 1.000000 0.000000 0.000000 0.000000 0.003310 0.009926 0.986764 0.000000 0.000000 0.000000 0.008332 0.082222 0.909446 0.000000 0.166665 0.166667 0.166667 0.166667 0.166667 0.166667 0.166665 0.166667 0.166667 0.166667 0.166667 0.166667 0.166665 0.166667 0.166667 0.166667 0.166667 0.166667 0.000007 0.000007 0.000007 0.999965 0.000007 0.000007 0.166665 0.166667 0.166667 0.166667 0.166667 0.166667 0.000011 0.000011 0.000011 0.348781 0.651175 0.000011 0.000000 0.000000 0.060616 0.544157 0.395227 0.000000 0.000000 0.006082 0.133920 0.663880 0.196118 0.000000 0.166665 0.166667 0.166667 0.166667 0.166667 0.166667 0.000016 0.000016 0.000016 0.241335 0.758601 0.000016 0.000000 0.000000 0.126571 0.586195 0.287234 0.000000 0.000000 0.004516 0.064960 0.728531 0.201792 0.000201 0.166665 0.166667 0.166667 0.166667 0.166667 0.166667 0.000000 0.000000 0.000000 0.017275 0.922318 0.060407 0.000000 0.000000 0.043071 0.393759 0.539060 0.024110 0.000000 0.002645 0.037879 0.527060 0.417781 0.014635 0.166665 0.166667 0.166667 0.166667 0.166667 0.166667 0.166665 0.166667 0.166667 0.166667 0.166667 0.166667 0.166665 0.166667 0.166667 0.166667 0.166667 0.166667 0.000003 0.000003 0.000003 0.999985 0.000003 0.000003 0.166665 0.166667 0.166667 0.166667 0.166667 0.166667 0.000005 0.000005 0.000005 0.249999 0.749981 0.000005 0.000000 0.000000 0.023836 0.504315 0.471849 0.000000 0.000000 0.001341 0.062506 0.660227 0.275926 0.000000 0.166665 0.166667 0.166667 0.166667 0.166667 0.166667 0.000024 0.000024 0.000024 0.315700 0.684204 0.000024 0.000000 0.000000 0.040433 0.564216 0.395351 0.000000 0.000000 0.000759 0.028026 0.689368 0.281433 0.000414 0.166665 0.166667 0.166667 0.166667 0.166667 0.166667 0.000000 0.000000 0.000000 0.025480 0.900274 0.074246 0.000000 0.000000 0.013028 0.327950 0.638516 0.020506 0.000000 0.000311 0.016270 0.485232 0.483048 0.015139 0.166665 0.166667 0.166667 0.166667 0.166667 0.166667 0.166665 0.166667 0.166667 0.166667 0.166667 0.166667 0.166665 0.166667 0.166667 0.166667 0.166667 0.166667 0.000002 0.000002 0.000002 0.999990 0.000002 0.000002 0.166665 0.166667 0.166667 0.166667 0.166667 0.166667 0.000001 0.000001 0.000001 0.139452 0.860544 0.000001 0.000000 0.000000 0.011707 0.435540 0.552753 0.000000 0.000000 0.000315 0.030696 0.580714 0.388275 0.000000 0.166665 0.166667 0.166667 0.166667 0.166667 0.166667 0.000004 0.000004 0.000004 0.235225 0.764759 0.000004 0.000000 0.000000 0.012972 0.476875 0.510153 0.000000 0.000000 0.000334 0.011934 0.598306 0.388543 0.000883 0.166665 0.166667 0.166667 0.166667 0.166667 0.166667 0.000000 0.000000 0.000000 0.034705 0.894541 0.070754 0.000000 0.000000 0.002392 0.224291 0.748671 0.024646 0.000000 0.000090 0.005510 0.408206 0.562402 0.023792 0.166665 0.166667 0.166667 0.166667 0.166667 0.166667 0.166665 0.166667 0.166667 0.166667 0.166667 0.166667 0.166665 0.166667 0.166667 0.166667 0.166667 0.166667 0.000001 0.000001 0.000001 0.999995 0.000001 0.000001 0.166665 0.166667 0.166667 0.166667 0.166667 0.166667 0.000001 0.000001 0.000001 0.078608 0.921388 0.000001 0.000000 0.000000 0.006019 0.348329 0.645652 0.000000 0.000000 0.000200 0.011857 0.443595 0.544348 0.000000 0.166665 0.166667 0.166667 0.166667 0.166667 0.166667 0.000002 0.000002 0.000002 0.105851 0.894141 0.000002 0.000000 0.000000 0.003324 0.352670 0.644006 0.000000 0.000000 0.000090 0.005536 0.472428 0.519085 0.002861 0.166665 0.166667 0.166667 0.166667 0.166667 0.166667 0.000000 0.000000 0.000000 0.045165 0.868743 0.086092 0.000000 0.000000 0.000439 0.162332 0.797093 0.040136 0.000000 0.000026 0.002337 0.316802 0.636613 0.044222 0.166665 0.166667 0.166667 0.166667 0.166667 0.166667 0.166665 0.166667 0.166667 0.166667 0.166667 0.166667 0.166665 0.166667 0.166667 0.166667 0.166667 0.166667 0.000003 0.000003 0.000003 0.999985 0.000003 0.000003 0.166665 0.166667 0.166667 0.166667 0.166667 0.166667 0.000001 0.000001 0.000001 0.030612 0.969384 0.000001 0.000000 0.000000 0.002306 0.268802 0.728892 0.000000 0.000000 0.000000 0.006033 0.323494 0.670473 0.000000 0.166665 0.166667 0.166667 0.166667 0.166667 0.166667 0.000003 0.000003 0.000003 0.038449 0.961539 0.000003 0.000000 0.000000 0.002710 0.260921 0.736369 0.000000 0.000000 0.000025 0.002907 0.347281 0.634132 0.015655 0.166665 0.166667 0.166667 0.166667 0.166667 0.166667 0.000000 0.000000 0.000000 0.035953 0.823698 0.140349 0.000000 0.000000 0.000200 0.118908 0.795447 0.085445 0.000000 0.000007 0.001661 0.220281 0.659709 0.118342 0.166665 0.166667 0.166667 0.166667 0.166667 0.166667 0.166665 0.166667 0.166667 0.166667 0.166667 0.166667 0.166665 0.166667 0.166667 0.166667 0.166667 0.166667 0.000000 0.000000 0.000000 1.000000 0.000000 0.000000 0.166665 0.166667 0.166667 0.166667 0.166667 0.166667 0.000000 0.000000 0.000000 0.196691 0.803309 0.000000 0.000000 0.000000 0.057342 0.512900 0.429758 0.000000 0.000000 0.005952 0.118426 0.662974 0.212648 0.000000 0.166665 0.166667 0.166667 0.166667 0.166667 0.166667 0.000000 0.000000 0.000000 0.602133 0.397867 0.000000 0.000000 0.000000 0.061898 0.583813 0.354289 0.000000 0.000000 0.001340 0.041174 0.687956 0.269125 0.000405 0.166665 0.166667 0.166667 0.166667 0.166667 0.166667 0.000000 0.000000 0.000000 0.063405 0.896346 0.040249 0.000000 0.000000 0.012158 0.279365 0.695348 0.013129 0.000000 0.000324 0.010841 0.511461 0.466576 0.010798 0.147825 0.002280 0.041980 0.394671 0.406754 0.006490 0.166665 0.166667 0.166667 0.166667 0.166667 0.166667 0.147825 0.002280 0.041980 0.394671 0.406754 0.006490 0.147825 0.002280 0.041980 0.394671 0.406754 0.006490 0.147825 0.002280 0.041980 0.394671 0.406754 0.006490 0.147825 0.002280 0.041980 0.394671 0.406754 0.006490 0.147825 0.002280 0.041980 0.394671 0.406754 0.006490 0.147825 0.002280 0.041980 0.394671 0.406754 0.006490 0.166665 0.166667 0.166667 0.166667 0.166667 0.166667 0.147825 0.002280 0.041980 0.394671 0.406754 0.006490 0.147825 0.002280 0.041980 0.394671 0.406754 