<?xml version="1.0" encoding="UTF-8"?>
<BIF VERSION="0.3"  xmlns="http://www.cs.ubc.ca/labs/lci/fopi/ve/XMLBIFv0_3"
xmlns:xsi="http://www.w3.org/2001/XMLSchema-instance"
xsi:schemaLocation="http://www.cs.ubc.ca/labs/lci/fopi/ve/XMLBIFv0_3 http://www.cs.ubc.ca/labs/lci/fopi/ve/XMLBIFv0_3/XMLBIFv0_3.xsd">
<NETWORK>
<NAME>UW_std</NAME>
<VARIABLE TYPE="nature">
	<NAME>advisedBy(person0,person1)</NAME>
	<OUTCOME>F</OUTCOME>
	<OUTCOME>T</OUTCOME>
	<PROPERTY> position=(6000.0,4000.0)</PROPERTY>
</VARIABLE>
<VARIABLE TYPE="nature">
	<NAME>courseLevel(course0)</NAME>
	<OUTCOME>Level_300</OUTCOME>
	<OUTCOME>Level_400</OUTCOME>
	<OUTCOME>Level_500</OUTCOME>
	<PROPERTY> position=(6200.0,4000.0)</PROPERTY>
</VARIABLE>
<VARIABLE TYPE="nature">
	<NAME>hasPosition(person0)</NAME>
	<OUTCOME>0</OUTCOME>
	<OUTCOME>Faculty</OUTCOME>
	<OUTCOME>Faculty_adj</OUTCOME>
	<OUTCOME>Faculty_aff</OUTCOME>
	<OUTCOME>Faculty_eme</OUTCOME>
	<PROPERTY> position=(6400.0,4000.0)</PROPERTY>
</VARIABLE>
<VARIABLE TYPE="nature">
	<NAME>hasPosition(person1)</NAME>
	<OUTCOME>0</OUTCOME>
	<OUTCOME>Faculty</OUTCOME>
	<OUTCOME>Faculty_adj</OUTCOME>
	<OUTCOME>Faculty_aff</OUTCOME>
	<OUTCOME>Faculty_eme</OUTCOME>
	<PROPERTY> position=(6000.0,4200.0)</PROPERTY>
</VARIABLE>
<VARIABLE TYPE="nature">
	<NAME>inPhase(person0)</NAME>
	<OUTCOME>0</OUTCOME>
	<OUTCOME>Post_Generals</OUTCOME>
	<OUTCOME>Post_Quals</OUTCOME>
	<OUTCOME>Pre_Quals</OUTCOME>
	<PROPERTY> position=(6200.0,4200.0)</PROPERTY>
</VARIABLE>
<VARIABLE TYPE="nature">
	<NAME>inPhase(person1)</NAME>
	<OUTCOME>0</OUTCOME>
	<OUTCOME>Post_Generals</OUTCOME>
	<OUTCOME>Post_Quals</OUTCOME>
	<OUTCOME>Pre_Quals</OUTCOME>
	<PROPERTY> position=(6400.0,4200.0)</PROPERTY>
</VARIABLE>
<VARIABLE TYPE="nature">
	<NAME>professor(person0)</NAME>
	<OUTCOME>0</OUTCOME>
	<OUTCOME>1</OUTCOME>
	<PROPERTY> position=(6000.0,4400.0)</PROPERTY>
</VARIABLE>
<VARIABLE TYPE="nature">
	<NAME>professor(person1)</NAME>
	<OUTCOME>0</OUTCOME>
	<OUTCOME>1</OUTCOME>
	<PROPERTY> position=(6200.0,4400.0)</PROPERTY>
</VARIABLE>
<VARIABLE TYPE="nature">
	<NAME>student(person0)</NAME>
	<OUTCOME>0</OUTCOME>
	<OUTCOME>1</OUTCOME>
	<PROPERTY> position=(6400.0,4400.0)</PROPERTY>
</VARIABLE>
<VARIABLE TYPE="nature">
	<NAME>student(person1)</NAME>
	<OUTCOME>0</OUTCOME>
	<OUTCOME>1</OUTCOME>
	<PROPERTY> position=(6000.0,4600.0)</PROPERTY>
</VARIABLE>
<VARIABLE TYPE="nature">
	<NAME>taughtBy(course0,person0)</NAME>
	<OUTCOME>F</OUTCOME>
	<OUTCOME>T</OUTCOME>
	<PROPERTY> position=(6200.0,4600.0)</PROPERTY>
</VARIABLE>
<VARIABLE TYPE="nature">
	<NAME>taughtBy(course0,person1)</NAME>
	<OUTCOME>F</OUTCOME>
	<OUTCOME>T</OUTCOME>
	<PROPERTY> position=(6400.0,4600.0)</PROPERTY>
</VARIABLE>
<VARIABLE TYPE="nature">
	<NAME>yearsInProgram(person0)</NAME>
	<OUTCOME>0</OUTCOME>
	<OUTCOME>Year_1</OUTCOME>
	<OUTCOME>Year_10</OUTCOME>
	<OUTCOME>Year_12</OUTCOME>
	<OUTCOME>Year_2</OUTCOME>
	<OUTCOME>Year_3</OUTCOME>
	<OUTCOME>Year_4</OUTCOME>
	<OUTCOME>Year_5</OUTCOME>
	<OUTCOME>Year_6</OUTCOME>
	<OUTCOME>Year_7</OUTCOME>
	<OUTCOME>Year_8</OUTCOME>
	<OUTCOME>Year_9</OUTCOME>
	<PROPERTY> position=(6000.0,4800.0)</PROPERTY>
</VARIABLE>
<VARIABLE TYPE="nature">
	<NAME>yearsInProgram(person1)</NAME>
	<OUTCOME>0</OUTCOME>
	<OUTCOME>Year_1</OUTCOME>
	<OUTCOME>Year_10</OUTCOME>
	<OUTCOME>Year_12</OUTCOME>
	<OUTCOME>Year_2</OUTCOME>
	<OUTCOME>Year_3</OUTCOME>
	<OUTCOME>Year_4</OUTCOME>
	<OUTCOME>Year_5</OUTCOME>
	<OUTCOME>Year_6</OUTCOME>
	<OUTCOME>Year_7</OUTCOME>
	<OUTCOME>Year_8</OUTCOME>
	<OUTCOME>Year_9</OUTCOME>
	<PROPERTY> position=(6200.0,4800.0)</PROPERTY>
</VARIABLE>
<DEFINITION>
	<FOR>advisedBy(person0,person1)</FOR>
	<GIVEN>student(person1)</GIVEN>
	<TABLE> 0.993444 0.006556 1.000000 0.000000</TABLE>
</DEFINITION>
<DEFINITION>
	<FOR>courseLevel(course0)</FOR>
	<GIVEN>taughtBy(course0,person0)</GIVEN>
	<GIVEN>taughtBy(course0,person1)</GIVEN>
	<TABLE> 0.059597 0.317533 0.622870 0.157261 0.380734 0.462005 0.157261 0.380734 0.462005 0.317623 0.403688 0.278689</TABLE>
</DEFINITION>
<DEFINITION>
	<FOR>hasPosition(person0)</FOR>
	<GIVEN>advisedBy(person0,person1)</GIVEN>
	<GIVEN>student(person0)</GIVEN>
	<TABLE> 0.161290 0.645162 0.096774 0.048387 0.048387 1.000000 0.000000 0.000000 0.000000 0.000000 0.200000 0.200000 0.200000 0.200000 0.200000 0.999732 0.000067 0.000067 0.000067 0.000067</TABLE>
</DEFINITION>
<DEFINITION>
	<FOR>hasPosition(person1)</FOR>
	<TABLE> 0.812949 0.143886 0.021583 0.010791 0.010791</TABLE>
</DEFINITION>
<DEFINITION>
	<FOR>inPhase(person0)</FOR>
	<GIVEN>advisedBy(person0,person1)</GIVEN>
	<GIVEN>yearsInProgram(person0)</GIVEN>
	<TABLE> 1.000000 0.000000 0.000000 0.000000 0.000001 0.000001 0.000001 0.999997 0.000014 0.999958 0.000014 0.000014 0.000009 0.999973 0.000009 0.000009 0.000002 0.062628 0.311556 0.625814 0.000001 0.000001 0.739101 0.260897 0.000001 0.208214 0.708438 0.083347 0.000001 0.592641 0.370434 0.036924 0.000002 0.999994 0.000002 0.000002 0.000004 0.999988 0.000004 0.000004 0.000014 0.999958 0.000014 0.000014 0.000014 0.999958 0.000014 0.000014 0.250000 0.250000 0.250000 0.250000 0.007353 0.007353 0.007353 0.977941 0.003731 0.988807 0.003731 0.003731 0.002500 0.992500 0.002500 0.002500 0.000839 0.000839 0.776007 0.222315 0.000473 0.000473 0.749054 0.250000 0.000303 0.240012 0.679479 0.080206 0.000244 0.580323 0.354736 0.064697 0.000504 0.998488 0.000504 0.000504 0.001078 0.996766 0.001078 0.001078 0.003731 0.988807 0.003731 0.003731 0.003731 0.988807 0.003731 0.003731</TABLE>
</DEFINITION>
<DEFINITION>
	<FOR>inPhase(person1)</FOR>
	<TABLE> 0.496403 0.179856 0.176259 0.147482</TABLE>
</DEFINITION>
<DEFINITION>
	<FOR>professor(person0)</FOR>
	<GIVEN>advisedBy(person0,person1)</GIVEN>
	<GIVEN>hasPosition(person0)</GIVEN>
	<GIVEN>inPhase(person0)</GIVEN>
	<GIVEN>student(person0)</GIVEN>
	<TABLE> 0.000003 0.999997 1.000000 0.000000 0.500000 0.500000 0.999999 0.000001 0.500000 0.500000 0.999999 0.000001 0.500000 0.500000 0.999999 0.000001 0.000001 0.999999 0.500000 0.500000 0.500000 0.500000 0.500000 0.500000 0.500000 0.500000 0.500000 0.500000 0.500000 0.500000 0.500000 0.500000 0.000005 0.999995 0.500000 0.500000 0.500000 0.500000 0.500000 0.500000 0.500000 0.500000 0.500000 0.500000 0.500000 0.500000 0.500000 0.500000 0.000009 0.999991 0.500000 0.500000 0.500000 0.500000 0.500000 0.500000 0.500000 0.500000 0.500000 0.500000 0.500000 0.500000 0.500000 0.500000 0.000009 0.999991 0.500000 0.500000 0.500000 0.500000 0.500000 0.500000 0.500000 0.500000 0.500000 0.500000 0.500000 0.500000 0.500000 0.500000 0.500000 0.500000 0.500000 0.500000 0.500000 0.500000 0.999862 0.000138 0.500000 0.500000 0.999839 0.000161 0.500000 0.500000 0.999312 0.000688 0.500000 0.500000 0.500000 0.500000 0.500000 0.500000 0.500000 0.500000 0.500000 0.500000 0.500000 0.500000 0.500000 0.500000 0.500000 0.500000 0.500000 0.500000 0.500000 0.500000 0.500000 0.500000 0.500000 0.500000 0.500000 0.500000 0.500000 0.500000 0.500000 0.500000 0.500000 0.500000 0.500000 0.500000 0.500000 0.500000 0.500000 0.500000 0.500000 0.500000 0.500000 0.500000 0.500000 0.500000 0.500000 0.500000 0.500000 0.500000 0.500000 0.500000 0.500000 0.500000 0.500000 0.500000 0.500000 0.500000 0.500000 0.500000 0.500000 0.500000 0.500000 0.500000 0.500000 0.500000</TABLE>
</DEFINITION>
<DEFINITION>
	<FOR>professor(person1)</FOR>
	<TABLE> 0.776978 0.223022</TABLE>
</DEFINITION>
<DEFINITION>
	<FOR>student(person0)</FOR>
	<GIVEN>advisedBy(person0,person1)</GIVEN>
	<GIVEN>inPhase(person0)</GIVEN>
	<GIVEN>taughtBy(course0,person1)</GIVEN>
	<TABLE> 0.449275 0.550725 0.449279 0.550721 0.000001 0.999999 0.000108 0.999892 0.000001 0.999999 0.000110 0.999890 0.000001 0.999999 0.000130 0.999870 0.500000 0.500000 0.500000 0.500000 0.000142 0.999858 0.005025 0.994975 0.000166 0.999834 0.005464 0.994536 0.000704 0.999296 0.027778 0.972222</TABLE>
</DEFINITION>
<DEFINITION>
	<FOR>student(person1)</FOR>
	<TABLE> 0.223022 0.776978</TABLE>
</DEFINITION>
<DEFINITION>
	<FOR>taughtBy(course0,person0)</FOR>
	<GIVEN>hasPosition(person0)</GIVEN>
	<GIVEN>professor(person0)</GIVEN>
	<GIVEN>taughtBy(course0,person1)</GIVEN>
	<TABLE> 0.999687 0.000313 0.999192 0.000808 0.985723 0.014277 0.961945 0.038055 0.500000 0.500000 0.500000 0.500000 0.971498 0.028502 0.952526 0.047474 0.500000 0.500000 0.500000 0.500000 0.997485 0.002515 0.993838 0.006162 0.500000 0.500000 0.500000 0.500000 0.992422 0.007578 0.989455 0.010545 0.500000 0.500000 0.500000 0.500000 0.987418 0.012582 0.975395 0.024605</TABLE>
</DEFINITION>
<DEFINITION>
	<FOR>taughtBy(course0,person1)</FOR>
	<TABLE> 0.994849 0.005151</TABLE>
</DEFINITION>
<DEFINITION>
	<FOR>yearsInProgram(person0)</FOR>
	<GIVEN>advisedBy(person0,person1)</GIVEN>
	<TABLE> 0.497129 0.079240 0.007179 0.010768 0.057522 0.082648 0.086133 0.096863 0.043034 0.025126 0.007179 0.007179 0.000067 0.008909 0.017752 0.026594 0.079649 0.141546 0.221128 0.274183 0.132704 0.061964 0.017752 0.017752</TABLE>
</DEFINITION>
<DEFINITION>
	<FOR>yearsInProgram(person1)</FOR>
	<TABLE> 0.496403 0.079137 0.007194 0.010791 0.057554 0.082734 0.086331 0.097122 0.043166 0.025180 0.007194 0.007194</TABLE>
</DEFINITION>
</NETWORK>
</BIF>
