<?xml version="1.0" encoding="UTF-8"?>
<BIF VERSION="0.3"  xmlns="http://www.cs.ubc.ca/labs/lci/fopi/ve/XMLBIFv0_3"
xmlns:xsi="http://www.w3.org/2001/XMLSchema-instance"
xsi:schemaLocation="http://www.cs.ubc.ca/labs/lci/fopi/ve/XMLBIFv0_3 http://www.cs.ubc.ca/labs/lci/fopi/ve/XMLBIFv0_3/XMLBIFv0_3.xsd">
<NETWORK>
<NAME>Financial_std</NAME>
<VARIABLE TYPE="nature">
	<NAME>amount(loan0)</NAME>
	<OUTCOME>0</OUTCOME>
	<OUTCOME>1</OUTCOME>
	<OUTCOME>2</OUTCOME>
	<OUTCOME>3</OUTCOME>
	<OUTCOME>4</OUTCOME>
	<PROPERTY> position=(6000.0,4000.0)</PROPERTY>
</VARIABLE>
<VARIABLE TYPE="nature">
	<NAME>amount2(trans0)</NAME>
	<OUTCOME>0</OUTCOME>
	<OUTCOME>1</OUTCOME>
	<OUTCOME>2</OUTCOME>
	<OUTCOME>3</OUTCOME>
	<PROPERTY> position=(6200.0,4000.0)</PROPERTY>
</VARIABLE>
<VARIABLE TYPE="nature">
	<NAME>amount3(order20)</NAME>
	<OUTCOME>0</OUTCOME>
	<OUTCOME>1</OUTCOME>
	<OUTCOME>2</OUTCOME>
	<OUTCOME>3</OUTCOME>
	<OUTCOME>4</OUTCOME>
	<PROPERTY> position=(6400.0,4000.0)</PROPERTY>
</VARIABLE>
<VARIABLE TYPE="nature">
	<NAME>balance(trans0)</NAME>
	<OUTCOME>0</OUTCOME>
	<OUTCOME>1</OUTCOME>
	<OUTCOME>2</OUTCOME>
	<OUTCOME>3</OUTCOME>
	<PROPERTY> position=(6000.0,4200.0)</PROPERTY>
</VARIABLE>
<VARIABLE TYPE="nature">
	<NAME>bank_to(order20)</NAME>
	<OUTCOME>AB</OUTCOME>
	<OUTCOME>CD</OUTCOME>
	<OUTCOME>EF</OUTCOME>
	<OUTCOME>GH</OUTCOME>
	<OUTCOME>IJ</OUTCOME>
	<OUTCOME>KL</OUTCOME>
	<OUTCOME>MN</OUTCOME>
	<OUTCOME>OP</OUTCOME>
	<OUTCOME>QR</OUTCOME>
	<OUTCOME>ST</OUTCOME>
	<OUTCOME>UV</OUTCOME>
	<OUTCOME>WX</OUTCOME>
	<OUTCOME>YZ</OUTCOME>
	<PROPERTY> position=(6200.0,4200.0)</PROPERTY>
</VARIABLE>
<VARIABLE TYPE="nature">
	<NAME>duration(loan0)</NAME>
	<OUTCOME>12</OUTCOME>
	<OUTCOME>24</OUTCOME>
	<OUTCOME>36</OUTCOME>
	<OUTCOME>48</OUTCOME>
	<OUTCOME>60</OUTCOME>
	<PROPERTY> position=(6400.0,4200.0)</PROPERTY>
</VARIABLE>
<VARIABLE TYPE="nature">
	<NAME>frequency(acc0)</NAME>
	<OUTCOME>afterTrans</OUTCOME>
	<OUTCOME>Monthly</OUTCOME>
	<OUTCOME>Weekly</OUTCOME>
	<PROPERTY> position=(6000.0,4400.0)</PROPERTY>
</VARIABLE>
<VARIABLE TYPE="nature">
	<NAME>k_symbol(order20)</NAME>
	<OUTCOME>Household</OUTCOME>
	<OUTCOME>Insurance</OUTCOME>
	<OUTCOME>Leasing</OUTCOME>
	<OUTCOME>Loan</OUTCOME>
	<PROPERTY> position=(6200.0,4400.0)</PROPERTY>
</VARIABLE>
<VARIABLE TYPE="nature">
	<NAME>Loan_Acc(loan0,acc0)</NAME>
	<OUTCOME>F</OUTCOME>
	<OUTCOME>T</OUTCOME>
	<PROPERTY> position=(6400.0,4400.0)</PROPERTY>
</VARIABLE>
<VARIABLE TYPE="nature">
	<NAME>Loan_Order(trans0,loan0)</NAME>
	<OUTCOME>F</OUTCOME>
	<OUTCOME>T</OUTCOME>
	<PROPERTY> position=(6000.0,4600.0)</PROPERTY>
</VARIABLE>
<VARIABLE TYPE="nature">
	<NAME>Loan_Trans(order20,loan0)</NAME>
	<OUTCOME>F</OUTCOME>
	<OUTCOME>T</OUTCOME>
	<PROPERTY> position=(6200.0,4600.0)</PROPERTY>
</VARIABLE>
<VARIABLE TYPE="nature">
	<NAME>operation(trans0)</NAME>
	<OUTCOME>ccw</OUTCOME>
	<OUTCOME>cic</OUTCOME>
	<OUTCOME>Collection</OUTCOME>
	<OUTCOME>cw</OUTCOME>
	<OUTCOME>Remittance</OUTCOME>
	<PROPERTY> position=(6400.0,4600.0)</PROPERTY>
</VARIABLE>
<VARIABLE TYPE="nature">
	<NAME>payments(loan0)</NAME>
	<OUTCOME>0</OUTCOME>
	<OUTCOME>1</OUTCOME>
	<OUTCOME>2</OUTCOME>
	<OUTCOME>3</OUTCOME>
	<OUTCOME>4</OUTCOME>
	<PROPERTY> position=(6000.0,4800.0)</PROPERTY>
</VARIABLE>
<VARIABLE TYPE="nature">
	<NAME>status(loan0)</NAME>
	<OUTCOME>A</OUTCOME>
	<OUTCOME>B</OUTCOME>
	<PROPERTY> position=(6200.0,4800.0)</PROPERTY>
</VARIABLE>
<VARIABLE TYPE="nature">
	<NAME>type(trans0)</NAME>
	<OUTCOME>Credit</OUTCOME>
	<OUTCOME>VYBER</OUTCOME>
	<OUTCOME>Withdrawal</OUTCOME>
	<PROPERTY> position=(6400.0,4800.0)</PROPERTY>
</VARIABLE>
<DEFINITION>
	<FOR>amount(loan0)</FOR>
	<GIVEN>duration(loan0)</GIVEN>
	<GIVEN>Loan_Acc(loan0,acc0)</GIVEN>
	<GIVEN>Loan_Order(trans0,loan0)</GIVEN>
	<GIVEN>Loan_Trans(order20,loan0)</GIVEN>
	<GIVEN>payments(loan0)</GIVEN>
	<TABLE> 0.200000 0.200000 0.200000 0.200000 0.200000 1.000000 0.000000 0.000000 0.000000 0.000000 1.000000 0.000000 0.000000 0.000000 0.000000 1.000000 0.000000 0.000000 0.000000 0.000000 1.000000 0.000000 0.000000 0.000000 0.000000 0.200000 0.200000 0.200000 0.200000 0.200000 1.000000 0.000000 0.000000 0.000000 0.000000 1.000000 0.000000 0.000000 0.000000 0.000000 1.000000 0.000000 0.000000 0.000000 0.000000 1.000000 0.000000 0.000000 0.000000 0.000000 0.200000 0.200000 0.200000 0.200000 0.200000 1.000000 0.000000 0.000000 0.000000 0.000000 1.000000 0.000000 0.000000 0.000000 0.000000 1.000000 0.000000 0.000000 0.000000 0.000000 1.000000 0.000000 0.000000 0.000000 0.000000 0.200000 0.200000 0.200000 0.200000 0.200000 0.999984 0.000004 0.000004 0.000004 0.000004 0.999996 0.000001 0.000001 0.000001 0.000001 0.999972 0.000007 0.000007 0.000007 0.000007 0.999980 0.000005 0.000005 0.000005 0.000005 0.200000 0.200000 0.200000 0.200000 0.200000 1.000000 0.000000 0.000000 0.000000 0.000000 1.000000 0.000000 0.000000 0.000000 0.000000 1.000000 0.000000 0.000000 0.000000 0.000000 1.000000 0.000000 0.000000 0.000000 0.000000 0.200000 0.200000 0.200000 0.200000 0.200000 0.999992 0.000002 0.000002 0.000002 0.000002 0.999996 0.000001 0.000001 0.000001 0.000001 0.999972 0.000007 0.000007 0.000007 0.000007 0.999984 0.000004 0.000004 0.000004 0.000004 0.200000 0.200000 0.200000 0.200000 0.200000 1.000000 0.000000 0.000000 0.000000 0.000000 1.000000 0.000000 0.000000 0.000000 0.000000 1.000000 0.000000 0.000000 0.000000 0.000000 1.000000 0.000000 0.000000 0.000000 0.000000 0.200000 0.200000 0.200000 0.200000 0.200000 0.993588 0.001603 0.001603 0.001603 0.001603 0.998344 0.000414 0.000414 0.000414 0.000414 0.988572 0.002857 0.002857 0.002857 0.002857 0.991720 0.002070 0.002070 0.002070 0.002070 0.200000 0.200000 0.200000 0.200000 0.200000 1.000000 0.000000 0.000000 0.000000 0.000000 0.333560 0.666440 0.000000 0.000000 0.000000 0.000000 1.000000 0.000000 0.000000 0.000000 0.000000 1.000000 0.000000 0.000000 0.000000 0.200000 0.200000 0.200000 0.200000 0.200000 1.000000 0.000000 0.000000 0.000000 0.000000 0.666670 0.333330 0.000000 0.000000 0.000000 0.000000 1.000000 0.000000 0.000000 0.000000 0.000000 1.000000 0.000000 0.000000 0.000000 0.200000 0.200000 0.200000 0.200000 0.200000 1.000000 0.000000 0.000000 0.000000 0.000000 0.268655 0.731345 0.000000 0.000000 0.000000 0.000000 1.000000 0.000000 0.000000 0.000000 0.000000 1.000000 0.000000 0.000000 0.000000 0.200000 0.200000 0.200000 0.200000 0.200000 0.999996 0.000001 0.000001 0.000001 0.000001 0.595036 0.404955 0.000003 0.000003 0.000003 0.000001 0.999996 0.000001 0.000001 0.000001 0.000002 0.999992 0.000002 0.000002 0.000002 0.200000 0.200000 0.200000 0.200000 0.200000 1.000000 0.000000 0.000000 0.000000 0.000000 0.333594 0.666406 0.000000 0.000000 0.000000 0.000000 1.000000 0.000000 0.000000 0.000000 0.000000 1.000000 0.000000 0.000000 0.000000 0.200000 0.200000 0.200000 0.200000 0.200000 0.999996 0.000001 0.000001 0.000001 0.000001 0.666771 0.333226 0.000001 0.000001 0.000001 0.000001 0.999996 0.000001 0.000001 0.000001 0.000001 0.999996 0.000001 0.000001 0.000001 0.200000 0.200000 0.200000 0.200000 0.200000 1.000000 0.000000 0.000000 0.000000 0.000000 0.268684 0.731316 0.000000 0.000000 0.000000 0.000000 1.000000 0.000000 0.000000 0.000000 0.000000 1.000000 0.000000 0.000000 0.000000 0.200000 0.200000 0.200000 0.200000 0.200000 0.998788 0.000303 0.000303 0.000303 0.000303 0.592339 0.403557 0.001368 0.001368 0.001368 0.000401 0.998396 0.000401 0.000401 0.000401 0.000755 0.996980 0.000755 0.000755 0.000755 1.000000 0.000000 0.000000 0.000000 0.000000 0.714246 0.285754 0.000000 0.000000 0.000000 0.000000 1.000000 0.000000 0.000000 0.000000 0.000000 0.166668 0.833332 0.000000 0.000000 0.000000 0.000000 1.000000 0.000000 0.000000 1.000000 0.000000 0.000000 0.000000 0.000000 0.736061 0.263939 0.000000 0.000000 0.000000 0.000000 1.000000 0.000000 0.000000 0.000000 0.000000 0.131527 0.868473 0.000000 0.000000 0.000000 0.000000 1.000000 0.000000 0.000000 1.000000 0.000000 0.000000 0.000000 0.000000 0.701162 0.298838 0.000000 0.000000 0.000000 0.000000 1.000000 0.000000 0.000000 0.000000 0.000000 0.162687 0.837313 0.000000 0.000000 0.000000 0.000000 1.000000 0.000000 0.000000 1.000000 0.000000 0.000000 0.000000 0.000000 0.731918 0.268082 0.000000 0.000000 0.000000 0.000000 1.000000 0.000000 0.000000 0.000000 0.000000 0.113389 0.886611 0.000000 0.000000 0.000002 0.000002 0.999992 0.000002 0.000002 1.000000 0.000000 0.000000 0.000000 0.000000 0.714243 0.285757 0.000000 0.000000 0.000000 0.000000 1.000000 0.000000 0.000000 0.000000 0.000000 0.166931 0.833069 0.000000 0.000000 0.000000 0.000000 1.000000 0.000000 0.000000 1.000000 0.000000 0.000000 0.000000 0.000000 0.736089 0.263911 0.000000 0.000000 0.000000 0.000000 1.000000 0.000000 0.000000 0.000000 0.000000 0.131625 0.868375 0.000000 0.000000 0.000002 0.000002 0.999992 0.000002 0.000002 1.000000 0.000000 0.000000 0.000000 0.000000 0.701417 0.298583 0.000000 0.000000 0.000000 0.000000 1.000000 0.000000 0.000000 0.000000 0.000000 0.162714 0.837286 0.000000 0.000000 0.000000 0.000000 1.000000 0.000000 0.000000 0.999760 0.000060 0.000060 0.000060 0.000060 0.731780 0.268004 0.000072 0.000072 0.000072 0.000070 0.999720 0.000070 0.000070 0.000070 0.000103 0.113434 0.886257 0.000103 0.000103 0.000959 0.000959 0.996164 0.000959 0.000959 1.000000 0.000000 0.000000 0.000000 0.000000 0.052636 0.947364 0.000000 0.000000 0.000000 0.000000 0.448583 0.551417 0.000000 0.000000 0.000000 0.000000 0.666929 0.333071 0.000000 0.000000 0.000000 0.000000 0.666130 0.333870 1.000000 0.000000 0.000000 0.000000 0.000000 0.094127 0.905873 0.000000 0.000000 0.000000 0.000000 0.389063 0.610937 0.000000 0.000000 0.000000 0.000000 0.599962 0.400038 0.000000 0.000000 0.000000 0.000000 0.285468 0.714532 1.000000 0.000000 0.000000 0.000000 0.000000 0.026149 0.973851 0.000000 0.000000 0.000000 0.000000 0.537679 0.462321 0.000000 0.000000 0.000000 0.000000 0.753884 0.246116 0.000000 0.000000 0.000000 0.000000 0.612092 0.387908 1.000000 0.000000 0.000000 0.000000 0.000000 0.045432 0.954568 0.000000 0.000000 0.000000 0.000000 0.435469 0.564531 0.000000 0.000000 0.000001 0.000001 0.681825 0.318172 0.000001 0.000002 0.000002 0.000002 0.239938 0.760056 1.000000 0.000000 0.000000 0.000000 0.000000 0.052577 0.947423 0.000000 0.000000 0.000000 0.000000 0.448340 0.551660 0.000000 0.000000 0.000000 0.000000 0.666667 0.333333 0.000000 0.000000 0.000000 0.000000 0.666859 0.333141 1.000000 0.000000 0.000000 0.000000 0.000000 0.094180 0.905820 0.000000 0.000000 0.000000 0.000000 0.388821 0.611179 0.000000 0.000000 0.000000 0.000000 0.599881 0.400119 0.000000 0.000001 0.000001 0.000001 0.285767 0.714230 1.000000 0.000000 0.000000 0.000000 0.000000 0.026108 0.973892 0.000000 0.000000 0.000000 0.000000 0.537617 0.462383 0.000000 0.000000 0.000000 0.000000 0.753883 0.246117 0.000000 0.000000 0.000000 0.000000 0.612671 0.387329 0.999768 0.000058 0.000058 0.000058 0.000058 0.045475 0.954354 0.000057 0.000057 0.000057 0.000113 0.435206 0.564455 0.000113 0.000113 0.000207 0.000207 0.681329 0.318050 0.000207 0.000880 0.000880 0.000880 0.240106 0.757254 0.878791 0.121209 0.000000 0.000000 0.000000 0.000000 0.871789 0.128211 0.000000 0.000000 0.000000 0.000000 0.904755 0.095245 0.000000 0.000000 0.000000 0.000000 0.899988 0.100012 0.000000 0.000000 0.000000 0.000000 1.000000 0.878053 0.121947 0.000000 0.000000 0.000000 0.000000 0.831559 0.168441 0.000000 0.000000 0.000000 0.000000 0.934776 0.065224 0.000000 0.000000 0.000000 0.000000 0.949997 0.050003 0.000000 0.000000 0.000000 0.000000 1.000000 0.832426 0.167574 0.000000 0.000000 0.000000 0.000000 0.840048 0.159952 0.000000 0.000000 0.000000 0.000000 0.924874 0.075126 0.000000 0.000000 0.000000 0.000000 0.890256 0.109744 0.000000 0.000000 0.000000 0.000000 1.000000 0.820412 0.179588 0.000000 0.000000 0.000000 0.000000 0.789311 0.210689 0.000000 0.000000 0.000000 0.000000 0.934846 0.065154 0.000000 0.000000 0.000000 0.000000 0.947049 0.052951 0.000001 0.000001 0.000001 0.000001 0.999996 0.878609 0.121391 0.000000 0.000000 0.000000 0.000000 0.871788 0.128212 0.000000 0.000000 0.000000 0.000000 0.904758 0.095242 0.000000 0.000000 0.000000 0.000000 0.900153 0.099847 0.000000 0.000000 0.000000 0.000000 1.000000 0.878140 0.121860 0.000000 0.000000 0.000000 0.000000 0.831640 0.168360 0.000000 0.000000 0.000000 0.000000 0.934785 0.065215 0.000000 0.000000 0.000000 0.000000 0.950007 0.049993 0.000001 0.000001 0.000001 0.000001 0.999996 0.832393 0.167607 0.000000 0.000000 0.000000 0.000000 0.840207 0.159793 0.000000 0.000000 0.000000 0.000000 0.924957 0.075043 0.000000 0.000000 0.000000 0.000000 0.890420 0.109580 0.000000 0.000000 0.000000 0.000000 1.000000 0.820239 0.179593 0.000056 0.000056 0.000056 0.000055 0.789174 0.210661 0.000055 0.000055 0.000052 0.000052 0.934660 0.065184 0.000052 0.000116 0.000116 0.000116 0.946618 0.053034 0.000326 0.000326 0.000326 0.000326 0.998696</TABLE>
</DEFINITION>
<DEFINITION>
	<FOR>amount2(trans0)</FOR>
	<GIVEN>balance(trans0)</GIVEN>
	<GIVEN>Loan_Order(trans0,loan0)</GIVEN>
	<GIVEN>Loan_Trans(order20,loan0)</GIVEN>
	<GIVEN>operation(trans0)</GIVEN>
	<GIVEN>type(trans0)</GIVEN>
	<TABLE> 0.250000 0.250000 0.250000 0.250000 0.250000 0.250000 0.250000 0.250000 1.000000 0.000000 0.000000 0.000000 0.905001 0.091766 0.003233 0.000000 0.250000 0.250000 0.250000 0.250000 0.250000 0.250000 0.250000 0.250000 0.644526 0.349799 0.005675 0.000000 0.250000 0.250000 0.250000 0.250000 0.250000 0.250000 0.250000 0.250000 0.250000 0.250000 0.250000 0.250000 0.883806 0.116194 0.000000 0.000000 0.958418 0.035925 0.005180 0.000477 0.250000 0.250000 0.250000 0.250000 0.250000 0.250000 0.250000 0.250000 1.000000 0.000000 0.000000 0.000000 0.250000 0.250000 0.250000 0.250000 0.250000 0.250000 0.250000 0.250000 1.000000 0.000000 0.000000 0.000000 0.904991 0.091775 0.003234 0.000000 0.250000 0.250000 0.250000 0.250000 0.250000 0.250000 0.250000 0.250000 0.644493 0.349832 0.005675 0.000000 0.250000 0.250000 0.250000 0.250000 0.250000 0.250000 0.250000 0.250000 0.250000 0.250000 0.250000 0.250000 0.883806 0.116194 0.000000 0.000000 0.958415 0.035927 0.005181 0.000477 0.250000 0.250000 0.250000 0.250000 0.250000 0.250000 0.250000 0.250000 1.000000 0.000000 0.000000 0.000000 0.250000 0.250000 0.250000 0.250000 0.250000 0.250000 0.250000 0.250000 1.000000 0.000000 0.000000 0.000000 0.895908 0.099705 0.004387 0.000000 0.250000 0.250000 0.250000 0.250000 0.250000 0.250000 0.250000 0.250000 0.663209 0.331910 0.004881 0.000000 0.250000 0.250000 0.250000 0.250000 0.250000 0.250000 0.250000 0.250000 0.250000 0.250000 0.250000 0.250000 0.886834 0.113166 0.000000 0.000000 0.958583 0.035398 0.005514 0.000505 0.250000 0.250000 0.250000 0.250000 0.250000 0.250000 0.250000 0.250000 1.000000 0.000000 0.000000 0.000000 0.250000 0.250000 0.250000 0.250000 0.250000 0.250000 0.250000 0.250000 0.999988 0.000004 0.000004 0.000004 0.904087 0.092390 0.003523 0.000000 0.250000 0.250000 0.250000 0.250000 0.250000 0.250000 0.250000 0.250000 0.641328 0.356519 0.002152 0.000001 0.250000 0.250000 0.250000 0.250000 0.250000 0.250000 0.250000 0.250000 0.250000 0.250000 0.250000 0.250000 0.887390 0.112608 0.000001 0.000001 0.963978 0.030923 0.004644 0.000455 0.250000 0.250000 0.250000 0.250000 0.250000 0.250000 0.250000 0.250000 1.000000 0.000000 0.000000 0.000000 0.250000 0.250000 0.250000 0.250000 0.250000 0.250000 0.250000 0.250000 1.000000 0.000000 0.000000 0.000000 0.442459 0.467250 0.090291 0.000000 0.250000 0.250000 0.250000 0.250000 0.250000 0.250000 0.250000 0.250000 0.078247 0.691241 0.221585 0.008927 0.250000 0.250000 0.250000 0.250000 0.250000 0.250000 0.250000 0.250000 0.250000 0.250000 0.250000 0.250000 0.919017 0.080983 0.000000 0.000000 0.806340 0.144466 0.049194 0.000000 0.250000 0.250000 0.250000 0.250000 0.250000 0.250000 0.250000 0.250000 1.000000 0.000000 0.000000 0.000000 0.250000 0.250000 0.250000 0.250000 0.250000 0.250000 0.250000 0.250000 1.000000 0.000000 0.000000 0.000000 0.442451 0.467254 0.090295 0.000000 0.250000 0.250000 0.250000 0.250000 0.250000 0.250000 0.250000 0.250000 0.078235 0.691266 0.221575 0.008924 0.250000 0.250000 0.250000 0.250000 0.250000 0.250000 0.250000 0.250000 0.250000 0.250000 0.250000 0.250000 0.919021 0.080979 0.000000 0.000000 0.806335 0.144472 0.049193 0.000000 0.250000 0.250000 0.250000 0.250000 0.250000 0.250000 0.250000 0.250000 1.000000 0.000000 0.000000 0.000000 0.250000 0.250000 0.250000 0.250000 0.250000 0.250000 0.250000 0.250000 1.000000 0.000000 0.000000 0.000000 0.423140 0.477269 0.099591 0.000000 0.250000 0.250000 0.250000 0.250000 0.250000 0.250000 0.250000 0.250000 0.100632 0.753425 0.141201 0.004742 0.250000 0.250000 0.250000 0.250000 0.250000 0.250000 0.250000 0.250000 0.250000 0.250000 0.250000 0.250000 0.915253 0.084747 0.000000 0.000000 0.787411 0.155819 0.056770 0.000000 0.250000 0.250000 0.250000 0.250000 0.250000 0.250000 0.250000 0.250000 1.000000 0.000000 0.000000 0.000000 0.250000 0.250000 0.250000 0.250000 0.250000 0.250000 0.250000 0.250000 0.999985 0.000005 0.000005 0.000005 0.426376 0.479114 0.094510 0.000000 0.250000 0.250000 0.250000 0.250000 0.250000 0.250000 0.250000 0.250000 0.093078 0.765286 0.137336 0.004300 0.250000 0.250000 0.250000 0.250000 0.250000 0.250000 0.250000 0.250000 0.250000 0.250000 0.250000 0.250000 0.907772 0.092226 0.000001 0.000001 0.804769 0.144411 0.050820 0.000000 0.250000 0.250000 0.250000 0.250000 0.250000 0.250000 0.250000 0.250000 1.000000 0.000000 0.000000 0.000000 0.250000 0.250000 0.250000 0.250000 0.250000 0.250000 0.250000 0.250000 1.000000 0.000000 0.000000 0.000000 0.180645 0.568246 0.251109 0.000000 0.250000 0.250000 0.250000 0.250000 0.250000 0.250000 0.250000 0.250000 0.002101 0.237411 0.542016 0.218472 0.250000 0.250000 0.250000 0.250000 0.250000 0.250000 0.250000 0.250000 0.250000 0.250000 0.250000 0.250000 0.974353 0.025647 0.000000 0.000000 0.700890 0.269789 0.029321 0.000000 0.250000 0.250000 0.250000 0.250000 0.250000 0.250000 0.250000 0.250000 1.000000 0.000000 0.000000 0.000000 0.250000 0.250000 0.250000 0.250000 0.250000 0.250000 0.250000 0.250000 1.000000 0.000000 0.000000 0.000000 0.180642 0.568245 0.251113 0.000000 0.250000 0.250000 0.250000 0.250000 0.250000 0.250000 0.250000 0.250000 0.002101 0.237426 0.542035 0.218438 0.250000 0.250000 0.250000 0.250000 0.250000 0.250000 0.250000 0.250000 0.250000 0.250000 0.250000 0.250000 0.974358 0.025642 0.000000 0.000000 0.700886 0.269788 0.029326 0.000000 0.250000 0.250000 0.250000 0.250000 0.250000 0.250000 0.250000 0.250000 1.000000 0.000000 0.000000 0.000000 0.250000 0.250000 0.250000 0.250000 0.250000 0.250000 0.250000 0.250000 1.000000 0.000000 0.000000 0.000000 0.171072 0.566912 0.262016 0.000000 0.250000 0.250000 0.250000 0.250000 0.250000 0.250000 0.250000 0.250000 0.000000 0.336586 0.541464 0.121950 0.250000 0.250000 0.250000 0.250000 0.250000 0.250000 0.250000 0.250000 0.250000 0.250000 0.250000 0.250000 1.000000 0.000000 0.000000 0.000000 0.654746 0.303212 0.042042 0.000000 0.250000 0.250000 0.250000 0.250000 0.250000 0.250000 0.250000 0.250000 1.000000 0.000000 0.000000 0.000000 0.250000 0.250000 0.250000 0.250000 0.250000 0.250000 0.250000 0.250000 0.998782 0.000406 0.000406 0.000406 0.168683 0.549293 0.282023 0.000001 0.250000 0.250000 0.250000 0.250000 0.250000 0.250000 0.250000 0.250000 0.000008 0.282901 0.578798 0.138293 0.250000 0.250000 0.250000 0.250000 0.250000 0.250000 0.250000 0.250000 0.250000 0.250000 0.250000 0.250000 0.999634 0.000122 0.000122 0.000122 0.684203 0.278446 0.037347 0.000004 0.250000 0.250000 0.250000 0.250000 0.250000 0.250000 0.250000 0.250000 0.999964 0.000012 0.000012 0.000012 0.250000 0.250000 0.250000 0.250000 0.250000 0.250000 0.250000 0.250000 0.250000 0.250000 0.250000 0.250000 0.047630 0.452397 0.499973 0.000000 0.250000 0.250000 0.250000 0.250000 0.250000 0.250000 0.250000 0.250000 0.000000 0.000000 1.000000 0.000000 0.250000 0.250000 0.250000 0.250000 0.250000 0.250000 0.250000 0.250000 0.250000 0.250000 0.250000 0.250000 1.000000 0.000000 0.000000 0.000000 0.000000 1.000000 0.000000 0.000000 0.250000 0.250000 0.250000 0.250000 0.250000 0.250000 0.250000 0.250000 0.250000 0.250000 0.250000 0.250000 0.250000 0.250000 0.250000 0.250000 0.250000 0.250000 0.250000 0.250000 0.250000 0.250000 0.250000 0.250000 0.047621 0.452374 0.500005 0.000000 0.250000 0.250000 0.250000 0.250000 0.250000 0.250000 0.250000 0.250000 0.000003 0.000003 0.999991 0.000003 0.250000 0.250000 0.250000 0.250000 0.250000 0.250000 0.250000 0.250000 0.250000 0.250000 0.250000 0.250000 0.999991 0.000003 0.000003 0.000003 0.000003 0.999991 0.000003 0.000003 0.250000 0.250000 0.250000 0.250000 0.250000 0.250000 0.250000 0.250000 0.250000 0.250000 0.250000 0.250000 0.250000 0.250000 0.250000 0.250000 0.250000 0.250000 0.250000 0.250000 0.250000 0.250000 0.250000 0.250000 0.000000 0.523892 0.476108 0.000000 0.250000 0.250000 0.250000 0.250000 0.250000 0.250000 0.250000 0.250000 0.250000 0.250000 0.250000 0.250000 0.250000 0.250000 0.250000 0.250000 0.250000 0.250000 0.250000 0.250000 0.250000 0.250000 0.250000 0.250000 1.000000 0.000000 0.000000 0.000000 0.000000 1.000000 0.000000 0.000000 0.250000 0.250000 0.250000 0.250000 0.250000 0.250000 0.250000 0.250000 0.250000 0.250000 0.250000 0.250000 0.250000 0.250000 0.250000 0.250000 0.250000 0.250000 0.250000 0.250000 0.250000 0.250000 0.250000 0.250000 0.000079 0.612999 0.386843 0.000079 0.250000 0.250000 0.250000 0.250000 0.250000 0.250000 0.250000 0.250000 0.250000 0.250000 0.250000 0.250000 0.250000 0.250000 0.250000 0.250000 0.250000 0.250000 0.250000 0.250000 0.250000 0.250000 0.250000 0.250000 0.992755 0.002415 0.002415 0.002415 0.002421 0.992737 0.002421 0.002421 0.250000 0.250000 0.250000 0.250000 0.250000 0.250000 0.250000 0.250000 0.250000 0.250000 0.250000 0.250000</TABLE>
</DEFINITION>
<DEFINITION>
	<FOR>amount3(order20)</FOR>
	<GIVEN>Loan_Acc(loan0,acc0)</GIVEN>
	<TABLE> 0.556289 0.279423 0.119623 0.034155 0.010510 0.556286 0.279430 0.119619 0.034155 0.010510</TABLE>
</DEFINITION>
<DEFINITION>
	<FOR>balance(trans0)</FOR>
	<GIVEN>Loan_Acc(loan0,acc0)</GIVEN>
	<GIVEN>Loan_Order(trans0,loan0)</GIVEN>
	<GIVEN>Loan_Trans(order20,loan0)</GIVEN>
	<GIVEN>operation(trans0)</GIVEN>
	<TABLE> 0.503133 0.474805 0.022062 0.000000 0.489776 0.412452 0.095974 0.001798 0.365345 0.564024 0.070483 0.000148 0.708573 0.280686 0.010711 0.000030 0.725133 0.270810 0.004057 0.000000 0.503141 0.474799 0.022060 0.000000 0.489768 0.412457 0.095977 0.001798 0.365319 0.564052 0.070481 0.000148 0.708565 0.280694 0.010711 0.000030 0.725136 0.270807 0.004057 0.000000 0.548741 0.443303 0.007956 0.000000 0.504196 0.400128 0.094179 0.001497 0.438001 0.507216 0.054783 0.000000 0.734945 0.255896 0.009107 0.000052 0.742143 0.253791 0.004066 0.000000 0.528427 0.466319 0.005252 0.000002 0.541287 0.378948 0.078710 0.001055 0.465806 0.495245 0.038949 0.000000 0.760298 0.231826 0.007850 0.000026 0.760474 0.236499 0.003027 0.000000 0.503070 0.474862 0.022068 0.000000 0.489701 0.412503 0.095998 0.001798 0.365263 0.564104 0.070485 0.000148 0.708526 0.280731 0.010713 0.000030 0.725092 0.270850 0.004058 0.000000 0.503095 0.474821 0.022083 0.000001 0.489701 0.412502 0.095998 0.001799 0.365122 0.564214 0.070516 0.000148 0.708502 0.280754 0.010714 0.000030 0.725065 0.270875 0.004060 0.000000 0.548685 0.443362 0.007953 0.000000 0.504155 0.400170 0.094178 0.001497 0.438003 0.507215 0.054782 0.000000 0.734932 0.255916 0.009100 0.000052 0.742143 0.253791 0.004066 0.000000 0.527463 0.465562 0.006103 0.000872 0.541240 0.378936 0.078735 0.001089 0.465699 0.495117 0.039059 0.000125 0.760268 0.231831 0.007862 0.000039 0.760440 0.236503 0.003042 0.000015</TABLE>
</DEFINITION>
<DEFINITION>
	<FOR>bank_to(order20)</FOR>
	<GIVEN>Loan_Order(trans0,loan0)</GIVEN>
	<GIVEN>Loan_Trans(order20,loan0)</GIVEN>
	<TABLE> 0.080204 0.070777 0.074641 0.075259 0.076650 0.077268 0.072013 0.074950 0.082058 0.078968 0.077113 0.079586 0.080513 0.093954 0.077186 0.068234 0.065985 0.059279 0.083891 0.082784 0.080528 0.087252 0.063768 0.074954 0.079408 0.082777 0.080204 0.070777 0.074641 0.075259 0.076650 0.077268 0.072013 0.074950 0.082058 0.078968 0.077113 0.079586 0.080513 0.091141 0.079501 0.069215 0.065582 0.058983 0.082522 0.085827 0.089007 0.090242 0.055281 0.074556 0.067105 0.091038</TABLE>
</DEFINITION>
<DEFINITION>
	<FOR>duration(loan0)</FOR>
	<GIVEN>Loan_Acc(loan0,acc0)</GIVEN>
	<GIVEN>Loan_Trans(order20,loan0)</GIVEN>
	<GIVEN>status(loan0)</GIVEN>
	<TABLE> 0.000000 0.000000 0.321352 0.318224 0.360424 0.144796 0.223562 0.197431 0.210410 0.223801 0.000000 0.000000 0.316721 0.308882 0.374397 0.123060 0.246140 0.192336 0.184570 0.253894 0.000000 0.000000 0.321382 0.318248 0.360370 0.144823 0.223616 0.197306 0.210553 0.223702 0.000000 0.000000 0.316794 0.308883 0.374323 0.123086 0.246162 0.192304 0.184618 0.253830</TABLE>
</DEFINITION>
<DEFINITION>
	<FOR>frequency(acc0)</FOR>
	<GIVEN>Loan_Acc(loan0,acc0)</GIVEN>
	<GIVEN>Loan_Order(trans0,loan0)</GIVEN>
	<GIVEN>Loan_Trans(order20,loan0)</GIVEN>
	<TABLE> 0.046281 0.799662 0.154057 0.046306 0.799631 0.154063 0.046391 0.799614 0.153995 0.046385 0.799570 0.154045 0.046393 0.799536 0.154071 0.038017 0.812106 0.149877 0.054435 0.768475 0.177090 0.045744 0.791383 0.162873</TABLE>
</DEFINITION>
<DEFINITION>
	<FOR>k_symbol(order20)</FOR>
	<GIVEN>amount3(order20)</GIVEN>
	<GIVEN>Loan_Acc(loan0,acc0)</GIVEN>
	<TABLE> 0.737155 0.128616 0.069427 0.064802 0.737174 0.128616 0.069431 0.064779 0.752613 0.027097 0.050311 0.169979 0.752612 0.027097 0.050313 0.169978 0.766014 0.021973 0.000000 0.212013 0.766052 0.021971 0.000000 0.211977 0.932133 0.009046 0.000000 0.058821 0.932143 0.009047 0.000000 0.058810 0.985301 0.014699 0.000000 0.000000 0.985301 0.014699 0.000000 0.000000</TABLE>
</DEFINITION>
<DEFINITION>
	<FOR>Loan_Acc(loan0,acc0)</FOR>
	<TABLE> 0.997561 0.002439</TABLE>
</DEFINITION>
<DEFINITION>
	<FOR>Loan_Order(trans0,loan0)</FOR>
	<GIVEN>duration(loan0)</GIVEN>
	<GIVEN>Loan_Trans(order20,loan0)</GIVEN>
	<GIVEN>operation(trans0)</GIVEN>
	<GIVEN>payments(loan0)</GIVEN>
	<GIVEN>status(loan0)</GIVEN>
	<TABLE> 0.500000 0.500000 0.500000 0.500000 0.500000 0.500000 1.000000 0.000000 0.500000 0.500000 1.000000 0.000000 0.500000 0.500000 1.000000 0.000000 0.500000 0.500000 1.000000 0.000000 0.500000 0.500000 0.500000 0.500000 0.500000 0.500000 0.999658 0.000342 0.500000 0.500000 0.997846 0.002154 0.500000 0.500000 0.996246 0.003754 0.500000 0.500000 0.998077 0.001923 0.500000 0.500000 0.500000 0.500000 0.500000 0.500000 0.995760 0.004240 0.500000 0.500000 0.999112 0.000888 0.500000 0.500000 1.000000 0.000000 0.500000 0.500000 0.998226 0.001774 0.500000 0.500000 0.500000 0.500000 0.500000 0.500000 0.998380 0.001620 0.500000 0.500000 0.998109 0.001891 0.500000 0.500000 0.996343 0.003657 0.500000 0.500000 0.997399 0.002601 0.500000 0.500000 0.500000 0.500000 0.500000 0.500000 0.999775 0.000225 0.500000 0.500000 0.998557 0.001443 0.500000 0.500000 0.999743 0.000257 0.500000 0.500000 0.999833 0.000167 0.500000 0.500000 0.500000 0.500000 0.500000 0.500000 0.999999 0.000001 0.500000 0.500000 1.000000 0.000000 0.500000 0.500000 0.999997 0.000003 0.500000 0.500000 0.999999 0.000001 0.500000 0.500000 0.500000 0.500000 0.500000 0.500000 0.999658 0.000342 0.500000 0.500000 0.997966 0.002034 0.500000 0.500000 0.996246 0.003754 0.500000 0.500000 0.998077 0.001923 0.500000 0.500000 0.500000 0.500000 0.500000 0.500000 0.995760 0.004240 0.500000 0.500000 0.998422 0.001578 0.500000 0.500000 1.000000 0.000000 0.500000 0.500000 0.998226 0.001774 0.500000 0.500000 0.500000 0.500000 0.500000 0.500000 0.998380 0.001620 0.500000 0.500000 0.998058 0.001942 0.500000 0.500000 0.996343 0.003657 0.500000 0.500000 0.997399 0.002601 0.500000 0.500000 0.500000 0.500000 0.500000 0.500000 0.999775 0.000225 0.500000 0.500000 0.997982 0.002018 0.500000 0.500000 0.999743 0.000257 0.500000 0.500000 0.999833 0.000167 0.500000 0.500000 0.500000 0.500000 0.500000 0.500000 1.000000 0.000000 0.500000 0.500000 1.000000 0.000000 0.500000 0.500000 0.999737 0.000263 0.500000 0.500000 1.000000 0.000000 0.500000 0.500000 0.500000 0.500000 0.500000 0.500000 0.998068 0.001932 0.500000 0.500000 0.998830 0.001170 0.500000 0.500000 0.996597 0.003403 0.500000 0.500000 0.997874 0.002126 0.500000 0.500000 0.500000 0.500000 0.500000 0.500000 1.000000 0.000000 0.500000 0.500000 1.000000 0.000000 0.500000 0.500000 1.000000 0.000000 0.500000 0.500000 0.998815 0.001185 0.500000 0.500000 0.500000 0.500000 0.500000 0.500000 0.998394 0.001606 0.500000 0.500000 0.998827 0.001173 0.500000 0.500000 0.997218 0.002782 0.500000 0.500000 0.997876 0.002124 0.500000 0.500000 0.500000 0.500000 0.500000 0.500000 0.998731 0.001269 0.500000 0.500000 0.999290 0.000710 0.500000 0.500000 0.998466 0.001534 0.500000 0.500000 0.998896 0.001104 0.500000 0.500000 0.500000 0.500000 0.500000 0.500000 1.000000 0.000000 0.500000 0.500000 1.000000 0.000000 0.500000 0.500000 0.999400 0.000600 0.500000 0.500000 0.999999 0.000001 0.500000 0.500000 0.500000 0.500000 0.500000 0.500000 0.998062 0.001938 0.500000 0.500000 0.999266 0.000734 0.500000 0.500000 0.996708 0.003292 0.500000 0.500000 0.997583 0.002417 0.500000 0.500000 0.500000 0.500000 0.500000 0.500000 1.000000 0.000000 0.500000 0.500000 1.000000 0.000000 0.500000 0.500000 1.000000 0.000000 0.500000 0.500000 0.999290 0.000710 0.500000 0.500000 0.500000 0.500000 0.500000 0.500000 0.998513 0.001487 0.500000 0.500000 0.999065 0.000935 0.500000 0.500000 0.997519 0.002481 0.500000 0.500000 0.997915 0.002085 0.500000 0.500000 0.500000 0.500000 0.500000 0.500000 0.997689 0.002311 0.500000 0.500000 0.998953 0.001047 0.500000 0.500000 0.997183 0.002817 0.500000 0.500000 0.998415 0.001585 0.997110 0.002890 1.000000 0.000000 0.999082 0.000918 1.000000 0.000000 0.999154 0.000846 1.000000 0.000000 0.997903 0.002097 1.000000 0.000000 0.500000 0.500000 1.000000 0.000000 0.998473 0.001527 0.998632 0.001368 0.998575 0.001425 0.998120 0.001880 0.998566 0.001434 0.996416 0.003584 0.999008 0.000992 0.997550 0.002450 0.500000 0.500000 0.997225 0.002775 0.999755 0.000245 0.998741 0.001259 0.997838 0.002162 1.000000 0.000000 0.998796 0.001204 1.000000 0.000000 0.996649 0.003351 1.000000 0.000000 0.500000 0.500000 1.000000 0.000000 0.998792 0.001208 0.998954 0.001046 0.998623 0.001377 0.998635 0.001365 0.998679 0.001321 0.996949 0.003051 0.998247 0.001753 0.998183 0.001817 0.500000 0.500000 0.997880 0.002120 0.998229 0.001771 0.998626 0.001374 0.998626 0.001374 0.999393 0.000607 0.998730 0.001270 0.999177 0.000823 0.998085 0.001915 0.998775 0.001225 0.500000 0.500000 0.996469 0.003531 0.996486 0.003514 0.999999 0.000001 0.999285 0.000715 0.999999 0.000001 0.999108 0.000892 0.999997 0.000003 0.998644 0.001356 1.000000 0.000000 0.500000 0.500000 0.999999 0.000001 0.998415 0.001585 0.998247 0.001753 0.998723 0.001277 0.998120 0.001880 0.998686 0.001314 0.996416 0.003584 0.999264 0.000736 0.997599 0.002401 0.500000 0.500000 0.997225 0.002775 0.999719 0.000281 0.999371 0.000629 0.997702 0.002298 1.000000 0.000000 0.998496 0.001504 1.000000 0.000000 0.996397 0.003603 1.000000 0.000000 0.500000 0.500000 1.000000 0.000000 0.998805 0.001195 0.998757 0.001243 0.998730 0.001270 0.998635 0.001365 0.998718 0.001282 0.996949 0.003051 0.998337 0.001663 0.998352 0.001648 0.500000 0.500000 0.997880 0.002120 0.997771 0.002229 0.998096 0.001904 0.998371 0.001629 0.999393 0.000607 0.998374 0.001626 0.999177 0.000823 0.997337 0.002663 0.997990 0.002010 0.500000 0.500000 0.996469 0.003531 0.999492 0.000508 1.000000 0.000000 0.999213 0.000787 0.990631 0.009369 0.999071 0.000929 0.994428 0.005572 0.998788 0.001212 0.999790 0.000210 0.500000 0.500000 1.000000 0.000000 0.998480 0.001520 0.998262 0.001738 0.998573 0.001427 0.996586 0.003414 0.998978 0.001022 0.998006 0.001994 0.999061 0.000939 0.999040 0.000960 0.500000 0.500000 0.998348 0.001652 0.999780 0.000220 0.995283 0.004717 0.998464 0.001536 1.000000 0.000000 0.997787 0.002213 1.000000 0.000000 0.997562 0.002438 0.998577 0.001423 0.500000 0.500000 1.000000 0.000000 0.998841 0.001159 0.997559 0.002441 0.998671 0.001329 0.997828 0.002172 0.998738 0.001262 0.998329 0.001671 0.998671 0.001329 0.998703 0.001297 0.500000 0.500000 0.998961 0.001039 0.998114 0.001886 0.999017 0.000983 0.998445 0.001555 0.998846 0.001154 0.998894 0.001106 0.999290 0.000710 0.999020 0.000980 0.999347 0.000653 0.500000 0.500000 0.998989 0.001011 0.999507 0.000493 0.999999 0.000001 0.999203 0.000797 0.990629 0.009371 0.998764 0.001236 0.994427 0.005573 0.999200 0.000800 0.999883 0.000117 0.500000 0.500000 1.000000 0.000000 0.998477 0.001523 0.998262 0.001738 0.998577 0.001423 0.996586 0.003414 0.999221 0.000779 0.998006 0.001994 0.999002 0.000998 0.998850 0.001150 0.500000 0.500000 0.998535 0.001465 0.999832 0.000168 0.995283 0.004717 0.998452 0.001548 1.000000 0.000000 0.997725 0.002275 1.000000 0.000000 0.997826 0.002174 0.999211 0.000789 0.500000 0.500000 1.000000 0.000000 0.998888 0.001112 0.997559 0.002441 0.998741 0.001259 0.997828 0.002172 0.998904 0.001096 0.998329 0.001671 0.998756 0.001244 0.998888 0.001112 0.500000 0.500000 0.999131 0.000869 0.997670 0.002330 0.999017 0.000983 0.998106 0.001894 0.998846 0.001154 0.998638 0.001362 0.999290 0.000710 0.998771 0.001229 0.999170 0.000830 0.500000 0.500000 0.998234 0.001766 0.996826 0.003174 1.000000 0.000000 0.998755 0.001245 1.000000 0.000000 0.998396 0.001604 0.999737 0.000263 0.997847 0.002153 1.000000 0.000000 0.500000 0.500000 1.000000 0.000000 0.998324 0.001676 0.997608 0.002392 0.999064 0.000936 0.998483 0.001517 0.998725 0.001275 0.998200 0.001800 0.998282 0.001718 0.997921 0.002079 0.500000 0.500000 0.997750 0.002250 0.999676 0.000324 1.000000 0.000000 0.997560 0.002440 0.996458 0.003542 0.998178 0.001822 1.000000 0.000000 0.998373 0.001627 1.000000 0.000000 0.500000 0.500000 1.000000 0.000000 0.998758 0.001242 0.997998 0.002002 0.998784 0.001216 0.998213 0.001787 0.998678 0.001322 0.998741 0.001259 0.998543 0.001457 0.998299 0.001701 0.500000 0.500000 0.998512 0.001488 0.998023 0.001977 0.999076 0.000924 0.998359 0.001641 0.999153 0.000847 0.998385 0.001615 0.998660 0.001340 0.998443 0.001557 0.999418 0.000582 0.500000 0.500000 0.997081 0.002919 0.996819 0.003181 0.999997 0.000003 0.998793 0.001207 0.999999 0.000001 0.998070 0.001930 0.999876 0.000124 0.998895 0.001105 0.999999 0.000001 0.500000 0.500000 1.000000 0.000000 0.998422 0.001578 0.997608 0.002392 0.999086 0.000914 0.998482 0.001518 0.998707 0.001293 0.998341 0.001659 0.998184 0.001816 0.997921 0.002079 0.500000 0.500000 0.997629 0.002371 0.999488 0.000512 1.000000 0.000000 0.997639 0.002361 0.996458 0.003542 0.998328 0.001672 1.000000 0.000000 0.998793 0.001207 1.000000 0.000000 0.500000 0.500000 1.000000 0.000000 0.998763 0.001237 0.997998 0.002002 0.998858 0.001142 0.998213 0.001787 0.998671 0.001329 0.998879 0.001121 0.998661 0.001339 0.998299 0.001701 0.500000 0.500000 0.998413 0.001587 0.997674 0.002326 0.999076 0.000924 0.998032 0.001968 0.999153 0.000847 0.997933 0.002067 0.998349 0.001651 0.998045 0.001955 0.999418 0.000582 0.500000 0.500000 0.996328 0.003672</TABLE>
</DEFINITION>
<DEFINITION>
	<FOR>Loan_Trans(order20,loan0)</FOR>
	<GIVEN>amount3(order20)</GIVEN>
	<GIVEN>k_symbol(order20)</GIVEN>
	<GIVEN>payments(loan0)</GIVEN>
	<TABLE> 0.999750 0.000250 0.999835 0.000165 0.999895 0.000105 0.999845 0.000155 0.999686 0.000314 0.999559 0.000441 0.999754 0.000246 0.999718 0.000282 0.999752 0.000248 0.999640 0.000360 1.000000 0.000000 1.000000 0.000000 1.000000 0.000000 1.000000 0.000000 1.000000 0.000000 0.995726 0.004274 0.998293 0.001707 1.000000 0.000000 1.000000 0.000000 1.000000 0.000000 0.999708 0.000292 0.999797 0.000203 0.999789 0.000211 0.999879 0.000121 0.999877 0.000123 0.999792 0.000208 0.999834 0.000166 0.999645 0.000355 1.000000 0.000000 0.998301 0.001699 1.000000 0.000000 1.000000 0.000000 1.000000 0.000000 1.000000 0.000000 1.000000 0.000000 1.000000 0.000000 0.998044 0.001956 0.996753 0.003247 1.000000 0.000000 1.000000 0.000000 0.999690 0.000310 0.999685 0.000315 0.999765 0.000235 0.999834 0.000166 1.000000 0.000000 1.000000 0.000000 0.998091 0.001909 1.000000 0.000000 0.998073 0.001927 1.000000 0.000000 0.500000 0.500000 0.500000 0.500000 0.500000 0.500000 0.500000 0.500000 0.500000 0.500000 1.000000 0.000000 1.000000 0.000000 1.000000 0.000000 0.993935 0.006065 0.994941 0.005059 0.999752 0.000248 0.999448 0.000552 0.999451 0.000549 0.999682 0.000318 1.000000 0.000000 1.000000 0.000000 1.000000 0.000000 1.000000 0.000000 1.000000 0.000000 1.000000 0.000000 0.500000 0.500000 0.500000 0.500000 0.500000 0.500000 0.500000 0.500000 0.500000 0.500000 1.000000 0.000000 1.000000 0.000000 1.000000 0.000000 1.000000 0.000000 0.987329 0.012671 1.000000 0.000000 0.999636 0.000364 0.998833 0.001167 0.999755 0.000245 1.000000 0.000000 1.000000 0.000000 1.000000 0.000000 1.000000 0.000000 1.000000 0.000000 1.000000 0.000000 0.500000 0.500000 0.500000 0.500000 0.500000 0.500000 0.500000 0.500000 0.500000 0.500000 0.500000 0.500000 0.500000 0.500000 0.500000 0.500000 0.500000 0.500000 0.500000 0.500000</TABLE>
</DEFINITION>
<DEFINITION>
	<FOR>operation(trans0)</FOR>
	<GIVEN>k_symbol(order20)</GIVEN>
	<GIVEN>Loan_Acc(loan0,acc0)</GIVEN>
	<GIVEN>Loan_Trans(order20,loan0)</GIVEN>
	<GIVEN>type(trans0)</GIVEN>
	<TABLE> 0.000000 0.775760 0.224240 0.000000 0.000000 0.000000 0.000000 0.000000 1.000000 0.000000 0.009365 0.000000 0.000000 0.607429 0.383206 0.000000 0.775745 0.224255 0.000000 0.000000 0.000000 0.000000 0.000000 1.000000 0.000000 0.009364 0.000000 0.000000 0.607239 0.383397 0.000000 0.775692 0.224308 0.000000 0.000000 0.000000 0.000000 0.000000 1.000000 0.000000 0.009365 0.000000 0.000000 0.607436 0.383199 0.000000 0.775606 0.224394 0.000000 0.000000 0.000000 0.000000 0.000000 1.000000 0.000000 0.009366 0.000000 0.000000 0.607448 0.383186 0.000000 0.775759 0.224241 0.000000 0.000000 0.000000 0.000000 0.000000 1.000000 0.000000 0.009365 0.000000 0.000000 0.607428 0.383207 0.000000 0.775766 0.224234 0.000000 0.000000 0.000000 0.000000 0.000000 1.000000 0.000000 0.009361 0.000000 0.000000 0.607096 0.383543 0.000000 0.775684 0.224316 0.000000 0.000000 0.000000 0.000000 0.000000 1.000000 0.000000 0.009365 0.000000 0.000000 0.607425 0.383210 0.000000 0.775628 0.224372 0.000000 0.000000 0.000003 0.000003 0.000003 0.999988 0.000003 0.009365 0.000000 0.000000 0.607439 0.383196 0.000000 0.775762 0.224238 0.000000 0.000000 0.000000 0.000000 0.000000 1.000000 0.000000 0.009365 0.000000 0.000000 0.607431 0.383204 0.200000 0.200000 0.200000 0.200000 0.200000 0.200000 0.200000 0.200000 0.200000 0.200000 0.200000 0.200000 0.200000 0.200000 0.200000 0.000000 0.775703 0.224297 0.000000 0.000000 0.000000 0.000000 0.000000 1.000000 0.000000 0.009366 0.000000 0.000000 0.607450 0.383184 0.200000 0.200000 0.200000 0.200000 0.200000 0.200000 0.200000 0.200000 0.200000 0.200000 0.200000 0.200000 0.200000 0.200000 0.200000 0.000000 0.775751 0.224249 0.000000 0.000000 0.000000 0.000000 0.000000 1.000000 0.000000 0.009365 0.000000 0.000000 0.607416 0.383219 0.000000 0.775761 0.224239 0.000000 0.000000 0.000000 0.000000 0.000000 1.000000 0.000000 0.009365 0.000000 0.000000 0.607436 0.383199 0.000000 0.775636 0.224364 0.000000 0.000000 0.000000 0.000000 0.000000 1.000000 0.000000 0.009364 0.000000 0.000000 0.607360 0.383276 0.000000 0.775627 0.224373 0.000000 0.000000 0.000000 0.000000 0.000000 1.000000 0.000000 0.009366 0.000000 0.000000 0.607459 0.383175</TABLE>
</DEFINITION>
<DEFINITION>
	<FOR>payments(loan0)</FOR>
	<GIVEN>Loan_Acc(loan0,acc0)</GIVEN>
	<TABLE> 0.239676 0.300773 0.281125 0.149095 0.029331 0.239480 0.300844 0.281236 0.149124 0.029316</TABLE>
</DEFINITION>
<DEFINITION>
	<FOR>status(loan0)</FOR>
	<GIVEN>Loan_Acc(loan0,acc0)</GIVEN>
	<GIVEN>Loan_Trans(order20,loan0)</GIVEN>
	<GIVEN>payments(loan0)</GIVEN>
	<TABLE> 0.938783 0.061217 0.853678 0.146322 0.834779 0.165221 0.655801 0.344199 0.000000 1.000000 0.967482 0.032518 0.907425 0.092575 0.846791 0.153209 0.706861 0.293139 0.000000 1.000000 0.938783 0.061217 0.853666 0.146334 0.834813 0.165187 0.655888 0.344112 0.000000 1.000000 0.967484 0.032516 0.907409 0.092591 0.846821 0.153179 0.706905 0.293095 0.000000 1.000000</TABLE>
</DEFINITION>
<DEFINITION>
	<FOR>type(trans0)</FOR>
	<GIVEN>k_symbol(order20)</GIVEN>
	<GIVEN>Loan_Acc(loan0,acc0)</GIVEN>
	<GIVEN>Loan_Trans(order20,loan0)</GIVEN>
	<TABLE> 0.219283 0.040573 0.740144 0.219245 0.040552 0.740203 0.219286 0.040580 0.740134 0.219309 0.040571 0.740120 0.219283 0.040573 0.740144 0.219201 0.040547 0.740252 0.219285 0.040579 0.740136 0.219297 0.040573 0.740130 0.219283 0.040573 0.740144 0.333334 0.333333 0.333333 0.219288 0.040580 0.740132 0.333334 0.333333 0.333333 0.219282 0.040572 0.740146 0.219287 0.040574 0.740139 0.219278 0.040575 0.740147 0.219304 0.040573 0.740123</TABLE>
</DEFINITION>
</NETWORK>
</BIF>
