<?xml version="1.0" encoding="UTF-8"?>
<BIF VERSION="0.3"  xmlns="http://www.cs.ubc.ca/labs/lci/fopi/ve/XMLBIFv0_3"
xmlns:xsi="http://www.w3.org/2001/XMLSchema-instance"
xsi:schemaLocation="http://www.cs.ubc.ca/labs/lci/fopi/ve/XMLBIFv0_3 http://www.cs.ubc.ca/labs/lci/fopi/ve/XMLBIFv0_3/XMLBIFv0_3.xsd">
<NETWORK>
<NAME>Mondial_std</NAME>
<VARIABLE TYPE="nature">
	<NAME>agricul(eco0)</NAME>
	<OUTCOME>0</OUTCOME>
	<OUTCOME>1</OUTCOME>
	<OUTCOME>2</OUTCOME>
	<OUTCOME>3</OUTCOME>
	<OUTCOME>4</OUTCOME>
	<PROPERTY> position=(6000.0,4000.0)</PROPERTY>
</VARIABLE>
<VARIABLE TYPE="nature">
	<NAME>border(country0,country1)</NAME>
	<OUTCOME>F</OUTCOME>
	<OUTCOME>T</OUTCOME>
	<PROPERTY> position=(6200.0,4000.0)</PROPERTY>
</VARIABLE>
<VARIABLE TYPE="nature">
	<NAME>ecoR(country0,eco0)</NAME>
	<OUTCOME>F</OUTCOME>
	<OUTCOME>T</OUTCOME>
	<PROPERTY> position=(6400.0,4000.0)</PROPERTY>
</VARIABLE>
<VARIABLE TYPE="nature">
	<NAME>class(country0)</NAME>
	<OUTCOME>0</OUTCOME>
	<OUTCOME>1</OUTCOME>
	<PROPERTY> position=(6000.0,4200.0)</PROPERTY>
</VARIABLE>
<VARIABLE TYPE="nature">
	<NAME>class(country1)</NAME>
	<OUTCOME>0</OUTCOME>
	<OUTCOME>1</OUTCOME>
	<PROPERTY> position=(6200.0,4200.0)</PROPERTY>
</VARIABLE>
<VARIABLE TYPE="nature">
	<NAME>continent(country0)</NAME>
	<OUTCOME>Africa</OUTCOME>
	<OUTCOME>America</OUTCOME>
	<OUTCOME>Asia</OUTCOME>
	<OUTCOME>aus</OUTCOME>
	<OUTCOME>Europe</OUTCOME>
	<PROPERTY> position=(6400.0,4200.0)</PROPERTY>
</VARIABLE>
<VARIABLE TYPE="nature">
	<NAME>continent(country1)</NAME>
	<OUTCOME>Africa</OUTCOME>
	<OUTCOME>America</OUTCOME>
	<OUTCOME>Asia</OUTCOME>
	<OUTCOME>aus</OUTCOME>
	<OUTCOME>Europe</OUTCOME>
	<PROPERTY> position=(6000.0,4400.0)</PROPERTY>
</VARIABLE>
<VARIABLE TYPE="nature">
	<NAME>ecoR(country1,eco0)</NAME>
	<OUTCOME>F</OUTCOME>
	<OUTCOME>T</OUTCOME>
	<PROPERTY> position=(6200.0,4400.0)</PROPERTY>
</VARIABLE>
<VARIABLE TYPE="nature">
	<NAME>gdp(eco0)</NAME>
	<OUTCOME>0</OUTCOME>
	<OUTCOME>1</OUTCOME>
	<OUTCOME>2</OUTCOME>
	<OUTCOME>3</OUTCOME>
	<OUTCOME>4</OUTCOME>
	<PROPERTY> position=(6400.0,4400.0)</PROPERTY>
</VARIABLE>
<VARIABLE TYPE="nature">
	<NAME>govern(country0)</NAME>
	<OUTCOME>communist</OUTCOME>
	<OUTCOME>democ</OUTCOME>
	<OUTCOME>dependent</OUTCOME>
	<OUTCOME>monarch</OUTCOME>
	<OUTCOME>republic</OUTCOME>
	<PROPERTY> position=(6000.0,4600.0)</PROPERTY>
</VARIABLE>
<VARIABLE TYPE="nature">
	<NAME>govern(country1)</NAME>
	<OUTCOME>communist</OUTCOME>
	<OUTCOME>democ</OUTCOME>
	<OUTCOME>dependent</OUTCOME>
	<OUTCOME>monarch</OUTCOME>
	<OUTCOME>republic</OUTCOME>
	<PROPERTY> position=(6200.0,4600.0)</PROPERTY>
</VARIABLE>
<VARIABLE TYPE="nature">
	<NAME>industry(eco0)</NAME>
	<OUTCOME>0</OUTCOME>
	<OUTCOME>1</OUTCOME>
	<OUTCOME>2</OUTCOME>
	<OUTCOME>3</OUTCOME>
	<OUTCOME>4</OUTCOME>
	<PROPERTY> position=(6400.0,4600.0)</PROPERTY>
</VARIABLE>
<VARIABLE TYPE="nature">
	<NAME>inflation(eco0)</NAME>
	<OUTCOME>0</OUTCOME>
	<OUTCOME>1</OUTCOME>
	<OUTCOME>4</OUTCOME>
	<PROPERTY> position=(6000.0,4800.0)</PROPERTY>
</VARIABLE>
<VARIABLE TYPE="nature">
	<NAME>percentage(country0)</NAME>
	<OUTCOME>0</OUTCOME>
	<OUTCOME>1</OUTCOME>
	<OUTCOME>2</OUTCOME>
	<OUTCOME>3</OUTCOME>
	<OUTCOME>4</OUTCOME>
	<PROPERTY> position=(6200.0,4800.0)</PROPERTY>
</VARIABLE>
<VARIABLE TYPE="nature">
	<NAME>percentage(country1)</NAME>
	<OUTCOME>0</OUTCOME>
	<OUTCOME>1</OUTCOME>
	<OUTCOME>2</OUTCOME>
	<OUTCOME>3</OUTCOME>
	<OUTCOME>4</OUTCOME>
	<PROPERTY> position=(6400.0,4800.0)</PROPERTY>
</VARIABLE>
<VARIABLE TYPE="nature">
	<NAME>popu(country0)</NAME>
	<OUTCOME>0</OUTCOME>
	<OUTCOME>1</OUTCOME>
	<OUTCOME>2</OUTCOME>
	<OUTCOME>3</OUTCOME>
	<OUTCOME>4</OUTCOME>
	<PROPERTY> position=(6000.0,5000.0)</PROPERTY>
</VARIABLE>
<VARIABLE TYPE="nature">
	<NAME>popu(country1)</NAME>
	<OUTCOME>0</OUTCOME>
	<OUTCOME>1</OUTCOME>
	<OUTCOME>2</OUTCOME>
	<OUTCOME>3</OUTCOME>
	<OUTCOME>4</OUTCOME>
	<PROPERTY> position=(6200.0,5000.0)</PROPERTY>
</VARIABLE>
<VARIABLE TYPE="nature">
	<NAME>service(eco0)</NAME>
	<OUTCOME>0</OUTCOME>
	<OUTCOME>1</OUTCOME>
	<OUTCOME>2</OUTCOME>
	<OUTCOME>3</OUTCOME>
	<OUTCOME>4</OUTCOME>
	<PROPERTY> position=(6400.0,5000.0)</PROPERTY>
</VARIABLE>
<DEFINITION>
	<FOR>agricul(eco0)</FOR>
	<TABLE> 0.207600 0.200323 0.207452 0.207159 0.177466</TABLE>
</DEFINITION>
<DEFINITION>
	<FOR>border(country0,country1)</FOR>
	<GIVEN>popu(country0)</GIVEN>
	<GIVEN>popu(country1)</GIVEN>
	<TABLE> 0.999995 0.000005 0.998536 0.001464 0.999995 0.000005 0.998530 0.001470 0.992705 0.007295 0.998536 0.001464 0.995626 0.004374 0.995621 0.004379 0.983300 0.016700 0.988345 0.011655 0.999995 0.000005 0.995621 0.004379 0.981122 0.018878 0.980440 0.019560 0.981098 0.018902 0.998530 0.001470 0.983300 0.016700 0.980440 0.019560 0.969709 0.030291 0.971861 0.028139 0.992705 0.007295 0.988345 0.011655 0.981098 0.018902 0.971861 0.028139 0.962302 0.037698</TABLE>
</DEFINITION>
<DEFINITION>
	<FOR>ecoR(country0,eco0)</FOR>
	<GIVEN>gdp(eco0)</GIVEN>
	<GIVEN>popu(country0)</GIVEN>
	<TABLE> 0.995007 0.004993 0.985062 0.014938 0.995017 0.004983 0.999995 0.000005 0.999995 0.000005 0.998996 0.001004 0.994000 0.006000 0.990049 0.009951 0.993062 0.006938 0.999995 0.000005 0.999995 0.000005 0.995985 0.004015 0.991002 0.008998 0.991063 0.008937 0.996022 0.003978 0.999995 0.000005 0.999995 0.000005 0.994004 0.005996 0.986020 0.013980 0.996995 0.003005 0.999995 0.000005 0.999995 0.000005 0.999995 0.000005 0.996984 0.003016 0.979139 0.020861</TABLE>
</DEFINITION>
<DEFINITION>
	<FOR>class(country0)</FOR>
	<TABLE> 0.381919 0.618081</TABLE>
</DEFINITION>
<DEFINITION>
	<FOR>class(country1)</FOR>
	<TABLE> 0.381919 0.618081</TABLE>
</DEFINITION>
<DEFINITION>
	<FOR>continent(country0)</FOR>
	<GIVEN>class(country0)</GIVEN>
	<TABLE> 0.323768 0.056313 0.464715 0.126594 0.028610 0.200103 0.313094 0.043513 0.095615 0.347675</TABLE>
</DEFINITION>
<DEFINITION>
	<FOR>continent(country1)</FOR>
	<TABLE> 0.247333 0.215025 0.204378 0.107446 0.225818</TABLE>
</DEFINITION>
<DEFINITION>
	<FOR>ecoR(country1,eco0)</FOR>
	<TABLE> 0.995124 0.004876</TABLE>
</DEFINITION>
<DEFINITION>
	<FOR>gdp(eco0)</FOR>
	<TABLE> 0.199718 0.199824 0.199928 0.200508 0.200022</TABLE>
</DEFINITION>
<DEFINITION>
	<FOR>govern(country0)</FOR>
	<GIVEN>continent(country0)</GIVEN>
	<TABLE> 0.000000 0.239153 0.043425 0.065244 0.652178 0.024975 0.200000 0.274882 0.000001 0.500142 0.052638 0.131880 0.000001 0.236779 0.578702 0.000002 0.200000 0.500038 0.099960 0.200000 0.000001 0.317833 0.047870 0.242797 0.391499</TABLE>
</DEFINITION>
<DEFINITION>
	<FOR>govern(country1)</FOR>
	<TABLE> 0.016128 0.222371 0.134384 0.130097 0.497020</TABLE>
</DEFINITION>
<DEFINITION>
	<FOR>industry(eco0)</FOR>
	<GIVEN>agricul(eco0)</GIVEN>
	<GIVEN>service(eco0)</GIVEN>
	<TABLE> 0.000008 0.000007 0.000007 0.000007 0.999971 0.000005 0.000006 0.000006 0.999977 0.000006 0.000004 0.000005 0.000005 0.999981 0.000005 0.000004 0.000005 0.000005 0.999981 0.000005 0.000004 0.285664 0.714324 0.000004 0.000004 0.000009 0.000010 0.000010 0.333327 0.666644 0.000028 0.000029 0.000029 0.999885 0.000029 0.000006 0.000006 0.199660 0.800322 0.000006 0.000005 0.000004 0.714438 0.285549 0.000004 0.000002 0.181250 0.818742 0.000003 0.000003 0.000009 0.000010 0.000010 0.999961 0.000010 0.000009 0.000010 0.000010 0.999961 0.000010 0.000003 0.000004 0.624712 0.375277 0.000004 0.000004 0.110898 0.889092 0.000003 0.000003 0.000005 0.800320 0.199663 0.000006 0.000006 0.000005 0.000006 0.999977 0.000006 0.000006 0.000004 0.000003 0.999987 0.000003 0.000003 0.000005 0.000004 0.999983 0.000004 0.000004 0.000008 0.750507 0.249471 0.000007 0.000007 0.000009 0.999961 0.000010 0.000010 0.000010 0.083352 0.666595 0.250049 0.000002 0.000002 0.000003 0.899966 0.100025 0.000003 0.000003 0.000029 0.999884 0.000029 0.000029 0.000029 0.999884 0.000029 0.000029 0.000029 0.000029 0.200000 0.200000 0.200000 0.200000 0.200000</TABLE>
</DEFINITION>
<DEFINITION>
	<FOR>inflation(eco0)</FOR>
	<TABLE> 0.874241 0.118300 0.007459</TABLE>
</DEFINITION>
<DEFINITION>
	<FOR>percentage(country0)</FOR>
	<TABLE> 0.199761 0.199913 0.200423 0.308369 0.091534</TABLE>
</DEFINITION>
<DEFINITION>
	<FOR>percentage(country1)</FOR>
	<TABLE> 0.199761 0.199913 0.200423 0.308369 0.091534</TABLE>
</DEFINITION>
<DEFINITION>
	<FOR>popu(country0)</FOR>
	<GIVEN>govern(country0)</GIVEN>
	<TABLE> 0.000015 0.000013 0.333506 0.332960 0.333506 0.145330 0.243825 0.268408 0.220468 0.121969 0.839953 0.160041 0.000002 0.000002 0.000002 0.207753 0.331697 0.125502 0.168371 0.166677 0.054123 0.162390 0.238525 0.250976 0.293986</TABLE>
</DEFINITION>
<DEFINITION>
	<FOR>popu(country1)</FOR>
	<TABLE> 0.199122 0.199591 0.199944 0.201040 0.200303</TABLE>
</DEFINITION>
<DEFINITION>
	<FOR>service(eco0)</FOR>
	<GIVEN>agricul(eco0)</GIVEN>
	<TABLE> 0.142333 0.178430 0.214898 0.215214 0.249125 0.110761 0.037231 0.184914 0.259702 0.407392 0.106869 0.107261 0.285832 0.321481 0.178557 0.178424 0.321144 0.249911 0.143108 0.107413 0.499998 0.416649 0.041676 0.041676 0.000001</TABLE>
</DEFINITION>
</NETWORK>
</BIF>
