<?xml version="1.0" encoding="UTF-8"?>
<BIF VERSION="0.3"  xmlns="http://www.cs.ubc.ca/labs/lci/fopi/ve/XMLBIFv0_3"
xmlns:xsi="http://www.w3.org/2001/XMLSchema-instance"
xsi:schemaLocation="http://www.cs.ubc.ca/labs/lci/fopi/ve/XMLBIFv0_3 http://www.cs.ubc.ca/labs/lci/fopi/ve/XMLBIFv0_3/XMLBIFv0_3.xsd">
<NETWORK>
<NAME>unielwin</NAME>
<VARIABLE TYPE="nature">
	<NAME>capability(prof0,student0)</NAME>
	<OUTCOME>1</OUTCOME>
	<OUTCOME>2</OUTCOME>
	<OUTCOME>3</OUTCOME>
	<OUTCOME>4</OUTCOME>
	<OUTCOME>5</OUTCOME>
	<OUTCOME>N/A</OUTCOME>
	<PROPERTY> position=(6000.0,4000.0)</PROPERTY>
</VARIABLE>
<VARIABLE TYPE="nature">
	<NAME>intelligence(student0)</NAME>
	<OUTCOME>1</OUTCOME>
	<OUTCOME>2</OUTCOME>
	<OUTCOME>3</OUTCOME>
	<PROPERTY> position=(6200.0,4000.0)</PROPERTY>
</VARIABLE>
<VARIABLE TYPE="nature">
	<NAME>popularity(prof0)</NAME>
	<OUTCOME>1</OUTCOME>
	<OUTCOME>2</OUTCOME>
	<PROPERTY> position=(6400.0,4000.0)</PROPERTY>
</VARIABLE>
<VARIABLE TYPE="nature">
	<NAME>RA(prof0,student0)</NAME>
	<OUTCOME>F</OUTCOME>
	<OUTCOME>T</OUTCOME>
	<PROPERTY> position=(6000.0,4200.0)</PROPERTY>
</VARIABLE>
<VARIABLE TYPE="nature">
	<NAME>ranking(student0)</NAME>
	<OUTCOME>1</OUTCOME>
	<OUTCOME>2</OUTCOME>
	<OUTCOME>3</OUTCOME>
	<OUTCOME>4</OUTCOME>
	<OUTCOME>5</OUTCOME>
	<PROPERTY> position=(6200.0,4200.0)</PROPERTY>
</VARIABLE>
<VARIABLE TYPE="nature">
	<NAME>salary(prof0,student0)</NAME>
	<OUTCOME>high</OUTCOME>
	<OUTCOME>low</OUTCOME>
	<OUTCOME>med</OUTCOME>
	<OUTCOME>N/A</OUTCOME>
	<PROPERTY> position=(6400.0,4200.0)</PROPERTY>
</VARIABLE>
<VARIABLE TYPE="nature">
	<NAME>teachingability(prof0)</NAME>
	<OUTCOME>2</OUTCOME>
	<OUTCOME>3</OUTCOME>
	<PROPERTY> position=(6000.0,4400.0)</PROPERTY>
</VARIABLE>
<VARIABLE TYPE="nature">
	<NAME>diff(course0)</NAME>
	<OUTCOME>1</OUTCOME>
	<OUTCOME>2</OUTCOME>
	<PROPERTY> position=(6200.0,4400.0)</PROPERTY>
</VARIABLE>
<VARIABLE TYPE="nature">
	<NAME>grade(course0,student0)</NAME>
	<OUTCOME>1</OUTCOME>
	<OUTCOME>2</OUTCOME>
	<OUTCOME>3</OUTCOME>
	<OUTCOME>4</OUTCOME>
	<OUTCOME>N/A</OUTCOME>
	<PROPERTY> position=(6400.0,4400.0)</PROPERTY>
</VARIABLE>
<VARIABLE TYPE="nature">
	<NAME>rating(course0)</NAME>
	<OUTCOME>1</OUTCOME>
	<OUTCOME>2</OUTCOME>
	<PROPERTY> position=(6000.0,4600.0)</PROPERTY>
</VARIABLE>
<VARIABLE TYPE="nature">
	<NAME>registration(course0,student0)</NAME>
	<OUTCOME>F</OUTCOME>
	<OUTCOME>T</OUTCOME>
	<PROPERTY> position=(6200.0,4600.0)</PROPERTY>
</VARIABLE>
<VARIABLE TYPE="nature">
	<NAME>sat(course0,student0)</NAME>
	<OUTCOME>1</OUTCOME>
	<OUTCOME>2</OUTCOME>
	<OUTCOME>3</OUTCOME>
	<OUTCOME>N/A</OUTCOME>
	<PROPERTY> position=(6400.0,4600.0)</PROPERTY>
</VARIABLE>
<DEFINITION>
	<FOR>capability(prof0,student0)</FOR>
	<GIVEN>RA(prof0,student0)</GIVEN>
	<GIVEN>salary(prof0,student0)</GIVEN>
	<TABLE> 0.166667 0.166667 0.166667 0.166667 0.166667 0.166667 0.166667 0.166667 0.166667 0.166667 0.166667 0.166667 0.166667 0.166667 0.166667 0.166667 0.166667 0.166667 0.000491159 0.000491159 0.000491159 0.000491159 0.000491159 0.997544 0.00862069 0.00862069 0.181034 0.439655 0.353448 0.00862069 0.375 0.375 0.196429 0.0178571 0.0178571 0.0178571 0.322917 0.21875 0.427083 0.0104167 0.0104167 0.0104167 0.166667 0.166667 0.166667 0.166667 0.166667 0.166667</TABLE>
</DEFINITION>
<DEFINITION>
	<FOR>intelligence(student0)</FOR>
	<GIVEN>RA(prof0,student0)</GIVEN>
	<GIVEN>registration(course0,student0)</GIVEN>
	<TABLE> 0.423102 0.325114 0.251785 0.30303 0.30505 0.391919 0.176166 0.523316 0.300518 0.126984 0.492063 0.380952</TABLE>
</DEFINITION>
<DEFINITION>
	<FOR>popularity(prof0)</FOR>
	<GIVEN>RA(prof0,student0)</GIVEN>
	<GIVEN>teachingability(prof0)</GIVEN>
	<TABLE> 0.691939 0.308061 0.00100806 0.998992 0.401961 0.598039 0.00657895 0.993421</TABLE>
</DEFINITION>
<DEFINITION>
	<FOR>RA(prof0,student0)</FOR>
	<TABLE> 0.890009 0.109991</TABLE>
</DEFINITION>
<DEFINITION>
	<FOR>ranking(student0)</FOR>
	<GIVEN>intelligence(student0)</GIVEN>
	<GIVEN>RA(prof0,student0)</GIVEN>
	<TABLE> 0.00124224 0.00124224 0.00124224 0.398758 0.597516 0.0222222 0.0222222 0.0222222 0.911111 0.0222222 0.00152672 0.383206 0.535878 0.0778626 0.00152672 0.00740741 0.377778 0.525926 0.0814815 0.00740741 0.719658 0.275214 0.0017094 0.0017094 0.0017094 0.717647 0.247059 0.0117647 0.0117647 0.0117647</TABLE>
</DEFINITION>
<DEFINITION>
	<FOR>salary(prof0,student0)</FOR>
	<GIVEN>RA(prof0,student0)</GIVEN>
	<TABLE> 0.000491642 0.000491642 0.000491642 0.998525 0.437008 0.200787 0.358268 0.00393701</TABLE>
</DEFINITION>
<DEFINITION>
	<FOR>teachingability(prof0)</FOR>
	<GIVEN>RA(prof0,student0)</GIVEN>
	<TABLE> 0.512303 0.487697 0.400794 0.599206</TABLE>
</DEFINITION>
<DEFINITION>
	<FOR>diff(course0)</FOR>
	<GIVEN>grade(course0,student0)</GIVEN>
	<TABLE> 0.809278 0.190722 0.278409 0.721591 0.390909 0.609091 0.4625 0.5375 0.496532 0.503468</TABLE>
</DEFINITION>
<DEFINITION>
	<FOR>grade(course0,student0)</FOR>
	<GIVEN>intelligence(student0)</GIVEN>
	<GIVEN>registration(course0,student0)</GIVEN>
	<TABLE> 0.00145138 0.00145138 0.00145138 0.00145138 0.994195 0.00621118 0.0434783 0.453416 0.490683 0.00621118 0.00165289 0.00165289 0.00165289 0.00165289 0.993388 0.232432 0.556757 0.2 0.00540541 0.00540541 0.00222717 0.00222717 0.00222717 0.00222717 0.991091 0.683258 0.303167 0.00452489 0.00452489 0.00452489</TABLE>
</DEFINITION>
<DEFINITION>
	<FOR>rating(course0)</FOR>
	<TABLE> 0.300175 0.699825</TABLE>
</DEFINITION>
<DEFINITION>
	<FOR>registration(course0,student0)</FOR>
	<TABLE> 0.757669 0.242331</TABLE>
</DEFINITION>
<DEFINITION>
	<FOR>sat(course0,student0)</FOR>
	<GIVEN>grade(course0,student0)</GIVEN>
	<GIVEN>registration(course0,student0)</GIVEN>
	<TABLE> 0.25 0.25 0.25 0.25 0.892857 0.0969388 0.00510204 0.00510204 0.25 0.25 0.25 0.25 0.410112 0.511236 0.0730337 0.00561798 0.25 0.25 0.25 0.25 0.00892857 0.651786 0.330357 0.00892857 0.25 0.25 0.25 0.25 0.0121951 0.0121951 0.963415 0.0121951 0.000577367 0.000577367 0.000577367 0.998268 0.25 0.25 0.25 0.25</TABLE>
</DEFINITION>
</NETWORK>
</BIF>
