<?xml version="1.0" encoding="UTF-8"?>
<BIF VERSION="0.3"  xmlns="http://www.cs.ubc.ca/labs/lci/fopi/ve/XMLBIFv0_3"
xmlns:xsi="http://www.w3.org/2001/XMLSchema-instance"
xsi:schemaLocation="http://www.cs.ubc.ca/labs/lci/fopi/ve/XMLBIFv0_3 http://www.cs.ubc.ca/labs/lci/fopi/ve/XMLBIFv0_3/XMLBIFv0_3.xsd">
<NETWORK>
<NAME>unielwin</NAME>
<VARIABLE TYPE="nature">
	<NAME>capability(prof0,student0)</NAME>
	<OUTCOME>1</OUTCOME>
	<OUTCOME>2</OUTCOME>
	<OUTCOME>3</OUTCOME>
	<OUTCOME>4</OUTCOME>
	<OUTCOME>5</OUTCOME>
	<OUTCOME>N/A</OUTCOME>
	<PROPERTY> position=(6000.0,4000.0)</PROPERTY>
</VARIABLE>
<VARIABLE TYPE="nature">
	<NAME>intelligence(student0)</NAME>
	<OUTCOME>1</OUTCOME>
	<OUTCOME>2</OUTCOME>
	<OUTCOME>3</OUTCOME>
	<PROPERTY> position=(6200.0,4000.0)</PROPERTY>
</VARIABLE>
<VARIABLE TYPE="nature">
	<NAME>popularity(prof0)</NAME>
	<OUTCOME>1</OUTCOME>
	<OUTCOME>2</OUTCOME>
	<PROPERTY> position=(6400.0,4000.0)</PROPERTY>
</VARIABLE>
<VARIABLE TYPE="nature">
	<NAME>RA(prof0,student0)</NAME>
	<OUTCOME>F</OUTCOME>
	<OUTCOME>T</OUTCOME>
	<PROPERTY> position=(6000.0,4200.0)</PROPERTY>
</VARIABLE>
<VARIABLE TYPE="nature">
	<NAME>ranking(student0)</NAME>
	<OUTCOME>1</OUTCOME>
	<OUTCOME>2</OUTCOME>
	<OUTCOME>3</OUTCOME>
	<OUTCOME>4</OUTCOME>
	<OUTCOME>5</OUTCOME>
	<PROPERTY> position=(6200.0,4200.0)</PROPERTY>
</VARIABLE>
<VARIABLE TYPE="nature">
	<NAME>salary(prof0,student0)</NAME>
	<OUTCOME>high</OUTCOME>
	<OUTCOME>low</OUTCOME>
	<OUTCOME>med</OUTCOME>
	<OUTCOME>N/A</OUTCOME>
	<PROPERTY> position=(6400.0,4200.0)</PROPERTY>
</VARIABLE>
<VARIABLE TYPE="nature">
	<NAME>teachingability(prof0)</NAME>
	<OUTCOME>2</OUTCOME>
	<OUTCOME>3</OUTCOME>
	<PROPERTY> position=(6000.0,4400.0)</PROPERTY>
</VARIABLE>
<VARIABLE TYPE="nature">
	<NAME>diff(course0)</NAME>
	<OUTCOME>1</OUTCOME>
	<OUTCOME>2</OUTCOME>
	<PROPERTY> position=(6200.0,4400.0)</PROPERTY>
</VARIABLE>
<VARIABLE TYPE="nature">
	<NAME>grade(course0,student0)</NAME>
	<OUTCOME>1</OUTCOME>
	<OUTCOME>2</OUTCOME>
	<OUTCOME>3</OUTCOME>
	<OUTCOME>4</OUTCOME>
	<OUTCOME>N/A</OUTCOME>
	<PROPERTY> position=(6400.0,4400.0)</PROPERTY>
</VARIABLE>
<VARIABLE TYPE="nature">
	<NAME>rating(course0)</NAME>
	<OUTCOME>1</OUTCOME>
	<OUTCOME>2</OUTCOME>
	<PROPERTY> position=(6000.0,4600.0)</PROPERTY>
</VARIABLE>
<VARIABLE TYPE="nature">
	<NAME>registration(course0,student0)</NAME>
	<OUTCOME>F</OUTCOME>
	<OUTCOME>T</OUTCOME>
	<PROPERTY> position=(6200.0,4600.0)</PROPERTY>
</VARIABLE>
<VARIABLE TYPE="nature">
	<NAME>sat(course0,student0)</NAME>
	<OUTCOME>1</OUTCOME>
	<OUTCOME>2</OUTCOME>
	<OUTCOME>3</OUTCOME>
	<OUTCOME>N/A</OUTCOME>
	<PROPERTY> position=(6400.0,4600.0)</PROPERTY>
</VARIABLE>
<DEFINITION>
	<FOR>capability(prof0,student0)</FOR>
	<GIVEN>RA(prof0,student0)</GIVEN>
	<GIVEN>salary(prof0,student0)</GIVEN>
	<TABLE> 0.166665 0.166667 0.166667 0.166667 0.166667 0.166667 0.166665 0.166667 0.166667 0.166667 0.166667 0.166667 0.166665 0.166667 0.166667 0.166667 0.166667 0.166667 0.000491 0.000491 0.000491 0.000491 0.000491 0.997545 0.008621 0.008621 0.181034 0.439655 0.353448 0.008621 0.375000 0.375000 0.196429 0.017857 0.017857 0.017857 0.322917 0.218750 0.427082 0.010417 0.010417 0.010417 0.166665 0.166667 0.166667 0.166667 0.166667 0.166667</TABLE>
</DEFINITION>
<DEFINITION>
	<FOR>intelligence(student0)</FOR>
	<GIVEN>RA(prof0,student0)</GIVEN>
	<GIVEN>registration(course0,student0)</GIVEN>
	<TABLE> 0.423101 0.325114 0.251785 0.303030 0.305051 0.391919 0.176166 0.523316 0.300518 0.126984 0.492064 0.380952</TABLE>
</DEFINITION>
<DEFINITION>
	<FOR>popularity(prof0)</FOR>
	<GIVEN>RA(prof0,student0)</GIVEN>
	<GIVEN>teachingability(prof0)</GIVEN>
	<TABLE> 0.691939 0.308061 0.001008 0.998992 0.401961 0.598039 0.006579 0.993421</TABLE>
</DEFINITION>
<DEFINITION>
	<FOR>RA(prof0,student0)</FOR>
	<TABLE> 0.890009 0.109991</TABLE>
</DEFINITION>
<DEFINITION>
	<FOR>ranking(student0)</FOR>
	<GIVEN>intelligence(student0)</GIVEN>
	<GIVEN>RA(prof0,student0)</GIVEN>
	<TABLE> 0.001242 0.001242 0.001242 0.398758 0.597516 0.022222 0.022222 0.022222 0.911112 0.022222 0.001527 0.383206 0.535877 0.077863 0.001527 0.007407 0.377778 0.525927 0.081481 0.007407 0.719659 0.275214 0.001709 0.001709 0.001709 0.717646 0.247059 0.011765 0.011765 0.011765</TABLE>
</DEFINITION>
<DEFINITION>
	<FOR>salary(prof0,student0)</FOR>
	<GIVEN>RA(prof0,student0)</GIVEN>
	<TABLE> 0.000492 0.000492 0.000492 0.998524 0.437008 0.200787 0.358268 0.003937</TABLE>
</DEFINITION>
<DEFINITION>
	<FOR>teachingability(prof0)</FOR>
	<GIVEN>RA(prof0,student0)</GIVEN>
	<TABLE> 0.512303 0.487697 0.400794 0.599206</TABLE>
</DEFINITION>
<DEFINITION>
	<FOR>diff(course0)</FOR>
	<GIVEN>grade(course0,student0)</GIVEN>
	<TABLE> 0.809278 0.190722 0.278409 0.721591 0.390909 0.609091 0.462500 0.537500 0.496532 0.503468</TABLE>
</DEFINITION>
<DEFINITION>
	<FOR>grade(course0,student0)</FOR>
	<GIVEN>intelligence(student0)</GIVEN>
	<GIVEN>registration(course0,student0)</GIVEN>
	<TABLE> 0.001451 0.001451 0.001451 0.001451 0.994196 0.006211 0.043478 0.453416 0.490684 0.006211 0.001653 0.001653 0.001653 0.001653 0.993388 0.232432 0.556758 0.200000 0.005405 0.005405 0.002227 0.002227 0.002227 0.002227 0.991092 0.683258 0.303167 0.004525 0.004525 0.004525</TABLE>
</DEFINITION>
<DEFINITION>
	<FOR>rating(course0)</FOR>
	<TABLE> 0.300175 0.699825</TABLE>
</DEFINITION>
<DEFINITION>
	<FOR>registration(course0,student0)</FOR>
	<TABLE> 0.757669 0.242331</TABLE>
</DEFINITION>
<DEFINITION>
	<FOR>sat(course0,student0)</FOR>
	<GIVEN>grade(course0,student0)</GIVEN>
	<GIVEN>registration(course0,student0)</GIVEN>
	<TABLE> 0.250000 0.250000 0.250000 0.250000 0.892857 0.096939 0.005102 0.005102 0.250000 0.250000 0.250000 0.250000 0.410112 0.511236 0.073034 0.005618 0.250000 0.250000 0.250000 0.250000 0.008929 0.651785 0.330357 0.008929 0.250000 0.250000 0.250000 0.250000 0.012195 0.012195 0.963415 0.012195 0.000577 0.000577 0.000577 0.998269 0.250000 0.250000 0.250000 0.250000</TABLE>
</DEFINITION>
</NETWORK>
</BIF>
