<?xml version="1.0" encoding="UTF-8"?>
<BIF VERSION="0.3"  xmlns="http://www.cs.ubc.ca/labs/lci/fopi/ve/XMLBIFv0_3"
xmlns:xsi="http://www.w3.org/2001/XMLSchema-instance"
xsi:schemaLocation="http://www.cs.ubc.ca/labs/lci/fopi/ve/XMLBIFv0_3 http://www.cs.ubc.ca/labs/lci/fopi/ve/XMLBIFv0_3/XMLBIFv0_3.xsd">
<NETWORK>
<NAME>MovieLens_std</NAME>
<VARIABLE TYPE="nature">
	<NAME>action(item20)</NAME>
	<OUTCOME>0</OUTCOME>
	<OUTCOME>1</OUTCOME>
	<PROPERTY> position=(6000.0,4000.0)</PROPERTY>
</VARIABLE>
<VARIABLE TYPE="nature">
	<NAME>Age(User0)</NAME>
	<OUTCOME>0</OUTCOME>
	<OUTCOME>1</OUTCOME>
	<OUTCOME>2</OUTCOME>
	<PROPERTY> position=(6200.0,4000.0)</PROPERTY>
</VARIABLE>
<VARIABLE TYPE="nature">
	<NAME>drama(item20)</NAME>
	<OUTCOME>0</OUTCOME>
	<OUTCOME>1</OUTCOME>
	<PROPERTY> position=(6400.0,4000.0)</PROPERTY>
</VARIABLE>
<VARIABLE TYPE="nature">
	<NAME>Gender(User0)</NAME>
	<OUTCOME>F</OUTCOME>
	<OUTCOME>M</OUTCOME>
	<PROPERTY> position=(6000.0,4200.0)</PROPERTY>
</VARIABLE>
<VARIABLE TYPE="nature">
	<NAME>horror(item20)</NAME>
	<OUTCOME>0</OUTCOME>
	<OUTCOME>1</OUTCOME>
	<PROPERTY> position=(6200.0,4200.0)</PROPERTY>
</VARIABLE>
<VARIABLE TYPE="nature">
	<NAME>rating(User0,item20)</NAME>
	<OUTCOME>1</OUTCOME>
	<OUTCOME>2</OUTCOME>
	<OUTCOME>3</OUTCOME>
	<OUTCOME>4</OUTCOME>
	<OUTCOME>5</OUTCOME>
	<OUTCOME>N/A</OUTCOME>
	<PROPERTY> position=(6400.0,4200.0)</PROPERTY>
</VARIABLE>
<VARIABLE TYPE="nature">
	<NAME>u2base(User0,item20)</NAME>
	<OUTCOME>F</OUTCOME>
	<OUTCOME>T</OUTCOME>
	<PROPERTY> position=(6000.0,4400.0)</PROPERTY>
</VARIABLE>
<DEFINITION>
	<FOR>action(item20)</FOR>
	<TABLE> 0.850772 0.149228</TABLE>
</DEFINITION>
<DEFINITION>
	<FOR>Age(User0)</FOR>
	<TABLE> 0.399575 0.489904 0.110521</TABLE>
</DEFINITION>
<DEFINITION>
	<FOR>drama(item20)</FOR>
	<GIVEN>action(item20)</GIVEN>
	<GIVEN>horror(item20)</GIVEN>
	<TABLE> 0.501479 0.498521 0.936697 0.063303 0.806720 0.193280 0.999918 0.000082</TABLE>
</DEFINITION>
<DEFINITION>
	<FOR>Gender(User0)</FOR>
	<TABLE> 0.289054 0.710946</TABLE>
</DEFINITION>
<DEFINITION>
	<FOR>horror(item20)</FOR>
	<TABLE> 0.945303 0.054697</TABLE>
</DEFINITION>
<DEFINITION>
	<FOR>rating(User0,item20)</FOR>
	<GIVEN>action(item20)</GIVEN>
	<GIVEN>Age(User0)</GIVEN>
	<GIVEN>drama(item20)</GIVEN>
	<GIVEN>Gender(User0)</GIVEN>
	<TABLE> 0.005319 0.005686 0.012550 0.013905 0.010042 0.952498 0.003665 0.006958 0.014598 0.016816 0.008518 0.949445 0.004250 0.004320 0.010477 0.013871 0.010631 0.956451 0.001902 0.004592 0.011684 0.017422 0.011119 0.953281 0.002585 0.004677 0.011372 0.013093 0.007699 0.960574 0.002848 0.005143 0.012361 0.013490 0.007744 0.958414 0.001473 0.004346 0.012502 0.016024 0.011534 0.954121 0.001820 0.003705 0.010809 0.015551 0.009818 0.958297 0.000720 0.002548 0.006813 0.007145 0.004653 0.978121 0.001828 0.004172 0.009956 0.014576 0.008294 0.961174 0.000675 0.002392 0.007606 0.011532 0.009569 0.968226 0.001178 0.004178 0.011413 0.020727 0.011652 0.950852 0.007710 0.009660 0.021225 0.022201 0.018021 0.921183 0.008657 0.017782 0.037454 0.040676 0.021202 0.874229 0.004756 0.007031 0.015095 0.022333 0.022746 0.928039 0.003368 0.008900 0.022851 0.035359 0.028945 0.900577 0.003615 0.008117 0.017701 0.020565 0.011118 0.938884 0.004648 0.011335 0.025446 0.026980 0.014173 0.917418 0.001974 0.005468 0.018530 0.022023 0.019441 0.932564 0.001913 0.007858 0.018929 0.029725 0.024122 0.917453 0.001218 0.002639 0.006902 0.007714 0.005075 0.976452 0.002255 0.007619 0.019200 0.021517 0.010118 0.939291 0.004505 0.005405 0.007207 0.018919 0.009009 0.954955 0.001085 0.006782 0.016820 0.034455 0.026587 0.914271</TABLE>
</DEFINITION>
<DEFINITION>
	<FOR>u2base(User0,item20)</FOR>
	<GIVEN>rating(User0,item20)</GIVEN>
	<TABLE> 0.000213 0.999787 0.000109 0.999891 0.000046 0.999954 0.000037 0.999963 0.000060 0.999940 0.999999 0.000001</TABLE>
</DEFINITION>
</NETWORK>
</BIF>
